#Parameter# /_2 {100,200} 320001 ZERO_GRAD
-1.67509762e-03 -5.68960700e-03 -1.36706993e-01 -2.76287179e-02 -1.71164736e-01 +1.58351541e-01 +6.65847817e-03 +9.40878782e-03 -8.00697133e-02 +6.00155145e-02 -1.04105668e-02 -6.93028644e-02 -1.97502039e-02 -6.04814440e-02 +7.66324103e-02 +2.61776239e-01 -1.30111486e-01 +6.34202138e-02 -6.88218027e-02 +5.58807254e-02 -1.26068935e-01 -1.12510428e-01 +5.44854347e-03 +1.27240285e-01 -1.14356950e-01 -1.02792345e-01 +9.36824679e-02 -2.49286637e-01 -5.68651147e-02 -5.36500402e-02 -1.53372541e-01 +6.12284541e-02 +1.95831090e-01 +1.55873492e-01 +2.22376529e-02 -1.22484915e-01 +1.49297426e-02 +1.87179804e-01 -2.27115192e-02 -9.12214965e-02 -3.66136655e-02 +8.43467265e-02 -2.66197920e-02 -8.24004859e-02 +8.36279243e-03 +4.72304923e-03 -7.58876503e-02 +1.20919794e-01 -7.38049522e-02 +3.39355692e-02 -3.78853790e-02 +7.69164711e-02 +7.81206414e-02 +6.90558329e-02 -4.98904521e-03 +1.88019708e-01 +1.46851584e-01 +2.63057917e-01 -2.62318682e-02 +7.57605257e-03 +7.79569671e-02 -1.92269906e-01 -3.02241649e-02 +3.84264551e-02 -1.82936996e-01 -7.57665709e-02 -6.99825468e-05 -1.06960177e-01 +4.63112853e-02 -6.54791221e-02 -5.95162511e-02 -7.55537078e-02 +1.75379738e-01 -1.54000651e-02 +1.40731379e-01 +3.66056040e-02 +1.67915031e-01 +3.56495604e-02 +1.85768589e-01 -3.43286805e-02 -1.22599572e-01 -2.46407405e-01 -1.53295189e-01 +3.77626084e-02 -7.23866224e-02 -4.24556434e-02 +1.55826956e-01 +4.65236492e-02 +7.89586678e-02 -4.36448678e-02 +2.12976649e-01 -6.45031482e-02 -6.59084916e-02 +3.54217105e-02 +1.64878905e-01 +9.21740755e-02 +1.41984466e-02 -1.54926807e-01 +6.62789568e-02 -2.41101086e-01 +1.80879578e-01 +8.05711083e-04 -1.75645009e-01 +2.16456145e-01 -2.48184711e-01 +7.69167468e-02 +2.60215923e-02 +7.86358565e-02 -4.91152331e-02 -1.25768751e-01 -5.29253036e-02 +1.20999880e-01 -1.48951769e-01 -1.58554450e-01 -2.43804278e-03 +1.16324544e-01 -4.44001034e-02 -9.18404087e-02 +4.59782854e-02 +1.51243210e-01 +1.27171725e-01 +6.77849948e-02 +1.21422810e-02 +9.88378599e-02 -1.00604847e-01 -4.08481173e-02 +1.24147497e-01 -7.43871368e-03 +2.65827090e-01 +2.19343275e-01 -1.38573125e-01 +3.35597843e-02 -3.64605598e-02 +1.91152304e-01 +1.29474297e-01 +3.80812469e-03 -2.18717959e-02 +5.56108616e-02 +2.13305920e-01 -9.37152188e-03 -8.00447986e-02 -1.05488151e-01 -1.00469977e-01 +7.74916336e-02 -1.15273833e-01 -3.11477445e-02 +1.44641072e-01 +1.82073072e-01 +9.16308090e-02 +3.84273417e-02 +1.52686596e-01 -1.04859322e-01 -1.01286747e-01 -1.15191065e-01 +4.40460816e-02 +3.22045535e-01 -1.32064059e-01 -7.89962560e-02 -5.21819107e-02 -1.30794823e-01 -7.66299963e-02 +1.08659416e-01 -9.17750131e-03 +1.25620812e-01 -8.28139931e-02 +1.85163543e-01 +2.82408446e-02 -1.98058411e-01 -1.71783537e-01 -8.66631269e-02 +8.16734657e-02 +3.86674888e-02 +9.08393040e-02 -4.88104671e-02 -2.67108418e-02 +1.84891969e-01 +1.85022458e-01 +2.54307371e-02 +1.89060509e-01 +1.54261172e-01 -5.15549481e-02 -3.19625661e-02 -4.73583601e-02 +1.30072162e-01 -1.15239002e-01 -4.32286412e-02 +2.11029604e-01 +5.40328771e-02 -1.45893276e-01 +4.68100123e-02 +3.09772268e-02 +3.47939916e-02 -1.58953041e-01 +3.62528227e-02 +1.43009901e-01 +3.93422842e-02 +1.04143046e-01 +3.10534351e-02 +1.41767040e-02 -3.70224603e-02 -1.47829086e-01 -1.31226614e-01 +1.89718604e-01 -7.01576546e-02 -1.05485596e-01 -1.18011318e-01 +3.74985076e-02 -6.61706552e-02 +6.46611350e-03 -1.93989411e-01 +1.35474220e-01 +2.70801727e-02 -4.53878054e-03 +2.19955072e-01 -9.23828185e-02 -1.90479815e-01 +3.73990208e-01 -1.57098159e-01 -1.76390205e-02 -1.16834342e-01 -7.26836780e-03 -1.42666116e-01 +6.58537894e-02 +2.24696949e-01 -2.21538007e-01 -1.71286732e-01 +4.38735001e-02 -9.75275710e-02 +6.65690564e-03 +1.40554190e-01 +1.92396402e-01 +1.56052113e-01 +3.38779092e-02 +4.98961098e-02 +1.36937171e-01 -9.69732106e-02 -6.32366985e-02 -1.49795771e-01 -1.61117882e-01 +2.43772715e-01 +2.75082588e-02 +2.16134712e-01 -3.28105390e-02 -2.06855863e-01 +1.25724941e-01 +3.89765725e-02 +7.57452799e-03 +1.22754060e-01 +9.09739081e-03 -2.41413228e-02 -3.31789702e-01 +1.08448640e-01 +1.58035845e-01 +8.12505838e-03 +7.69907981e-02 +3.94845940e-02 +2.41073340e-01 +1.77477300e-01 +1.04589766e-04 -5.09002339e-03 +1.37841970e-01 +1.05933964e-01 +2.19142586e-01 +1.13946624e-01 +3.33966240e-02 +1.06831767e-01 +1.20252809e-02 +2.09123522e-01 +6.11857772e-02 -1.27676904e-01 -7.00796470e-02 -7.00900555e-02 -1.27161056e-01 +8.56593531e-03 -1.07023073e-03 +3.69763672e-02 +1.39059991e-01 +1.80347294e-01 -4.59204800e-02 -1.40200078e-01 +2.63150126e-01 +4.67244275e-02 +1.55244910e-04 -3.30354869e-01 +9.09688026e-02 -1.12584487e-01 -1.41764551e-01 +3.01286668e-01 +7.74895772e-02 -1.28144950e-01 -1.31104216e-01 -1.44509256e-01 -3.22157959e-03 +5.18933758e-02 +8.99662077e-02 +2.26007447e-01 -6.39468580e-02 -2.42812093e-02 -1.40552029e-01 -2.10016947e-02 +8.84763598e-02 -7.45915156e-03 -2.22366586e-01 +1.51511803e-01 -2.79872939e-02 -5.37210926e-02 -1.17545709e-01 -1.05407432e-01 -6.37323111e-02 -2.00922955e-02 -1.45553648e-01 -1.14477560e-01 +5.67079112e-02 -7.74847567e-02 -2.34288707e-01 -2.26115212e-01 +1.52162209e-01 +6.80680154e-03 +2.46324182e-01 +2.18220404e-04 -1.54503658e-01 -2.95945764e-01 +1.26718637e-03 -8.06939229e-02 +1.56480744e-01 -1.84893668e-01 +3.67437750e-02 -3.84374745e-02 +7.31274625e-03 +1.28193855e-01 -1.89608373e-02 -1.43344194e-01 +5.06181866e-02 -1.99409336e-01 +1.83153003e-01 +7.20815137e-02 -2.84623921e-01 -5.56831770e-02 -1.48690328e-01 -1.42496198e-01 +3.38000432e-02 -7.98221752e-02 -6.52631819e-02 +5.72428666e-02 -2.75987655e-01 +9.57550853e-02 +8.25696141e-02 +2.51683332e-02 -9.64976922e-02 -1.99146777e-01 +1.88577726e-01 +1.43558532e-02 -1.54515103e-01 +2.05944717e-01 -8.72616842e-02 +1.08451350e-02 +5.05577549e-02 -6.71058670e-02 -8.98522437e-02 +6.30268082e-02 -2.64446251e-03 +2.20166057e-01 +1.24931917e-01 -4.33274396e-02 -1.13579802e-01 +6.17074445e-02 +2.59480447e-01 +1.52606115e-01 -1.03691146e-01 -1.16076276e-01 +2.00836837e-01 +2.83998698e-02 +5.90945520e-02 +2.04066485e-01 +3.94744147e-03 -2.19688058e-01 -2.01626465e-01 +7.56348372e-02 +1.31211579e-01 -1.19127430e-01 +1.89986363e-01 -7.33652487e-02 -6.59908876e-02 +1.77324712e-01 -5.45345321e-02 +5.43345809e-02 +1.25393465e-01 -1.58953652e-01 -1.33032486e-01 -8.51819962e-02 +4.71573509e-02 +8.90134424e-02 -1.35560274e-01 -2.83553470e-02 +4.52327505e-02 -2.02181116e-01 +2.65782960e-02 -7.73692578e-02 -1.47912160e-01 +1.69712827e-01 -1.51057333e-01 +1.29458280e-02 -7.02874288e-02 +2.26086797e-03 -3.70499790e-02 -6.72917962e-02 +1.27716716e-02 +1.08541787e-01 -3.05537105e-01 +4.45976667e-02 -2.88371593e-02 +7.61688575e-02 -9.40423757e-02 +8.48520920e-02 -9.01213884e-02 +3.57449949e-01 +4.56956141e-02 +1.24811731e-01 -7.77502358e-02 -8.58664736e-02 -8.14896971e-02 +1.48401354e-02 -1.11586235e-01 +1.47693381e-02 +7.45702982e-02 -1.89443864e-02 +1.15676492e-01 +1.10564053e-01 -6.22900389e-02 -1.75813600e-01 +1.39247924e-01 -3.93948674e-01 -1.60830282e-02 +7.73193017e-02 -4.07493711e-02 -6.33867681e-02 -1.46496952e-01 -1.83329418e-01 +6.89101070e-02 -1.94706768e-01 -1.17520532e-02 -1.07032567e-01 +6.36747926e-02 +1.68719277e-01 -7.16945902e-02 +2.19625503e-01 -6.63197264e-02 +5.40984645e-02 -1.45752996e-01 -1.17542461e-01 -2.10737392e-01 +1.28802717e-01 -1.26097258e-03 -4.06572111e-02 -3.63235213e-02 +1.16705716e-01 -1.09577915e-02 +2.05962554e-01 -8.50070715e-02 +1.05928600e-01 +1.48215935e-01 +2.30734989e-01 +1.20666377e-01 +3.27957682e-02 +1.68440267e-01 +1.54035717e-01 -1.27140060e-01 -1.87394023e-01 +1.83802843e-01 +1.20412268e-01 +1.03591166e-01 -2.24329770e-01 +1.79753024e-02 +9.70954522e-02 +3.30170617e-02 -6.32110564e-03 +3.23587283e-02 +4.55968864e-02 -2.28838460e-03 -2.54772268e-02 +4.55906801e-02 -7.22685363e-03 +5.55176288e-02 +7.18007684e-02 +1.92368142e-02 +2.55471379e-01 -1.70182332e-01 -1.38779402e-01 +9.87939239e-02 +7.24296644e-02 -4.38880473e-02 -1.27185611e-02 +1.03184983e-01 +4.99994606e-02 +2.39540428e-01 -4.00561877e-02 -8.79798681e-02 +2.19929982e-02 -2.25270297e-02 -9.21191052e-02 +2.07446948e-01 -7.87666440e-02 +9.69400182e-02 -5.34863025e-03 +6.46619573e-02 +1.28489152e-01 +2.04227958e-02 -4.68946546e-02 -2.37052128e-01 +7.87595809e-02 +9.57984403e-02 +4.56169434e-02 -2.11226270e-01 -2.62869805e-01 -1.72067862e-02 +1.81569412e-01 +6.90692961e-02 +3.66181531e-03 +1.17637799e-03 -1.57752842e-01 +7.09580183e-02 +5.92250489e-02 +1.63938180e-01 -2.17801686e-02 -1.29406005e-01 +3.26102637e-02 +1.35801658e-01 -8.74737799e-02 -9.63817984e-02 +8.84352624e-03 +1.12949401e-01 -2.99534686e-02 -2.43267223e-01 +6.74437359e-02 +5.13201505e-02 -7.73618557e-03 -1.45217255e-01 -6.37220740e-02 -4.38748784e-02 -6.80711418e-02 -1.62065402e-01 +2.93481331e-02 +1.84201896e-02 +2.52577960e-01 +1.09982148e-01 +1.24843791e-01 -9.86435860e-02 -3.73746157e-02 +9.94796827e-02 -4.86823246e-02 -2.73330033e-01 -1.86348394e-01 -2.30858307e-02 -7.46282712e-02 +1.48957059e-01 +1.19623162e-01 +2.70143002e-01 +1.52636617e-01 -2.44438961e-01 -8.12499821e-02 +3.09150517e-01 -5.44032790e-02 -1.45048082e-01 +4.97041121e-02 +1.57777280e-01 +1.38096377e-01 -3.25859361e-03 -7.26071820e-02 -1.71961874e-01 +1.18984826e-01 +9.88817960e-02 -1.02261797e-01 -2.59317011e-02 +8.54266733e-02 -7.11826533e-02 -3.26560885e-02 +2.25991294e-01 +8.94238502e-02 +6.61349371e-02 +4.86938693e-02 -1.44533748e-02 +1.64611816e-01 -1.29025325e-01 -2.25468203e-02 +9.78279784e-02 -7.90544525e-02 -1.53447866e-01 +3.53227079e-01 +1.02516644e-01 -4.53262478e-02 +1.74181595e-01 -2.37262040e-01 +1.01941019e-01 -7.74601251e-02 +4.98187430e-02 -7.90387485e-03 +6.24822453e-02 +1.25540316e-01 +1.13065258e-01 +5.60242198e-02 +3.40254419e-02 -1.07959118e-02 -1.39987573e-01 -3.41581888e-02 +3.70603427e-03 +7.88513124e-02 +3.31892744e-02 -9.25182253e-02 -1.13850022e-02 +8.15393254e-02 -2.16599423e-02 -8.88698921e-02 +2.09533200e-02 +2.41064299e-02 +1.47824977e-02 -4.42926101e-02 -8.45028982e-02 +1.12269372e-01 +2.31783822e-01 +8.48572701e-03 +7.85873905e-02 +1.44608365e-02 -7.98950195e-02 -3.77006233e-02 -6.72566742e-02 +3.25496458e-02 -6.77499324e-02 -5.12232743e-02 +1.56807061e-02 -1.45755941e-02 +1.46340564e-01 -6.80764988e-02 -1.91199645e-01 +1.66970402e-01 +5.75398505e-02 -5.68907186e-02 -5.55717051e-02 +1.76168755e-01 -1.94916248e-01 -1.08613491e-01 +6.58799522e-03 +2.86567453e-02 +4.15751003e-02 -8.20193440e-03 +1.19750611e-01 +1.37578649e-02 -1.40743315e-01 +5.91340587e-02 +5.06102480e-03 +1.13552241e-02 +5.25878519e-02 -1.04819693e-01 -1.51382953e-01 +8.64008814e-02 -8.01479369e-02 -2.12487623e-01 -8.12264010e-02 -5.51082306e-02 -4.31467034e-02 -9.55497175e-02 +5.73687665e-02 -7.97441676e-02 +1.04917131e-01 -1.13648668e-01 +1.22312821e-01 +3.78969088e-02 -6.40501687e-03 -9.57015306e-02 -1.12374173e-02 +4.95660678e-02 -7.33418092e-02 -1.15175284e-01 -1.15566187e-01 -6.35743095e-03 -1.88191324e-01 +1.49767160e-01 -1.39622882e-01 -3.60235982e-02 -1.27295963e-02 -7.50741214e-02 -3.88733926e-03 -9.04490873e-02 +5.29872775e-02 -1.86254159e-02 +1.63260214e-02 -3.99416015e-02 -1.11825094e-01 -2.58962423e-01 +1.63687542e-01 -1.57538205e-01 +4.63177301e-02 +1.07536186e-02 +7.24030137e-02 -7.27538839e-02 -6.51038659e-04 +3.55796963e-02 +1.25319585e-01 -7.10666329e-02 -4.13654372e-02 +4.63332646e-02 -1.27018183e-01 +4.51933928e-02 -1.49334520e-01 +2.16933340e-02 -3.72404382e-02 +1.07338600e-01 -1.44033566e-01 -5.23882806e-02 +7.21119046e-02 +1.85620710e-01 +1.23129701e-02 +1.69794872e-01 +8.75814259e-02 -6.50664568e-02 -4.89950031e-02 +6.10047877e-02 +1.18724369e-01 +2.19042005e-04 +7.81871304e-02 +1.49245560e-01 +1.66422725e-02 +1.51138753e-01 -4.45869192e-02 -7.48289376e-02 +1.98802918e-01 -6.01120107e-02 +4.22194675e-02 -2.11270884e-01 -6.76447973e-02 +1.12588786e-01 -3.29144932e-02 -1.00255795e-01 -3.76827009e-02 +3.64867710e-02 -5.56680448e-02 -2.16789020e-04 +7.73214027e-02 +3.34631018e-02 +1.71190098e-01 -9.77449343e-02 +6.20012358e-02 +5.06182062e-03 +9.77625698e-02 -1.72444582e-01 +3.34739350e-02 +4.99541722e-02 -1.03219606e-01 +1.00839160e-01 -1.43462971e-01 +7.28256851e-02 -2.06748787e-02 +1.57617927e-02 -2.59141568e-02 -8.00436586e-02 -2.55348049e-02 +2.24863306e-01 -2.44251490e-01 -2.08554277e-03 -1.10470116e-01 +1.58122942e-01 -1.39560243e-02 +3.35929357e-02 -6.98531866e-02 +4.71175313e-02 +6.65190741e-02 -2.37056818e-02 -5.71431145e-02 -7.82395825e-02 -1.51299275e-02 -2.03530937e-02 -1.18056484e-01 +1.40019488e-02 +6.31938800e-02 -1.02962568e-01 -3.19238044e-02 +4.08664271e-02 -1.21291146e-01 -7.67190307e-02 -6.63738581e-04 +4.22052592e-02 +2.66585015e-02 -8.76834691e-02 -4.26208973e-02 +5.70692271e-02 +1.33574039e-01 +4.51493487e-02 -6.44244952e-03 +5.63551672e-02 -1.11814521e-01 -1.60491899e-01 +1.34258732e-01 -6.76467940e-02 +8.86366069e-02 -6.05759472e-02 +1.08416356e-01 -1.19352616e-01 +8.58687684e-02 +5.21183386e-02 +1.43719502e-02 +2.51929015e-02 +2.63529927e-01 +5.89400157e-02 +2.73386259e-02 +1.88218523e-02 -2.35393107e-01 -7.82166272e-02 -3.11909467e-02 -8.77322331e-02 -1.92250237e-01 -1.37653388e-02 +1.21560082e-01 -3.16178650e-02 -6.92832172e-02 -6.06085509e-02 +2.52748840e-02 +1.62534267e-01 +9.23469290e-02 +1.18785724e-01 +8.12753513e-02 +2.41348490e-01 +4.64820378e-02 +3.59193534e-02 +1.17813304e-01 -1.10226765e-01 -1.46999642e-01 -6.27198908e-03 +1.58795640e-01 -6.02466092e-02 +1.76924586e-01 -9.76811396e-04 +1.09042798e-03 -1.07897945e-01 -1.10331081e-01 -2.12337188e-02 -9.15984809e-02 +2.34879985e-01 +1.19684674e-01 -1.36249140e-01 +2.20965669e-01 -1.27185479e-01 -7.40659162e-02 -4.96497750e-02 -2.33919472e-02 -1.43916875e-01 +5.37188072e-03 -1.24303304e-01 +7.22514242e-02 +2.05944300e-01 +2.01354086e-01 -2.06821132e-02 +2.67592490e-01 -9.22490731e-02 -1.25087619e-01 +1.95599515e-02 +4.12022918e-02 +1.95697367e-01 -2.08327442e-01 -8.90347734e-03 -4.03848570e-03 -1.13806754e-01 -1.26094893e-01 +4.39892188e-02 -6.08365517e-03 +9.70118865e-02 -1.01555884e-02 +2.13755351e-02 -5.41725792e-02 -2.47264430e-01 +4.08386113e-03 +8.54853988e-02 +2.28646651e-01 +8.14552829e-02 +2.51049120e-02 +5.63871302e-02 -1.31579652e-01 +2.65856786e-03 -1.00421356e-02 +5.79501949e-02 -4.05914010e-03 +1.66133847e-02 -1.77357830e-02 +2.60735452e-01 +5.32320589e-02 +2.67267227e-02 +1.40364002e-02 +1.09701782e-01 +2.69158214e-01 +4.15798044e-03 +2.04144061e-01 +7.94916227e-02 -5.53540066e-02 +1.03728034e-01 -1.86602548e-02 +7.93148577e-02 +9.58105177e-02 -1.86036214e-01 +1.00635059e-01 -1.24395497e-01 +2.27146521e-01 +8.50050077e-02 -3.21270168e-01 +3.60457897e-02 +6.31064177e-02 -4.05171067e-02 -5.10293804e-02 -1.99759960e-01 +6.51933998e-02 +9.38519761e-02 +1.94790065e-01 +8.89453366e-02 -5.23627736e-02 -1.05138205e-01 +6.08597025e-02 +1.48445768e-02 +5.09966053e-02 -1.21483192e-01 +1.39876544e-01 +7.07062557e-02 -6.13404997e-02 +2.20124453e-01 -5.73970564e-02 +6.00561984e-02 -1.12310119e-01 +1.18711263e-01 -2.21951336e-01 +4.97175269e-02 -5.04978560e-02 +2.52401024e-01 +2.59789061e-02 -3.45043056e-02 +1.19122192e-01 +2.66956329e-01 -1.17734693e-01 +2.57919699e-01 +6.98337853e-02 +9.89206210e-02 +1.13945201e-01 +2.45249122e-01 -1.45163119e-01 +2.78654933e-01 -3.86871994e-02 +1.20260142e-01 -5.52257784e-02 -2.43141264e-01 +4.71560210e-02 -7.35846311e-02 -1.68039724e-01 -5.36808968e-02 +8.06360319e-02 -1.11606643e-01 +7.76501223e-02 -1.77164078e-02 -6.22359179e-02 +1.16834179e-01 +2.24724576e-01 +2.20113054e-01 -1.85672998e-01 +1.09333284e-01 +9.64900553e-02 +2.04725593e-01 -1.27646759e-01 -2.61661500e-01 -1.74881797e-02 -9.15004686e-02 -2.43671834e-02 -1.38572067e-01 -1.18286096e-01 -1.40173035e-02 -6.45735711e-02 -3.44598405e-02 -1.42586201e-01 -1.80862889e-01 -2.22477466e-01 +9.01608542e-02 +1.46497384e-01 +2.76932027e-02 -7.82087892e-02 -1.06928155e-01 -2.36950979e-01 +1.27110168e-01 +4.98416387e-02 -1.55265808e-01 +1.09003626e-01 +2.17208371e-01 +2.75630325e-01 -2.37712577e-01 -1.00591995e-01 +4.55463491e-03 +2.58818660e-02 -2.02221081e-01 -1.27749577e-01 +7.94043541e-02 +1.43610835e-01 -6.07419200e-02 -7.58353472e-02 +7.66626671e-02 -1.41676843e-01 -2.07848288e-02 +7.64513314e-02 -1.82466313e-01 +5.89609258e-02 +1.94016159e-01 -8.71291980e-02 +1.34115949e-01 -9.55494642e-02 +3.20753008e-01 -2.09446743e-01 +1.00705713e-01 +8.13397020e-02 -1.35022216e-03 -1.81502745e-01 -2.80914545e-01 +3.13412815e-01 +2.39950374e-01 +5.89770041e-02 +3.05716395e-01 +1.30495310e-01 +1.77984923e-01 -2.19141066e-01 -1.36789069e-01 -7.04793856e-02 -2.68437922e-01 -1.87005438e-02 +1.72924206e-01 +1.07012466e-01 +1.74938321e-01 -2.19280332e-01 +8.18894729e-02 +1.47947997e-01 -1.74297094e-01 -2.93040816e-02 +2.77249873e-01 +1.74626648e-01 +6.35194927e-02 +7.75355771e-02 +3.32114249e-02 +1.66913792e-01 -5.78482933e-02 +1.08713917e-01 +7.54081979e-02 +6.39178157e-02 -1.00772806e-01 +7.30090290e-02 +3.51645090e-02 +1.47137776e-01 -1.49444923e-01 -3.01464945e-01 +4.13238304e-03 -1.64384514e-01 -3.57202627e-02 +1.40275806e-01 +1.11107454e-01 -1.89214870e-02 +1.11649269e-02 -1.26269460e-01 +5.18340878e-02 +4.81133237e-02 +5.24141788e-02 +2.54077435e-01 +9.25252512e-02 +1.98491201e-01 -1.49352968e-01 +1.52938053e-01 +3.66176069e-02 +2.74499118e-01 +1.71891794e-01 +1.26160979e-01 +1.85005665e-01 +5.75742498e-03 -2.56875545e-01 +4.38425876e-02 -1.99118122e-01 -6.29051626e-02 +3.86896580e-02 +6.84691407e-03 -7.27479383e-02 -1.96646050e-01 +1.80558637e-01 +2.41762191e-01 +7.71167725e-02 -5.78717794e-03 -1.34893864e-01 -1.51645258e-01 +6.15492612e-02 -9.80923623e-02 +2.02742845e-01 +3.96114253e-02 -3.30869913e-01 +1.47703320e-01 -6.43037036e-02 +2.01095492e-01 -7.27590322e-02 +3.57570988e-03 -1.39879957e-01 -6.24583736e-02 -1.04613878e-01 -2.05795154e-01 -1.07486151e-01 -3.75757553e-02 +7.22201169e-02 +5.82330041e-02 -1.28268808e-01 +2.60815531e-01 -1.51148275e-01 +2.51570251e-02 +3.04790530e-02 +2.83578807e-03 +1.68429804e-03 -1.24479078e-01 +1.78919464e-01 +1.64292037e-01 -3.57777439e-02 -2.60667086e-01 -2.13565603e-01 +1.69556305e-01 +2.37359449e-01 -2.62875613e-02 -2.74919897e-01 -9.11084586e-04 -5.32035865e-02 +4.44792137e-02 -4.10165153e-02 +2.94087380e-02 -1.22347698e-01 +1.06182456e-01 -4.23552208e-02 -3.05176582e-02 -2.29344025e-01 +3.01876245e-03 +8.66703540e-02 -4.34692530e-03 +1.60678044e-01 +5.67024834e-02 -1.64162449e-03 -1.54146388e-01 +2.66585976e-01 +2.11083204e-01 +1.24260355e-02 +8.78175125e-02 +2.35971976e-02 -1.39946863e-01 +1.62620505e-03 -7.97051266e-02 +8.88510197e-02 +8.15779045e-02 -4.51366864e-02 -1.24172717e-01 -1.24759823e-01 +4.48718071e-02 +1.46074563e-01 -9.68971010e-03 -3.20003480e-02 -2.49678418e-01 -1.84761855e-04 -2.76794940e-01 +9.40386727e-02 -1.63350388e-01 -1.71927467e-01 +8.63715485e-02 -1.09600918e-02 +2.66726874e-02 -1.42643347e-01 -6.63652122e-02 +1.48592606e-01 +2.33112276e-01 +1.88671630e-02 -3.74191329e-02 +1.18334122e-01 +1.19246289e-01 +9.16612297e-02 -6.61400482e-02 +1.50522634e-01 +2.20506176e-01 +1.01813667e-01 -1.86321512e-01 +2.65766501e-01 +2.93168455e-01 +1.26951322e-01 -8.09494853e-02 -3.45024802e-02 -1.28774261e-02 -2.92924568e-02 -9.25973058e-02 -2.13772938e-01 -6.10284247e-02 -5.06158322e-02 +1.01464860e-01 +1.36737600e-01 +1.71060767e-02 +5.24396077e-02 +1.44438982e-01 +2.29575820e-02 -1.25882044e-01 -3.13239917e-02 +6.51906058e-02 +5.71724623e-02 +1.62500247e-01 -1.35934457e-01 -1.59728646e-01 -2.38681927e-01 -5.40575348e-02 +1.48730837e-02 +2.71906078e-01 -1.43622920e-01 +1.72824755e-01 +1.19835613e-02 +2.27119997e-01 +1.30502880e-01 -9.56326723e-02 +2.56332487e-01 +1.80190802e-01 +2.11324200e-01 -7.78122768e-02 -2.26962939e-02 +2.32602194e-01 -2.96824843e-01 -1.94840267e-01 +4.61470243e-03 -1.42785206e-01 -1.62884086e-01 +4.17070910e-02 -4.13220050e-03 +9.06370655e-02 +9.07722116e-02 +1.05967045e-01 +1.47711709e-01 -1.56582251e-01 -1.08046606e-01 -1.88511945e-02 +1.77217096e-01 -1.71643626e-02 +1.74317464e-01 +5.99781014e-02 -8.64383057e-02 +1.85115755e-01 +3.08111995e-01 +1.39875233e-01 -4.56318595e-02 +2.51787882e-02 -7.89135695e-02 -3.38636845e-01 +2.31862236e-02 +1.31369889e-01 +1.99809492e-01 +2.19145134e-01 -1.64122567e-01 -1.16850153e-01 +1.87765658e-02 +2.41942286e-01 +2.86281914e-01 -2.36584425e-01 +6.76175430e-02 -1.35096043e-01 -1.93418622e-01 -1.68434143e-01 +1.85657606e-01 -7.77386427e-02 -5.32308556e-02 -2.31290311e-01 +1.00611567e-01 +1.16857879e-01 +3.56273800e-02 +1.05062291e-01 +1.29106015e-01 +1.66807041e-01 -5.95094003e-02 -5.48662618e-03 +9.07333381e-03 +7.95058087e-02 +3.04833017e-02 -1.36859700e-01 +2.01202691e-01 -1.60740346e-01 -2.68718903e-03 -6.66791648e-02 +2.35512033e-01 -4.64143008e-02 -1.67098552e-01 -9.87814292e-02 +1.97561979e-02 -3.62559897e-03 +2.67565511e-02 -1.62741505e-02 -7.50349537e-02 -1.55792594e-01 +6.85800985e-02 -1.23723321e-01 +1.80873916e-01 +3.30839008e-01 +1.13130406e-01 +1.07967511e-01 +1.35450199e-01 +7.06443936e-02 -4.30224463e-02 -7.60573745e-02 +7.37668201e-02 -8.55077058e-02 +2.83104312e-02 -1.57823443e-01 -1.07458711e-01 +7.04092830e-02 +8.34330171e-02 -1.69203468e-02 +1.25297323e-01 -1.68380424e-01 +2.08282858e-01 -7.68810809e-02 -1.16469994e-01 -2.52569262e-02 -7.87647665e-02 -2.13794723e-01 -1.55176118e-01 +1.96172185e-02 +3.80096100e-02 +1.38304561e-01 +3.06288972e-02 +1.02357991e-01 +1.44035369e-01 +4.33061533e-02 +1.91034034e-01 -7.41994977e-02 -1.42841697e-01 -1.12630136e-01 +7.87324980e-02 +5.40898480e-02 -1.83726996e-02 -1.02900311e-01 -2.04806343e-01 +1.22546539e-01 -1.47576615e-01 +4.15326841e-02 +1.50494739e-01 +2.39149123e-01 -7.10843354e-02 +1.04025431e-01 +1.60176069e-01 -3.18185166e-02 +1.29303396e-01 -5.69280609e-03 -1.41951606e-01 +1.26968279e-01 -5.02204821e-02 +3.33775505e-02 -9.39204618e-02 +6.71168417e-02 -1.47273928e-01 +1.01400957e-01 +4.01606038e-02 -2.41377518e-01 +1.39568478e-01 +1.34664983e-01 -1.94883998e-03 -2.07362130e-01 +8.73236805e-02 -1.28524870e-01 -1.26817733e-01 +2.16237009e-01 -1.74909517e-01 -8.28734934e-02 -3.21979225e-02 -1.94097623e-01 +6.19768314e-02 +3.33256945e-02 -1.26955673e-01 +7.67221153e-02 +1.32118076e-01 +1.06784157e-01 -5.25660962e-02 +2.87880599e-02 -1.11571397e-03 +2.08133832e-01 +2.73512006e-01 +1.31945774e-01 -1.40118003e-02 -1.24056831e-01 -1.67188838e-01 +1.00335039e-01 +4.05215546e-02 +4.10622731e-02 +1.85317338e-01 -1.51594117e-01 +1.79735087e-02 +1.14557752e-02 -2.06175763e-02 -1.40087575e-01 -1.66634008e-01 +2.02333495e-01 -1.66774150e-02 -9.08443052e-03 +9.49067473e-02 +2.00630873e-02 +6.16469346e-02 -3.55900973e-02 -5.84091768e-02 -4.66581620e-02 -1.26209259e-02 -2.29984354e-02 -1.53345466e-01 +1.00658007e-01 -2.90917745e-03 -1.48129594e-02 -6.64541572e-02 -1.58536151e-01 +3.33519392e-02 -1.98571645e-02 -8.02655965e-02 +4.67955992e-02 +9.18190833e-03 -4.42437492e-02 -6.73135445e-02 +5.67993242e-03 -1.74297355e-02 -1.08439647e-01 +1.60770625e-01 -6.13741130e-02 -1.16904840e-01 +4.67836484e-02 +8.59943870e-03 +2.21212651e-03 -5.28392307e-02 -4.72562239e-02 +2.34314036e-02 +2.83281691e-03 -5.30981319e-03 -8.38110456e-04 -7.79283717e-02 -9.81641635e-02 -3.44591923e-02 +5.73496800e-03 -1.99530661e-01 -3.20280506e-03 -5.86337857e-02 -8.60336497e-02 -2.04338729e-02 +4.85917404e-02 -8.38933289e-02 -7.43906572e-02 -1.63622975e-01 -1.83918383e-02 +5.63721322e-02 -1.41545475e-01 -1.98301241e-01 +7.11563304e-02 +4.63606864e-02 -1.49839511e-02 -1.12638019e-01 +9.96307954e-02 -4.44313139e-02 +7.17897713e-02 -5.56963161e-02 -3.55863161e-02 -5.14691211e-02 +7.95831457e-02 +1.14720061e-01 +3.59332189e-02 +1.44588381e-01 -6.05501048e-02 -4.96115312e-02 -1.33520797e-01 +6.29914552e-02 -1.29664376e-01 -1.02033578e-01 -8.90783593e-03 -8.79485831e-02 -7.31281191e-02 +9.48455185e-02 -4.18014564e-02 -1.58482958e-02 +4.95166630e-02 +5.67056760e-02 -5.61909303e-02 +9.63987336e-02 +4.68338728e-02 +5.21738790e-02 -4.37756106e-02 -8.57082754e-03 +5.62024750e-02 -5.39683066e-02 +4.48913723e-02 -1.98164545e-02 +5.63025586e-02 -6.21661358e-03 +1.13433804e-02 +1.01213837e-02 -7.62430355e-02 -6.59865811e-02 +7.46511146e-02 -1.07260281e-02 -2.52809990e-02 -4.68486222e-04 -1.01241730e-01 +1.74438003e-02 +8.70074406e-02 -1.90441823e-03 +9.79124382e-03 -3.95253114e-02 +2.74199732e-02 -6.82463944e-02 -6.10278472e-02 -6.30111713e-03 +1.49272069e-01 +7.96204880e-02 +1.35740846e-01 +4.21838500e-02 -3.90199269e-03 -1.24708623e-01 +1.16432868e-02 +2.00756505e-01 -2.56779402e-01 +7.08173439e-02 +2.36299723e-01 -2.08796380e-04 -2.22873047e-01 -6.47580698e-02 +7.08866939e-02 +9.86823812e-02 +6.38257191e-02 +1.38429562e-02 +6.51649609e-02 -2.78201312e-01 -2.45466426e-01 -1.57318369e-01 +1.88798588e-02 +1.65595278e-01 -1.94056720e-01 +4.93283533e-02 +5.60024381e-02 +1.89077988e-01 -6.76676556e-02 -1.82881325e-01 +1.69053167e-01 -7.65707791e-02 +8.99304226e-02 -2.15505175e-02 +6.93816468e-02 -1.94566473e-02 -1.57944933e-01 -2.59177417e-01 -7.11947754e-02 +5.63534796e-02 +2.78376918e-02 -9.26855356e-02 +1.96278825e-01 +2.26585940e-01 -3.63800395e-03 +6.24436848e-02 -9.86378863e-02 +1.12058543e-01 -1.72402829e-01 -6.67641079e-03 -1.00750406e-03 +5.59285991e-02 +1.88180935e-02 +1.63303301e-01 -9.62973386e-02 -9.34966803e-02 +1.47035733e-01 +1.83562428e-01 -2.98011955e-02 -5.42710908e-02 -6.39549792e-02 +1.05018457e-02 +9.39999446e-02 +1.34705395e-01 -2.40889322e-02 -3.13379541e-02 -1.67874902e-01 -5.89064062e-02 -2.34862834e-01 +5.48687056e-02 +1.03836469e-01 -1.20811112e-01 -1.72980919e-01 +2.29659796e-01 -2.43346646e-01 -8.71109739e-02 -6.33701161e-02 +9.69499797e-02 +1.52530074e-01 -2.17395220e-02 +7.11943507e-02 +2.49387473e-01 -9.87063646e-02 +1.76943932e-02 -2.49683842e-01 -1.52279392e-01 -1.63657412e-01 +9.85744223e-02 +1.96654439e-01 +7.67926276e-02 -1.61139667e-01 -1.38122737e-01 -6.21628435e-03 -4.68911454e-02 +5.66730946e-02 -2.92692874e-02 -9.50135589e-02 +3.90871079e-04 -2.77305730e-02 -4.46890900e-03 -5.21617793e-02 +1.34920776e-01 +5.24748378e-02 +6.03627898e-02 +8.57667848e-02 +2.74075102e-02 +5.48102381e-03 -3.90865654e-02 -2.52788933e-03 +1.44113582e-02 -2.82855798e-03 -2.48646438e-02 -1.35705367e-01 +5.24924435e-02 +1.48611054e-01 -1.13257132e-01 +1.12490550e-01 -4.94527146e-02 -4.85825762e-02 +5.58309406e-02 -3.51450108e-02 +1.85557231e-02 -4.28466834e-02 +1.25121608e-01 +3.50791477e-02 +5.01332320e-02 +9.47566628e-02 +7.29917958e-02 +4.71923836e-02 +3.08024622e-02 +4.81787547e-02 -2.87112202e-02 -2.01380312e-01 +9.83443186e-02 -1.48196779e-02 +7.53266737e-04 +1.56668443e-02 +1.42515928e-01 +5.41711114e-02 +4.86002304e-02 -1.00727100e-02 -8.35050195e-02 +9.57797319e-02 +7.86545277e-02 +3.12895514e-02 -9.99509096e-02 +8.45431313e-02 -1.08833341e-02 -3.28556634e-02 -4.64937501e-02 +4.48487146e-04 -1.23070851e-01 +1.46523556e-02 -1.02308303e-01 -2.99799461e-02 -6.70915172e-02 +5.18198945e-02 +1.41944680e-02 -1.24220729e-01 -7.47739524e-02 +3.07775829e-02 -8.23608115e-02 -9.59817469e-02 +1.01066574e-01 +1.35441944e-01 -3.96727137e-02 -1.00155711e-01 +2.31357682e-02 -2.45022587e-02 +5.00622019e-02 +7.24371374e-02 +9.45494920e-02 +1.26967560e-02 -2.36376435e-01 -8.44386294e-02 -1.14187216e-02 +4.27223779e-02 -4.34354283e-02 +1.01238608e-01 +3.42157029e-04 -2.36353800e-02 +7.46194944e-02 -6.10553939e-03 -3.78711754e-03 +7.28297308e-02 -3.23381508e-03 -3.93828563e-02 +1.10600740e-01 +2.02625282e-02 -8.20980519e-02 -5.00188693e-02 +6.80592731e-02 -7.18907490e-02 +1.70702450e-02 +2.38318127e-02 +1.55525748e-02 +6.93396945e-03 +7.23724738e-02 -5.37409410e-02 +4.35929000e-03 -9.99001786e-02 -9.65102017e-02 -5.67735322e-02 +9.30735841e-02 +2.20198836e-02 -3.02345097e-01 -1.76910926e-02 -6.72562942e-02 -1.44900680e-01 +3.42757069e-03 +1.96869045e-01 -2.13240415e-01 -4.23377976e-02 -5.62953949e-02 -1.61064819e-01 -4.87215966e-02 +3.48372646e-02 -2.73982525e-01 +7.03862384e-02 +4.55625504e-02 +3.95651273e-02 -1.47812575e-01 -7.09511898e-03 +1.94357470e-01 -1.62152261e-01 +8.41883421e-02 +1.96080297e-01 -4.21841256e-02 +2.00000718e-01 +1.32054523e-01 +6.52680453e-03 +7.04131573e-02 -7.12733194e-02 +1.66888908e-01 +8.00015256e-02 +3.11805364e-02 +2.50760525e-01 +1.27661079e-01 -1.69757143e-01 +8.21555033e-02 -3.47980186e-02 -1.79762378e-01 -1.57385704e-03 +2.11942289e-03 -1.67053156e-02 +8.60032737e-02 -1.13873286e-02 -1.20580398e-01 -8.33892897e-02 +5.81253618e-02 +7.07911327e-02 -1.64330393e-01 +7.81703964e-02 -4.95219184e-03 +2.60294765e-01 +6.85024261e-03 -7.10584000e-02 +2.16629699e-01 +2.32668191e-01 +9.81623754e-02 +1.90223455e-02 -1.00969099e-01 -1.04447817e-02 +2.41523668e-01 -1.91397145e-01 -1.25100583e-01 -5.42426966e-02 +1.09260723e-01 +1.03351042e-01 -8.30772594e-02 +1.16659537e-01 -7.23139523e-03 -1.24554537e-01 +6.75772429e-02 +1.19487330e-01 +2.27448463e-01 +2.52339780e-01 +4.82595041e-02 +1.36383891e-01 -1.00985214e-01 +4.83386219e-03 +3.38510871e-02 -4.85511012e-02 -3.48375253e-02 -1.25618607e-01 -2.31236592e-01 +1.10626325e-01 +6.16046898e-02 +2.47015134e-02 -3.95657085e-02 -4.40172367e-02 -7.32016489e-02 -4.38111424e-02 +8.91105160e-02 +3.86954248e-02 +7.75106922e-02 +1.13757513e-01 +1.18989028e-01 +1.09548219e-01 +2.64477096e-02 +1.05704501e-01 +9.88547057e-02 -5.25828190e-02 +1.68569043e-01 +1.99731365e-02 -2.65328921e-02 -1.33710220e-01 -3.25557403e-02 +1.08841442e-01 +1.82780176e-02 -3.55717703e-03 -3.60871628e-02 -5.55825196e-02 -1.08678788e-01 -1.73306856e-02 +1.41532779e-01 -1.41505048e-01 -8.77275914e-02 +1.48295611e-02 +1.01961583e-01 +1.58704728e-01 +3.91724706e-02 +2.17014216e-02 +5.19525744e-02 -1.78728916e-03 +1.03571080e-01 -1.56232342e-01 +2.39444107e-01 +8.73483196e-02 -5.56655414e-02 +1.43965423e-01 -1.33028561e-02 -8.92656967e-02 -5.28014228e-02 -1.94646463e-01 +4.66929898e-02 -3.34608518e-02 +4.76279855e-02 -1.24044538e-01 +1.21450134e-01 +2.88337041e-02 -8.00856724e-02 +8.72046798e-02 +1.57694116e-01 +4.59203385e-02 -2.06518546e-01 +2.87375413e-02 +1.31535351e-01 -1.53220236e-01 -1.32789195e-01 +2.43059248e-01 -4.57994491e-02 -1.05301537e-01 -9.41719934e-02 -3.20595764e-02 +2.86248717e-02 +6.36180490e-02 -1.90683641e-02 +7.38321170e-02 +7.22977100e-03 -4.70825359e-02 -7.37522617e-02 +9.09528509e-02 +2.34321691e-02 -2.76096929e-02 +5.23340963e-02 -2.74871122e-02 -3.01685333e-02 -3.01725976e-03 -5.25152311e-02 +1.45546734e-01 -2.09702663e-02 +1.48971796e-01 +8.83834064e-02 -1.14578165e-01 -2.89121754e-02 +4.25729714e-02 -5.48768416e-02 +4.27991152e-02 +7.04620630e-02 -1.50713816e-01 -5.03876992e-03 +7.13799000e-02 +7.56328404e-02 -4.22544777e-03 +6.21022545e-02 -6.28746450e-02 +8.66536424e-03 +7.81286806e-02 -3.80833521e-02 +1.40823945e-02 +6.96016625e-02 -1.43917710e-01 -5.47579154e-02 +1.68466792e-01 -1.13543250e-01 -1.72977120e-01 +1.96945705e-02 +1.50064111e-01 +8.53643715e-02 +3.70429642e-02 -1.17255926e-01 -1.75570279e-01 -1.52533278e-01 -9.13998857e-02 -1.33106306e-01 -3.30255270e-01 +1.47537336e-01 -1.27805158e-01 -9.84058157e-02 -2.10551471e-01 -1.79544225e-01 -2.00555310e-01 +2.07620695e-01 -1.89659432e-01 +7.97881857e-02 -1.28880388e-03 +5.44337258e-02 +9.49842632e-02 +1.54603317e-01 -4.41782102e-02 +1.62621245e-01 +1.47914782e-01 +9.23390966e-03 -1.52500859e-02 -9.56361443e-02 +2.51701653e-01 -1.20044217e-01 +1.71755031e-01 -1.95190564e-01 +7.83418044e-02 -9.45251435e-02 +1.41412392e-01 -1.41446352e-01 +9.41514075e-02 +3.45364362e-02 -1.01204582e-01 +1.81452841e-01 +8.73532891e-02 -2.08484102e-02 +1.05162725e-01 -7.29363412e-02 +1.05384579e-02 -1.32857159e-01 +1.31380290e-01 +2.22696345e-02 -1.04846120e-01 -1.35057613e-01 -3.04837555e-01 -8.47914517e-02 +6.04276732e-02 +1.55844584e-01 -6.48844913e-02 +1.33759901e-01 -1.86599903e-02 +2.04230309e-01 +1.82524100e-02 +9.86011773e-02 -1.54186144e-01 +5.64817861e-02 -1.44629747e-01 +9.31047574e-02 +5.05955108e-02 +1.92906708e-01 -3.77567589e-01 -2.56156057e-01 -5.16860932e-02 -1.63356420e-02 +4.91678827e-02 +6.56904504e-02 +2.19878137e-01 -1.18510194e-01 +2.93030709e-01 -1.18212640e-01 +4.67010401e-02 -1.95082098e-01 -1.11261755e-01 +3.32060568e-02 +2.38293394e-01 +1.10449502e-02 -1.63666114e-01 -1.41244859e-01 -5.81554137e-02 +4.67374213e-02 -1.26769289e-01 +2.24530175e-01 -1.32010588e-02 -9.08887908e-02 +3.70920710e-02 +3.04269604e-03 +2.36760691e-01 +1.24710910e-01 -1.10901162e-01 +4.62103784e-02 +1.58854887e-01 -1.09497346e-01 +2.37490069e-02 -7.20396489e-02 -3.65808513e-03 -1.44355297e-01 +1.23762852e-02 +4.67173010e-02 +2.78577488e-02 -8.08068961e-02 +6.82161748e-02 -7.24939331e-02 +1.30605185e-02 -1.72021344e-01 -1.17976345e-01 +7.18812421e-02 -7.67728388e-02 -3.57448161e-02 -9.66552794e-02 +1.94591458e-03 -2.43800925e-03 -1.20713823e-01 +4.64788303e-02 +3.02571170e-02 -2.03077704e-01 +5.77690825e-02 -3.25404443e-02 +1.91872805e-01 +8.41660649e-02 -1.22669727e-01 +9.43671986e-02 -1.05551384e-01 +1.12072244e-01 -1.44556329e-01 +1.67686775e-01 +2.51832362e-02 -4.84933779e-02 -3.07458818e-01 +1.10721245e-01 -4.04255502e-02 -1.17619105e-01 -9.45227370e-02 +7.29913116e-02 -2.35094830e-01 +7.31887370e-02 -7.67789409e-02 +3.03296335e-02 +1.28528848e-02 +1.45139933e-01 -1.94821775e-01 +7.39458855e-03 -2.79220529e-02 +3.43367569e-02 -4.19080723e-03 -1.88277945e-01 +1.48396149e-01 +8.72185677e-02 -1.53194383e-01 +5.22838794e-02 +1.38982609e-01 +5.35470918e-02 +1.18291892e-01 +7.51498342e-02 +1.99607871e-02 +5.67695312e-02 +5.02353236e-02 -1.06757298e-01 +1.31946757e-01 +2.02836897e-02 +7.88506046e-02 +6.93987170e-03 -1.19770346e-02 +6.35059550e-02 -2.70275958e-02 +9.24111977e-02 +1.06220855e-03 -8.23976025e-02 +7.81886056e-02 +3.66017222e-02 -6.43985718e-02 +7.47356191e-02 +8.55683070e-03 +1.98838115e-01 -3.20374072e-02 +2.58573191e-03 -2.79414933e-02 -4.31090742e-02 +1.29575074e-01 +4.05873917e-02 +1.08379550e-01 -4.08146605e-02 -7.12272385e-03 -2.81767305e-02 +1.45238310e-01 -3.61207947e-02 +5.47217652e-02 +7.53560960e-02 +7.51937479e-02 +4.68585193e-02 -6.62378743e-02 +4.32155058e-02 +1.42485527e-02 +8.32952857e-02 -1.16840281e-01 -2.37763533e-03 -6.05321936e-02 +6.70949817e-02 +1.91758014e-02 +5.23136742e-02 -3.44793759e-02 -6.04212992e-02 -2.12259233e-01 +1.22124450e-02 -9.39672068e-02 -2.11573076e-02 -1.87263131e-01 +2.06837445e-01 +1.41053885e-01 -1.64460972e-01 -3.35670332e-03 +4.40730676e-02 -5.60671873e-02 +2.06510443e-02 +1.57270998e-01 -6.22483753e-02 +3.77446860e-02 -3.64646618e-03 +1.63354382e-01 +1.80462718e-01 -1.03420727e-01 +3.50466161e-03 +2.21108999e-02 -5.51557839e-02 +4.45178784e-02 -2.16055751e-01 -5.65498732e-02 +2.13443749e-02 +1.35908425e-01 +1.20347321e-01 +1.81473583e-01 +4.76320386e-02 -5.94362244e-02 -7.09937466e-03 -2.18488667e-02 +1.50727257e-01 +2.22645804e-01 +1.91883951e-01 +9.41041559e-02 +9.11743417e-02 -9.42175612e-02 +5.96155673e-02 -4.62692045e-02 +2.32343674e-01 -2.76156748e-03 +4.95529324e-02 -4.76637110e-02 +1.35144889e-01 +9.59645584e-03 +1.00717284e-01 +6.98513687e-02 +1.93486273e-01 +2.56115466e-01 -2.22138599e-01 +1.71331063e-01 +7.36012086e-02 -6.89256266e-02 -1.08280703e-01 +1.36898980e-01 +2.84307510e-01 +1.79450616e-01 +7.76855275e-03 +3.14355753e-02 -1.44899920e-01 -2.51649857e-01 +7.92088062e-02 -3.27682607e-02 -9.68043879e-02 -2.91468173e-01 +1.75588518e-01 +2.24414282e-02 +1.68309957e-02 +2.16954783e-01 +1.07500941e-01 +4.87961248e-02 -1.79757833e-01 -1.29551649e-01 +6.33865297e-02 +1.84868183e-02 +8.99937004e-02 -1.77405491e-01 +1.19348429e-01 -1.13137094e-02 -1.04794346e-01 -2.38985829e-02 +2.39142060e-01 +1.18706301e-01 +1.34356963e-02 +8.18540305e-02 -2.13981513e-03 +1.17526919e-01 +1.47128589e-02 +4.23958823e-02 +4.43336181e-02 -2.05536649e-01 +1.44497812e-01 +9.49905515e-02 -9.61984545e-02 +1.58183724e-01 -5.10334857e-02 +1.56805262e-01 +2.21336514e-01 +1.97232828e-01 +2.65532620e-02 -7.63049489e-03 -8.91331285e-02 -1.71169043e-01 -6.90453723e-02 -4.87236902e-02 +8.53203386e-02 +3.44665609e-02 -2.97377314e-02 +1.02794431e-01 -1.28578871e-01 -3.25793587e-02 +1.27476364e-01 +5.78188263e-02 -1.28929233e-02 +8.79465230e-03 -1.12365082e-01 +1.02165200e-01 -3.69989090e-02 +1.95196062e-01 +1.80842318e-02 +3.07481214e-02 -2.15218261e-01 -5.26950918e-02 +5.45033580e-03 +1.17911741e-01 -1.26448184e-01 -9.69402343e-02 -2.32903846e-02 +1.14561450e-02 +2.04891086e-01 +5.18573970e-02 -8.49904865e-02 +2.44326070e-02 +1.29738048e-01 -1.21764913e-02 +1.03185393e-01 +1.74634084e-01 -3.77730802e-02 +2.00190805e-02 -1.18354723e-01 -9.41163972e-02 -2.00924858e-01 +2.19642557e-02 +1.62834246e-02 -1.78470090e-01 -5.68031780e-02 -7.87654519e-03 -9.05108526e-02 -1.07907154e-01 -1.75915640e-02 +4.60646767e-03 +6.72199251e-03 +1.06061071e-01 -1.20663352e-01 -1.55994743e-01 -4.67518046e-02 -4.42001335e-02 -7.56441057e-02 -2.16831028e-01 -1.01940677e-01 +1.31021768e-01 -8.03104937e-02 +1.44459005e-03 +7.15555698e-02 +6.69218376e-02 +5.32880351e-02 -1.96217164e-01 -2.47810423e-01 -2.45534033e-01 -2.30581075e-01 -8.23014379e-02 -7.57129341e-02 +1.17679596e-01 +1.64271165e-02 +1.50922209e-01 -1.34951482e-02 -6.43692985e-02 +4.20181416e-02 -3.47543843e-02 -9.62181315e-02 +1.30327595e-02 -2.35857419e-03 -1.20727591e-01 +7.66981684e-04 -7.02097788e-02 -1.20803714e-02 -3.34622636e-02 -6.09546155e-02 -1.39495268e-01 -1.11526377e-01 +9.20275748e-02 +1.37210134e-02 +1.59775615e-01 +1.44219920e-01 +6.15319237e-02 +4.54653241e-02 -2.53474806e-02 -1.89422444e-01 -4.77646813e-02 -1.66431107e-02 +7.45375582e-04 +1.59750469e-02 +3.57220620e-02 +8.17859620e-02 +3.68396007e-02 +1.23775881e-02 -1.50056273e-01 -1.18873790e-01 +4.49910276e-02 -4.52815890e-02 +7.65114129e-02 -9.51018557e-03 -8.12044963e-02 -3.02195668e-01 +1.30154505e-01 +1.59497947e-01 +9.32441056e-02 +1.40327979e-02 +1.10507019e-01 -1.88810125e-01 +9.99153107e-02 -7.81887099e-02 +1.80433288e-01 -8.33342969e-02 +1.01969734e-01 -1.38698086e-01 +1.17704295e-01 +9.18331370e-02 -1.03208221e-01 -1.13059394e-02 +2.33525708e-01 -1.40534893e-01 +5.37071144e-03 +5.16072325e-02 -4.91225421e-02 -7.99217969e-02 -1.60748035e-01 -7.54527971e-02 +4.29697372e-02 -1.33797199e-01 -2.41753664e-02 +1.65612444e-01 -1.41118348e-01 -6.04082411e-03 +6.81225657e-02 +8.74147266e-02 +5.55466935e-02 +8.63196552e-02 +1.21407770e-01 -6.06883578e-02 +3.61989737e-02 -5.36067821e-02 +3.92999277e-02 +7.96820596e-02 +3.35113402e-03 +1.08884066e-01 -5.86204194e-02 -6.32658824e-02 +5.95972165e-02 -1.05665758e-01 +3.45517211e-02 +6.26654401e-02 -1.15436725e-01 +4.49954048e-02 -2.02469658e-02 -2.95401495e-02 +4.06055413e-02 -1.51437551e-01 +1.38786748e-01 -1.30875915e-01 +4.60723974e-03 +6.23461045e-02 +5.90477921e-02 +4.82014678e-02 -8.86784941e-02 -1.43564478e-01 -9.07006860e-03 +1.35134816e-01 +9.69532877e-02 +5.46372831e-02 +5.36459163e-02 +2.53451228e-01 +2.99636666e-02 +5.28856553e-02 +9.85261984e-04 -7.47699514e-02 +2.98405532e-02 +6.05942123e-02 -1.27256393e-01 -1.39612526e-01 +3.07803545e-02 -3.84662561e-02 -5.99537417e-02 +3.06396708e-02 -2.05355763e-01 +4.53520752e-02 +2.54756808e-02 +1.86054051e-01 +3.92183587e-02 +1.84611976e-01 -5.07408241e-03 -7.98243359e-02 -9.10296515e-02 -1.23349488e-01 -8.72892607e-03 +1.52072012e-01 +1.02144644e-01 +3.37931477e-02 +4.96681081e-03 -1.17556162e-01 +6.27284870e-02 +1.05676502e-02 +4.84946445e-02 +2.15297982e-01 -6.60380125e-02 +2.43156254e-02 -2.34745760e-02 +2.89808549e-02 +8.56176615e-02 -3.41865420e-02 +1.33410588e-01 -5.39314263e-02 -4.78527360e-02 -1.87839910e-01 -6.11750856e-02 +2.50634588e-02 -3.77565399e-02 -7.08218515e-02 +2.14602426e-01 -3.42896618e-02 +1.11380287e-01 +2.13840276e-01 +6.98374584e-02 +2.23248769e-02 +1.09580629e-01 -1.59596771e-01 +1.61503851e-01 +2.60217674e-02 -8.42696950e-02 -7.42420331e-02 +9.96970981e-02 -3.62936221e-02 -1.02225892e-01 +3.36137563e-02 +2.77257357e-02 +1.60065398e-01 -1.95023075e-01 -3.70502006e-04 -1.85901433e-01 +5.25465496e-02 -1.75433144e-01 +2.68838778e-02 +9.89308506e-02 +1.51401818e-01 -2.40312349e-02 -1.60372719e-01 +3.96206789e-02 -1.93398580e-01 -1.11108661e-01 +9.37518403e-02 +3.39902677e-02 +1.08937413e-01 +6.82435036e-02 -2.00919360e-01 +2.18809918e-01 +3.34154777e-02 -1.74544334e-01 -2.37364814e-01 -1.48451209e-01 +1.27176911e-01 +1.55317798e-01 +8.34851041e-02 -1.09151118e-01 -1.18235171e-01 -6.19015060e-02 +4.46568392e-02 +9.99589786e-02 -2.27204219e-01 -1.36219800e-01 -1.78044401e-02 +7.71756917e-02 -1.23017713e-01 +1.44195408e-01 +6.80367351e-02 -3.25012580e-02 -1.99759960e-01 +7.87371919e-02 -3.31814349e-01 +2.05501877e-02 +1.10479049e-01 +1.18331634e-01 -2.47219969e-02 -5.59242144e-02 +2.24062931e-02 +6.12177178e-02 -9.37109813e-02 -6.71738535e-02 -2.28550762e-01 -1.09015871e-02 +3.30502056e-02 -4.56768945e-02 +3.68153531e-04 +1.44110948e-01 -5.15065342e-02 -4.69591655e-02 +8.85739252e-02 +6.90083206e-02 -2.79941969e-02 -1.82854775e-02 +1.29815429e-01 -1.43814430e-01 +2.22719628e-02 +2.87927710e-03 +2.10020710e-02 -7.32386038e-02 +1.06168918e-01 -2.26686150e-02 -2.62577105e-02 -4.44898903e-02 -1.12558097e-01 -3.31518054e-02 +2.20961403e-02 -3.24668526e-03 -9.54807550e-02 +1.38526946e-01 -1.01826057e-01 +9.57213491e-02 -2.88045872e-02 -1.53593943e-01 +3.68484147e-02 +1.33653536e-01 -1.46804705e-01 -4.45293747e-02 -6.34430274e-02 +1.07747456e-02 -3.59445997e-02 -1.57319739e-01 +8.24721158e-03 +1.06118158e-01 -5.23377210e-02 +5.70517927e-02 +8.92351568e-02 -6.11624401e-03 -5.80675974e-02 +4.03853580e-02 -1.28254369e-01 -4.08560000e-02 -5.68892509e-02 +1.66019127e-02 +1.07511289e-01 +2.71093403e-03 +5.90183958e-02 +6.07972704e-02 +1.62746936e-01 +5.72051061e-03 +8.07287768e-02 +9.00501832e-02 -9.73689407e-02 -9.28581804e-02 +2.54888907e-02 +1.56897232e-01 +2.00243577e-01 -7.76864514e-02 +1.76381335e-01 +3.41829360e-02 -4.82095517e-02 +1.02144122e-01 -3.00590135e-02 -1.00982890e-01 +5.10190018e-02 +1.21720448e-01 +1.38052315e-01 -8.24498758e-02 +3.16255093e-02 +1.05025373e-01 -1.77650556e-01 -4.77990694e-03 -6.21696636e-02 +8.74773785e-02 -7.15981498e-02 +1.84223726e-01 -3.03094424e-02 -1.54458657e-01 -4.55033034e-02 -6.41278177e-02 +1.43230394e-01 +6.26387149e-02 +2.21928544e-02 +5.51255941e-02 -1.03205137e-01 -5.25173731e-02 +1.16091497e-01 -5.22518083e-02 +1.27000302e-01 +9.98815671e-02 -1.13800488e-01 -6.46131635e-02 +5.12036160e-02 +1.62936643e-01 -4.38201800e-03 -1.20744370e-02 -4.52605486e-02 -6.83470666e-02 -1.33246556e-01 +5.60729008e-04 -1.88964739e-01 +5.91059066e-02 +1.01119734e-01 -3.96009646e-02 +1.01109914e-01 +1.46578625e-01 -6.47650510e-02 +1.17069576e-02 -2.23550908e-02 -2.14957178e-01 +1.98786393e-01 +7.85848275e-02 +5.84416315e-02 -1.21756993e-01 -4.00032708e-03 -6.59717992e-02 +1.54559240e-01 -1.57786235e-01 +1.29588097e-01 +2.26543084e-01 +3.09926514e-02 +6.07484393e-02 +6.05171314e-03 +1.07660450e-01 +4.54037264e-02 -9.97742191e-02 +1.03249609e-01 -9.24191158e-03 -1.27496332e-01 -2.71199316e-01 +3.49772722e-02 +8.43496397e-02 -7.56882597e-03 -7.38952979e-02 -9.94432494e-02 +6.82785455e-03 -9.47749689e-02 +5.28795160e-02 +1.98587961e-02 -4.70585711e-02 -1.28188908e-01 -1.76687911e-03 -1.45705254e-03 +1.42555043e-01 -4.35784720e-02 +1.19730540e-01 +7.11275563e-02 -1.31615922e-01 -1.20105147e-01 -9.11792275e-03 +2.04777375e-01 -3.99036184e-02 +6.26362860e-02 -1.40806064e-01 +2.55715940e-02 -1.39993846e-01 -6.89206794e-02 +6.96403682e-02 +1.03513606e-01 -5.69637492e-02 +1.22382149e-01 -6.81214631e-02 +1.79874912e-01 -3.70253548e-02 -9.27492082e-02 -1.25313699e-01 +8.95482227e-02 +6.45748898e-03 -4.87808585e-02 -2.29691416e-01 -1.76404063e-02 +4.67983223e-02 +8.25437680e-02 +2.85206717e-02 +1.10854924e-01 -2.49370020e-02 -1.55213505e-01 -3.32887769e-02 +8.12141448e-02 -1.32028565e-01 -6.67004287e-02 -1.45196080e-01 +9.18981880e-02 -6.95891082e-02 -2.01995522e-01 +1.70697793e-01 -6.27394170e-02 -5.70859872e-02 -5.56260683e-02 -2.11436674e-01 -1.06400266e-01 +1.77453309e-02 +9.62353870e-02 +4.37745117e-02 +1.35515854e-01 +1.98916718e-02 -7.54716918e-02 -2.16161355e-01 +1.40726879e-01 +5.11750430e-02 -2.40068316e-01 -3.77116621e-01 +1.44119501e-01 -4.63578664e-02 -3.99751216e-02 -2.26471335e-01 +2.21173823e-01 +1.42034337e-01 -1.97703037e-02 -2.82481909e-01 -1.99828651e-02 -9.96649861e-02 -1.29320204e-01 -2.13191450e-01 -5.08000106e-02 +1.21248268e-01 +8.98211002e-02 +9.91489887e-02 +8.55289698e-02 -6.16705790e-02 -1.17807928e-02 +1.62399814e-01 +3.27529066e-04 -1.57997943e-02 -1.62648439e-01 -1.48552626e-01 -8.42349827e-02 +2.30752975e-01 -2.01974228e-01 -2.45775908e-01 +1.10394374e-01 +1.97476208e-01 -8.41637850e-02 +6.19238950e-02 +9.06658471e-02 -4.23369464e-03 +4.93943654e-02 +2.20832210e-02 +1.18768774e-01 -6.04906380e-02 -1.89332724e-01 -1.89708456e-01 -2.26140320e-01 -5.52915521e-02 -6.53965026e-02 +1.41283542e-01 -1.88023541e-02 -1.65725857e-01 -1.10436611e-01 +1.04806155e-01 +1.90037843e-02 +1.12870395e-01 -5.15762940e-02 -1.82942059e-02 -1.07998021e-01 +1.51635334e-01 -1.53353080e-01 -7.59688467e-02 +3.10452163e-01 -1.70321286e-01 +2.00222448e-01 +4.35135663e-02 -1.17482454e-01 -1.76113069e-01 +7.97301531e-02 +7.90362060e-02 +1.12320766e-01 +2.20305100e-03 +5.63611016e-02 -1.90996891e-03 +4.83838692e-02 +2.57465076e-02 -3.47984508e-02 -2.46222004e-01 +9.74162668e-02 +4.60613370e-02 -1.79218054e-01 +1.37897477e-01 -1.67557120e-01 -2.37651542e-01 -5.22732250e-02 +2.47624487e-01 +1.43565625e-01 -5.55731766e-02 -1.75474752e-02 +1.74962476e-01 -3.91674936e-02 -6.68731779e-02 -1.10991970e-02 +1.77142501e-01 +2.16092736e-01 -8.54969099e-02 +1.98947698e-01 -8.75840336e-02 +1.00029193e-01 +1.38377696e-01 -1.20495193e-01 +5.02093462e-03 -1.13481199e-02 +1.99285746e-02 -1.89453334e-01 +6.32155389e-02 -5.35052791e-02 -6.80084154e-02 -1.65176153e-01 +8.17617849e-02 -1.52670369e-01 -1.62851721e-01 -2.27351487e-01 -1.06788916e-03 -1.17971882e-01 +1.44422129e-01 +1.48163274e-01 +1.47939309e-01 +6.28580600e-02 -1.27934739e-01 +1.42892316e-01 +8.96736905e-02 -2.63834000e-01 +5.19855693e-02 +2.29303077e-01 -6.91159293e-02 +2.09303960e-01 -3.15279909e-03 -9.65947658e-03 +6.70628026e-02 -5.58876656e-02 -3.21146958e-02 +9.85949934e-02 +5.33769839e-02 +1.83466807e-01 +1.67249650e-01 -7.36754984e-02 +4.83817123e-02 +1.12422861e-01 -1.39108881e-01 +6.26064371e-03 +4.97461595e-02 +5.37418835e-02 +9.00569037e-02 +1.60495006e-02 +1.57356381e-01 -1.39768407e-01 -1.29453644e-01 +6.82589263e-02 +1.30883036e-02 +8.31889659e-02 +1.04055345e-01 -1.02104843e-01 +1.24198660e-01 -8.33148137e-02 +3.04913670e-02 -7.07668737e-02 +2.93227434e-02 +2.66610328e-02 +8.18781462e-03 -5.69849927e-03 +1.56807303e-01 -1.38570033e-02 +4.66331579e-02 -2.42150888e-01 -1.11911446e-01 -4.69624624e-02 +6.75047413e-02 -7.46911392e-02 -2.14253590e-02 +7.54942819e-02 -1.27844751e-01 -1.27720222e-01 +4.38010655e-02 -5.83981611e-02 +7.68092945e-02 -5.04374737e-03 -6.17825650e-02 +1.17578402e-01 -7.97516108e-02 +1.06224753e-01 +1.52519360e-01 +1.91610381e-01 +1.81885198e-01 -1.19420238e-01 -3.52287292e-02 -9.36853513e-02 +8.47876891e-02 +2.17967451e-01 -1.72903612e-01 -7.56090656e-02 -1.41516030e-01 +3.37618180e-02 -3.57837752e-02 -1.50411680e-01 -3.41133997e-02 -1.21314578e-01 +7.64043555e-02 -3.99122131e-04 +1.75783262e-02 +5.99881634e-02 +2.52129808e-02 -2.50618253e-02 +3.05233691e-02 -2.77900249e-02 +2.06408650e-01 +7.94170946e-02 +1.96430266e-01 -7.20806047e-02 -7.72382542e-02 -1.19436592e-01 +3.23035643e-02 -8.39720070e-02 +8.08629766e-02 +1.02996752e-01 -5.09664714e-02 -1.50895631e-02 -9.62585360e-02 -1.04392394e-01 -4.71265800e-02 -7.61801898e-02 -7.17389882e-02 +1.21434622e-01 -1.52126729e-01 +1.12347178e-01 +1.17467172e-01 -8.29240605e-02 -5.91752678e-02 +9.66630653e-02 -2.93659307e-02 +1.89564466e-01 +1.11477353e-01 +1.16875384e-03 -3.13576251e-01 +2.16976628e-01 +1.26983404e-01 +1.92818381e-02 +1.76878586e-01 -1.73421428e-01 +2.23258361e-01 -2.22962871e-01 -1.04720499e-02 -8.76112655e-02 +6.92450348e-03 -1.31859556e-01 -2.36635301e-02 -8.96577258e-03 +7.08904564e-02 +1.01918481e-01 -7.49071240e-02 -1.51783526e-01 +2.58550853e-01 -3.39413509e-02 -7.93060586e-02 -3.27297747e-02 -5.72781730e-03 +1.50459096e-01 -1.99021488e-01 -2.28042137e-02 +1.29118815e-01 -4.71431799e-02 -9.03156176e-02 +6.34373501e-02 -1.55175269e-01 -1.20506929e-02 -8.04187581e-02 -2.70380735e-01 -1.01185128e-01 +6.34485930e-02 +7.77802244e-02 -2.35218555e-01 +1.61032863e-02 -1.10886358e-01 +4.05119546e-02 -2.86293402e-02 +1.35390177e-01 -1.35825276e-01 +1.76098496e-01 -1.49754182e-01 +7.39063844e-02 +1.05135716e-01 -6.02059215e-02 +9.30710658e-02 -1.30597740e-01 +1.60634190e-01 -1.11181416e-01 -4.73282933e-02 -1.24375880e-01 -3.75677831e-02 +1.03430390e-01 -3.86919230e-02 +2.43283182e-01 +1.36680484e-01 -2.43388023e-02 -4.84457752e-03 +6.47432134e-02 -8.78064800e-03 -4.68472131e-02 +1.59132615e-01 +2.22477704e-01 +9.72834826e-02 -5.47886267e-03 -1.18521914e-01 +3.10803503e-02 +1.94854364e-01 +4.30590734e-02 -8.69442821e-02 -5.90781234e-02 +1.75672285e-02 +5.26331738e-02 +2.48619486e-02 -9.80060734e-03 +1.30695730e-01 +3.62387225e-02 -3.11067551e-02 +4.75929938e-02 -2.57619321e-01 +1.52791411e-01 +1.28994092e-01 +7.12953880e-02 -5.71537055e-02 -5.01968041e-02 +1.69234183e-02 -4.58218493e-02 -1.82760686e-01 -1.93001702e-02 +8.92914459e-02 +4.21672547e-03 +1.17120333e-04 +4.01522852e-02 +1.25613436e-01 -5.28602190e-02 +8.53118114e-03 +2.83392463e-02 -6.60608038e-02 +4.80927639e-02 +9.84172523e-02 -1.30247831e-01 +1.12039313e-01 +8.76136497e-02 +9.86866653e-02 -8.81668702e-02 +1.94617193e-02 +7.85102472e-02 -1.70986243e-02 +9.69548989e-03 +1.65933713e-01 -2.08857022e-02 +2.06934541e-01 +2.33842395e-02 -2.91011594e-02 -2.70893335e-01 +4.03860062e-02 -6.87325597e-02 +1.97178170e-01 -9.49314386e-02 +6.56217560e-02 +1.96273252e-02 +4.34944518e-02 -5.53390160e-02 +6.62020072e-02 +5.53854555e-02 -8.26153755e-02 +1.89364687e-01 -2.05565225e-02 +6.58034533e-03 +5.88937439e-02 +4.92311753e-02 -1.59806311e-02 -2.38833148e-02 -3.17304432e-02 -1.29094139e-01 -1.75143063e-01 +1.08092189e-01 +8.11320692e-02 -2.91632533e-01 +1.50208697e-01 -2.96685956e-02 +3.09582823e-03 -7.24692643e-02 +1.02763556e-01 +1.13400221e-01 +1.52948545e-03 -7.20725730e-02 +4.56620241e-03 -1.23884521e-01 +6.03308193e-02 -1.37137860e-01 -1.14107482e-01 -9.80165303e-02 +4.18394096e-02 -2.37599798e-02 +1.20801054e-01 -3.51813845e-02 +6.52096421e-02 +2.87551075e-01 +5.59478514e-02 -1.26087502e-01 +4.17172313e-02 +8.30182359e-02 +7.23310113e-02 +8.20257813e-02 +1.98638991e-01 -9.75822806e-02 -4.81536202e-02 -1.56116366e-01 -3.47715020e-02 -7.79027194e-02 +2.17183933e-01 +1.22168185e-02 +2.57695802e-02 +2.40059868e-02 +5.90979867e-02 +2.47933358e-01 -1.57311127e-01 -9.69654024e-02 +7.72085115e-02 -4.69827035e-04 +1.92520171e-01 -2.14406140e-02 +9.32345465e-02 +1.05362371e-01 -3.42865512e-02 +9.46469512e-03 -1.21237740e-01 -1.06130064e-01 +2.25876123e-02 -8.52636620e-02 +8.58442783e-02 +9.57970545e-02 -2.05798909e-01 +1.98347256e-01 +1.05592027e-01 +4.83547784e-02 -9.81035158e-02 +7.51976147e-02 -2.48199403e-01 +2.75468435e-02 +9.85306427e-02 -1.29054904e-01 -2.35782713e-01 -1.08688667e-01 +1.63710088e-01 -2.13148117e-01 +1.31882474e-01 +2.20224354e-02 +1.88311040e-01 +1.91207856e-01 -9.94740501e-02 -8.42659622e-02 +6.14677556e-02 +9.14116949e-03 +1.29416943e-01 -1.27997845e-01 -3.34224924e-02 +1.33458391e-01 -1.28973454e-01 +1.11140653e-01 +1.00089036e-01 +2.15903848e-01 +1.68560091e-02 +1.71331450e-01 -1.12907328e-01 +3.14632244e-02 +3.07389107e-02 +1.44744962e-01 -2.09851917e-02 -3.85620557e-02 -1.12698984e-03 +4.20402437e-02 -3.16051170e-02 -1.04992792e-01 +1.75588921e-01 -3.81296501e-02 -1.49738684e-01 +7.70183131e-02 -1.83567833e-02 -7.12668821e-02 +8.49739835e-03 +1.79628283e-01 -1.50519699e-01 -1.80398047e-01 +2.09813595e-01 -1.97813198e-01 -9.94452387e-02 -1.09655015e-01 -8.06761067e-03 +4.18648608e-02 +2.54650116e-01 +1.41152933e-01 -6.53765071e-03 +7.38690421e-02 +8.04163963e-02 +1.29784420e-01 +2.28410829e-02 +7.56863579e-02 -6.60433099e-02 +9.80477631e-02 +2.81827152e-02 +8.63604248e-02 -1.94746703e-01 +5.59718981e-02 -9.25849080e-02 -1.01837270e-01 +7.65685365e-02 -7.70332143e-02 -7.71665797e-02 +6.61561415e-02 -4.62150499e-02 +2.82289267e-01 +7.28747770e-02 -1.54973278e-02 +5.66913150e-02 +5.54120243e-02 -7.22083971e-02 -6.18209317e-02 +1.10746585e-01 -8.49629343e-02 -6.64824918e-02 +1.20704666e-01 +4.89923730e-02 -4.63856049e-02 +3.01052220e-02 +1.55540900e-02 -1.35952726e-01 -8.07318836e-02 +4.07829918e-02 +9.62975100e-02 +1.25414161e-02 -2.12476272e-02 -2.94387918e-02 +3.78763266e-02 +2.48018447e-02 +2.46678554e-02 -8.98503438e-02 +2.28628218e-02 -6.00614212e-02 +6.21213624e-03 +6.93160370e-02 +5.75766005e-02 +7.44959787e-02 +7.45969638e-02 +1.42245844e-01 +5.18130027e-02 -4.44233641e-02 -1.09278738e-01 -1.38542522e-02 -3.02059203e-02 +7.17488900e-02 +1.29041553e-01 +9.41900536e-02 -1.25825018e-01 +3.99370790e-02 +9.18618888e-02 +3.27518350e-03 -9.33857448e-03 +5.22495434e-02 -1.61214862e-02 -1.43559963e-01 +6.73483685e-02 -2.61669476e-02 -7.33505785e-02 +4.13538292e-02 -5.21627516e-02 +1.20728157e-01 -1.35953486e-01 +1.23042613e-01 -3.16162445e-02 -8.18454474e-02 -3.09238583e-02 +8.76637176e-03 +5.42441681e-02 -8.74291509e-02 +3.45872678e-02 -3.69633958e-02 +6.96726982e-03 -1.61391385e-02 +1.50311729e-02 -4.70881239e-02 +5.73197789e-02 -1.17471881e-01 +4.50237319e-02 -1.57387212e-01 -1.28474431e-02 -7.07607204e-03 -3.94235253e-02 -1.29793718e-01 -7.38907233e-02 +7.97032565e-02 +1.09747805e-01 +8.08863863e-02 -1.81533881e-02 -3.43431920e-01 +7.49299824e-02 -2.71533817e-01 +1.26753915e-02 -1.78216055e-01 -3.74345714e-03 -1.13994963e-02 -1.05944805e-01 +1.29621953e-01 -1.15531132e-01 -1.71632126e-01 -1.45217344e-01 +3.96001339e-01 +3.01640660e-01 -7.94894621e-02 +2.46590301e-02 +1.25971273e-01 -1.17973857e-01 -9.10499170e-02 -2.38508880e-02 +1.58662140e-01 -1.22617714e-01 +8.55752900e-02 +1.23037338e-01 +5.06009273e-02 +5.23563214e-02 -6.14685640e-02 +1.38272628e-01 +1.74190924e-01 +4.41822447e-02 +3.37352008e-02 -1.83345884e-01 -2.29592949e-01 +6.21173531e-02 +1.93917200e-01 -1.32282108e-01 +8.45109150e-02 +9.33545530e-02 -6.42186552e-02 +1.48964867e-01 -3.58305797e-02 -8.36868882e-02 -1.89461380e-01 -3.27345103e-01 +6.23012371e-02 +5.28063215e-02 -2.94310730e-02 +7.90119395e-02 -1.22293182e-01 -5.34060188e-02 -1.47426724e-01 +1.46643624e-01 +7.39114210e-02 +2.98038200e-02 +1.00249201e-01 -2.76926488e-01 +2.29333211e-02 +1.11442190e-02 +3.91154826e-01 +9.95674059e-02 +2.24702731e-01 +1.12040579e-01 +2.41146266e-01 -1.83336526e-01 -3.79488543e-02 -8.83278623e-02 +6.53657764e-02 -3.18723135e-02 +8.39398280e-02 -1.05025448e-01 -6.85465485e-02 -1.24414310e-01 +9.53134708e-03 +7.26073086e-02 +6.56965971e-02 -7.63980374e-02 -1.12085402e-01 -9.06852409e-02 -1.11921290e-02 +1.24270387e-01 +3.71653750e-03 +2.87887454e-02 +1.71585202e-01 +9.39384848e-03 -8.20224434e-02 +1.34594783e-01 +1.62505731e-02 -4.24080156e-02 +3.47453579e-02 +6.60241023e-02 -1.28595531e-01 +4.68100384e-02 +9.34237912e-02 -1.36611074e-01 +7.41996616e-02 -7.02203885e-02 -1.44974619e-01 +3.60686183e-02 +9.16909277e-02 +7.61872064e-03 +5.33735529e-02 -1.59028098e-01 -3.82443368e-02 -6.44857362e-02 -1.38391659e-01 -1.20590581e-02 +4.61812802e-02 +8.53220671e-02 +2.97418050e-02 +6.74727783e-02 -5.28640486e-02 +2.47078314e-02 +8.46025944e-02 -2.26490244e-01 -7.74547756e-02 +1.92790590e-02 +9.55309272e-02 +1.25105307e-01 -1.44048527e-01 -1.77604645e-01 -2.74467058e-02 -6.15266785e-02 -1.34305984e-01 +1.12410195e-01 -1.27623573e-01 -1.18243657e-01 +8.13192502e-02 -2.26064354e-01 -3.23204473e-02 -2.11687312e-02 -1.73206910e-01 +1.58483714e-01 +1.41142577e-01 +5.04153743e-02 +7.53598288e-02 +1.19067281e-02 +9.82825235e-02 +4.26600389e-02 +4.95492816e-02 -2.00597178e-02 -2.02129558e-02 +1.23065554e-01 -2.65145719e-01 -2.63965338e-01 +8.02112452e-04 -6.79905713e-03 -8.93650204e-02 -6.83640912e-02 +1.00370452e-01 +8.07518065e-02 +1.86240241e-01 -2.12813094e-02 -7.85926264e-03 -1.24392010e-01 +2.38464475e-02 -4.74643596e-02 +1.04589090e-01 -4.28492017e-02 +6.98031336e-02 -1.36501208e-01 -7.03196973e-03 -1.52547076e-01 +7.29312599e-02 -2.52562184e-02 -7.32372254e-02 +1.02644362e-01 -6.68942705e-02 +6.19839430e-02 +1.11502118e-01 +1.67472921e-02 -5.88902645e-02 -1.44320233e-02 +8.20437148e-02 +4.14540097e-02 +4.10494059e-02 +4.92874868e-02 +9.87149775e-02 +8.39322060e-02 +1.04943484e-01 -6.06947280e-02 +3.85526270e-02 -1.83474019e-01 -9.05274674e-02 -1.66233420e-01 -3.70694473e-02 -8.87767822e-02 +1.55511588e-01 -1.05560003e-02 +1.25634417e-01 -1.60769567e-01 -5.36957290e-03 -3.04924101e-02 -1.42425662e-02 +1.91630155e-01 +1.10205688e-01 -2.19977647e-02 +4.30106036e-02 -1.36925638e-01 +1.36357963e-01 -5.96354762e-03 -1.64451733e-01 -1.14244625e-01 -1.11570217e-01 -1.08659692e-01 +4.99966070e-02 -1.29310399e-01 +2.49648690e-01 -2.29014046e-02 -1.31458119e-01 -7.67306387e-02 -1.11969346e-02 -1.31034285e-01 -1.31804109e-01 -1.65097922e-01 +3.63229290e-02 -1.01923123e-01 -1.16949312e-01 -1.39051350e-02 -1.26845166e-01 -1.60710037e-01 +7.49887992e-03 -1.29910931e-01 -3.98176983e-02 +5.08623719e-02 -8.73296708e-02 -6.06556088e-02 -5.92090376e-02 -9.49444249e-02 +6.31858781e-02 -3.68799828e-02 +6.89558908e-02 -3.01879477e-02 -1.95343703e-01 +1.37861699e-01 -3.46948914e-02 +7.60021955e-02 +6.45659566e-02 -1.02776386e-01 -1.72354266e-01 +1.18379079e-01 -3.44874114e-02 -8.52106586e-02 +9.59405601e-02 -1.12225212e-01 -4.53756526e-02 -8.31748024e-02 -1.13673648e-02 -6.48583844e-02 +2.06276074e-01 -3.11145261e-02 +1.02670610e-01 +1.31014764e-01 +4.89889458e-02 -2.63605714e-02 +1.72274843e-01 +1.26402348e-01 -2.90855527e-01 +9.40793380e-02 +1.49365261e-01 -7.30440989e-02 -1.71809294e-03 -6.38512298e-02 +1.92733798e-02 +6.43855259e-02 -1.23461643e-02 +2.14834869e-01 -9.37001128e-03 +1.23212472e-01 -2.20756784e-01 -9.28951893e-03 -9.61697400e-02 -2.03250665e-02 +3.18680853e-02 -2.34911181e-02 -7.45076686e-02 -4.94204126e-02 -1.67599693e-01 -7.63669536e-02 +2.17622176e-01 +1.14154167e-01 +1.44934386e-01 -6.34766817e-02 -1.24373198e-01 +2.45846994e-02 -1.55448571e-01 +3.39555331e-02 +2.43444920e-01 -5.96046671e-02 +5.12292562e-03 -6.33779541e-02 +1.46124944e-01 -1.30876347e-01 -1.00316845e-01 -6.54272512e-02 +1.07475586e-01 -4.65518795e-02 -1.55990273e-01 +1.68925941e-01 -8.30764845e-02 +1.17813773e-01 +1.69147044e-01 -2.30056401e-02 -1.14364503e-02 -1.86085299e-01 -1.02642819e-01 -1.64347351e-01 +6.77285492e-02 +5.09522818e-02 +4.99998778e-02 -6.27166592e-03 +5.77346701e-03 -3.47900987e-02 -8.84586871e-02 -4.16819267e-02 +1.58409923e-01 -9.76652279e-02 -6.22138903e-02 +5.47508560e-02 +6.26236126e-02 +1.18085369e-01 +1.72944516e-01 -9.89196897e-02 +9.50666331e-03 -2.20642731e-01 -1.88226148e-01 -1.75339356e-01 +2.02363972e-02 +1.80075139e-01 -8.68849158e-02 +5.23696430e-02 +9.24801305e-02 +3.03979427e-01 -4.78561642e-03 +2.09835410e-01 -1.57060057e-01 +7.48027712e-02 -1.12566993e-01 +6.14718087e-02 +2.14974228e-02 +5.65291457e-02 +3.61586697e-02 +7.18185455e-02 -5.19837835e-04 -1.17878720e-01 +1.53201878e-01 -8.58993754e-02 +1.87300295e-01 -4.16328348e-02 +1.23640694e-01 +1.71947837e-01 +4.77420278e-02 -6.28626347e-02 -1.07431926e-01 -1.41411930e-01 -2.10068822e-02 +6.64016306e-02 -2.44605378e-03 -2.43602619e-01 -5.50302453e-02 -1.84519067e-02 -1.41311362e-02 -2.03590989e-01 +2.09122058e-02 +1.64828658e-01 +2.97086406e-02 +1.27296925e-01 +1.04175108e-02 -5.39497025e-02 -2.41412818e-01 -3.72346714e-02 +2.16967344e-01 -1.40594959e-01 +7.60104042e-03 +1.34046689e-01 -1.75592959e-01 +1.39117524e-01 +2.79879749e-01 +7.01613426e-02 -6.11651316e-02 -1.04240462e-01 -3.95362079e-02 +1.42650574e-01 +1.34099707e-01 +1.91840112e-01 -5.39217405e-02 -1.22329168e-01 +2.36840293e-01 -2.78497469e-02 +1.28998429e-01 +2.34164521e-01 -3.26082647e-01 -7.21944449e-03 -1.41515076e-01 +1.02679990e-02 -7.82131106e-02 -1.41439900e-01 +1.82211116e-01 -7.25862756e-02 +2.43689850e-01 +1.71655312e-01 +3.18978168e-02 -2.02308804e-01 +1.89069193e-02 -1.84860915e-01 +9.57585424e-02 +1.38572883e-03 -2.55235080e-02 -6.71452507e-02 +5.42684607e-02 -1.75178096e-01 -1.95776522e-02 +3.45282964e-02 -7.91662857e-02 -5.35288937e-02 +4.62448113e-02 -3.00488740e-01 -1.06540211e-01 -2.57882439e-02 +3.40831988e-02 +2.30963696e-02 +2.35603839e-01 +1.75902054e-01 +1.11924477e-01 -1.43591926e-01 -2.19767308e-03 +1.61883645e-02 +1.38285890e-01 -1.71059996e-01 -4.10233364e-02 -6.22542500e-02 -9.43010524e-02 -2.52911747e-02 -2.31362984e-01 -6.17820546e-02 -1.44522727e-01 +1.99812070e-01 +2.84903720e-02 -3.18861492e-02 +3.72858271e-02 +1.38458133e-01 -5.23177497e-02 +2.16696616e-02 -1.62900820e-01 +1.94613151e-02 +3.83474156e-02 -8.59085172e-02 -6.51197061e-02 -9.78965014e-02 +7.31209740e-02 -1.07524013e-02 -2.98131369e-02 -2.14889534e-02 +9.64166299e-02 +1.50375858e-01 +2.22641672e-03 -3.87529982e-03 -2.11476147e-01 -6.08344488e-02 +2.38889307e-02 -4.61625047e-02 +9.58607867e-02 -1.89242601e-01 +2.01080553e-02 -2.17980072e-02 -1.41270190e-01 -8.74553844e-02 +3.04922145e-02 +6.37447834e-02 -1.34530887e-01 -6.94101155e-02 -1.00547701e-01 +2.22750366e-01 -1.96647812e-02 +2.39158385e-02 +1.78664416e-01 -9.42833796e-02 +4.79350388e-02 +1.05945114e-03 +4.38413955e-02 -3.66176777e-02 +5.25980815e-02 -6.37539998e-02 -3.68792973e-02 -1.03238001e-01 +1.42154276e-01 -5.16780578e-02 -6.19413406e-02 -1.65254742e-01 -1.41346425e-01 +9.64037925e-02 +1.42738968e-01 -1.09753042e-01 -3.25289726e-01 -1.13039970e-01 -3.28008225e-03 -8.18229541e-02 -2.78826170e-02 -1.00407012e-01 +1.98066458e-02 +4.81270887e-02 -9.18832496e-02 +1.95333734e-01 -8.49772915e-02 -3.37104350e-02 +9.61951315e-02 -2.96941530e-02 +1.00029074e-01 -1.70586929e-02 -2.87969947e-01 +9.21005309e-02 +1.03513591e-01 -8.68501700e-03 -8.15532431e-02 +6.82760030e-02 +3.16499993e-02 +6.23415485e-02 +4.57455926e-02 -1.13077007e-01 +3.79243568e-02 +7.34564289e-03 -2.61283398e-01 +8.64748582e-02 +1.24688772e-02 -4.05972190e-02 +9.41853374e-02 -1.17170319e-01 +1.74826384e-01 -8.99217054e-02 +2.08783224e-01 -1.89876128e-02 -7.56866187e-02 -2.10311979e-01 -1.05032716e-02 +9.53269526e-02 -5.30535728e-02 -5.19782156e-02 -1.35573326e-02 -2.65822738e-01 +5.57900816e-02 +2.75984425e-02 +1.58323824e-01 -1.91364124e-01 +3.57619785e-02 +6.83251247e-02 -7.40188081e-03 +1.61419939e-02 +8.42846259e-02 +2.61240378e-02 -9.76204723e-02 +2.44582817e-02 +3.33486311e-02 +6.22490756e-02 +1.31029606e-01 +5.97162433e-02 -3.29645239e-02 +2.74394006e-02 +3.12577449e-02 +2.05971822e-02 -1.85225494e-02 +6.48042187e-02 +2.14600787e-02 +1.68193266e-01 -7.45059550e-02 -6.04965761e-02 +7.28310868e-02 -1.01052672e-01 -9.36178211e-03 -1.18447438e-01 -2.26431310e-01 -3.24106701e-02 +6.72633722e-02 +8.22450407e-03 -6.31537139e-02 -1.86276093e-01 +1.82948992e-01 +1.08540930e-01 -4.07132432e-02 +1.21936454e-02 -1.15157157e-01 +4.22987118e-02 -7.98328295e-02 +2.60327216e-02 -2.69429293e-02 +1.15312658e-01 +1.83331687e-02 +1.07238181e-01 +6.15701312e-03 -1.81350801e-02 +1.90019570e-02 +7.16818050e-02 +7.93901179e-03 +6.00504242e-02 -3.58587243e-02 -2.94871219e-02 +4.69708145e-02 +4.61498238e-02 -1.02366477e-01 +4.40887990e-04 -1.62448242e-01 -1.05755873e-01 +2.01612458e-01 -1.18434787e-01 +1.77310675e-01 +2.16520399e-01 -3.49952616e-02 +7.70443380e-02 +6.38118237e-02 -7.14906156e-02 -1.27759904e-01 +1.20789014e-01 -8.99121314e-02 +4.22782488e-02 -2.55882312e-02 +6.25588596e-02 +7.76895136e-02 +9.76756215e-02 +7.58918449e-02 +1.79984242e-01 +5.17250001e-02 -7.71304742e-02 +1.30462497e-01 +1.51518285e-01 +2.40208488e-02 -5.27867787e-02 +8.49711373e-02 +1.04413554e-01 -5.24235629e-02 +5.56288920e-02 +4.32310998e-02 +1.68935657e-01 +2.98851896e-02 +2.54306585e-01 -1.04898475e-01 -6.65434077e-02 -1.08281910e-01 +2.79989764e-02 -4.75672539e-03 -1.72947168e-01 -3.96823399e-02 +5.35288220e-03 +1.34214699e-01 +9.99654680e-02 -2.64315635e-01 -3.22641954e-02 +6.79795444e-02 -1.37960896e-01 -2.21637502e-01 -9.50577259e-02 +2.99490411e-02 -1.25806883e-01 -6.45959601e-02 +1.07841447e-01 -4.43611145e-02 -2.41464823e-02 -1.51429713e-01 +1.94095839e-02 -1.00532234e-01 -3.01183075e-01 +1.98714975e-02 +9.38295648e-02 +6.13628812e-02 +6.70808628e-02 -1.47422835e-01 -3.74180041e-02 +3.42069656e-01 +9.87383872e-02 -8.10388774e-02 -3.92294414e-02 -1.54740855e-01 -1.05388992e-01 -2.71670163e-01 -1.59923974e-02 +2.08101004e-01 +6.47492409e-02 +2.19021477e-02 +3.08411241e-01 +1.57651946e-01 +2.56368089e-02 -7.76191950e-02 +6.86125308e-02 -8.55643675e-03 -2.04101168e-02 +2.25267429e-02 -1.05964079e-01 -2.13950523e-03 +2.32209135e-02 -5.33577427e-03 +5.85711710e-02 +7.97914863e-02 +1.63422897e-01 -8.95342082e-02 +3.44988257e-02 -1.72887012e-01 -1.42704234e-01 -1.43558413e-01 +1.66728765e-01 +2.19598398e-01 -1.64334252e-01 -9.09586549e-02 +1.06801679e-02 -8.49553645e-02 +1.31994978e-01 -8.88618901e-02 -3.67550105e-02 -7.75605515e-02 +3.96497501e-03 -5.37245423e-02 +1.68434239e-03 -1.05804354e-01 -6.45227283e-02 +2.22455785e-02 -1.08127639e-01 -4.78327349e-02 -1.92715496e-01 +6.42917603e-02 -8.20749477e-02 +1.68055994e-03 +5.06759845e-02 -2.15881225e-02 +1.73633903e-01 -1.74433157e-01 -7.88313225e-02 -4.66737114e-02 -1.30611628e-01 +7.87003152e-03 -3.81693803e-02 +2.72606052e-02 +1.83046982e-02 +4.16578129e-02 -1.40746022e-02 +1.77902002e-02 -1.02020893e-02 +1.53383255e-01 -1.41343534e-01 +2.59598121e-02 +4.62320149e-02 -5.80548681e-02 -3.01317833e-02 -1.00227915e-01 -2.51174234e-02 +1.53020080e-02 +7.39895925e-02 -2.25667772e-03 -1.19699374e-01 -1.28131539e-01 +1.23692527e-01 -6.70219352e-03 -5.48684970e-02 -6.63739815e-02 +4.61789519e-02 -1.13146111e-01 -6.56340737e-03 -9.11429748e-02 -1.80427745e-01 +3.14628296e-02 +8.44743699e-02 +8.43702350e-03 -3.26100141e-02 -1.76497981e-01 -1.26325905e-01 +5.36371395e-02 +2.09464673e-02 +1.68284439e-02 +5.87251596e-02 +1.59122780e-01 -1.02326319e-01 +9.31865200e-02 -6.29527401e-03 -3.09474152e-02 +4.16350365e-02 +1.04186246e-02 +1.07123174e-01 -4.40345816e-02 -1.54829010e-01 +5.09786829e-02 -2.25524947e-01 -5.69788851e-02 -1.01117939e-01 +2.93517243e-02 +6.49769753e-02 +9.52015743e-02 -6.80870414e-02 +7.94680491e-02 +3.76144312e-02 +8.29373226e-02 -7.98673183e-03 +1.17324986e-01 -2.52702478e-02 -8.92581493e-02 -9.20029506e-02 -1.48052080e-02 -2.22192388e-02 +9.02280062e-02 +2.04673037e-02 +7.36936927e-02 -3.91659029e-02 +7.59501383e-02 +8.51667896e-02 +1.07875206e-01 -5.28001189e-02 -1.86019167e-01 +1.53442338e-01 +8.03802386e-02 -2.82742918e-01 +6.96918219e-02 +2.08908677e-01 -9.72269997e-02 -6.23599999e-02 +9.22476053e-02 -5.18829897e-02 -1.32039741e-01 -4.06651273e-02 -2.37371296e-01 -1.45351559e-01 -6.20789416e-02 -1.37499824e-01 +1.81805283e-01 -7.33505264e-02 -1.65451065e-01 -3.95075642e-02 -4.78781909e-02 -2.06266373e-01 +1.13795027e-01 -1.47190407e-01 +9.58853662e-02 +5.67889251e-02 +5.73427826e-02 +1.09826922e-01 -2.42824922e-03 -1.55662410e-02 -9.76893380e-02 +2.23950952e-01 +1.79186940e-01 -6.98374137e-02 -3.31362411e-02 +1.98580042e-01 +1.48415595e-01 -9.59239677e-02 +2.21518837e-02 +3.13029028e-02 -6.45088777e-02 +6.38181418e-02 +2.50418466e-02 -1.15843840e-01 +1.29263803e-01 +8.52212831e-02 -8.93704519e-02 +8.14441517e-02 +1.72578275e-01 +9.85628888e-02 +1.09178852e-02 +8.00645798e-02 +9.38059855e-03 -1.00285485e-01 -1.08536892e-01 +6.52405322e-02 -1.92471147e-01 +2.54857838e-01 -7.85450041e-02 -1.48436010e-01 -8.34633783e-02 -4.17538844e-02 +1.77183568e-01 -7.84913357e-03 -3.67148854e-02 -2.64689028e-01 -2.42222659e-02 -5.73228933e-02 -6.58968557e-03 +5.54801412e-02 +2.60432661e-02 +1.50060371e-01 +1.38883099e-01 -2.43574064e-02 +1.35564953e-01 -5.45633445e-03 +1.10807382e-01 -4.49457504e-02 +1.11704163e-01 +1.37202173e-01 +7.30114952e-02 -1.74852647e-02 -6.51196837e-02 -7.86730275e-02 +2.38977820e-01 -1.66316211e-01 +1.85465366e-02 +4.33010831e-02 +5.88731095e-02 +4.34208214e-02 -1.55622996e-02 -1.15549326e-01 +3.74307819e-02 +5.86412810e-02 -4.90445308e-02 -2.31002331e-01 +8.63022730e-03 -2.47492120e-02 +1.41393870e-01 -2.19929516e-01 -3.05887870e-02 -1.05111096e-02 -1.36189327e-01 +5.09790191e-03 -1.28845930e-01 +2.76301149e-03 +8.39246288e-02 +3.90850753e-02 +1.49108112e-01 -9.05005448e-03 -2.52359733e-02 -2.54728459e-02 -1.05830260e-01 -9.48697552e-02 +2.20158920e-02 -1.76852182e-01 +4.16218787e-02 +2.56436765e-02 +3.63981836e-02 +6.09486550e-02 +1.89973414e-02 -2.31300831e-01 -2.02371687e-01 +1.05322301e-01 +4.93423901e-02 +9.66193900e-02 -2.81050354e-02 +2.22385764e-01 +6.32611215e-02 +8.66952613e-02 +1.27142593e-01 +4.10345867e-02 -2.16876373e-01 -1.30227283e-01 -3.52955461e-02 -2.21985236e-01 -1.52727187e-01 -2.21873149e-02 -1.91726873e-03 -8.48100781e-02 +1.32096902e-01 -1.77290160e-02 +4.50605378e-02 -5.48085198e-04 +4.67645675e-02 +1.03940316e-01 +6.06348098e-04 +1.32067874e-01 -1.46203786e-01 -1.04297169e-01 +7.40341023e-02 -1.23003863e-01 +4.76214811e-02 -1.70132481e-02 +1.19464979e-01 +1.11558296e-01 +7.18373954e-02 -8.66307467e-02 +1.29398406e-01 -1.41360581e-01 -7.41324527e-03 -5.62620424e-02 -4.82748449e-02 -5.75335249e-02 -1.57290474e-01 -1.38680190e-01 -1.16634108e-02 -9.94999036e-02 +6.10545501e-02 -2.61168927e-02 +1.08956419e-01 +7.76541457e-02 -8.15059058e-03 -4.68823165e-02 -7.79382512e-02 -1.85717985e-01 +5.64638823e-02 -1.22670475e-02 +2.19531998e-01 -1.32640168e-01 +1.61359832e-02 -9.36496363e-05 +9.38770846e-02 +1.52535930e-01 +1.46174610e-01 -1.85810015e-01 +7.62835983e-03 +1.80079728e-01 -1.90003932e-01 -5.79183660e-02 -4.60668057e-02 -8.66441503e-02 -4.53321002e-02 -6.36054426e-02 -2.83406358e-02 -8.69880766e-02 +8.73419046e-02 +7.78385699e-02 +1.71734422e-01 +8.35184157e-02 -3.36588034e-03 -9.88206118e-02 +6.03975868e-03 -5.01078814e-02 -5.44101000e-02 -1.00419477e-01 -1.50186881e-01 +3.46729383e-02 -8.06402564e-02 +3.45106848e-04 -6.71373680e-02 +5.15574589e-02 +3.45600843e-02 +3.40628214e-02 +7.01379627e-02 -1.58970892e-01 -8.58568063e-04 +3.55142802e-02 -4.80118468e-02 -8.86423141e-02 +2.22313061e-01 -6.01406395e-02 +9.76419300e-02 +1.11799404e-01 +1.10087916e-03 +2.43713018e-02 +2.78028607e-01 -1.32511929e-01 -1.71936173e-02 +6.76561147e-02 +2.06839554e-02 -2.06521615e-01 +3.36825848e-02 -1.16491178e-02 -7.97699839e-02 -6.11937903e-02 -1.85865611e-01 +8.81561637e-02 +2.09907040e-01 -1.86531186e-01 -4.94764820e-02 -4.83847521e-02 +7.58494735e-02 +1.21107005e-01 +1.19346790e-01 -9.44801494e-02 +1.48843527e-02 +1.73436552e-02 -2.10971795e-02 -9.86113446e-04 -4.46464028e-03 -7.05287009e-02 +1.08680129e-01 +1.11811846e-01 +1.99985862e-01 +6.50878474e-02 -3.16171795e-02 +1.01926308e-02 +8.63506198e-02 -3.27168703e-02 +2.51941949e-01 +9.75161716e-02 +8.29886794e-02 +1.22350991e-01 -3.62294726e-02 -1.08887322e-01 +1.39023568e-02 -1.00467540e-01 +1.53905554e-02 +2.31627859e-02 -1.19418956e-01 +1.42168835e-01 +4.95157875e-02 -5.20433225e-02 +1.16127640e-01 -1.99164022e-02 +1.06808860e-02 -1.46687627e-01 -5.98792434e-02 +1.73774824e-01 -1.13727693e-02 -1.26953185e-01 +2.02434078e-01 +6.62540132e-03 +1.66276731e-02 +1.52366295e-01 -4.26519327e-02 +8.74305218e-02 +2.41952594e-02 +1.53639108e-01 +3.40533219e-02 -4.27958705e-02 -1.47658885e-01 -2.38342658e-01 +3.17345699e-03 +5.65150827e-02 -2.56025512e-02 +2.14092329e-01 -1.61314905e-01 -1.42241213e-02 -9.71973538e-02 +1.52862102e-01 +3.36153060e-02 +8.59723315e-02 -1.33952163e-02 +2.07310036e-01 -7.99897611e-02 +7.43716285e-02 +1.27146663e-02 -5.36991693e-02 -1.82879344e-02 -3.54153365e-02 +1.26950160e-01 +2.20742434e-01 -6.61714077e-02 -1.88588738e-01 +8.63430426e-02 +1.95086464e-01 -7.09411800e-02 +3.33777349e-03 -1.26080006e-01 -1.60935313e-01 +2.03539997e-01 -4.01883461e-02 +3.42631936e-02 +8.64592940e-02 -2.62115866e-01 +5.32811210e-02 +1.41910285e-01 +1.39569595e-01 +6.14801086e-02 -6.61705658e-02 -1.01150699e-01 -1.37135331e-02 -4.01549637e-02 +1.70845717e-01 -9.66598243e-02 -2.58573741e-01 -1.29485890e-01 +1.63365543e-01 +1.44096002e-01 -1.39528930e-01 -1.24828875e-01 +1.33733183e-01 -1.68012977e-01 -1.32411122e-01 -1.99371263e-01 +1.19754516e-01 -5.32307364e-02 +3.82769946e-03 -6.42927215e-02 +4.78448197e-02 +1.76665857e-02 +7.71093764e-04 -1.60725378e-02 +2.37531196e-02 -8.01332444e-02 +1.06313368e-02 +5.55975474e-02 -6.48872927e-02 +1.96736172e-01 +8.30599442e-02 -1.78371996e-01 -1.50074601e-01 +1.34771481e-01 +1.22068450e-01 +9.53553319e-02 +6.50162175e-02 -1.85010478e-01 -3.13720673e-01 -4.21964712e-02 -6.19963929e-02 -2.19682679e-01 +1.34327831e-02 -9.76818949e-02 -2.58699000e-01 -2.17734858e-01 -4.95865904e-02 -1.54606048e-02 +1.20404638e-01 +2.03752309e-01 +7.19074607e-02 -1.50511637e-01 +3.10439676e-01 +1.77215151e-02 -2.10898966e-02 +6.60206676e-02 -1.09267771e-01 -5.13236038e-02 -1.45072490e-01 +1.24028856e-02 +1.55124273e-02 -5.79849910e-03 -2.71598566e-02 -1.42426983e-01 +1.27624601e-01 +8.45238939e-03 +1.75583601e-01 +4.45971787e-02 +7.41121992e-02 +1.87907398e-01 -7.80530423e-02 -1.43359244e-01 +7.61644319e-02 -1.36680052e-01 -3.99330221e-02 -3.59282605e-02 +2.07858421e-02 -1.46649629e-01 +2.60689735e-01 +6.29796684e-02 -8.88471305e-02 +2.27807164e-02 -1.28073338e-02 -9.44693759e-02 +1.41424149e-01 +6.92366138e-02 +6.49596527e-02 -2.49812435e-02 -1.60878859e-02 +6.07621763e-03 +4.92166243e-02 +6.53717434e-03 -1.32617563e-01 +3.72536890e-02 +9.21722949e-02 -6.11567460e-02 -1.83535144e-01 +1.76134601e-01 +8.35727081e-02 -1.26546249e-01 -4.37055640e-02 -1.05792180e-01 -5.87904677e-02 -5.29159307e-02 +1.85687736e-01 -1.23634569e-01 -1.51845470e-01 +7.20754266e-02 -7.37773106e-02 -1.16923109e-01 -4.55117505e-03 -2.52110243e-01 +3.30397822e-02 -4.05660234e-02 -6.63295435e-03 -1.47507265e-01 +1.55093566e-01 +1.03371805e-02 -5.68893999e-02 -5.74389957e-02 +1.18576221e-01 -7.61880726e-02 -4.01282571e-02 -1.67634338e-01 -4.51575359e-03 +1.51025087e-01 -1.26966745e-01 -6.90367306e-03 -1.55850425e-01 +8.22351351e-02 +1.00643016e-01 -9.71860364e-02 -4.44783196e-02 +2.53499001e-01 +2.22676322e-01 +4.11783764e-03 +7.68118948e-02 -1.76589966e-01 -4.25681621e-02 +2.04840556e-01 +2.46707983e-02 +1.44724935e-01 +1.11568108e-01 +3.63532268e-02 -5.64355068e-02 -5.81523180e-02 -6.62865071e-03 +1.98150009e-01 +7.24734142e-02 +8.27067643e-02 -3.15118656e-02 -1.98065475e-01 +1.33296430e-01 -6.75477013e-02 +1.15932658e-01 +1.09143212e-01 +7.08445162e-02 +7.53326863e-02 +1.04297176e-02 +1.67191118e-01 +2.04736330e-02 -2.42077615e-02 -3.64727201e-03 -8.99327993e-02 +3.30474079e-02 +2.02970088e-01 -5.41585758e-02 -4.86920215e-02 -7.74018764e-02 -1.43245265e-01 +3.70901125e-03 +1.12022934e-02 +8.05851370e-02 +1.25497118e-01 +1.23964339e-01 +1.18563110e-02 +1.99023820e-02 +4.79418896e-02 -1.06690325e-01 -1.15622386e-01 +5.18691577e-02 +9.45354775e-02 -3.37088257e-02 -7.40913376e-02 +4.02499288e-01 -1.89913183e-01 -2.68368572e-01 +1.29239947e-01 -2.29587764e-01 -1.18071094e-01 -3.66816491e-01 +6.10099211e-02 -1.58929527e-02 +1.10842146e-01 +1.47291526e-01 -5.45238853e-02 +2.36751080e-01 -5.11900447e-02 +5.01061836e-03 -1.82172909e-01 +2.71307528e-01 +1.35768771e-01 +2.49971338e-02 -1.68197289e-01 -1.21485285e-01 +1.13472797e-01 +6.12190515e-02 +2.68581975e-03 +6.22940734e-02 -1.71812072e-01 -9.68550444e-02 -2.62013022e-02 -5.64729609e-02 -1.18260629e-01 -1.83960915e-01 -1.31960779e-01 -1.25672758e-01 +2.26938039e-01 +4.99998890e-02 +1.53088659e-01 +1.53222159e-01 +1.09383397e-01 -1.98857449e-02 -1.99447870e-01 -3.80276963e-02 +2.43063495e-01 +1.80391178e-01 +1.34357050e-01 -6.71254843e-02 -2.40152925e-02 +9.97492485e-03 +3.49066444e-02 -7.47413710e-02 +1.15481466e-01 -4.66135629e-02 -4.03573290e-02 +5.24487905e-02 -1.67574346e-01 -1.29140198e-01 -6.56941459e-02 -8.72465298e-02 +1.50026649e-01 -3.51891071e-02 +6.36239573e-02 +4.54560071e-02 -7.97924101e-02 +4.88431416e-02 +2.35393897e-01 +3.96640301e-02 -6.92963973e-02 -2.09091604e-01 -1.19169831e-01 -1.64460361e-01 +4.14737128e-02 -3.86814512e-02 +2.59652346e-01 -1.43456727e-01 +1.22439995e-01 +1.10459179e-01 -7.26722777e-02 +1.41614959e-01 +4.68899421e-02 -1.15961373e-01 +1.18439704e-01 -9.27979946e-02 -1.73294798e-01 -7.27589801e-02 -1.44388571e-01 -1.00407608e-01 +6.25041723e-02 +7.22462460e-02 +1.59029752e-01 -7.21052513e-02 +2.07925364e-01 -2.80315690e-02 -3.75171840e-01 +1.41029581e-01 +3.57222073e-02 +1.01542495e-01 +1.50358558e-01 -4.01130080e-01 -9.54304412e-02 +1.62313953e-01 +1.44307151e-01 +2.60350049e-01 -2.22277571e-03 +4.53557149e-02 +2.65305620e-02 +4.37326506e-02 -4.82315682e-02 +1.59613803e-01 -1.60048261e-01 +1.47122204e-01 -8.08713287e-02 -4.18253504e-02 -4.15743813e-02 +2.22992346e-01 +2.15350255e-01 -1.61514267e-01 +1.86954901e-01 +2.18915001e-01 +1.74053311e-01 +8.33556522e-03 +3.24369001e-04 +2.71608472e-01 +1.68663085e-01 +1.27835900e-01 -6.29559904e-02 -2.55616643e-02 -1.18072890e-01 +1.01265334e-01 -3.97800952e-02 -1.39153987e-01 -1.03017718e-01 -9.80956107e-02 -2.75738329e-01 -2.58884817e-01 +1.28380954e-01 +4.82078604e-02 +1.34813875e-01 -8.76358524e-03 -1.03088297e-01 +2.75570333e-01 -6.85989410e-02 +3.93608622e-02 -7.01335669e-02 -6.66347444e-02 +3.45015675e-02 +2.11893693e-01 -1.09790616e-01 -1.88908756e-01 -1.33207113e-01 -1.21106513e-01 +4.09412943e-02 +1.60387659e-03 +1.20764561e-01 +1.45401165e-01 -5.39098773e-03 +1.96677864e-01 +1.58104599e-01 -1.85842350e-01 -5.36604747e-02 +1.78842142e-01 +1.66252524e-01 +4.40064147e-02 -8.33696220e-03 +3.05137038e-01 +1.30182942e-02 -4.05004770e-02 +8.22541565e-02 -2.72982121e-01 +9.43291932e-03 +1.88493416e-01 -1.37653053e-01 -1.73644349e-01 +6.66714609e-02 -8.82888660e-02 +6.35994375e-02 -1.70685828e-01 +5.32882214e-02 +3.19249071e-02 -1.44787759e-01 +6.87655360e-02 +9.26763639e-02 +4.94324928e-03 -9.37172771e-03 -1.09357305e-01 +1.97781384e-01 -2.42006600e-01 -3.52538042e-02 +9.39576253e-02 -1.67185158e-01 +1.73421696e-01 +1.15748756e-02 +2.32054561e-01 -1.15345985e-01 -8.08638036e-02 -1.48881733e-01 +5.97157283e-04 -1.12787209e-01 -2.03412771e-01 -6.86171502e-02 -1.64040312e-01 +5.95259517e-02 -1.78910255e-01 -1.67160347e-01 -8.24165866e-02 -6.12165518e-02 -1.11560114e-01 +2.63725966e-01 -2.85971969e-01 +5.74947745e-02 +5.96314482e-02 -1.42220244e-01 +1.18586481e-01 -1.86946001e-02 +1.09920345e-01 +3.14730495e-01 +2.44853273e-02 +8.15611184e-02 +1.78434268e-01 -7.69113898e-02 -9.14001763e-02 -1.09350279e-01 -4.93793190e-02 -1.80346966e-01 +4.70457748e-02 +1.46724572e-02 -3.25377550e-05 -4.40666676e-02 -6.24262206e-02 -9.89165716e-03 -8.01829100e-02 +2.47628450e-01 -5.96748069e-02 +2.34407838e-02 -3.14548872e-02 +1.78105399e-01 -1.38914585e-01 -2.22813934e-01 -9.31118131e-02 -3.08453459e-02 -2.07964275e-02 +2.07849503e-01 -2.85279844e-02 +1.13712274e-01 -8.04307386e-02 -3.39843370e-02 -6.76892623e-02 -8.12983420e-03 +2.09603067e-02 +1.74290031e-01 -9.51650515e-02 +8.11150447e-02 +2.17154045e-02 -1.85026266e-02 -3.83642092e-02 +2.02344805e-01 -8.89217556e-02 +6.95615411e-02 +1.49147674e-01 +1.41903654e-01 -9.45163667e-02 +1.94933414e-01 -6.59246370e-02 +5.06162532e-02 -1.46937549e-01 +2.67985940e-01 +1.44486666e-01 -9.28271934e-02 +6.47889376e-02 -9.95899290e-02 +1.76050991e-01 +1.47951320e-01 +1.09935347e-02 +4.23971266e-02 +3.29547286e-01 -3.53480391e-02 +1.20735634e-02 -1.45712465e-01 +7.93986544e-02 +9.31356326e-02 +3.54481563e-02 +4.08055075e-02 -1.70211747e-01 -1.46327406e-01 +8.23279917e-02 +1.56293646e-01 -9.27806348e-02 -4.23948616e-02 -4.12551686e-02 -8.76498446e-02 -7.96772912e-02 +3.33311781e-02 +8.34277272e-02 +6.00236729e-02 +1.57774925e-01 -1.02912351e-01 +4.59179990e-02 -1.77686170e-01 +1.22248076e-01 +9.90084782e-02 +2.04727158e-01 +1.62647907e-02 -6.80140406e-02 +5.51486686e-02 +1.22137517e-01 -1.32911399e-01 -1.20896682e-01 +3.45150046e-02 +1.48783058e-01 +1.53248966e-01 -6.88535953e-03 +1.07225254e-01 -1.61738470e-01 -1.33320251e-02 -4.49521206e-02 +3.97125743e-02 -1.47675037e-01 +9.63756524e-04 +4.02125763e-03 +1.23022571e-01 -7.75412172e-02 +1.33229541e-02 -1.78110853e-01 +6.84115738e-02 -9.10056382e-02 +1.84828676e-02 -2.39640161e-01 -5.32308258e-02 +3.94674204e-02 +7.80907869e-02 +4.42745648e-02 +4.04822491e-02 +5.91535680e-02 -5.43298386e-02 +5.08887991e-02 -1.70167953e-01 -5.89584373e-02 -1.07758060e-01 +3.01629724e-03 +4.51427847e-02 -1.31907091e-01 -1.58203229e-01 +1.58561245e-02 +1.11793382e-02 +4.09820415e-02 -6.20932179e-03 -4.49997745e-02 +5.29145114e-02 +1.10702559e-01 +8.12952965e-02 -1.01938859e-01 +1.16600958e-03 -1.72280222e-01 -3.79657466e-03 -1.32425085e-01 -2.98429187e-02 +2.86343787e-02 -1.78760335e-01 +1.26813412e-01 -3.83654833e-02 +2.97807213e-02 +2.37372816e-01 -1.19337449e-02 +9.24041495e-02 -6.95230067e-02 -1.58097908e-01 -1.35131314e-01 -1.60506234e-01 -8.45385790e-02 -7.03073293e-02 -1.41770855e-01 +6.24919422e-02 +8.31134710e-03 +7.84337427e-03 -4.88073528e-02 -9.06841010e-02 +1.86719224e-01 +3.37322429e-02 -4.26633209e-02 +6.50559217e-02 -1.99721321e-01 -1.77382529e-01 +1.30461352e-02 +8.36714357e-03 +9.64423344e-02 -1.01729617e-01 -6.35339767e-02 -6.54739141e-02 -7.86290504e-03 -2.60119081e-01 +2.27566212e-01 -5.46875857e-02 +6.14264086e-02 +2.37871557e-01 -1.05861239e-01 +8.79418105e-02 -2.01825023e-01 -1.55533468e-02 +1.82002082e-01 -1.40528038e-01 -1.09031990e-01 -3.92719097e-02 +1.39915422e-01 +1.48443850e-02 +1.21124320e-01 -2.52782321e-03 +1.33440807e-01 -7.09408000e-02 -4.46477756e-02 -1.38590768e-01 -8.51982236e-02 +1.51106074e-01 -1.46558061e-01 -4.58295047e-02 -1.40203536e-01 +1.20679162e-01 +8.42222795e-02 +1.27848268e-01 -1.36689190e-02 -3.87099199e-03 +2.44991370e-02 +1.57949477e-02 -1.80503368e-01 -6.82367608e-02 -1.18618347e-01 -1.34297004e-02 +4.32099961e-02 +1.12175420e-01 -2.63394684e-01 +1.06136337e-01 +3.28644179e-02 -2.02778149e-02 +1.41172573e-01 -8.76047998e-04 +2.25354329e-01 +1.51484469e-02 -1.35184914e-01 -2.50348419e-01 +1.42589286e-01 +6.52917027e-02 +2.04109903e-02 +5.43801785e-02 +3.93473543e-02 +1.43905059e-01 -9.44381580e-02 +1.69304702e-02 +1.57930702e-02 +1.19017817e-01 -6.61253110e-02 -4.13223989e-02 -1.21028818e-01 +3.18394452e-02 +6.42023906e-02 -1.12592474e-01 +8.76686815e-03 +1.21604562e-01 -9.24928952e-03 -9.60384458e-02 -2.56127626e-01 -3.74963973e-04 -4.93202060e-02 -9.52895358e-02 -1.17096677e-02 -1.09185919e-01 -1.65169060e-01 -1.18593968e-01 -1.52094424e-01 +1.44972058e-03 +4.21979576e-02 -6.59115538e-02 +3.38226072e-02 -1.35633811e-01 +4.10739519e-02 -3.92721966e-02 -2.84744110e-02 -1.92936897e-01 +2.00173855e-02 +7.11003616e-02 -3.79603868e-03 -2.20176764e-02 -1.17352977e-01 +1.36437397e-02 +1.14360079e-01 +2.36203015e-01 +9.53827128e-02 +8.63337773e-05 +1.44786641e-01 -1.93459570e-01 +7.08712637e-02 +2.60507166e-01 -4.06550974e-01 -4.61209528e-02 -1.63005143e-01 -1.64582998e-01 +1.74738541e-01 -3.14881563e-01 +5.98309897e-02 -1.85945481e-02 -1.60886288e-01 +1.83886923e-02 +1.14640988e-01 +2.32185841e-01 -1.67771071e-01 +6.32936927e-03 +6.44427463e-02 +2.50326097e-02 -5.64770177e-02 -3.30530405e-01 -1.90866381e-01 +1.64760455e-01 +2.11038440e-01 -6.82071224e-02 +1.13690449e-02 -6.11230060e-02 +3.10328621e-02 +2.95983031e-02 +7.37077370e-02 +2.68071294e-01 +3.68648134e-02 +1.13024034e-01 -2.88708322e-02 +1.38116270e-01 +1.82682782e-01 +1.02209141e-02 -2.84373248e-03 +2.84168851e-02 -2.03022033e-01 -9.12035182e-02 +1.96718633e-01 +1.71518445e-01 +1.00039402e-02 +1.45605311e-01 -6.42253384e-02 +1.73708133e-03 +1.88026011e-01 -4.60114814e-02 +3.32055926e-01 +7.97526762e-02 +1.42717049e-01 +1.22276016e-01 +1.38783231e-01 -1.21485934e-01 +4.35569525e-01 -1.08661026e-01 +4.71757263e-01 +2.42841244e-02 +2.00611427e-01 -1.40799105e-01 +2.71689266e-01 +1.35818630e-01 +4.34343666e-01 +1.06289893e-01 -3.26014668e-01 +2.14860365e-01 +6.82895705e-02 -2.14175731e-01 +1.12480275e-01 +1.01357713e-01 +2.02637836e-02 +3.43324579e-02 +2.58062761e-02 +1.53399602e-01 +1.03453018e-01 -2.58717149e-01 +2.69839689e-02 +1.91418484e-01 +2.82653719e-02 +3.43117933e-03 -1.61213279e-01 +1.03159837e-01 +2.75928676e-01 -1.06397733e-01 +2.88323201e-02 -2.30349347e-01 -9.03347135e-02 +3.81892651e-01 +2.85248104e-02 +1.20026171e-01 +1.16972983e-01 +2.43392233e-02 -1.23029202e-02 -4.14359123e-02 +1.25531301e-01 -3.16597134e-01 -9.97500420e-02 -5.22059947e-02 -1.69300035e-01 -1.17472038e-01 -5.64230904e-02 +1.74933914e-02 -1.30561754e-01 +1.44822508e-01 -8.74231160e-02 -5.36167100e-02 -9.15663391e-02 +1.48785457e-01 +6.13334849e-02 +7.70095661e-02 -1.57890618e-01 +1.81867946e-02 +6.54054657e-02 +8.14132690e-02 -2.77116112e-02 +9.20156296e-03 -1.03795506e-01 +4.93664667e-02 +3.40987891e-02 -7.80578703e-02 -8.65102001e-03 -1.28372982e-01 -8.60319436e-02 -3.50651816e-02 -4.39016782e-02 +1.67878002e-01 -1.07626617e-02 +6.11964986e-02 +6.43217470e-03 -1.67260826e-01 -5.97607344e-02 +1.01295315e-01 +5.67248128e-02 +1.88593522e-01 -1.13242678e-01 -1.87317878e-01 -3.90854217e-02 +1.90081060e-01 +5.14927618e-02 +9.22674164e-02 +8.16463605e-02 +1.42814331e-02 -7.03097880e-02 +2.07092315e-02 +3.16022672e-02 +1.15426831e-01 -6.88853487e-02 -1.22175276e-01 -7.29077533e-02 +2.16079295e-01 +9.32179987e-02 +1.29844487e-01 +7.75484741e-02 -3.24323475e-02 +6.84568658e-02 -1.38220087e-01 +1.35066286e-01 -8.51685852e-02 +6.33021891e-02 -7.90679269e-03 +1.12661451e-01 -5.58969416e-02 +1.19857132e-01 -1.41092062e-01 -6.48536608e-02 +1.33074149e-02 +1.44129366e-01 -3.22656184e-02 +3.34706344e-02 +7.56729096e-02 -1.55622110e-01 +7.04587102e-02 +1.45541802e-01 +1.29891351e-01 -4.18544114e-02 -7.11227134e-02 +1.71919595e-02 -7.34278187e-02 -7.56618148e-03 -1.13327689e-01 -6.31716549e-02 +1.31195664e-01 -8.09026957e-02 +1.44723793e-02 -2.74945367e-02 -7.12017566e-02 -2.00458437e-01 +2.04744097e-02 +8.11602771e-02 -2.04302613e-02 -1.02850139e-01 -1.83223829e-01 -9.23403502e-02 +6.65894970e-02 +6.66778684e-02 +4.38001491e-02 +1.72872953e-02 -4.50300165e-02 +6.31145537e-02 -2.42757183e-02 -3.53506841e-02 +6.86146989e-02 +1.46157876e-01 +8.96382034e-02 -1.74025282e-01 +3.20242271e-02 -1.16340490e-02 +7.11530894e-02 -4.06288616e-02 -1.20246224e-01 +9.05551463e-02 +3.58098559e-02 +7.43915886e-02 +8.07605013e-02 -8.39021988e-03 -1.74159288e-01 -3.84526029e-02 +7.79395998e-02 +2.69855987e-02 +9.25398618e-02 -1.35536119e-01 +4.55195382e-02 +4.80570272e-02 +1.51500180e-02 -7.72258788e-02 +1.63492918e-01 +4.06296067e-02 -5.10812104e-02 +3.95147987e-02 +2.66637634e-02 +1.58422068e-01 +1.09268939e-02 -3.40017769e-03 -7.80779421e-02 +7.24470764e-02 +2.04742104e-02 -2.22891998e-02 +2.01298650e-02 -6.12219609e-02 +4.03152518e-02 -5.09061702e-02 -3.34353819e-02 +4.52901609e-02 -3.56840566e-02 -9.41825360e-02 -2.75858236e-03 +1.15122991e-02 +1.13036588e-01 +6.33429587e-02 +1.33750020e-02 -8.42975359e-03 +2.18140185e-02 +8.52066353e-02 -6.66733757e-02 +5.14175631e-02 +9.19287056e-02 -4.73586693e-02 -5.99180870e-02 +6.29729480e-02 +1.19164251e-01 +9.91177633e-02 -5.86146526e-02 -7.29138255e-02 -4.07369696e-02 -1.24514781e-01 +6.50748657e-03 +5.74534684e-02 -1.77646816e-01 -1.02618746e-01 -1.34416699e-01 +3.56792263e-03 -6.54110312e-02 +5.39378263e-02 +9.80737135e-02 -5.03101610e-02 -1.03451386e-01 +9.96886194e-02 -1.97396711e-01 +1.01832077e-01 -5.22581413e-02 -3.04695852e-02 +3.94697227e-02 -2.06584763e-02 +7.11168125e-02 -8.62358287e-02 -4.50380668e-02 +1.73452958e-01 -5.48452176e-02 +7.06739817e-03 -3.48943137e-02 +3.50117646e-02 -3.33944149e-02 +7.98362345e-02 +1.20407589e-01 +1.25104576e-01 -2.43411344e-02 +3.95781882e-02 -4.23623025e-02 -4.17272970e-02 -1.61307547e-02 -1.08207054e-01 +1.31407887e-01 +4.68972549e-02 +1.22700006e-01 +5.58526069e-02 +1.14994675e-01 +1.56002408e-02 +1.70340672e-01 -2.36395657e-01 +3.21526565e-02 +5.74825183e-02 -1.85063703e-03 +1.31178334e-01 -8.28276873e-02 +4.01602648e-02 -3.92740481e-02 -3.46754156e-02 -1.78287253e-01 -1.36396021e-01 +1.20556928e-01 -5.81766441e-02 -9.30585340e-03 +1.53802231e-01 +3.18202414e-02 -1.49912104e-01 -1.69964246e-02 +9.57874861e-03 +4.57375795e-02 -6.66343570e-02 -1.31316453e-01 -3.52192447e-02 +1.50916159e-01 +2.07247987e-01 +5.06276824e-02 +1.22567713e-02 -3.10074375e-03 -1.42366827e-01 +2.77245045e-02 +4.01439378e-03 -9.41780023e-03 -1.89817190e-01 -7.47449175e-02 +1.28714547e-01 +2.99713388e-02 +9.71229076e-02 +4.13021632e-02 -2.11620778e-02 -9.94713604e-03 +3.90935093e-02 +7.13240821e-03 +6.56244084e-02 +1.61193863e-01 +1.41831189e-01 -9.52060595e-02 +1.69903308e-01 +1.64686635e-01 -1.75907001e-01 +4.91162948e-02 +1.01721711e-01 -7.01918900e-02 +1.92023113e-01 -4.90658358e-02 +7.24391863e-02 -7.50449970e-02 -4.27797474e-02 -1.17689095e-01 -5.01237288e-02 -2.56265402e-02 +1.23833656e-01 -5.47528230e-02 -6.98812306e-02 -6.17998876e-02 -6.55357689e-02 +2.50322241e-02 -1.31609701e-02 +1.30077198e-01 +6.35666028e-02 +4.20669913e-02 +9.47783515e-02 +5.29398955e-02 -1.80705592e-01 +1.91734713e-02 -9.22037512e-02 -6.16433546e-02 +1.42024502e-01 +2.22376734e-02 +1.28400207e-01 -2.00605616e-01 -9.14886296e-02 -1.23685621e-01 -1.33955672e-01 -7.11744577e-02 +7.93897808e-02 -7.78755397e-02 +1.22958750e-01 +8.02535489e-02 -7.17796162e-02 +1.58075243e-02 -6.27689213e-02 +1.44862011e-01 +1.46717757e-01 +6.64219707e-02 +1.72816724e-01 -1.75935887e-02 -7.43172988e-02 +1.47625968e-01 -4.64940555e-02 -8.32362995e-02 +1.71170205e-01 +1.73962295e-01 -2.32727006e-01 -9.87289250e-02 -1.05545700e-01 -3.09463069e-02 -2.58886188e-01 -9.15121362e-02 +9.05594826e-02 +7.71713480e-02 -1.46667555e-01 -1.78246759e-02 -4.30485457e-02 -2.72731576e-02 -5.71664050e-02 -8.09266865e-02 +1.53732106e-01 -1.04678422e-02 -3.37530747e-02 +1.79803818e-02 -5.27405255e-02 -2.63641059e-01 -4.25854810e-02 +1.12671018e-01 +7.69306719e-02 +3.25127512e-01 -1.30790249e-01 -9.24505219e-02 +2.38139015e-02 -1.43308908e-01 -1.61611363e-01 +1.43270925e-01 +1.48232102e-01 -1.45611197e-01 +4.82870303e-02 -4.86874357e-02 +6.53974339e-02 +3.21949989e-01 -1.33195430e-01 +1.34254739e-01 -1.76569615e-02 -6.37494996e-02 +1.07998624e-01 -7.93572366e-02 +1.20657161e-01 +3.79648147e-04 -1.09024011e-01 +2.43862588e-02 -4.65690233e-02 +2.08884194e-01 +2.28678831e-03 -6.59906119e-02 -1.09746099e-01 +2.15472449e-02 -5.78991510e-02 -1.64482355e-01 +5.97285945e-03 +5.18553257e-02 -8.05187002e-02 +2.54774779e-01 -5.71780689e-02 +5.71556911e-02 +1.05858512e-01 -3.02083164e-01 +6.04309775e-02 +1.07262827e-01 +7.81766027e-02 -8.78160596e-02 +1.40636086e-01 -9.40859900e-05 -1.01654164e-01 -1.49874210e-01 +1.71385586e-01 -2.86747441e-02 -8.73015821e-02 -2.72072405e-01 -3.33112888e-02 +1.80176541e-01 +7.47290850e-02 -1.08352371e-01 +1.56145906e-02 -1.76734885e-03 +2.07019702e-01 +1.80817116e-02 +1.64208144e-01 -3.16586941e-01 -1.88014675e-02 +1.90980941e-01 +3.68153490e-02 +5.72815575e-02 -8.64654556e-02 -2.02258471e-02 -3.59907970e-02 -1.09175414e-01 -1.55327499e-01 +3.87647003e-02 +3.34696732e-02 -5.34759015e-02 +9.82738510e-02 -8.91915634e-02 +5.15135899e-02 +1.13624416e-01 -9.02582612e-03 -5.49201146e-02 -1.67772546e-01 +4.79654633e-02 -2.21805334e-01 +1.55358225e-01 +1.01090945e-01 -1.77052647e-01 +2.02413753e-01 -3.99790742e-02 -1.47520915e-01 -1.73161730e-01 +1.03235990e-02 -1.35280609e-01 -1.37271345e-01 +2.95815803e-03 +9.78350416e-02 +1.41729414e-01 +4.31955047e-02 +2.56741736e-02 +3.06353927e-01 +2.14601740e-01 +1.87877994e-02 +3.53451520e-02 -1.26571665e-02 -8.46905410e-02 -2.51171470e-01 +1.52446508e-01 -1.54758021e-02 +2.21607029e-01 +4.90339026e-02 -1.27770096e-01 +7.83094019e-02 -1.80303827e-01 -1.17666908e-01 -3.66787836e-02 +1.11459931e-02 -6.33925125e-02 +7.82804340e-02 +2.88024009e-03 +3.35772671e-02 -1.30229682e-01 +1.60798445e-01 +1.55709863e-01 +1.11124821e-01 -1.11425422e-01 +6.13442734e-02 -1.00765310e-01 -1.37557149e-01 -2.11169764e-01 -1.14233732e-01 -3.63582015e-01 +1.52676597e-01 +1.56148508e-01 -4.25467752e-02 +1.89621877e-02 +1.32048890e-01 -2.29846060e-01 +1.32572919e-01 +5.26423082e-02 -5.21168448e-02 -1.84702665e-01 -4.66942824e-02 +1.14116659e-02 +2.96906438e-02 +8.04746076e-02 -7.72533640e-02 -1.20539563e-02 -1.64662644e-01 +1.42914867e-02 -5.00560589e-02 +2.44265050e-02 +4.18020070e-01 +1.63556561e-01 -8.81962553e-02 -6.36601299e-02 -1.15093470e-01 -4.18658495e-01 +9.79076028e-02 -5.91139533e-02 -4.92418297e-02 -1.63738117e-01 -1.24391153e-01 -2.08624095e-01 +6.63987398e-02 +5.45147657e-02 +1.56003103e-01 +6.74910769e-02 -7.27887228e-02 -4.41051945e-02 -1.39266802e-02 +1.16414607e-01 +5.99240605e-03 +1.26946166e-01 -1.54056221e-01 +1.19956359e-02 -8.45367089e-02 -8.18619877e-02 -6.50166497e-02 +6.59308881e-02 +1.66059494e-01 -6.76905215e-02 -9.39049497e-02 -8.38198066e-02 +7.37213045e-02 -7.52905756e-02 -8.45454112e-02 -9.14947093e-02 +6.00330941e-02 -4.79469867e-03 -4.67731096e-02 +4.06964123e-02 +8.35448653e-02 -4.56892736e-02 +6.67860061e-02 -1.16098067e-02 +1.31689489e-01 -5.29496260e-02 +1.48136735e-01 +1.34823337e-01 -1.58575311e-01 +4.17380501e-03 +7.28511810e-02 -1.86389517e-02 -2.54562944e-02 -4.33856901e-03 -4.67452295e-02 +1.25597641e-01 +8.15595016e-02 +2.08602309e-01 -3.22167985e-02 -6.45688036e-03 -1.09172650e-01 +2.13329792e-02 +1.75246179e-01 +9.61727579e-04 +2.83354688e-02 +9.38912854e-02 +4.37963828e-02 +1.99643057e-02 -7.59494537e-03 +2.00380161e-01 -1.54791111e-02 +3.23724747e-02 +1.43398076e-01 -1.93808198e-01 +2.36149400e-01 +1.08649537e-01 +2.97283143e-01 +1.08680893e-02 +4.11315672e-02 -1.21946186e-01 +1.39430285e-01 -1.66673973e-01 -5.72738573e-02 -4.44683097e-02 +1.30016491e-01 +6.26158565e-02 -1.34992003e-01 -3.16241272e-02 -3.01972032e-01 +5.87812550e-02 -1.85637817e-01 +7.67419534e-03 +1.77972987e-01 -7.64269307e-02 +1.29843771e-01 +2.83108503e-02 -5.22806868e-02 -7.24886358e-02 +3.21106501e-02 -6.30137548e-02 +2.21844353e-02 -2.14417413e-01 +2.98817176e-02 -8.79908800e-02 -1.29019529e-01 +1.09616600e-01 +6.59157187e-02 -3.11156064e-01 +5.34059219e-02 +6.00811578e-02 +1.07228078e-01 +6.88065961e-02 +1.11469202e-01 +6.68840185e-02 +6.05214611e-02 +5.85837290e-02 -8.97503737e-03 +3.63364182e-02 +1.00833304e-01 -5.51401451e-02 +3.52568664e-02 +4.22118057e-04 -1.82407908e-02 +1.12702109e-01 -3.84353809e-02 -2.81467423e-04 +5.23769222e-02 -3.99847850e-02 +1.24153132e-02 -3.90065499e-02 +1.03956036e-01 -2.73089945e-01 +4.86338958e-02 +1.53405353e-01 +4.65548970e-02 -2.10342743e-02 -9.09715816e-02 -1.65572181e-01 +1.09830581e-01 +1.46831736e-01 +4.40966301e-02 +9.32566300e-02 -7.86277056e-02 +1.39699429e-01 +5.84889911e-02 -7.45918006e-02 +9.63189825e-02 -9.55462307e-02 +2.38448884e-02 -1.31509546e-02 -2.84411721e-02 +8.64360109e-03 -9.96317938e-02 +4.24372405e-02 -7.79938325e-02 +1.97848499e-01 -1.50909558e-01 +1.51600420e-01 +7.15014860e-02 +9.24571455e-02 +2.14297837e-03 -5.41107655e-02 -9.01058167e-02 +7.42737576e-02 +8.60958695e-02 -1.09281763e-01 +2.89857294e-02 +1.35320812e-01 +1.15401424e-01 -4.10763733e-03 -8.37631971e-02 +8.80532619e-03 +1.66422218e-01 -1.33322880e-01 +2.27629602e-01 +6.86348081e-02 +7.23859295e-02 +1.07880868e-01 +2.29371227e-02 -4.42225970e-02 +5.10152988e-02 -3.31841111e-02 -3.86932343e-02 +4.59383950e-02 -3.21170054e-02 +8.80791470e-02 -6.16160734e-03 -1.15874141e-01 -5.28702289e-02 +5.44390567e-02 +6.29002601e-02 +7.34112486e-02 -8.49577785e-03 +1.35438785e-01 +5.84316161e-03 +5.11793979e-02 -4.73666079e-02 -2.78935786e-02 +7.23728165e-02 -9.27649289e-02 -4.04535718e-02 +8.39751959e-02 +8.22271779e-03 -7.55323172e-02 +9.64675397e-02 +8.46766755e-02 -3.82841937e-02 +2.49589495e-02 -2.56403722e-02 +3.09002828e-02 +6.63549900e-02 +8.56914893e-02 -8.16799551e-02 -5.45624755e-02 -7.55984411e-02 +4.84233759e-02 -2.23926306e-02 -2.76645962e-02 +6.64769113e-02 +7.24546462e-02 +1.70614794e-01 +1.65549204e-01 +1.83523327e-01 +1.70634612e-01 -2.31645182e-02 +3.15198600e-02 -4.36111689e-02 +1.72154903e-01 +1.96775086e-02 +1.81449298e-02 +2.38681901e-02 +1.87094763e-01 +4.07108992e-01 +2.50255410e-02 -1.85431726e-03 +3.33881099e-03 +1.60741732e-01 -5.31675182e-02 -3.02685201e-02 -2.26257533e-01 +3.15640643e-02 +1.84862584e-01 +1.94852993e-01 -1.12004943e-01 -8.26763138e-02 -1.46614566e-01 -1.44139469e-01 -2.56419834e-02 -8.39840099e-02 -8.27623382e-02 -8.35021660e-02 +6.38119504e-02 +4.26808521e-02 +2.66227782e-01 -9.53585505e-02 -1.55996367e-01 +1.63897961e-01 +4.00916599e-02 -1.74022019e-02 +3.27798910e-02 -1.10272355e-01 -2.21711814e-01 -1.52223022e-03 +7.91604538e-03 +1.93471257e-02 +9.89336986e-03 +1.67664960e-01 +1.13515228e-01 -2.41788495e-02 +9.21239033e-02 +4.00450900e-02 -3.14533412e-02 -1.62283465e-01 +6.10516705e-02 -2.11194575e-01 +1.58606112e-01 -1.17775291e-01 -2.06609175e-01 -4.99308221e-02 +6.66807145e-02 -6.10358082e-02 +1.41121030e-01 +3.83928940e-02 +1.03439793e-01 -2.38810152e-01 +2.80656498e-02 -1.56541288e-01 -1.88289747e-01 -8.12131613e-02 -2.22830921e-02 -7.74964914e-02 -1.49066210e-01 +1.41514257e-01 +2.02129558e-01 +9.90771055e-02 -4.91508506e-02 -2.12661728e-01 +1.52010679e-01 +7.41479993e-02 -1.00486614e-01 -2.74896473e-01 -1.03573710e-01 -2.33099181e-02 -3.82327251e-02 -1.11418724e-01 +1.31147400e-01 -5.00135869e-02 +3.86992171e-02 -6.74533471e-02 +1.08896554e-01 -3.68106291e-02 +3.57214734e-02 +6.66609555e-02 -4.44959737e-02 -1.64442763e-01 -5.22537194e-02 -1.05295785e-01 -1.89114530e-02 +1.15752004e-01 -1.32846013e-01 +1.11456797e-01 -7.30440915e-02 +2.85574440e-02 +5.44139929e-02 +6.50647208e-02 -3.58250588e-02 -8.84557515e-02 +1.12524718e-01 +5.85679971e-02 -4.45891358e-03 +5.48989587e-02 -2.88726985e-02 -3.08551285e-02 +5.23145534e-02 +8.27469081e-02 -2.17942834e-01 +1.67119484e-02 -6.32845610e-02 +1.00675575e-01 -7.21480325e-02 +7.44447038e-02 -1.02624074e-01 -1.05441185e-02 +1.09240256e-01 -1.25235111e-01 +2.25031041e-02 -1.15085088e-01 -9.42184590e-03 -8.00792649e-02 +1.46035016e-01 +1.79577783e-01 -3.86662148e-02 +4.71453480e-02 +1.02781191e-01 -5.05169556e-02 +3.59043665e-02 -1.16704568e-01 +3.59537192e-02 -1.34209111e-01 +1.70250997e-01 +7.57031366e-02 +7.79369324e-02 -4.82700132e-02 +1.96512155e-02 +1.75214987e-02 -1.38313835e-02 -3.19290757e-02 -1.34193124e-02 +1.32502750e-01 +1.01415180e-01 +1.17975205e-01 -1.80486925e-02 +9.83434916e-02 -1.77779309e-02 -1.36746168e-01 -3.82496268e-02 -1.36778265e-01 -3.83244734e-03 -6.54848889e-02 +6.77936599e-02 +5.12382463e-02 -6.57455716e-03 +4.77715991e-02 -1.17490649e-01 -1.03144281e-01 -8.46397355e-02 +1.89652592e-01 -1.30671700e-02 +8.28643367e-02 -1.32789508e-01 +1.00012608e-01 +4.52585295e-02 +1.43104836e-01 +1.23668872e-01 +9.62934420e-02 +5.58154024e-02 +1.05627485e-01 +4.98310626e-02 -2.40467265e-02 -2.59909276e-02 +3.87965366e-02 +5.10119051e-02 -1.83268175e-01 +1.64018556e-01 +1.49959221e-01 -4.51556854e-02 -3.87125313e-02 +3.51128802e-02 -5.23386002e-02 +1.28112406e-01 -9.32033733e-02 +7.26071298e-02 -1.20326884e-01 +8.32945295e-03 -7.64691923e-03 +3.66167389e-02 -4.32085060e-02 +1.97359249e-01 +1.28805473e-01 +4.63662222e-02 -6.90175369e-02 -3.92948650e-02 +6.41743019e-02 -8.64653587e-02 +7.29048997e-02 +1.59903988e-01 -1.42470434e-01 -1.58310890e-01 +1.10499658e-01 +1.54253975e-01 -8.26211497e-02 -1.64261401e-01 -2.07008794e-01 +1.06952995e-01 +4.65148613e-02 +3.71662900e-02 -4.05706279e-02 -6.04854636e-02 +2.47912966e-02 +2.41783962e-01 -9.69753861e-02 -9.64882039e-03 -5.61939627e-02 -8.09180886e-02 +1.17433123e-01 -2.07785547e-01 -4.08781171e-02 -1.20071925e-01 +1.56468675e-02 +6.01697974e-02 -2.87396312e-01 -7.91559927e-04 +5.68740480e-02 -9.99853015e-02 -7.09927231e-02 +6.28473610e-03 -1.04683466e-01 -6.96420819e-02 +2.32683867e-01 -1.30440474e-01 -5.67604564e-02 -2.32878025e-03 +7.67191872e-02 +6.95110708e-02 -4.81563769e-02 +1.24241132e-02 -1.10893464e-02 +1.03284910e-01 +1.10914610e-01 +6.01306604e-03 -1.27025649e-01 -1.27270162e-01 -3.36009450e-03 +9.92315635e-02 -5.41737676e-02 -4.97421734e-02 -1.04129680e-01 -8.22794363e-02 +7.90634677e-02 +2.74704367e-01 -1.80865496e-01 -2.32709311e-02 +3.68408635e-02 -6.02798164e-02 -1.72700033e-01 -5.06790653e-02 +4.72831316e-02 -2.38087010e-02 +1.45783454e-01 +2.48005465e-02 +1.10670994e-03 +5.98269701e-02 -3.74585211e-01 -9.61503759e-02 -8.81282836e-02 +3.83342467e-02 -3.87713760e-02 -3.85376206e-03 -1.00100301e-01 -6.97211474e-02 -2.14715600e-01 +8.57693609e-03 +6.26688674e-02 -1.15527906e-01 +1.45857651e-02 +5.76795861e-02 -7.57250786e-02 -1.00687314e-02 +1.05630182e-01 +4.69752885e-02 +6.06070012e-02 -1.15845837e-01 -6.09297082e-02 +6.50499621e-03 -3.23459618e-02 +1.82250336e-01 -5.85229471e-02 +3.90377715e-02 -1.60601184e-01 +1.03147224e-01 -4.22104634e-02 -1.17672749e-01 -8.32141265e-02 +6.14139698e-02 -1.59945488e-01 +1.77828655e-01 -4.95408177e-02 -3.40884784e-04 -2.75606457e-02 +1.17948174e-01 +1.25386626e-01 +7.87707791e-03 +2.13187069e-01 -1.10247217e-01 +1.30278736e-01 -1.32851288e-01 -1.60879046e-02 +6.50812909e-02 +7.09116226e-03 -1.76479191e-01 +9.18901712e-02 +2.54450249e-03 -1.51306897e-01 -1.40870642e-03 -1.49468377e-01 -4.70178984e-02 +1.20238893e-01 -1.13978416e-01 +6.16666228e-02 +2.11006284e-01 -3.22340839e-02 +7.82796964e-02 +1.31738428e-02 -1.62609652e-01 +7.56347040e-03 -3.62491943e-02 -2.34680041e-03 +1.47995334e-02 +1.80870339e-01 -2.18280107e-01 -6.84430301e-02 +1.09657452e-01 +1.68945268e-01 -1.35046437e-01 