ì	-0.02864 0.03543 -0.1387 -0.06242 0.10783 0.13979 0.00521 -0.10604 0.0276 0.10772 0.02983 -0.03879 0.12697 -0.06155 -0.10389 -0.07623 0.16011 0.02708 -0.10255 -0.02532 0.02996 0.09338 0.07116 -0.04249 -0.11355 0.00513 -0.16112 -0.02761 0.13992 -0.14069 0.06371 0.07139 0.01494 0.04322 0.01664 0.05563 -0.14233 0.01051 -0.1063 0.09367 -0.16356 -0.07584 -0.06898 -0.05237 -0.10028 -0.08313 0.13654 0.00498 0.00694 0.12128 -0.0284 -0.05577 -0.06914 0.16646 0.1594 -0.01842 0.05117 -0.0508 -0.07742 0.11321 -0.08411 0.0905 0.1549 -0.05803 0.11699 -0.16384 -0.08852 0.08259 0.09311 0.11497 -0.0961 0.10185 -0.09294 -0.07409 -0.11952 -0.03326 -0.01675 0.03094 -0.1002 0.0392 -0.05735 -0.08372 0.13172 -0.14073 -0.06408 0.08819 -0.03574 -0.00026 0.09597 0.16381 0.11051 0.13519 -0.1538 -0.01784 0.08209 -0.0545 0.08132 -0.13326 0.10997 -0.1213 -0.13676 -0.01724 0.09676 0.13088 0.06993 -0.10654 -0.03266 -0.17173 -0.01285 0.10086 -0.13292 -0.11626 0.05026 -0.04362 0.14125 -0.12846 -0.17125 0.11128 0.04434 0.16281 0.02356 -0.15502 0.14424 0.06156 -0.0243 0.08828 -0.00954 -0.04865 -0.09804 0.08097 -0.05198 0.10667 -0.15364 0.10916 -0.0138 -0.03616 0.14019 0.08612 0.1679 0.03425 0.16696 -0.16687 -0.0708 0.02723 0.15117 0.09621 -0.11192 0.0257 0.12297 -0.16083 0.01033 0.12741 0.07855 0.13073 0.16267 -0.03458 -0.12635 0.1584 -0.0603 -0.06699 0.04092 0.09607 0.04202 0.11409 -0.02642 0.16301 -0.02046 -0.01051 -0.10644 0.07496 0.0417 0.10008 -0.05506 -0.15155 -0.03417 -0.06854 -0.06832 0.04942 -0.05563 -0.03664 0.06451 -0.09906 -0.00464 -0.13773 0.1363 -0.04816 0.08974 0.11472 -0.15031 0.16525 0.04608 0.11941 0.12279 -0.00031 -0.05892 -0.14483 -0.06316 0.15269 0.09454 -0.06269
u	-0.07346 -0.10689 -0.0737 0.0051 0.11946 -0.05343 0.14631 -0.09492 0.05883 0.09337 -0.08411 0.14724 -0.16173 0.1591 0.0075 -0.16471 -0.12554 0.03276 0.05689 0.089 -0.01364 0.10328 0.02723 -0.12979 -0.12321 -0.05342 0.10133 0.03124 -0.01065 0.05213 0.08667 0.07386 0.07289 0.04454 0.15177 -0.01583 -0.1343 0.15797 0.04003 -0.09917 -0.08241 -0.15434 -0.03789 0.03468 -0.00718 0.00426 0.06808 -0.07236 -0.05897 -0.11883 -0.14507 0.06428 -0.13671 0.1335 0.07469 0.13744 0.07661 -0.08442 -0.05506 0.14044 0.05157 -0.06219 0.01734 0.04449 -0.1562 -0.02246 0.07158 -0.16314 0.10299 -0.0314 0.16259 -0.0607 -0.07335 0.10062 -0.0378 -0.11126 -0.12862 0.15629 -0.09188 0.13449 -0.03662 -0.01075 -0.07881 -0.04705 -0.03837 0.05029 0.03329 -0.0306 0.06647 0.12689 0.13454 0.06114 -0.10924 0.14131 0.16199 -0.00806 0.14924 -0.03506 0.04693 -0.01238 -0.13676 -0.01724 0.09676 0.13088 0.06993 -0.10654 -0.03266 -0.17173 -0.01285 0.10086 -0.13292 -0.11626 0.05026 -0.04362 0.14125 -0.12846 -0.17125 0.11128 0.04434 0.16281 0.02356 -0.15502 0.14424 0.06156 -0.0243 0.08828 -0.00954 -0.04865 -0.09804 0.08097 -0.05198 0.10667 -0.15364 0.10916 -0.0138 -0.03616 0.14019 0.08612 0.1679 0.03425 0.16696 -0.16687 -0.0708 0.02723 0.15117 0.09621 -0.11192 0.0257 0.12297 -0.16083 0.01033 0.12741 0.07855 0.13073 0.16267 -0.03458 -0.12635 0.1584 -0.0603 -0.06699 0.04092 0.09607 0.04202 0.11409 -0.02642 0.16301 -0.02046 -0.01051 -0.10644 0.07496 0.0417 0.10008 -0.05506 -0.15155 -0.03417 -0.06854 -0.06832 0.04942 -0.05563 -0.03664 0.06451 -0.09906 -0.00464 -0.13773 0.1363 -0.04816 0.08974 0.11472 -0.15031 0.16525 0.04608 0.11941 0.12279 -0.00031 -0.05892 -0.14483 -0.06316 0.15269 0.09454 -0.06269
é	0.15946 0.00873 0.01015 0.07724 0.11825 0.05847 0.13285 -0.01403 -0.08235 -0.08723 -0.05124 -0.06952 0.14401 0.11541 -0.0916 -0.12643 0.16628 0.09557 0.00834 0.16949 -0.13893 0.08086 -0.10741 -0.03196 0.0209 0.05891 0.00846 0.07838 -0.12117 0.08404 0.10092 -0.1304 0.05745 0.05525 0.13257 -0.12837 -0.16718 0.13064 -0.16664 0.15366 -0.08663 -0.16756 0.13506 0.00923 -0.00239 0.07426 0.16529 -0.13746 -0.11266 0.13674 0.00119 -0.16742 -0.01134 0.12832 -0.05849 -0.11232 -0.03872 0.16637 -0.01928 -0.1468 0.03423 0.11159 -0.16273 0.07671 0.05502 0.12688 0.15215 -0.05542 0.05253 0.05186 -0.01838 -0.12284 -0.02158 -0.16303 -0.10775 -0.16999 0.0592 -0.08369 -0.15134 0.09796 0.09712 -0.16678 -0.14258 -0.10474 -0.00787 -0.10525 0.15832 0.1712 -0.11057 -0.17316 0.03478 -0.12358 -0.13475 0.16076 0.13382 -0.10836 0.11146 -0.10442 0.14407 -0.00474 -0.13676 -0.01724 0.09676 0.13088 0.06993 -0.10654 -0.03266 -0.17173 -0.01285 0.10086 -0.13292 -0.11626 0.05026 -0.04362 0.14125 -0.12846 -0.17125 0.11128 0.04434 0.16281 0.02356 -0.15502 0.14424 0.06156 -0.0243 0.08828 -0.00954 -0.04865 -0.09804 0.08097 -0.05198 0.10667 -0.15364 0.10916 -0.0138 -0.03616 0.14019 0.08612 0.1679 0.03425 0.16696 -0.16687 -0.0708 0.02723 0.15117 0.09621 -0.11192 0.0257 0.12297 -0.16083 0.01033 0.12741 0.07855 0.13073 0.16267 -0.03458 -0.12635 0.1584 -0.0603 -0.06699 0.04092 0.09607 0.04202 0.11409 -0.02642 0.16301 -0.02046 -0.01051 -0.10644 0.07496 0.0417 0.10008 -0.05506 -0.15155 -0.03417 -0.06854 -0.06832 0.04942 -0.05563 -0.03664 0.06451 -0.09906 -0.00464 -0.13773 0.1363 -0.04816 0.08974 0.11472 -0.15031 0.16525 0.04608 0.11941 0.12279 -0.00031 -0.05892 -0.14483 -0.06316 0.15269 0.09454 -0.06269
t	-0.08032 -0.09376 -0.1691 0.0783 0.17203 0.13135 0.00579 0.16443 0.00671 -0.10049 0.13497 -0.12751 -0.03328 0.00448 -0.13233 -0.06261 0.08496 0.00633 -0.0481 0.06014 -0.00313 -0.08018 0.04723 -0.07752 0.04286 0.10331 0.12085 0.14321 0.17297 0.09637 -0.12325 0.02705 -0.14135 -0.0455 0.01803 -0.17309 0.03315 -0.07517 -0.02293 -0.02132 -0.10379 0.1317 0.1141 0.17244 0.14706 0.16987 0.10931 -0.12862 -0.03331 0.11041 -0.15089 0.15484 0.07948 0.02934 -0.02306 0.05967 0.03842 0.01798 0.03179 0.1211 -0.17069 -0.06584 0.15376 -0.10406 0.0252 0.16303 0.10555 0.11038 0.00754 -0.04441 0.0978 -0.06226 -0.10318 0.13827 -0.0732 0.0691 -0.08006 0.01802 0.10218 -0.07011 -0.07407 -0.09681 -0.03673 0.11046 0.14933 -0.07764 -0.00266 0.13652 -0.09284 -0.02326 0.15425 0.12621 0.00571 0.03092 0.15494 0.01376 0.10591 -0.08986 0.13922 0.04782 -0.13676 -0.01724 0.09676 0.13088 0.06993 -0.10654 -0.03266 -0.17173 -0.01285 0.10086 -0.13292 -0.11626 0.05026 -0.04362 0.14125 -0.12846 -0.17125 0.11128 0.04434 0.16281 0.02356 -0.15502 0.14424 0.06156 -0.0243 0.08828 -0.00954 -0.04865 -0.09804 0.08097 -0.05198 0.10667 -0.15364 0.10916 -0.0138 -0.03616 0.14019 0.08612 0.1679 0.03425 0.16696 -0.16687 -0.0708 0.02723 0.15117 0.09621 -0.11192 0.0257 0.12297 -0.16083 0.01033 0.12741 0.07855 0.13073 0.16267 -0.03458 -0.12635 0.1584 -0.0603 -0.06699 0.04092 0.09607 0.04202 0.11409 -0.02642 0.16301 -0.02046 -0.01051 -0.10644 0.07496 0.0417 0.10008 -0.05506 -0.15155 -0.03417 -0.06854 -0.06832 0.04942 -0.05563 -0.03664 0.06451 -0.09906 -0.00464 -0.13773 0.1363 -0.04816 0.08974 0.11472 -0.15031 0.16525 0.04608 0.11941 0.12279 -0.00031 -0.05892 -0.14483 -0.06316 0.15269 0.09454 -0.06269
-	0.05349 -0.09397 0.02917 -0.13818 -0.14707 0.16099 -0.02224 0.02146 -0.10946 0.04062 0.02292 0.1658 0.13681 -0.05445 -0.14733 0.16016 0.13958 -0.12503 0.16843 -0.13716 0.15068 0.07455 0.06174 -0.02863 -0.1364 -0.04587 0.143 -0.1 0.04542 0.02675 0.00583 0.09503 -0.14815 0.07962 0.09125 -0.0423 -0.05193 -0.06011 0.05228 0.00342 0.09132 0.16841 -0.04772 -0.05202 0.11409 0.08165 0.04829 0.10613 -0.06801 -0.04357 0.04682 -0.02436 0.14986 0.12372 0.04078 -0.12013 -0.09989 0.09364 0.12857 0.15162 0.16651 -0.00433 0.1309 0.1073 -0.16796 -0.12563 0.14448 0.04048 -0.06835 -0.06905 0.1004 -0.03297 -0.14579 0.05295 -0.09403 0.11945 -0.00256 -0.06418 0.09888 0.05135 -0.0315 -0.11732 0.13249 -0.03501 -0.08651 -0.13182 -0.1368 -0.11573 -0.13561 0.08997 0.13438 0.09725 -0.05118 0.01688 0.16087 -0.07526 0.04098 -0.0563 0.08273 0.07893 -0.13676 -0.01724 0.09676 0.13088 0.06993 -0.10654 -0.03266 -0.17173 -0.01285 0.10086 -0.13292 -0.11626 0.05026 -0.04362 0.14125 -0.12846 -0.17125 0.11128 0.04434 0.16281 0.02356 -0.15502 0.14424 0.06156 -0.0243 0.08828 -0.00954 -0.04865 -0.09804 0.08097 -0.05198 0.10667 -0.15364 0.10916 -0.0138 -0.03616 0.14019 0.08612 0.1679 0.03425 0.16696 -0.16687 -0.0708 0.02723 0.15117 0.09621 -0.11192 0.0257 0.12297 -0.16083 0.01033 0.12741 0.07855 0.13073 0.16267 -0.03458 -0.12635 0.1584 -0.0603 -0.06699 0.04092 0.09607 0.04202 0.11409 -0.02642 0.16301 -0.02046 -0.01051 -0.10644 0.07496 0.0417 0.10008 -0.05506 -0.15155 -0.03417 -0.06854 -0.06832 0.04942 -0.05563 -0.03664 0.06451 -0.09906 -0.00464 -0.13773 0.1363 -0.04816 0.08974 0.11472 -0.15031 0.16525 0.04608 0.11941 0.12279 -0.00031 -0.05892 -0.14483 -0.06316 0.15269 0.09454 -0.06269
g	0.12744 0.07888 0.04309 0.08768 0.17307 0.11118 0.12941 -0.10525 0.08204 0.03867 -0.00099 -0.00727 0.06428 0.09445 -0.02434 0.12405 0.15656 -0.12787 0.01127 -0.12365 -0.06359 0.11286 -0.07909 0.10323 -0.08653 0.01621 -0.08487 0.17175 0.10875 -0.05009 0.15807 -0.03043 0.00883 -0.08917 -0.17031 0.07179 -0.09176 -0.09792 -0.09933 -0.03528 0.02774 0.07313 0.12872 -0.10952 -0.05935 -0.02752 0.12415 0.01012 -0.08966 0.0375 0.09817 -0.14155 0.03509 0.00283 0.04101 -0.0635 -0.01503 -0.03524 -0.16897 0.11634 0.05978 -0.05872 -0.13766 0.01172 0.16318 -0.16531 0.06917 0.13941 -0.16986 0.01361 -0.12654 -0.13128 0.0848 0.08501 0.0284 0.10741 0.0548 0.13371 0.07916 -0.13303 0.0555 0.12933 0.00147 0.13104 -0.14256 -0.00611 -0.12007 -0.13071 -0.02807 -0.11711 0.01535 0.03667 -0.04041 0.16428 0.0917 -0.09244 -0.02455 0.09949 0.08237 0.08362 -0.13676 -0.01724 0.09676 0.13088 0.06993 -0.10654 -0.03266 -0.17173 -0.01285 0.10086 -0.13292 -0.11626 0.05026 -0.04362 0.14125 -0.12846 -0.17125 0.11128 0.04434 0.16281 0.02356 -0.15502 0.14424 0.06156 -0.0243 0.08828 -0.00954 -0.04865 -0.09804 0.08097 -0.05198 0.10667 -0.15364 0.10916 -0.0138 -0.03616 0.14019 0.08612 0.1679 0.03425 0.16696 -0.16687 -0.0708 0.02723 0.15117 0.09621 -0.11192 0.0257 0.12297 -0.16083 0.01033 0.12741 0.07855 0.13073 0.16267 -0.03458 -0.12635 0.1584 -0.0603 -0.06699 0.04092 0.09607 0.04202 0.11409 -0.02642 0.16301 -0.02046 -0.01051 -0.10644 0.07496 0.0417 0.10008 -0.05506 -0.15155 -0.03417 -0.06854 -0.06832 0.04942 -0.05563 -0.03664 0.06451 -0.09906 -0.00464 -0.13773 0.1363 -0.04816 0.08974 0.11472 -0.15031 0.16525 0.04608 0.11941 0.12279 -0.00031 -0.05892 -0.14483 -0.06316 0.15269 0.09454 -0.06269
h	0.04549 0.08895 0.16631 -0.09359 0.13369 -0.11477 0.16244 0.05305 0.11906 -0.02711 -0.12405 -0.15449 0.15822 0.01462 -0.16366 0.03308 0.14733 0.00307 -0.16272 -0.12498 0.10246 0.09741 0.09756 0.11575 -0.16691 -0.03283 -0.03189 0.12816 0.05068 0.13995 0.10628 -0.1278 0.1063 0.05677 -0.09096 -0.15254 0.14735 0.08847 -0.02936 -0.02083 -0.12525 -0.09169 0.16112 -0.0294 0.15717 0.0418 0.14206 0.13977 -0.10849 0.12388 -0.13278 0.04322 0.02758 -0.16644 0.00383 -0.04022 -0.01818 0.15196 0.03093 0.01638 0.04068 0.02691 -0.00175 -0.1001 -0.00064 -0.11603 -0.03561 0.01088 0.00168 0.04027 -0.12643 0.01773 -0.09119 0.02225 0.034 0.10297 0.00131 -0.10566 -0.01875 0.09722 0.09836 -0.09334 -0.12454 -0.03687 0.10762 0.06661 -0.11492 -0.04748 -0.11532 0.14211 0.01538 -0.06353 0.16175 -0.16448 0.13615 -0.10769 0.13412 0.00934 0.15334 -0.07622 -0.13676 -0.01724 0.09676 0.13088 0.06993 -0.10654 -0.03266 -0.17173 -0.01285 0.10086 -0.13292 -0.11626 0.05026 -0.04362 0.14125 -0.12846 -0.17125 0.11128 0.04434 0.16281 0.02356 -0.15502 0.14424 0.06156 -0.0243 0.08828 -0.00954 -0.04865 -0.09804 0.08097 -0.05198 0.10667 -0.15364 0.10916 -0.0138 -0.03616 0.14019 0.08612 0.1679 0.03425 0.16696 -0.16687 -0.0708 0.02723 0.15117 0.09621 -0.11192 0.0257 0.12297 -0.16083 0.01033 0.12741 0.07855 0.13073 0.16267 -0.03458 -0.12635 0.1584 -0.0603 -0.06699 0.04092 0.09607 0.04202 0.11409 -0.02642 0.16301 -0.02046 -0.01051 -0.10644 0.07496 0.0417 0.10008 -0.05506 -0.15155 -0.03417 -0.06854 -0.06832 0.04942 -0.05563 -0.03664 0.06451 -0.09906 -0.00464 -0.13773 0.1363 -0.04816 0.08974 0.11472 -0.15031 0.16525 0.04608 0.11941 0.12279 -0.00031 -0.05892 -0.14483 -0.06316 0.15269 0.09454 -0.06269
ò	-0.09515 -0.05115 -0.03226 0.00834 -0.15403 -0.14737 -0.01759 0.09669 -0.13747 -0.01202 -0.01442 -0.00051 0.1251 -0.05277 0.17258 -0.02566 0.0524 0.01622 -0.15673 0.16371 0.03338 0.16223 -0.08095 -0.01403 -0.0126 0.14812 0.12272 -0.12131 -0.02283 0.06242 -0.06447 -0.10282 -0.13241 0.1015 0.10491 -0.16332 -0.11086 -0.00343 -0.06068 0.17194 -0.09783 0.00322 -0.08661 0.11386 0.07676 -0.16123 -0.0136 0.1643 0.16827 -0.15599 -0.03077 0.02501 -0.04111 -0.10515 -0.14535 -0.12501 -0.06604 -0.06361 -0.10274 0.16124 0.02478 -0.05708 0.0439 0.14647 0.13195 -0.03924 0.04763 0.06229 -0.04169 -0.01587 -0.05953 -0.05691 -0.00249 -0.15457 0.12618 -0.02813 -0.10862 0.04649 0.15574 -0.09797 -0.11636 0.05213 0.04473 0.14935 -0.16465 0.16863 0.10774 -0.16117 -0.08939 -0.13943 0.06255 0.07922 0.07043 0.12552 -0.09837 0.16261 0.00759 -0.04921 -0.16783 0.02073 -0.13676 -0.01724 0.09676 0.13088 0.06993 -0.10654 -0.03266 -0.17173 -0.01285 0.10086 -0.13292 -0.11626 0.05026 -0.04362 0.14125 -0.12846 -0.17125 0.11128 0.04434 0.16281 0.02356 -0.15502 0.14424 0.06156 -0.0243 0.08828 -0.00954 -0.04865 -0.09804 0.08097 -0.05198 0.10667 -0.15364 0.10916 -0.0138 -0.03616 0.14019 0.08612 0.1679 0.03425 0.16696 -0.16687 -0.0708 0.02723 0.15117 0.09621 -0.11192 0.0257 0.12297 -0.16083 0.01033 0.12741 0.07855 0.13073 0.16267 -0.03458 -0.12635 0.1584 -0.0603 -0.06699 0.04092 0.09607 0.04202 0.11409 -0.02642 0.16301 -0.02046 -0.01051 -0.10644 0.07496 0.0417 0.10008 -0.05506 -0.15155 -0.03417 -0.06854 -0.06832 0.04942 -0.05563 -0.03664 0.06451 -0.09906 -0.00464 -0.13773 0.1363 -0.04816 0.08974 0.11472 -0.15031 0.16525 0.04608 0.11941 0.12279 -0.00031 -0.05892 -0.14483 -0.06316 0.15269 0.09454 -0.06269
v	0.05778 -0.08704 0.1545 0.04936 0.0744 -0.08846 0.10709 0.08263 0.03513 -0.04761 -0.17254 0.13839 -0.09404 0.17075 0.14781 -0.08889 0.0147 0.14486 0.05336 0.09563 -0.08358 0.06272 -0.06835 0.10594 -0.14275 -0.10684 0.16339 -0.15857 -0.06678 0.17315 -0.05168 0.00367 0.1644 -0.13852 0.04422 -0.07302 0.03733 -0.04111 0.07791 0.01976 0.05078 -0.09396 0.04488 0.04504 -0.09802 -0.08646 -0.01548 -0.16978 0.01686 0.14458 -0.10446 0.07019 -0.14308 -0.11556 0.13065 0.08565 0.0046 0.01494 0.08865 -0.04254 0.0257 0.16213 0.13828 -0.04848 0.11772 -0.10883 -0.03784 -0.14402 -0.03891 0.07088 0.14151 0.1189 0.13548 -0.13137 0.11042 -0.08444 -0.05177 -0.00762 0.13195 0.16624 -0.00303 -0.00098 -0.14279 -0.12381 -0.03073 0.05568 -0.1228 0.16598 0.15508 -0.02469 0.13928 0.13397 0.05851 -0.0454 -0.02217 -0.0586 0.13885 0.06203 -0.05497 -0.04112 -0.13676 -0.01724 0.09676 0.13088 0.06993 -0.10654 -0.03266 -0.17173 -0.01285 0.10086 -0.13292 -0.11626 0.05026 -0.04362 0.14125 -0.12846 -0.17125 0.11128 0.04434 0.16281 0.02356 -0.15502 0.14424 0.06156 -0.0243 0.08828 -0.00954 -0.04865 -0.09804 0.08097 -0.05198 0.10667 -0.15364 0.10916 -0.0138 -0.03616 0.14019 0.08612 0.1679 0.03425 0.16696 -0.16687 -0.0708 0.02723 0.15117 0.09621 -0.11192 0.0257 0.12297 -0.16083 0.01033 0.12741 0.07855 0.13073 0.16267 -0.03458 -0.12635 0.1584 -0.0603 -0.06699 0.04092 0.09607 0.04202 0.11409 -0.02642 0.16301 -0.02046 -0.01051 -0.10644 0.07496 0.0417 0.10008 -0.05506 -0.15155 -0.03417 -0.06854 -0.06832 0.04942 -0.05563 -0.03664 0.06451 -0.09906 -0.00464 -0.13773 0.1363 -0.04816 0.08974 0.11472 -0.15031 0.16525 0.04608 0.11941 0.12279 -0.00031 -0.05892 -0.14483 -0.06316 0.15269 0.09454 -0.06269
o	-0.11542 0.08513 -0.09727 -0.01883 -0.07138 -0.05737 -0.00107 0.03629 -0.16647 0.05321 -0.12712 0.05969 -0.03643 0.07642 0.06311 -0.13804 -0.16385 0.16032 -0.0083 0.09441 -0.13357 -0.16389 0.16252 -0.06728 -0.02031 0.13953 0.08007 0.10428 0.15444 -0.06874 -0.12036 0.13033 0.02712 -0.08755 0.15554 0.02408 0.15488 -0.02179 0.13116 0.125 0.16314 0.10611 -0.09224 0.1186 0.12837 0.00319 0.01672 0.04556 0.10608 -0.04969 -0.13337 0.1302 -0.03881 0.13005 -0.06811 -0.07302 -0.15194 -0.00494 0.08005 0.14071 -0.13129 0.15369 0.07484 0.12257 -0.05407 0.12754 0.11259 0.09212 0.02249 0.04086 0.03034 -0.08881 0.11741 0.11474 -0.15975 0.02505 0.04085 0.11284 -0.16764 0.12195 -0.10854 -0.14543 0.14678 0.1325 0.03119 -0.0259 0.0002 0.02695 0.09876 -0.11944 -0.11695 -0.07449 -0.16787 -0.13964 0.09947 0.16471 -0.01161 -0.02021 -0.14653 -0.13473 -0.13676 -0.01724 0.09676 0.13088 0.06993 -0.10654 -0.03266 -0.17173 -0.01285 0.10086 -0.13292 -0.11626 0.05026 -0.04362 0.14125 -0.12846 -0.17125 0.11128 0.04434 0.16281 0.02356 -0.15502 0.14424 0.06156 -0.0243 0.08828 -0.00954 -0.04865 -0.09804 0.08097 -0.05198 0.10667 -0.15364 0.10916 -0.0138 -0.03616 0.14019 0.08612 0.1679 0.03425 0.16696 -0.16687 -0.0708 0.02723 0.15117 0.09621 -0.11192 0.0257 0.12297 -0.16083 0.01033 0.12741 0.07855 0.13073 0.16267 -0.03458 -0.12635 0.1584 -0.0603 -0.06699 0.04092 0.09607 0.04202 0.11409 -0.02642 0.16301 -0.02046 -0.01051 -0.10644 0.07496 0.0417 0.10008 -0.05506 -0.15155 -0.03417 -0.06854 -0.06832 0.04942 -0.05563 -0.03664 0.06451 -0.09906 -0.00464 -0.13773 0.1363 -0.04816 0.08974 0.11472 -0.15031 0.16525 0.04608 0.11941 0.12279 -0.00031 -0.05892 -0.14483 -0.06316 0.15269 0.09454 -0.06269
a	0.15255 0.07656 -0.10344 0.01709 -0.03739 -0.04293 0.07661 -0.02979 0.02112 -0.01559 0.07649 0.11867 -0.05188 0.09105 0.0973 0.08825 -0.11007 0.01408 -0.13416 -0.12513 -0.10208 -0.00529 -0.01348 0.11401 0.05304 -0.00366 0.08572 -0.16961 0.1258 0.1212 0.12202 -0.13539 0.15205 0.07376 0.07113 -0.04439 -0.05646 0.05119 0.09685 -0.07563 -0.10775 -0.09508 0.03272 -0.02858 0.15295 0.14643 -0.07865 -0.10946 -0.09011 0.10478 0.06624 0.16359 0.03599 -0.11857 0.17095 -0.15241 0.08691 -0.13844 -0.01664 0.06748 0.11918 0.07701 0.16613 0.04283 0.01603 0.02861 -0.1089 -0.04431 -0.15759 -0.1396 -0.06492 0.07316 0.01791 -0.15882 0.10686 0.12774 -0.06041 0.10913 -0.08813 -0.06859 -0.15192 0.12964 0.01189 -0.11559 0.15429 0.17172 0.08307 -0.16893 0.08237 -0.00051 -0.03864 -0.10402 0.00643 0.08203 -0.05488 -0.06434 -0.15164 -0.10551 -0.12699 0.09471 -0.13676 -0.01724 0.09676 0.13088 0.06993 -0.10654 -0.03266 -0.17173 -0.01285 0.10086 -0.13292 -0.11626 0.05026 -0.04362 0.14125 -0.12846 -0.17125 0.11128 0.04434 0.16281 0.02356 -0.15502 0.14424 0.06156 -0.0243 0.08828 -0.00954 -0.04865 -0.09804 0.08097 -0.05198 0.10667 -0.15364 0.10916 -0.0138 -0.03616 0.14019 0.08612 0.1679 0.03425 0.16696 -0.16687 -0.0708 0.02723 0.15117 0.09621 -0.11192 0.0257 0.12297 -0.16083 0.01033 0.12741 0.07855 0.13073 0.16267 -0.03458 -0.12635 0.1584 -0.0603 -0.06699 0.04092 0.09607 0.04202 0.11409 -0.02642 0.16301 -0.02046 -0.01051 -0.10644 0.07496 0.0417 0.10008 -0.05506 -0.15155 -0.03417 -0.06854 -0.06832 0.04942 -0.05563 -0.03664 0.06451 -0.09906 -0.00464 -0.13773 0.1363 -0.04816 0.08974 0.11472 -0.15031 0.16525 0.04608 0.11941 0.12279 -0.00031 -0.05892 -0.14483 -0.06316 0.15269 0.09454 -0.06269
f	0.05666 -0.05139 -0.09851 -0.0698 -0.03896 0.14094 -0.07528 -0.13426 -0.03419 0.17176 0.07031 0.02712 0.04594 0.05697 0.16321 -0.0174 0.07443 -0.10289 0.1524 -0.04491 0.1628 -0.05194 -0.05045 0.12382 0.1488 0.15315 0.00426 0.02757 -0.05942 0.01856 -0.13024 0.13843 0.02269 -0.07898 -0.0285 0.12068 0.14607 -0.04212 -0.08215 0.03781 -0.16859 0.07749 0.16396 0.09456 0.05057 0.1604 0.04874 0.1043 -0.15571 0.08618 -0.07291 0.0149 0.04557 -0.10697 -0.02481 0.10553 0.08127 -0.14713 0.15726 -0.02315 -0.04994 -0.11893 0.04895 0.08576 -0.14355 0.10732 0.01944 -0.16246 -0.06331 0.10771 -0.13866 0.15146 0.10953 -0.09217 -0.0922 0.00509 -0.09609 0.02241 -0.12644 -0.14864 -0.01285 0.13695 -0.06208 -0.14443 0.05138 0.0578 -0.04117 -0.07292 -0.16763 -0.09418 0.109 0.11141 0.0964 -0.16526 -0.05173 0.0778 -0.03715 -0.01517 0.14035 0.00482 -0.13676 -0.01724 0.09676 0.13088 0.06993 -0.10654 -0.03266 -0.17173 -0.01285 0.10086 -0.13292 -0.11626 0.05026 -0.04362 0.14125 -0.12846 -0.17125 0.11128 0.04434 0.16281 0.02356 -0.15502 0.14424 0.06156 -0.0243 0.08828 -0.00954 -0.04865 -0.09804 0.08097 -0.05198 0.10667 -0.15364 0.10916 -0.0138 -0.03616 0.14019 0.08612 0.1679 0.03425 0.16696 -0.16687 -0.0708 0.02723 0.15117 0.09621 -0.11192 0.0257 0.12297 -0.16083 0.01033 0.12741 0.07855 0.13073 0.16267 -0.03458 -0.12635 0.1584 -0.0603 -0.06699 0.04092 0.09607 0.04202 0.11409 -0.02642 0.16301 -0.02046 -0.01051 -0.10644 0.07496 0.0417 0.10008 -0.05506 -0.15155 -0.03417 -0.06854 -0.06832 0.04942 -0.05563 -0.03664 0.06451 -0.09906 -0.00464 -0.13773 0.1363 -0.04816 0.08974 0.11472 -0.15031 0.16525 0.04608 0.11941 0.12279 -0.00031 -0.05892 -0.14483 -0.06316 0.15269 0.09454 -0.06269
x	-0.08474 0.16965 0.13074 0.08435 0.09631 0.0475 -0.08366 0.12538 -0.10469 0.00766 -0.06715 0.04921 -0.13857 0.05375 0.10352 -0.11985 -0.091 -0.14535 0.06391 -0.13765 0.00069 -0.02494 0.02036 -0.15126 0.07014 -0.07942 0.13858 -0.01219 0.14197 0.06529 -0.11514 -0.04465 0.11129 0.10302 0.07909 -0.02462 -0.01279 -0.0427 0.15306 -0.04604 0.0133 0.02434 -0.00327 -0.03387 -0.12191 0.0339 0.11934 0.14331 0.04175 0.02074 0.06397 0.03312 -0.10195 -0.0478 -0.02172 -0.09376 -0.09683 0.1306 0.00085 0.16095 -0.00668 -0.14852 0.0731 -0.14388 0.05507 -0.01784 0.06369 -0.12332 0.05252 -0.05916 -0.04261 0.11923 0.03395 -0.15875 0.1272 -0.09967 0.05435 0.04641 -0.0606 -0.01727 -0.05486 0.13074 0.13785 0.04406 -0.04897 0.15614 -0.08321 0.1559 0.04771 0.12753 0.13878 0.0805 -0.03092 0.12702 0.11266 -0.11031 -0.0472 0.0636 -0.03231 -0.05408 -0.13676 -0.01724 0.09676 0.13088 0.06993 -0.10654 -0.03266 -0.17173 -0.01285 0.10086 -0.13292 -0.11626 0.05026 -0.04362 0.14125 -0.12846 -0.17125 0.11128 0.04434 0.16281 0.02356 -0.15502 0.14424 0.06156 -0.0243 0.08828 -0.00954 -0.04865 -0.09804 0.08097 -0.05198 0.10667 -0.15364 0.10916 -0.0138 -0.03616 0.14019 0.08612 0.1679 0.03425 0.16696 -0.16687 -0.0708 0.02723 0.15117 0.09621 -0.11192 0.0257 0.12297 -0.16083 0.01033 0.12741 0.07855 0.13073 0.16267 -0.03458 -0.12635 0.1584 -0.0603 -0.06699 0.04092 0.09607 0.04202 0.11409 -0.02642 0.16301 -0.02046 -0.01051 -0.10644 0.07496 0.0417 0.10008 -0.05506 -0.15155 -0.03417 -0.06854 -0.06832 0.04942 -0.05563 -0.03664 0.06451 -0.09906 -0.00464 -0.13773 0.1363 -0.04816 0.08974 0.11472 -0.15031 0.16525 0.04608 0.11941 0.12279 -0.00031 -0.05892 -0.14483 -0.06316 0.15269 0.09454 -0.06269
z	0.07611 0.08038 0.08562 0.12715 0.09052 0.11947 -0.15938 0.14675 -0.15071 -0.08108 -0.01963 0.15874 0.02022 0.15229 -0.16987 0.04013 0.12448 0.09943 0.00434 -0.05541 0.07536 0.0897 0.09163 -0.05079 0.12465 -0.04953 0.07553 0.08141 -0.1488 -0.16748 -0.07493 -0.13748 0.04033 -0.12427 -0.03768 -0.16408 0.1037 -0.04629 0.02332 -0.09131 -0.14702 -0.15519 0.02547 0.08985 0.10603 -0.12582 -0.1294 0.01009 -0.06727 -0.02531 -0.1622 -0.16992 0.08922 -0.15127 0.0653 0.15347 -0.01196 0.1336 -0.09864 -0.08682 -0.08708 -0.0944 0.07695 -0.12464 -0.17201 -0.01387 0.1353 0.16332 -0.07241 0.00241 0.03758 0.09833 -0.06214 0.13121 -0.02459 -0.12767 0.03174 -0.02419 -0.01684 -0.10153 0.05817 -0.04542 0.1129 0.1256 -0.13129 0.02816 0.06741 -0.14325 -0.11322 -0.08438 0.06284 -0.04498 0.16124 -0.07155 -0.03033 -0.08321 -0.15123 -0.16247 -0.05496 0.00842 -0.13676 -0.01724 0.09676 0.13088 0.06993 -0.10654 -0.03266 -0.17173 -0.01285 0.10086 -0.13292 -0.11626 0.05026 -0.04362 0.14125 -0.12846 -0.17125 0.11128 0.04434 0.16281 0.02356 -0.15502 0.14424 0.06156 -0.0243 0.08828 -0.00954 -0.04865 -0.09804 0.08097 -0.05198 0.10667 -0.15364 0.10916 -0.0138 -0.03616 0.14019 0.08612 0.1679 0.03425 0.16696 -0.16687 -0.0708 0.02723 0.15117 0.09621 -0.11192 0.0257 0.12297 -0.16083 0.01033 0.12741 0.07855 0.13073 0.16267 -0.03458 -0.12635 0.1584 -0.0603 -0.06699 0.04092 0.09607 0.04202 0.11409 -0.02642 0.16301 -0.02046 -0.01051 -0.10644 0.07496 0.0417 0.10008 -0.05506 -0.15155 -0.03417 -0.06854 -0.06832 0.04942 -0.05563 -0.03664 0.06451 -0.09906 -0.00464 -0.13773 0.1363 -0.04816 0.08974 0.11472 -0.15031 0.16525 0.04608 0.11941 0.12279 -0.00031 -0.05892 -0.14483 -0.06316 0.15269 0.09454 -0.06269
q	-0.10483 0.06971 -0.06117 0.12257 0.05135 0.10422 -0.11588 -0.01343 -0.12169 0.09961 0.05723 0.08859 0.12315 0.06945 -0.04685 0.0935 -0.15354 -0.15835 0.13025 0.0182 0.13464 0.166 -0.09677 0.02526 0.06353 0.06368 0.07196 -0.02921 0.03305 -0.15508 0.00059 0.08321 0.02046 0.05194 -0.06646 0.11557 0.00067 -0.12385 0.01392 0.03208 0.09875 -0.03703 -0.12526 -0.02786 0.00337 0.17058 -0.00705 0.07587 0.15733 0.13249 0.10313 -0.02627 -0.1379 -0.09011 0.14198 -0.0068 0.10459 0.09012 0.14311 -0.01089 0.10175 0.17184 0.03512 0.12691 -0.00304 0.06763 0.09389 0.0607 -0.03195 -0.08637 0.01467 -0.13186 0.08841 0.03065 0.01994 0.14592 -0.09401 0.05128 0.14646 -0.05106 0.12502 -0.09163 -0.13953 0.07988 -0.00476 -0.15647 0.01074 -0.04405 -0.10992 -0.02651 -0.1582 -0.03914 0.05117 0.00355 0.06862 0.12177 0.04554 -0.1303 -0.04776 -0.13421 -0.13676 -0.01724 0.09676 0.13088 0.06993 -0.10654 -0.03266 -0.17173 -0.01285 0.10086 -0.13292 -0.11626 0.05026 -0.04362 0.14125 -0.12846 -0.17125 0.11128 0.04434 0.16281 0.02356 -0.15502 0.14424 0.06156 -0.0243 0.08828 -0.00954 -0.04865 -0.09804 0.08097 -0.05198 0.10667 -0.15364 0.10916 -0.0138 -0.03616 0.14019 0.08612 0.1679 0.03425 0.16696 -0.16687 -0.0708 0.02723 0.15117 0.09621 -0.11192 0.0257 0.12297 -0.16083 0.01033 0.12741 0.07855 0.13073 0.16267 -0.03458 -0.12635 0.1584 -0.0603 -0.06699 0.04092 0.09607 0.04202 0.11409 -0.02642 0.16301 -0.02046 -0.01051 -0.10644 0.07496 0.0417 0.10008 -0.05506 -0.15155 -0.03417 -0.06854 -0.06832 0.04942 -0.05563 -0.03664 0.06451 -0.09906 -0.00464 -0.13773 0.1363 -0.04816 0.08974 0.11472 -0.15031 0.16525 0.04608 0.11941 0.12279 -0.00031 -0.05892 -0.14483 -0.06316 0.15269 0.09454 -0.06269
r	-0.01779 0.02882 0.06664 -0.17306 0.0283 0.03832 0.0033 -0.05298 0.16954 -0.04715 -0.00071 -0.12367 0.00363 -0.04519 0.17219 -0.1549 -0.02126 0.06532 0.08 0.1424 0.1254 -0.00926 0.11545 0.12959 0.05209 0.15322 -0.00749 0.08444 0.1463 -0.08271 0.10718 -0.15514 -0.12725 0.08584 0.14417 0.10595 -0.13784 -0.08596 -0.12189 -0.06448 -0.07836 -0.15573 0.17205 -0.03489 0.15112 -0.02211 -0.09846 -0.02278 -0.0346 0.16281 -0.0032 0.01054 0.04894 0.16629 0.09914 -0.02009 -0.1056 0.05028 0.10831 0.01778 -0.07582 -0.04902 0.16904 -0.09589 -0.12245 0.14358 0.03957 0.04348 -0.03741 0.04156 0.15442 -0.01967 0.04757 -0.0011 0.11364 0.09924 0.0571 0.16975 0.0632 -0.12743 0.08994 0.01857 0.14056 0.12573 0.01617 0.06007 0.12506 -0.16377 -0.14217 -0.11023 -0.00199 0.09364 0.10145 0.09136 0.08596 -0.14468 0.04108 0.02409 0.11436 -0.13722 -0.13676 -0.01724 0.09676 0.13088 0.06993 -0.10654 -0.03266 -0.17173 -0.01285 0.10086 -0.13292 -0.11626 0.05026 -0.04362 0.14125 -0.12846 -0.17125 0.11128 0.04434 0.16281 0.02356 -0.15502 0.14424 0.06156 -0.0243 0.08828 -0.00954 -0.04865 -0.09804 0.08097 -0.05198 0.10667 -0.15364 0.10916 -0.0138 -0.03616 0.14019 0.08612 0.1679 0.03425 0.16696 -0.16687 -0.0708 0.02723 0.15117 0.09621 -0.11192 0.0257 0.12297 -0.16083 0.01033 0.12741 0.07855 0.13073 0.16267 -0.03458 -0.12635 0.1584 -0.0603 -0.06699 0.04092 0.09607 0.04202 0.11409 -0.02642 0.16301 -0.02046 -0.01051 -0.10644 0.07496 0.0417 0.10008 -0.05506 -0.15155 -0.03417 -0.06854 -0.06832 0.04942 -0.05563 -0.03664 0.06451 -0.09906 -0.00464 -0.13773 0.1363 -0.04816 0.08974 0.11472 -0.15031 0.16525 0.04608 0.11941 0.12279 -0.00031 -0.05892 -0.14483 -0.06316 0.15269 0.09454 -0.06269
e	-0.14972 -0.1681 -0.09213 0.10138 -0.0565 0.08172 0.16657 0.0222 -0.14979 0.1604 -0.05882 -0.1623 0.01727 -0.09053 0.13473 0.07046 -0.05493 -0.03601 0.13944 -0.10121 0.08339 0.03485 -0.02471 -0.14973 -0.04027 0.16384 0.15051 -0.06444 0.09903 -0.02098 -0.1277 0.02828 0.10812 0.03748 -0.10227 0.12462 0.10815 -0.16786 -0.10139 0.07935 0.15353 -0.14727 0.09379 -0.1479 -0.17132 0.05654 -0.17279 -0.1456 0.11913 -0.09675 -0.11848 0.02379 -0.00672 0.02562 0.12431 -0.06337 0.00403 0.14103 -0.04754 0.13611 0.06502 0.06797 0.04657 -0.07115 0.17182 0.03942 -0.04947 -0.09422 -0.15231 -0.02812 0.09745 -0.10818 0.06176 -0.12266 -0.02342 0.03456 0.07337 0.1326 0.13214 0.07549 0.04433 0.0171 -0.14443 0.0319 0.04886 -0.04256 -0.05346 -0.0247 -0.15737 0.09817 0.0244 -0.04877 -0.0228 0.02651 -0.14743 -0.12964 0.04114 -0.03985 0.14136 -0.09477 -0.13676 -0.01724 0.09676 0.13088 0.06993 -0.10654 -0.03266 -0.17173 -0.01285 0.10086 -0.13292 -0.11626 0.05026 -0.04362 0.14125 -0.12846 -0.17125 0.11128 0.04434 0.16281 0.02356 -0.15502 0.14424 0.06156 -0.0243 0.08828 -0.00954 -0.04865 -0.09804 0.08097 -0.05198 0.10667 -0.15364 0.10916 -0.0138 -0.03616 0.14019 0.08612 0.1679 0.03425 0.16696 -0.16687 -0.0708 0.02723 0.15117 0.09621 -0.11192 0.0257 0.12297 -0.16083 0.01033 0.12741 0.07855 0.13073 0.16267 -0.03458 -0.12635 0.1584 -0.0603 -0.06699 0.04092 0.09607 0.04202 0.11409 -0.02642 0.16301 -0.02046 -0.01051 -0.10644 0.07496 0.0417 0.10008 -0.05506 -0.15155 -0.03417 -0.06854 -0.06832 0.04942 -0.05563 -0.03664 0.06451 -0.09906 -0.00464 -0.13773 0.1363 -0.04816 0.08974 0.11472 -0.15031 0.16525 0.04608 0.11941 0.12279 -0.00031 -0.05892 -0.14483 -0.06316 0.15269 0.09454 -0.06269
c	0.17078 -0.06379 -0.03358 0.09955 -0.15355 0.05301 -0.01158 0.03361 0.10676 0.16367 -0.01133 -0.12728 0.15118 -0.0694 0.10215 0.08347 -0.05017 0.00859 -0.04594 0.12745 -0.16387 -0.01096 0.11014 0.06102 -0.04655 0.11938 0.10352 0.15169 -0.03612 0.11128 0.10651 0.14482 -0.13497 -0.16577 0.07655 0.13114 0.12111 -0.06159 -0.00514 0.0884 0.11099 0.06328 0.0821 0.08836 0.03198 -0.15669 0.07557 -0.03359 0.15468 0.04373 -0.02509 0.1567 -0.15267 0.1711 0.01871 -0.12911 -0.0191 0.01398 -0.1033 -0.16656 0.16955 -0.10451 -0.02085 0.02736 0.13987 -0.10654 -0.12294 -0.01309 -0.01826 -0.019 0.0615 -0.01934 0.14938 0.13346 0.06793 0.08345 -0.00766 0.16508 0.1613 -0.03378 0.04348 0.06091 0.13428 0.00961 0.05728 0.04549 0.09851 0.10578 -0.12653 -0.15218 0.08631 -0.0394 0.11428 -0.10064 -0.16043 0.03745 -0.05436 -0.06876 0.08154 -0.06836 -0.13676 -0.01724 0.09676 0.13088 0.06993 -0.10654 -0.03266 -0.17173 -0.01285 0.10086 -0.13292 -0.11626 0.05026 -0.04362 0.14125 -0.12846 -0.17125 0.11128 0.04434 0.16281 0.02356 -0.15502 0.14424 0.06156 -0.0243 0.08828 -0.00954 -0.04865 -0.09804 0.08097 -0.05198 0.10667 -0.15364 0.10916 -0.0138 -0.03616 0.14019 0.08612 0.1679 0.03425 0.16696 -0.16687 -0.0708 0.02723 0.15117 0.09621 -0.11192 0.0257 0.12297 -0.16083 0.01033 0.12741 0.07855 0.13073 0.16267 -0.03458 -0.12635 0.1584 -0.0603 -0.06699 0.04092 0.09607 0.04202 0.11409 -0.02642 0.16301 -0.02046 -0.01051 -0.10644 0.07496 0.0417 0.10008 -0.05506 -0.15155 -0.03417 -0.06854 -0.06832 0.04942 -0.05563 -0.03664 0.06451 -0.09906 -0.00464 -0.13773 0.1363 -0.04816 0.08974 0.11472 -0.15031 0.16525 0.04608 0.11941 0.12279 -0.00031 -0.05892 -0.14483 -0.06316 0.15269 0.09454 -0.06269
ù	0.12212 -0.10911 0.03254 -0.11593 -0.11948 0.14911 0.1168 -0.0875 0.03044 -0.08232 0.1563 0.08943 0.14063 0.16683 -0.16694 -0.10742 0.10425 0.16157 -0.10306 -0.04938 -0.04532 0.05414 0.05323 0.13881 0.10079 -0.09671 0.0786 -0.14354 0.08009 -0.11198 -0.09239 -0.06136 0.09023 0.04197 0.03958 -0.0674 -0.07586 0.13298 -0.09819 -0.07973 0.08476 0.03682 0.07897 -0.14221 -0.16757 -0.04698 -0.03462 -0.10262 0.02974 0.11306 0.1731 -0.16682 0.12818 0.06012 -0.07664 -0.07525 -0.16576 0.12635 0.03664 -0.15765 0.04216 -0.09646 0.07354 -0.11773 -0.01335 -0.03544 -0.05751 0.04734 0.05775 -0.04118 -0.028 -0.00172 0.07041 -0.08409 -0.00538 -0.0558 -0.0541 -0.14953 0.1366 0.01576 -0.15399 0.01952 -0.03855 -0.06214 -0.05197 -0.04305 0.09957 0.12758 -0.03334 -0.05443 -0.05513 -0.14991 -0.01399 -0.06848 -0.0659 -0.17166 -0.03849 0.0826 0.03919 -0.11459 -0.13676 -0.01724 0.09676 0.13088 0.06993 -0.10654 -0.03266 -0.17173 -0.01285 0.10086 -0.13292 -0.11626 0.05026 -0.04362 0.14125 -0.12846 -0.17125 0.11128 0.04434 0.16281 0.02356 -0.15502 0.14424 0.06156 -0.0243 0.08828 -0.00954 -0.04865 -0.09804 0.08097 -0.05198 0.10667 -0.15364 0.10916 -0.0138 -0.03616 0.14019 0.08612 0.1679 0.03425 0.16696 -0.16687 -0.0708 0.02723 0.15117 0.09621 -0.11192 0.0257 0.12297 -0.16083 0.01033 0.12741 0.07855 0.13073 0.16267 -0.03458 -0.12635 0.1584 -0.0603 -0.06699 0.04092 0.09607 0.04202 0.11409 -0.02642 0.16301 -0.02046 -0.01051 -0.10644 0.07496 0.0417 0.10008 -0.05506 -0.15155 -0.03417 -0.06854 -0.06832 0.04942 -0.05563 -0.03664 0.06451 -0.09906 -0.00464 -0.13773 0.1363 -0.04816 0.08974 0.11472 -0.15031 0.16525 0.04608 0.11941 0.12279 -0.00031 -0.05892 -0.14483 -0.06316 0.15269 0.09454 -0.06269
b	0.07951 0.03721 -0.02328 -0.0241 0.01291 0.0278 0.11622 -0.05193 -0.01635 -0.0599 0.00574 0.02193 -0.0724 -0.08428 0.02049 0.07469 0.14463 0.01487 0.11428 0.09316 0.09663 -0.08042 0.11447 -0.0502 0.10264 -0.05214 -0.08736 0.094 -0.08363 -0.15785 0.06343 0.00051 -0.15727 0.15904 -0.14188 0.02414 -0.03829 -0.08531 -0.11817 0.12377 -0.11768 -0.02779 -0.14791 -0.13893 -0.05393 0.02001 0.09801 0.007 -0.00103 0.00295 0.04592 0.03381 -0.17083 -0.00591 0.03824 -0.00392 0.00347 0.01125 0.0629 -0.01041 -0.05444 -0.12854 -0.06187 0.04483 -0.04964 0.05814 -0.05051 0.06008 -0.00644 -0.16799 0.08845 -0.01902 -0.10694 0.07114 -0.08389 -0.00074 0.1347 0.12425 0.02646 -0.06619 0.09808 0.15946 -0.14107 0.00899 -0.16051 0.01989 0.13375 -0.00623 0.09844 0.00699 -0.14661 0.07035 -0.04012 -0.14203 0.15749 -0.1662 0.07521 0.0343 0.12724 0.03251 -0.13676 -0.01724 0.09676 0.13088 0.06993 -0.10654 -0.03266 -0.17173 -0.01285 0.10086 -0.13292 -0.11626 0.05026 -0.04362 0.14125 -0.12846 -0.17125 0.11128 0.04434 0.16281 0.02356 -0.15502 0.14424 0.06156 -0.0243 0.08828 -0.00954 -0.04865 -0.09804 0.08097 -0.05198 0.10667 -0.15364 0.10916 -0.0138 -0.03616 0.14019 0.08612 0.1679 0.03425 0.16696 -0.16687 -0.0708 0.02723 0.15117 0.09621 -0.11192 0.0257 0.12297 -0.16083 0.01033 0.12741 0.07855 0.13073 0.16267 -0.03458 -0.12635 0.1584 -0.0603 -0.06699 0.04092 0.09607 0.04202 0.11409 -0.02642 0.16301 -0.02046 -0.01051 -0.10644 0.07496 0.0417 0.10008 -0.05506 -0.15155 -0.03417 -0.06854 -0.06832 0.04942 -0.05563 -0.03664 0.06451 -0.09906 -0.00464 -0.13773 0.1363 -0.04816 0.08974 0.11472 -0.15031 0.16525 0.04608 0.11941 0.12279 -0.00031 -0.05892 -0.14483 -0.06316 0.15269 0.09454 -0.06269
n	-0.1352 -0.17084 0.04324 0.11372 -0.16798 -0.09527 0.01656 -0.0634 0.0904 0.15479 -0.16 -0.15276 -0.05939 -0.13724 -0.04988 0.13668 -0.1718 0.12616 -0.09291 0.04312 0.12434 0.11814 -0.16622 0.08465 -0.10734 0.0272 -0.12126 -0.11812 -0.03098 -0.16419 0.15755 0.07356 0.03722 -0.11238 -0.05405 0.04901 0.16623 0.00663 -0.0025 0.05162 0.14909 0.08263 0.12652 0.0494 0.0432 -0.04917 -0.06313 0.06627 0.03218 -0.00101 0.16566 0.03183 0.04283 -0.05708 -0.10702 0.12298 0.05317 -0.05744 0.12184 -0.14162 -0.15189 0.0045 -0.13558 -0.12722 0.04374 -0.08673 0.14875 0.13413 0.15452 -0.10255 0.02915 -0.06983 -0.01528 0.1222 -0.11424 -0.0226 0.14848 0.10225 0.03795 -0.10362 -0.07686 -0.15644 0.02352 -0.01805 -0.0242 -0.14271 0.11301 -0.0713 -0.16354 -0.14226 -0.03413 -0.01532 0.12043 -0.10488 0.12045 0.17057 -0.10227 -0.14015 -0.13593 0.00229 -0.13676 -0.01724 0.09676 0.13088 0.06993 -0.10654 -0.03266 -0.17173 -0.01285 0.10086 -0.13292 -0.11626 0.05026 -0.04362 0.14125 -0.12846 -0.17125 0.11128 0.04434 0.16281 0.02356 -0.15502 0.14424 0.06156 -0.0243 0.08828 -0.00954 -0.04865 -0.09804 0.08097 -0.05198 0.10667 -0.15364 0.10916 -0.0138 -0.03616 0.14019 0.08612 0.1679 0.03425 0.16696 -0.16687 -0.0708 0.02723 0.15117 0.09621 -0.11192 0.0257 0.12297 -0.16083 0.01033 0.12741 0.07855 0.13073 0.16267 -0.03458 -0.12635 0.1584 -0.0603 -0.06699 0.04092 0.09607 0.04202 0.11409 -0.02642 0.16301 -0.02046 -0.01051 -0.10644 0.07496 0.0417 0.10008 -0.05506 -0.15155 -0.03417 -0.06854 -0.06832 0.04942 -0.05563 -0.03664 0.06451 -0.09906 -0.00464 -0.13773 0.1363 -0.04816 0.08974 0.11472 -0.15031 0.16525 0.04608 0.11941 0.12279 -0.00031 -0.05892 -0.14483 -0.06316 0.15269 0.09454 -0.06269
m	-0.03705 -0.04599 -0.11928 -0.08441 0.04319 -0.16842 0.13394 -0.10507 0.04124 -0.015 0.02589 0.13824 0.09318 -0.01464 -0.04979 -0.13994 0.06745 0.04273 0.1077 -0.06905 -0.14359 -0.07404 -0.16773 0.07104 -0.01687 -0.1165 -0.15121 0.01077 -0.15916 0.03004 -0.01782 -0.09635 0.1709 0.07531 -0.00844 0.16012 0.02013 -0.14372 0.05851 0.07719 -0.14345 0.05016 0.11109 -0.13533 0.11551 0.06002 0.16627 0.17234 0.01499 0.01617 -0.02356 -0.05673 0.03581 -0.16652 -0.03099 0.02264 0.15044 -0.10538 0.00479 -0.14908 0.01585 0.00068 -0.0002 -0.16 0.16257 -0.06944 -0.16156 0.00099 0.10243 -0.03119 0.02521 0.12261 0.17208 -0.00212 -0.11407 0.09645 -0.10673 -0.00792 -0.11687 -0.10624 0.01186 0.15661 -0.09469 -0.14074 -0.05276 -0.04235 -0.10326 0.03632 -0.10541 0.04072 0.07828 -0.01181 -0.00595 0.07618 0.05355 0.07762 0.10804 0.06579 0.01165 0.04474 -0.13676 -0.01724 0.09676 0.13088 0.06993 -0.10654 -0.03266 -0.17173 -0.01285 0.10086 -0.13292 -0.11626 0.05026 -0.04362 0.14125 -0.12846 -0.17125 0.11128 0.04434 0.16281 0.02356 -0.15502 0.14424 0.06156 -0.0243 0.08828 -0.00954 -0.04865 -0.09804 0.08097 -0.05198 0.10667 -0.15364 0.10916 -0.0138 -0.03616 0.14019 0.08612 0.1679 0.03425 0.16696 -0.16687 -0.0708 0.02723 0.15117 0.09621 -0.11192 0.0257 0.12297 -0.16083 0.01033 0.12741 0.07855 0.13073 0.16267 -0.03458 -0.12635 0.1584 -0.0603 -0.06699 0.04092 0.09607 0.04202 0.11409 -0.02642 0.16301 -0.02046 -0.01051 -0.10644 0.07496 0.0417 0.10008 -0.05506 -0.15155 -0.03417 -0.06854 -0.06832 0.04942 -0.05563 -0.03664 0.06451 -0.09906 -0.00464 -0.13773 0.1363 -0.04816 0.08974 0.11472 -0.15031 0.16525 0.04608 0.11941 0.12279 -0.00031 -0.05892 -0.14483 -0.06316 0.15269 0.09454 -0.06269
í	-0.0599 -0.08448 -0.03686 0.0254 -0.13095 -0.10172 -0.11715 0.08225 -0.15132 0.17009 -0.14583 0.07138 0.06332 0.16432 -0.13935 -0.03758 0.05166 -0.12856 0.06126 -0.12088 -0.15313 -0.04444 0.0897 -0.11047 0.11972 -0.09642 -0.09519 -0.10208 -0.09471 0.09033 -0.05857 -0.04819 0.10295 -0.01574 0.04946 0.02519 0.09712 -0.14539 -0.01244 -0.10405 -0.13156 -0.00189 -0.06914 -0.17137 -0.10659 -0.09249 -0.03077 -0.16313 -0.15496 -0.03153 0.02628 0.13542 -0.11141 0.12849 0.03742 0.15429 -0.09983 0.12782 -0.01689 0.15545 -0.0709 0.00068 -0.07269 -0.1189 -0.04939 -0.089 0.12963 -0.12714 0.04306 -0.13386 0.04045 0.07613 0.01524 0.05401 -0.12285 -0.16598 -0.03301 0.10948 0.08325 -0.10618 0.14075 -0.02423 0.06068 -0.05748 -0.05277 -0.07298 0.07526 0.14829 -0.16937 -0.05721 0.06517 0.05376 0.15695 0.08487 -0.12128 0.13243 0.03529 -0.11773 -0.0386 0.13744 -0.13676 -0.01724 0.09676 0.13088 0.06993 -0.10654 -0.03266 -0.17173 -0.01285 0.10086 -0.13292 -0.11626 0.05026 -0.04362 0.14125 -0.12846 -0.17125 0.11128 0.04434 0.16281 0.02356 -0.15502 0.14424 0.06156 -0.0243 0.08828 -0.00954 -0.04865 -0.09804 0.08097 -0.05198 0.10667 -0.15364 0.10916 -0.0138 -0.03616 0.14019 0.08612 0.1679 0.03425 0.16696 -0.16687 -0.0708 0.02723 0.15117 0.09621 -0.11192 0.0257 0.12297 -0.16083 0.01033 0.12741 0.07855 0.13073 0.16267 -0.03458 -0.12635 0.1584 -0.0603 -0.06699 0.04092 0.09607 0.04202 0.11409 -0.02642 0.16301 -0.02046 -0.01051 -0.10644 0.07496 0.0417 0.10008 -0.05506 -0.15155 -0.03417 -0.06854 -0.06832 0.04942 -0.05563 -0.03664 0.06451 -0.09906 -0.00464 -0.13773 0.1363 -0.04816 0.08974 0.11472 -0.15031 0.16525 0.04608 0.11941 0.12279 -0.00031 -0.05892 -0.14483 -0.06316 0.15269 0.09454 -0.06269
i	0.01181 0.1396 -0.04721 0.04017 -0.02306 -0.05406 -0.08798 0.06806 -0.10908 -0.04301 0.11176 0.15261 -0.09998 0.1533 0.06545 -0.11221 0.05737 0.02118 -0.03099 0.00776 -0.04042 0.06856 0.11054 0.10356 0.12426 -0.16092 0.13434 0.02872 -0.11095 0.12123 0.13847 0.10411 -0.06516 0.12737 -0.01816 -0.04542 0.05768 -0.01511 0.0016 0.01329 0.11117 -0.01166 -0.08364 -0.12327 0.15311 0.10737 -0.16245 -0.14016 -0.12127 -0.04075 -0.00717 0.03452 0.07759 -0.15984 -0.03627 -0.10395 -0.14329 -0.09441 0.13065 -0.16637 -0.0161 0.08815 -0.00424 -0.06163 -0.14764 -0.03083 -0.16699 0.06789 -0.14844 -0.03628 -0.14975 0.02296 0.06137 -0.12578 0.06082 0.0309 -0.04101 0.16505 0.12695 0.0578 0.13842 -0.15481 0.14703 0.1092 0.10611 0.05467 -0.16885 -0.06551 0.06105 -0.14081 0.15084 -0.05973 0.00054 -0.15401 -0.06233 -0.02453 0.05843 0.07089 0.0314 -0.05771 -0.13676 -0.01724 0.09676 0.13088 0.06993 -0.10654 -0.03266 -0.17173 -0.01285 0.10086 -0.13292 -0.11626 0.05026 -0.04362 0.14125 -0.12846 -0.17125 0.11128 0.04434 0.16281 0.02356 -0.15502 0.14424 0.06156 -0.0243 0.08828 -0.00954 -0.04865 -0.09804 0.08097 -0.05198 0.10667 -0.15364 0.10916 -0.0138 -0.03616 0.14019 0.08612 0.1679 0.03425 0.16696 -0.16687 -0.0708 0.02723 0.15117 0.09621 -0.11192 0.0257 0.12297 -0.16083 0.01033 0.12741 0.07855 0.13073 0.16267 -0.03458 -0.12635 0.1584 -0.0603 -0.06699 0.04092 0.09607 0.04202 0.11409 -0.02642 0.16301 -0.02046 -0.01051 -0.10644 0.07496 0.0417 0.10008 -0.05506 -0.15155 -0.03417 -0.06854 -0.06832 0.04942 -0.05563 -0.03664 0.06451 -0.09906 -0.00464 -0.13773 0.1363 -0.04816 0.08974 0.11472 -0.15031 0.16525 0.04608 0.11941 0.12279 -0.00031 -0.05892 -0.14483 -0.06316 0.15269 0.09454 -0.06269
l	0.11954 -0.02634 -0.16304 -0.03528 -0.00855 -0.05704 -0.13394 0.04259 0.12835 0.10174 -0.16432 0.00715 -0.03684 -0.15286 0.03025 -0.05154 -0.1021 0.06641 -0.12253 -0.03482 -0.08553 0.07482 0.12684 -0.00633 -0.12952 -0.08615 0.10525 0.15671 0.00997 -0.16845 -0.03091 0.06901 0.01888 -0.03842 -0.16948 -0.01175 0.14813 0.08606 0.07042 0.15379 -0.14542 -0.03566 0.11976 0.08278 0.01851 -0.08486 0.00841 0.15873 0.11957 0.13543 0.15119 0.15861 0.15311 0.03054 0.06266 -0.1705 0.16933 0.15135 0.03206 0.02543 -0.0312 -0.05854 -0.10566 -0.13513 -0.07157 0.02457 0.06577 0.14174 -0.05465 0.15138 0.12601 0.0244 0.03616 0.00666 0.05249 0.06071 -0.1644 -0.14328 -0.05593 -0.10662 -0.16321 -0.02211 -0.16268 0.13072 -0.11621 -0.13448 0.0981 -0.11327 -0.05884 -0.04736 0.06963 0.10632 -0.13033 0.0326 -0.07575 -0.08922 0.09005 0.11444 0.16427 0.01731 -0.13676 -0.01724 0.09676 0.13088 0.06993 -0.10654 -0.03266 -0.17173 -0.01285 0.10086 -0.13292 -0.11626 0.05026 -0.04362 0.14125 -0.12846 -0.17125 0.11128 0.04434 0.16281 0.02356 -0.15502 0.14424 0.06156 -0.0243 0.08828 -0.00954 -0.04865 -0.09804 0.08097 -0.05198 0.10667 -0.15364 0.10916 -0.0138 -0.03616 0.14019 0.08612 0.1679 0.03425 0.16696 -0.16687 -0.0708 0.02723 0.15117 0.09621 -0.11192 0.0257 0.12297 -0.16083 0.01033 0.12741 0.07855 0.13073 0.16267 -0.03458 -0.12635 0.1584 -0.0603 -0.06699 0.04092 0.09607 0.04202 0.11409 -0.02642 0.16301 -0.02046 -0.01051 -0.10644 0.07496 0.0417 0.10008 -0.05506 -0.15155 -0.03417 -0.06854 -0.06832 0.04942 -0.05563 -0.03664 0.06451 -0.09906 -0.00464 -0.13773 0.1363 -0.04816 0.08974 0.11472 -0.15031 0.16525 0.04608 0.11941 0.12279 -0.00031 -0.05892 -0.14483 -0.06316 0.15269 0.09454 -0.06269
ó	0.07998 -0.08973 -0.16759 0.11505 -0.14058 -0.06563 -0.02825 0.14324 -0.06566 0.09559 0.0169 0.10311 -0.11963 -0.13878 -0.109 -0.11179 -0.06164 0.05418 0.10235 -0.08406 -0.12204 0.02335 0.0131 0.1198 -0.02192 0.05494 -0.12753 0.06139 -0.05609 -0.00926 -0.05086 -0.13652 0.12364 0.0155 0.01994 -0.12904 -0.06403 0.05283 0.09522 0.00186 0.10958 -0.01692 -0.02259 0.11906 -0.02435 0.15422 0.11792 -0.12652 0.1461 -0.12155 -0.13085 0.07982 -0.13436 -0.07386 0.08069 -0.01988 -0.09831 0.11758 -0.114 0.17063 0.00603 0.09157 0.17161 0.07403 -0.08996 -0.06642 0.11243 0.01403 0.13424 0.17028 -0.08358 0.06824 -0.13211 -0.0591 -0.07355 0.12762 -0.01969 -0.04491 0.06316 0.09535 -0.14474 0.1706 -0.01914 -0.13678 0.03643 0.06373 -0.08565 -0.12242 0.08984 0.12841 -0.06062 0.05045 0.01641 0.11892 -0.01419 0.00832 0.08462 -0.09579 -0.16416 -0.004 -0.13676 -0.01724 0.09676 0.13088 0.06993 -0.10654 -0.03266 -0.17173 -0.01285 0.10086 -0.13292 -0.11626 0.05026 -0.04362 0.14125 -0.12846 -0.17125 0.11128 0.04434 0.16281 0.02356 -0.15502 0.14424 0.06156 -0.0243 0.08828 -0.00954 -0.04865 -0.09804 0.08097 -0.05198 0.10667 -0.15364 0.10916 -0.0138 -0.03616 0.14019 0.08612 0.1679 0.03425 0.16696 -0.16687 -0.0708 0.02723 0.15117 0.09621 -0.11192 0.0257 0.12297 -0.16083 0.01033 0.12741 0.07855 0.13073 0.16267 -0.03458 -0.12635 0.1584 -0.0603 -0.06699 0.04092 0.09607 0.04202 0.11409 -0.02642 0.16301 -0.02046 -0.01051 -0.10644 0.07496 0.0417 0.10008 -0.05506 -0.15155 -0.03417 -0.06854 -0.06832 0.04942 -0.05563 -0.03664 0.06451 -0.09906 -0.00464 -0.13773 0.1363 -0.04816 0.08974 0.11472 -0.15031 0.16525 0.04608 0.11941 0.12279 -0.00031 -0.05892 -0.14483 -0.06316 0.15269 0.09454 -0.06269
ú	-0.1586 0.08353 -0.09639 0.16676 -0.13554 -0.08936 0.16885 0.14485 -0.13214 0.08094 0.01604 0.02471 -0.12786 0.04118 0.082 -0.14576 -0.143 -0.1086 -0.0513 0.08051 0.14961 -0.11094 0.01968 0.03233 0.04675 0.05374 -0.03437 0.03268 0.06947 -0.00542 0.00374 -0.11994 0.02148 0.11534 0.08636 0.08575 0.07041 0.13442 -0.09872 -0.04948 0.17306 -0.15682 -0.16494 0.14318 -0.15821 0.02585 -0.09751 -0.1297 -0.12679 -0.13674 0.1407 -0.15281 0.15641 0.14242 0.02101 -0.13255 -0.06613 -0.08489 0.09209 0.07063 -0.15897 0.03515 -0.01166 -0.07306 -0.03104 -0.0673 -0.04689 0.16421 -0.06338 0.03799 -0.13089 0.04813 0.07491 -0.0685 0.12765 -0.16362 0.12644 -0.05727 -0.08149 0.04096 -0.03863 -0.06052 0.06828 0.11892 0.09619 0.02197 0.12781 0.14067 -0.10265 -0.10878 0.06917 -0.02806 -0.1586 0.05741 0.16145 0.06577 0.10329 0.02893 -0.01292 0.05479 -0.13676 -0.01724 0.09676 0.13088 0.06993 -0.10654 -0.03266 -0.17173 -0.01285 0.10086 -0.13292 -0.11626 0.05026 -0.04362 0.14125 -0.12846 -0.17125 0.11128 0.04434 0.16281 0.02356 -0.15502 0.14424 0.06156 -0.0243 0.08828 -0.00954 -0.04865 -0.09804 0.08097 -0.05198 0.10667 -0.15364 0.10916 -0.0138 -0.03616 0.14019 0.08612 0.1679 0.03425 0.16696 -0.16687 -0.0708 0.02723 0.15117 0.09621 -0.11192 0.0257 0.12297 -0.16083 0.01033 0.12741 0.07855 0.13073 0.16267 -0.03458 -0.12635 0.1584 -0.0603 -0.06699 0.04092 0.09607 0.04202 0.11409 -0.02642 0.16301 -0.02046 -0.01051 -0.10644 0.07496 0.0417 0.10008 -0.05506 -0.15155 -0.03417 -0.06854 -0.06832 0.04942 -0.05563 -0.03664 0.06451 -0.09906 -0.00464 -0.13773 0.1363 -0.04816 0.08974 0.11472 -0.15031 0.16525 0.04608 0.11941 0.12279 -0.00031 -0.05892 -0.14483 -0.06316 0.15269 0.09454 -0.06269
á	-0.14581 -0.14787 -0.17209 -0.11482 -0.095 -0.1107 -0.04489 0.03476 0.12123 -0.17287 0.09487 0.16414 -0.10759 0.0822 -0.05734 -0.10712 0.1553 -0.0235 0.17191 -0.00229 -0.11191 0.00436 -0.11422 -0.16205 -0.11468 -0.16793 -0.11361 -0.01031 -0.08207 0.00618 0.06037 -0.0909 -0.00783 0.04625 -0.06777 0.05057 0.01546 -0.00667 -0.15476 0.02248 -0.13562 -0.14171 -0.01394 0.00472 0.07251 0.01019 0.14986 0.07807 0.10379 0.09124 0.0949 -0.13991 -0.04976 0.17319 0.13036 -0.15924 -0.0316 -0.10022 -0.16533 -0.02798 -0.09777 -0.08426 -0.1015 0.13755 -0.02901 0.09243 0.10297 0.1597 0.11187 -0.03025 -0.08081 0.0569 -0.15687 -0.04404 0.04822 -0.03839 0.10626 0.08188 0.14487 0.06024 0.03629 0.05253 0.14572 0.1323 0.11998 0.05476 -0.0643 0.07364 -0.14826 0.02375 -0.02935 -0.0325 -0.0722 0.05264 0.09946 0.08314 -0.1507 -0.12274 0.09683 -0.06848 -0.13676 -0.01724 0.09676 0.13088 0.06993 -0.10654 -0.03266 -0.17173 -0.01285 0.10086 -0.13292 -0.11626 0.05026 -0.04362 0.14125 -0.12846 -0.17125 0.11128 0.04434 0.16281 0.02356 -0.15502 0.14424 0.06156 -0.0243 0.08828 -0.00954 -0.04865 -0.09804 0.08097 -0.05198 0.10667 -0.15364 0.10916 -0.0138 -0.03616 0.14019 0.08612 0.1679 0.03425 0.16696 -0.16687 -0.0708 0.02723 0.15117 0.09621 -0.11192 0.0257 0.12297 -0.16083 0.01033 0.12741 0.07855 0.13073 0.16267 -0.03458 -0.12635 0.1584 -0.0603 -0.06699 0.04092 0.09607 0.04202 0.11409 -0.02642 0.16301 -0.02046 -0.01051 -0.10644 0.07496 0.0417 0.10008 -0.05506 -0.15155 -0.03417 -0.06854 -0.06832 0.04942 -0.05563 -0.03664 0.06451 -0.09906 -0.00464 -0.13773 0.1363 -0.04816 0.08974 0.11472 -0.15031 0.16525 0.04608 0.11941 0.12279 -0.00031 -0.05892 -0.14483 -0.06316 0.15269 0.09454 -0.06269
d	-0.06704 0.06168 -0.05803 0.12638 0.07463 -0.02882 0.06303 -0.04458 -0.01219 -0.07735 -0.05659 0.11213 -0.14515 0.03345 -0.11165 0.11 -0.15896 -0.13618 0.08645 -0.16075 0.00958 0.15955 -0.09251 0.14225 0.00413 -0.07361 -0.14055 -0.07462 0.09782 0.07192 0.01633 -0.13152 -0.08555 0.14354 -0.16734 -0.00556 0.0662 0.13565 -0.05687 0.17139 -0.131 -0.07448 0.01285 -0.13868 0.07928 0.03099 -0.11711 0.03592 0.10741 -0.1051 -0.06989 -0.05832 0.01321 0.07854 0.06285 -0.08478 -0.14721 -0.12167 -0.08854 -0.17317 -0.04938 -0.16385 0.09919 0.15653 0.02273 -0.01553 -0.08497 -0.02523 -0.07432 -0.13241 -0.12106 0.06692 0.00535 -0.14799 0.14983 -0.04012 -0.12136 -0.15125 -0.16189 0.01872 0.01458 -0.00795 -0.00833 -0.12454 -0.13008 0.07411 -0.15692 0.0784 -0.08944 -0.11638 -0.11548 0.095 -0.09936 -0.11591 0.12685 0.04839 -0.13125 -0.01078 0.00479 -0.00823 -0.13676 -0.01724 0.09676 0.13088 0.06993 -0.10654 -0.03266 -0.17173 -0.01285 0.10086 -0.13292 -0.11626 0.05026 -0.04362 0.14125 -0.12846 -0.17125 0.11128 0.04434 0.16281 0.02356 -0.15502 0.14424 0.06156 -0.0243 0.08828 -0.00954 -0.04865 -0.09804 0.08097 -0.05198 0.10667 -0.15364 0.10916 -0.0138 -0.03616 0.14019 0.08612 0.1679 0.03425 0.16696 -0.16687 -0.0708 0.02723 0.15117 0.09621 -0.11192 0.0257 0.12297 -0.16083 0.01033 0.12741 0.07855 0.13073 0.16267 -0.03458 -0.12635 0.1584 -0.0603 -0.06699 0.04092 0.09607 0.04202 0.11409 -0.02642 0.16301 -0.02046 -0.01051 -0.10644 0.07496 0.0417 0.10008 -0.05506 -0.15155 -0.03417 -0.06854 -0.06832 0.04942 -0.05563 -0.03664 0.06451 -0.09906 -0.00464 -0.13773 0.1363 -0.04816 0.08974 0.11472 -0.15031 0.16525 0.04608 0.11941 0.12279 -0.00031 -0.05892 -0.14483 -0.06316 0.15269 0.09454 -0.06269
s	-0.01774 -0.17225 0.0495 0.11946 -0.09717 0.16916 -0.02192 -0.06267 -0.16917 0.09343 0.05401 -0.03702 -0.11873 -0.07166 -0.10892 -0.12605 -0.05667 0.04688 0.13109 -0.058 -0.02899 0.09526 -0.0222 -0.07653 -0.10239 -0.16598 -0.15448 -0.06437 0.05353 0.1235 -0.09127 0.15428 -0.10666 0.00255 -0.15929 -0.01432 0.00632 0.10754 -0.02579 0.11012 -0.04456 -0.03273 0.15204 -0.11269 -0.12606 -0.16333 0.07262 0.06886 0.15091 -0.15692 -0.01529 -0.04511 -0.09179 0.13468 -0.07764 -0.11817 0.15139 -0.08971 -0.10792 0.14446 0.15926 -0.1703 -0.07688 -0.03446 0.15326 -0.12658 -0.00229 0.07077 -0.01389 0.11848 0.05212 -0.16647 0.12326 0.06216 0.04733 0.00795 0.00841 -0.08621 0.08994 0.00157 0.1438 0.1641 0.00016 0.048 0.01291 -0.00597 -0.04109 -0.1415 0.16182 0.06469 -0.07171 -0.03632 0.1669 -0.00441 -0.15886 -0.10907 0.03131 -0.16947 -0.05211 0.11243 -0.13676 -0.01724 0.09676 0.13088 0.06993 -0.10654 -0.03266 -0.17173 -0.01285 0.10086 -0.13292 -0.11626 0.05026 -0.04362 0.14125 -0.12846 -0.17125 0.11128 0.04434 0.16281 0.02356 -0.15502 0.14424 0.06156 -0.0243 0.08828 -0.00954 -0.04865 -0.09804 0.08097 -0.05198 0.10667 -0.15364 0.10916 -0.0138 -0.03616 0.14019 0.08612 0.1679 0.03425 0.16696 -0.16687 -0.0708 0.02723 0.15117 0.09621 -0.11192 0.0257 0.12297 -0.16083 0.01033 0.12741 0.07855 0.13073 0.16267 -0.03458 -0.12635 0.1584 -0.0603 -0.06699 0.04092 0.09607 0.04202 0.11409 -0.02642 0.16301 -0.02046 -0.01051 -0.10644 0.07496 0.0417 0.10008 -0.05506 -0.15155 -0.03417 -0.06854 -0.06832 0.04942 -0.05563 -0.03664 0.06451 -0.09906 -0.00464 -0.13773 0.1363 -0.04816 0.08974 0.11472 -0.15031 0.16525 0.04608 0.11941 0.12279 -0.00031 -0.05892 -0.14483 -0.06316 0.15269 0.09454 -0.06269
p	0.07692 0.069 -0.02952 0.00757 -0.00695 0.11183 0.02247 -0.05079 -0.01765 -0.10426 0.01216 0.1453 -0.10071 0.16511 0.13642 -0.08242 0.15422 0.00799 0.16654 0.14201 0.04154 -0.02171 0.13203 0.0559 0.01463 -0.16228 0.10554 0.15133 -0.16542 -0.16109 -0.08563 -0.15345 -0.14529 0.07887 0.00968 0.09794 -0.0051 0.16396 0.04091 0.16145 0.03693 0.14734 0.12637 -0.1013 -0.09492 -0.15794 -0.06686 0.02449 0.10127 -0.0267 0.01631 0.13678 0.08822 -0.08567 -0.12637 -0.00455 -0.06803 0.14726 -0.1148 -0.10841 -0.0882 0.03884 -0.13185 -0.15147 0.02489 0.1372 0.00305 0.04788 0.14676 0.07548 -0.09374 0.0654 -0.07217 -0.04108 0.1142 -0.05206 0.08421 0.17317 0.08249 -0.04349 -0.04304 -0.11178 0.0546 0.1343 0.12974 0.02514 -0.09374 0.01883 -0.10463 0.04461 -0.08443 0.08854 0.1438 0.00762 -0.14508 -0.09929 0.07134 -0.07646 -0.07788 0.17202 -0.13676 -0.01724 0.09676 0.13088 0.06993 -0.10654 -0.03266 -0.17173 -0.01285 0.10086 -0.13292 -0.11626 0.05026 -0.04362 0.14125 -0.12846 -0.17125 0.11128 0.04434 0.16281 0.02356 -0.15502 0.14424 0.06156 -0.0243 0.08828 -0.00954 -0.04865 -0.09804 0.08097 -0.05198 0.10667 -0.15364 0.10916 -0.0138 -0.03616 0.14019 0.08612 0.1679 0.03425 0.16696 -0.16687 -0.0708 0.02723 0.15117 0.09621 -0.11192 0.0257 0.12297 -0.16083 0.01033 0.12741 0.07855 0.13073 0.16267 -0.03458 -0.12635 0.1584 -0.0603 -0.06699 0.04092 0.09607 0.04202 0.11409 -0.02642 0.16301 -0.02046 -0.01051 -0.10644 0.07496 0.0417 0.10008 -0.05506 -0.15155 -0.03417 -0.06854 -0.06832 0.04942 -0.05563 -0.03664 0.06451 -0.09906 -0.00464 -0.13773 0.1363 -0.04816 0.08974 0.11472 -0.15031 0.16525 0.04608 0.11941 0.12279 -0.00031 -0.05892 -0.14483 -0.06316 0.15269 0.09454 -0.06269
à	-0.04716 0.13065 0.14588 0.04124 0.06689 -0.10854 0.07693 -0.15719 -0.03991 0.07447 0.0141 0.12412 -0.13852 -0.10321 -0.13333 0.02505 -0.0282 -0.13882 0.1028 0.16369 -0.073 0.04143 0.01449 0.04157 0.16076 0.11792 -0.15054 0.03557 0.00923 -0.00425 0.1119 0.01367 -0.11556 -0.06976 0.10976 -0.14329 0.1026 0.00083 0.15558 0.06325 -0.1282 -0.01052 -0.01482 0.07459 -0.03696 -0.07293 0.05207 -0.0867 0.13802 0.08334 -0.02411 0.04176 -0.17197 0.11891 0.17316 -0.01073 0.10573 0.09742 -0.0005 0.16314 0.07992 0.05152 -0.11639 0.12065 -0.05156 -0.16155 -0.09825 0.00381 -0.00038 0.11529 0.09936 0.0657 -0.01238 0.12786 -0.12178 -0.16274 0.09504 0.0988 -0.09489 -0.05207 -0.0298 -0.13023 -0.05406 0.00486 -0.0289 0.02412 0.01082 -0.11659 0.13763 0.13816 -0.11528 0.04118 0.13692 0.07401 -0.03898 -0.04335 0.09818 0.13523 -0.16003 -0.04008 -0.13676 -0.01724 0.09676 0.13088 0.06993 -0.10654 -0.03266 -0.17173 -0.01285 0.10086 -0.13292 -0.11626 0.05026 -0.04362 0.14125 -0.12846 -0.17125 0.11128 0.04434 0.16281 0.02356 -0.15502 0.14424 0.06156 -0.0243 0.08828 -0.00954 -0.04865 -0.09804 0.08097 -0.05198 0.10667 -0.15364 0.10916 -0.0138 -0.03616 0.14019 0.08612 0.1679 0.03425 0.16696 -0.16687 -0.0708 0.02723 0.15117 0.09621 -0.11192 0.0257 0.12297 -0.16083 0.01033 0.12741 0.07855 0.13073 0.16267 -0.03458 -0.12635 0.1584 -0.0603 -0.06699 0.04092 0.09607 0.04202 0.11409 -0.02642 0.16301 -0.02046 -0.01051 -0.10644 0.07496 0.0417 0.10008 -0.05506 -0.15155 -0.03417 -0.06854 -0.06832 0.04942 -0.05563 -0.03664 0.06451 -0.09906 -0.00464 -0.13773 0.1363 -0.04816 0.08974 0.11472 -0.15031 0.16525 0.04608 0.11941 0.12279 -0.00031 -0.05892 -0.14483 -0.06316 0.15269 0.09454 -0.06269
