u	0.00193 -0.02513 -0.00409 0.09251 -0.0214 -0.00528 0.08675 0.12067 -0.0465 -0.11479 -0.13444 -0.04102 0.01873 0.06224 0.00819 0.06408 0.0315 0.08412 -0.12552 -0.09215 -0.1708 0.15549 -0.05156 0.1389 0.0281 -0.00204 0.0854 -0.05364 0.0019 0.08794 -0.13311 -0.13968 -0.07774 0.00172 0.13653 -0.09299 -0.05818 0.16903 0.1484 0.01003 0.07546 -0.04595 0.12237 0.04999 0.09357 0.08489 0.0785 0.02103 -0.00651 -0.1247 0.00165 -0.09456 0.12085 -0.00455 -0.00641 -0.17292 0.00682 0.08071 0.13907 0.07222 -0.02074 0.09866 0.11878 0.05644 -0.08397 -0.00766 -0.08384 -0.07322 0.04947 -0.01569 -0.00311 0.07025 0.08861 -0.05384 -0.12021 0.05991 0.00113 -0.03151 -0.09174 -0.08186 0.00244 0.06308 -0.05279 0.05491 0.06794 0.07426 0.16282 -0.05748 -0.16002 -0.11132 -0.12832 0.11468 -0.0828 -0.131 0.16397 0.07399 0.1682 0.13656 0.10427 0.02559 -0.12632 -0.06468 0.07525 0.10476 0.07768 -0.15369 0.04473 0.02982 -0.12037 -0.12612 0.10314 -0.07574 -0.0675 -0.08179 -0.02842 -0.12608 0.0618 0.0303 -0.14123 -0.11876 -0.07613 -0.06478 0.04851 -0.10852 0.08125 0.07551 -0.06638 0.03709 -0.12928 0.13304 0.02348 0.08489 0.10019 0.16959 0.01454 -0.08679 -0.07571 0.16584 -0.03974 0.11429 -0.03778 -0.01306 0.12173 -0.03673 0.09742 -0.01936 -0.04198 -0.14735 0.09817 0.03325 0.02215 -0.11528 0.15299 -0.10522 -0.16733 -0.00403 0.06646 -0.06281 0.07831 -0.00987 0.13526 -0.04782 0.09882 -0.16222 0.0812 0.12359 -0.04619 -0.03458 0.15611 0.03232 -0.06183 0.14352 0.08611 -0.02001 0.0105 -0.01343 0.03914 -0.01471 0.01638 -0.02582 0.04286 0.162 0.04007 0.11432 -0.01641 -0.15036 -0.05386 0.08311 0.0113 -0.05866 -0.12355 0.05678 0.0063 0.00883 0.02186 -0.16637 0.02069 -0.08804 0.06339 0.08741
é	0.1042 -0.01478 0.11835 0.12004 -0.14076 -0.1503 -0.07301 -0.15173 0.09366 -0.16538 -0.14673 -0.01641 0.10108 0.15137 -0.14823 0.0385 -0.05452 0.02674 0.07444 -0.13187 0.04361 -0.06252 -0.12989 0.1103 -0.10369 0.10297 0.07127 -0.13651 0.12079 0.09405 0.06219 0.00669 -0.09953 -0.10887 -0.034 -0.05495 0.14932 -0.00834 -0.06738 -0.14536 0.17226 0.12501 -0.03592 0.04788 -0.03291 -0.14778 -0.16617 -0.07293 -0.00578 0.06509 -0.09466 0.06784 0.10049 -0.07258 0.00127 0.05468 0.15906 0.05394 0.11759 0.09352 -0.15128 0.14721 0.11493 -0.16091 -0.10101 0.12708 0.15793 -0.00144 0.14307 0.16743 0.13563 0.05253 -0.02199 0.07632 0.09393 -0.06932 0.11339 -0.14231 0.06827 -0.11519 -0.02461 0.01368 -0.04218 -0.08378 -0.1425 -0.12393 0.00994 0.03323 0.07719 -0.08695 0.08643 0.06988 -0.15616 -0.09775 -0.04988 -0.13073 0.00662 0.03792 -0.10345 0.06341 -0.12632 -0.06468 0.07525 0.10476 0.07768 -0.15369 0.04473 0.02982 -0.12037 -0.12612 0.10314 -0.07574 -0.0675 -0.08179 -0.02842 -0.12608 0.0618 0.0303 -0.14123 -0.11876 -0.07613 -0.06478 0.04851 -0.10852 0.08125 0.07551 -0.06638 0.03709 -0.12928 0.13304 0.02348 0.08489 0.10019 0.16959 0.01454 -0.08679 -0.07571 0.16584 -0.03974 0.11429 -0.03778 -0.01306 0.12173 -0.03673 0.09742 -0.01936 -0.04198 -0.14735 0.09817 0.03325 0.02215 -0.11528 0.15299 -0.10522 -0.16733 -0.00403 0.06646 -0.06281 0.07831 -0.00987 0.13526 -0.04782 0.09882 -0.16222 0.0812 0.12359 -0.04619 -0.03458 0.15611 0.03232 -0.06183 0.14352 0.08611 -0.02001 0.0105 -0.01343 0.03914 -0.01471 0.01638 -0.02582 0.04286 0.162 0.04007 0.11432 -0.01641 -0.15036 -0.05386 0.08311 0.0113 -0.05866 -0.12355 0.05678 0.0063 0.00883 0.02186 -0.16637 0.02069 -0.08804 0.06339 0.08741
t	-0.04068 -0.01188 0.04503 0.12042 0.02657 0.1015 0.1666 -0.16505 0.00598 -0.05367 -0.03505 0.07847 -0.02819 0.09751 -0.00638 0.10981 0.00273 -0.15646 0.13677 -0.06851 0.0977 0.04508 0.04436 0.06604 0.07454 0.10278 -0.04969 -0.08496 -0.13403 -0.07032 -0.07089 -0.11732 0.03798 0.03815 -0.10759 -0.01085 0.03808 0.11614 -0.08841 -0.12836 0.09095 0.10577 0.03503 0.1239 0.00343 0.10845 -0.08858 -0.0411 0.10083 0.10506 -0.01195 -0.03401 0.12518 0.05384 -0.11821 -0.11106 -0.04616 -0.0855 0.1398 0.09335 0.12141 0.13869 0.08059 0.08453 -0.03053 -0.16521 0.12251 0.08186 0.02957 0.11256 -0.06408 0.05757 0.06012 0.00793 -0.02995 -0.10001 0.14409 -0.15411 0.0905 -0.1644 0.15373 -0.12178 0.04919 0.06406 -0.14452 -0.01461 -0.09363 0.08015 0.14141 0.10995 -0.02063 0.08151 -0.05735 0.00945 -0.12359 0.05475 0.11982 0.01256 0.05248 -0.07592 -0.12632 -0.06468 0.07525 0.10476 0.07768 -0.15369 0.04473 0.02982 -0.12037 -0.12612 0.10314 -0.07574 -0.0675 -0.08179 -0.02842 -0.12608 0.0618 0.0303 -0.14123 -0.11876 -0.07613 -0.06478 0.04851 -0.10852 0.08125 0.07551 -0.06638 0.03709 -0.12928 0.13304 0.02348 0.08489 0.10019 0.16959 0.01454 -0.08679 -0.07571 0.16584 -0.03974 0.11429 -0.03778 -0.01306 0.12173 -0.03673 0.09742 -0.01936 -0.04198 -0.14735 0.09817 0.03325 0.02215 -0.11528 0.15299 -0.10522 -0.16733 -0.00403 0.06646 -0.06281 0.07831 -0.00987 0.13526 -0.04782 0.09882 -0.16222 0.0812 0.12359 -0.04619 -0.03458 0.15611 0.03232 -0.06183 0.14352 0.08611 -0.02001 0.0105 -0.01343 0.03914 -0.01471 0.01638 -0.02582 0.04286 0.162 0.04007 0.11432 -0.01641 -0.15036 -0.05386 0.08311 0.0113 -0.05866 -0.12355 0.05678 0.0063 0.00883 0.02186 -0.16637 0.02069 -0.08804 0.06339 0.08741
û	0.08871 -0.14079 -0.06096 -0.13036 -0.08586 -0.15864 0.14915 -0.04958 0.10345 -0.15512 -0.04192 0.10932 0.10972 0.13608 -0.00761 -0.08558 -0.03649 0.11787 -0.12848 -0.00892 0.10855 0.05268 -0.15699 0.03107 0.08029 -0.11166 -0.06867 -0.08519 -0.07348 -0.08736 -0.15383 0.16352 -0.04003 -0.04051 -0.04496 -0.10452 -0.09402 -0.09467 -0.16684 0.13299 -0.13666 -0.07564 0.09244 0.02165 0.05763 -0.10615 -0.02172 0.03884 -0.15104 0.00663 0.10364 -0.05693 -0.11251 0.01221 0.07355 0.11373 -0.07974 -0.11106 -0.08582 -0.16469 0.01239 -0.07158 0.05956 -0.02185 0.15002 0.11458 -0.11143 -0.12721 -0.01205 0.15379 -0.17226 0.05708 0.02941 0.16392 0.00549 0.11261 -0.03313 -0.0901 0.01558 0.11439 -0.09222 0.01884 -0.00761 -0.07967 -0.05472 0.05936 0.07404 -0.13042 0.0406 -0.05028 -0.12752 -0.01284 0.06049 0.0123 0.11675 -0.07674 -0.04022 0.09583 -0.12711 0.16037 -0.12632 -0.06468 0.07525 0.10476 0.07768 -0.15369 0.04473 0.02982 -0.12037 -0.12612 0.10314 -0.07574 -0.0675 -0.08179 -0.02842 -0.12608 0.0618 0.0303 -0.14123 -0.11876 -0.07613 -0.06478 0.04851 -0.10852 0.08125 0.07551 -0.06638 0.03709 -0.12928 0.13304 0.02348 0.08489 0.10019 0.16959 0.01454 -0.08679 -0.07571 0.16584 -0.03974 0.11429 -0.03778 -0.01306 0.12173 -0.03673 0.09742 -0.01936 -0.04198 -0.14735 0.09817 0.03325 0.02215 -0.11528 0.15299 -0.10522 -0.16733 -0.00403 0.06646 -0.06281 0.07831 -0.00987 0.13526 -0.04782 0.09882 -0.16222 0.0812 0.12359 -0.04619 -0.03458 0.15611 0.03232 -0.06183 0.14352 0.08611 -0.02001 0.0105 -0.01343 0.03914 -0.01471 0.01638 -0.02582 0.04286 0.162 0.04007 0.11432 -0.01641 -0.15036 -0.05386 0.08311 0.0113 -0.05866 -0.12355 0.05678 0.0063 0.00883 0.02186 -0.16637 0.02069 -0.08804 0.06339 0.08741
-	0.11138 0.10616 -0.11488 0.127 0.15954 0.16456 0.08925 0.06092 0.02331 -0.07745 0.12097 -0.00855 0.06954 -0.02253 -0.08314 0.12674 0.08885 -0.05755 0.13927 0.07146 -0.03152 -0.1732 -0.04534 -0.01519 -0.1565 0.05716 -0.01671 -0.16428 0.00981 -0.01713 0.07112 0.11287 -0.10273 -0.06658 -0.04931 -0.02526 0.06387 0.05227 -0.0623 0.11621 -0.032 0.05809 -0.16768 -0.12231 -0.10283 -0.16997 0.10942 0.00621 -0.05462 0.05567 0.15179 -0.09777 0.08249 0.14637 0.13251 0.02186 0.06093 -0.03244 0.12839 0.10225 -0.06587 0.14397 -0.09884 0.0929 0.01207 -0.04167 0.00331 -0.02629 0.07634 0.13499 0.02576 -0.01309 -0.04308 -0.02955 0.16806 -0.00989 0.14748 -0.08773 0.11387 0.044 -0.14872 -0.14066 -0.15944 -0.10542 0.01257 0.01732 0.08886 -0.11956 -0.08027 -0.09798 0.00647 -0.05261 -0.11905 0.03752 -0.0726 -0.03175 -0.05796 0.03268 0.08042 -0.04025 -0.12632 -0.06468 0.07525 0.10476 0.07768 -0.15369 0.04473 0.02982 -0.12037 -0.12612 0.10314 -0.07574 -0.0675 -0.08179 -0.02842 -0.12608 0.0618 0.0303 -0.14123 -0.11876 -0.07613 -0.06478 0.04851 -0.10852 0.08125 0.07551 -0.06638 0.03709 -0.12928 0.13304 0.02348 0.08489 0.10019 0.16959 0.01454 -0.08679 -0.07571 0.16584 -0.03974 0.11429 -0.03778 -0.01306 0.12173 -0.03673 0.09742 -0.01936 -0.04198 -0.14735 0.09817 0.03325 0.02215 -0.11528 0.15299 -0.10522 -0.16733 -0.00403 0.06646 -0.06281 0.07831 -0.00987 0.13526 -0.04782 0.09882 -0.16222 0.0812 0.12359 -0.04619 -0.03458 0.15611 0.03232 -0.06183 0.14352 0.08611 -0.02001 0.0105 -0.01343 0.03914 -0.01471 0.01638 -0.02582 0.04286 0.162 0.04007 0.11432 -0.01641 -0.15036 -0.05386 0.08311 0.0113 -0.05866 -0.12355 0.05678 0.0063 0.00883 0.02186 -0.16637 0.02069 -0.08804 0.06339 0.08741
g	0.1181 0.06316 -0.0889 0.08965 0.08874 -0.02329 -0.05708 -0.07692 -0.11674 -0.11613 -0.08957 0.03287 -0.01171 -0.06709 -0.16134 -0.05706 0.15741 -0.07699 -0.06971 -0.10781 0.05891 -0.14383 -0.00846 -0.074 0.0991 0.01124 -0.03759 -0.05839 0.03654 -0.03203 -0.08919 0.08558 -0.06157 0.16255 -0.06503 0.03392 -0.13904 -0.07651 -0.15045 0.07015 0.05078 0.05233 0.05317 -0.06144 -0.10577 0.13653 -0.17047 0.06539 -0.11035 -0.0316 -0.12608 0.04117 0.02574 0.08715 -0.04884 0.06309 0.07453 -0.14551 0.0518 0.02496 0.02387 -0.0117 -0.09487 0.07729 -0.09049 -0.10045 -0.05841 0.12722 -0.07866 0.03712 0.07308 -0.17082 -0.06152 -0.05632 -0.12213 0.03552 -0.15855 -0.08605 0.05084 -0.13805 0.00737 -0.15021 -0.07507 0.03478 -0.15091 0.08613 0.03401 0.09215 0.14131 -0.10127 -0.14976 0.0153 0.16172 -0.02399 0.02571 0.07755 0.11822 0.00235 0.10501 -0.11672 -0.12632 -0.06468 0.07525 0.10476 0.07768 -0.15369 0.04473 0.02982 -0.12037 -0.12612 0.10314 -0.07574 -0.0675 -0.08179 -0.02842 -0.12608 0.0618 0.0303 -0.14123 -0.11876 -0.07613 -0.06478 0.04851 -0.10852 0.08125 0.07551 -0.06638 0.03709 -0.12928 0.13304 0.02348 0.08489 0.10019 0.16959 0.01454 -0.08679 -0.07571 0.16584 -0.03974 0.11429 -0.03778 -0.01306 0.12173 -0.03673 0.09742 -0.01936 -0.04198 -0.14735 0.09817 0.03325 0.02215 -0.11528 0.15299 -0.10522 -0.16733 -0.00403 0.06646 -0.06281 0.07831 -0.00987 0.13526 -0.04782 0.09882 -0.16222 0.0812 0.12359 -0.04619 -0.03458 0.15611 0.03232 -0.06183 0.14352 0.08611 -0.02001 0.0105 -0.01343 0.03914 -0.01471 0.01638 -0.02582 0.04286 0.162 0.04007 0.11432 -0.01641 -0.15036 -0.05386 0.08311 0.0113 -0.05866 -0.12355 0.05678 0.0063 0.00883 0.02186 -0.16637 0.02069 -0.08804 0.06339 0.08741
è	-0.00573 -0.11319 0.01514 0.02616 0.10698 0.12463 0.07442 0.07235 0.15289 0.03674 0.0402 0.07856 -0.11761 0.03621 0.09571 -0.15317 0.03046 -0.1732 -0.08159 -0.15752 0.14948 -0.12574 -0.06568 -0.14286 0.03348 0.14187 0.08795 0.06979 -0.02593 -0.07556 0.06069 0.17169 -0.15433 0.05808 0.09506 0.098 0.0015 0.14864 0.13766 -0.12452 -0.06608 -0.05654 0.06327 0.08022 -0.06695 -0.12691 -0.10446 0.15764 0.10423 0.05952 0.01149 -0.13249 0.10297 -0.01114 -0.09191 -0.12463 -0.05327 0.15883 0.12678 0.11422 -0.05812 -0.01803 0.00962 0.12697 -0.0245 -0.06075 -0.04218 -0.16937 0.05623 -0.10737 0.11036 -0.16686 -0.10445 -0.13098 0.12106 -0.12636 -0.11462 0.15727 0.11397 0.0354 -0.13715 -0.10176 -0.06747 -0.03716 0.06361 -0.07105 0.01388 0.10988 -0.0008 0.11779 -0.04603 -0.16703 0.07589 -0.08502 -0.16648 0.12976 -0.00126 -0.13794 0.05765 -0.10763 -0.12632 -0.06468 0.07525 0.10476 0.07768 -0.15369 0.04473 0.02982 -0.12037 -0.12612 0.10314 -0.07574 -0.0675 -0.08179 -0.02842 -0.12608 0.0618 0.0303 -0.14123 -0.11876 -0.07613 -0.06478 0.04851 -0.10852 0.08125 0.07551 -0.06638 0.03709 -0.12928 0.13304 0.02348 0.08489 0.10019 0.16959 0.01454 -0.08679 -0.07571 0.16584 -0.03974 0.11429 -0.03778 -0.01306 0.12173 -0.03673 0.09742 -0.01936 -0.04198 -0.14735 0.09817 0.03325 0.02215 -0.11528 0.15299 -0.10522 -0.16733 -0.00403 0.06646 -0.06281 0.07831 -0.00987 0.13526 -0.04782 0.09882 -0.16222 0.0812 0.12359 -0.04619 -0.03458 0.15611 0.03232 -0.06183 0.14352 0.08611 -0.02001 0.0105 -0.01343 0.03914 -0.01471 0.01638 -0.02582 0.04286 0.162 0.04007 0.11432 -0.01641 -0.15036 -0.05386 0.08311 0.0113 -0.05866 -0.12355 0.05678 0.0063 0.00883 0.02186 -0.16637 0.02069 -0.08804 0.06339 0.08741
ç	0.08922 0.01339 -0.1397 -0.02396 -0.05967 -0.04439 0.15208 -0.12489 0.03099 0.09803 -0.05377 0.05994 0.05208 -0.16245 0.1476 -0.16935 0.15119 -0.08537 0.0557 -0.09862 -0.06518 -0.03262 -0.01672 0.13299 0.01027 0.14037 0.16173 -0.03323 0.04328 -0.12338 -0.00386 0.09814 -0.16319 0.08243 -0.09144 0.09207 -0.13954 -0.11858 0.14118 0.09568 -0.1436 0.15642 -0.00104 -0.08897 -0.16714 -0.14749 0.05423 0.0634 0.06504 -0.1655 0.0511 0.05863 -0.11869 0.0286 -0.16895 -0.05234 0.1532 -0.06372 0.05095 0.16898 -0.01187 -0.03346 -0.15605 0.11134 -0.15827 0.03612 0.00112 -0.00761 0.01573 -0.16737 -0.10215 0.002 0.12707 -0.10838 0.07173 -0.09616 0.09629 -0.13627 -0.00545 -0.08231 0.12519 -0.09293 -0.04623 -0.02305 -0.0092 0.03305 0.09665 0.16606 0.17072 -0.1397 0.0896 -0.13765 -0.10503 -0.09756 0.07671 0.05801 0.14885 -0.0183 0.04005 0.1325 -0.12632 -0.06468 0.07525 0.10476 0.07768 -0.15369 0.04473 0.02982 -0.12037 -0.12612 0.10314 -0.07574 -0.0675 -0.08179 -0.02842 -0.12608 0.0618 0.0303 -0.14123 -0.11876 -0.07613 -0.06478 0.04851 -0.10852 0.08125 0.07551 -0.06638 0.03709 -0.12928 0.13304 0.02348 0.08489 0.10019 0.16959 0.01454 -0.08679 -0.07571 0.16584 -0.03974 0.11429 -0.03778 -0.01306 0.12173 -0.03673 0.09742 -0.01936 -0.04198 -0.14735 0.09817 0.03325 0.02215 -0.11528 0.15299 -0.10522 -0.16733 -0.00403 0.06646 -0.06281 0.07831 -0.00987 0.13526 -0.04782 0.09882 -0.16222 0.0812 0.12359 -0.04619 -0.03458 0.15611 0.03232 -0.06183 0.14352 0.08611 -0.02001 0.0105 -0.01343 0.03914 -0.01471 0.01638 -0.02582 0.04286 0.162 0.04007 0.11432 -0.01641 -0.15036 -0.05386 0.08311 0.0113 -0.05866 -0.12355 0.05678 0.0063 0.00883 0.02186 -0.16637 0.02069 -0.08804 0.06339 0.08741
h	-0.10021 -0.06349 0.04788 -0.03481 0.07515 -0.16814 -0.09775 -0.16346 -0.10219 -0.12776 0.15765 0.06433 -0.06711 0.08166 -0.00321 0.011 -0.16697 0.01312 -0.0231 0.10103 -0.01569 -0.05862 -0.05717 0.05744 -0.17257 0.10585 0.14118 -0.10563 0.04605 -0.01292 -0.0287 0.12609 0.16798 0.16392 0.00289 0.15267 -0.03797 0.14676 -0.16091 -0.03387 0.0764 -0.08166 -0.08791 0.11256 0.16704 -0.02506 -0.08147 0.02061 0.03415 0.10056 -0.05383 -0.10438 -0.12392 -0.05767 0.00189 0.02909 0.05476 0.08656 0.12239 0.12324 -0.01379 -0.00121 0.0868 -0.07265 0.02497 0.08727 0.01154 -0.08886 0.05859 0.09248 0.15802 -0.01484 0.02192 -0.15732 -0.02299 -0.04675 0.04152 -0.0066 -0.06163 -0.03844 -0.15905 -0.06681 0.05097 -0.00408 0.0007 0.00809 0.0013 0.12758 0.16528 0.14239 0.1415 0.04201 -0.16718 0.02791 0.12415 0.06028 0.15111 -0.08632 -0.07861 -0.11978 -0.12632 -0.06468 0.07525 0.10476 0.07768 -0.15369 0.04473 0.02982 -0.12037 -0.12612 0.10314 -0.07574 -0.0675 -0.08179 -0.02842 -0.12608 0.0618 0.0303 -0.14123 -0.11876 -0.07613 -0.06478 0.04851 -0.10852 0.08125 0.07551 -0.06638 0.03709 -0.12928 0.13304 0.02348 0.08489 0.10019 0.16959 0.01454 -0.08679 -0.07571 0.16584 -0.03974 0.11429 -0.03778 -0.01306 0.12173 -0.03673 0.09742 -0.01936 -0.04198 -0.14735 0.09817 0.03325 0.02215 -0.11528 0.15299 -0.10522 -0.16733 -0.00403 0.06646 -0.06281 0.07831 -0.00987 0.13526 -0.04782 0.09882 -0.16222 0.0812 0.12359 -0.04619 -0.03458 0.15611 0.03232 -0.06183 0.14352 0.08611 -0.02001 0.0105 -0.01343 0.03914 -0.01471 0.01638 -0.02582 0.04286 0.162 0.04007 0.11432 -0.01641 -0.15036 -0.05386 0.08311 0.0113 -0.05866 -0.12355 0.05678 0.0063 0.00883 0.02186 -0.16637 0.02069 -0.08804 0.06339 0.08741
v	-0.1572 0.02423 -0.05644 0.07773 -0.10786 -0.02356 -0.13211 0.06158 0.00506 0.09063 0.16155 -0.11032 -0.0142 -0.16624 -0.10581 0.15371 -0.16002 0.12555 0.14472 -0.14109 0.02979 0.00854 -0.12537 -0.01356 -0.04707 0.05152 -0.10331 0.12988 0.14196 0.0937 0.11608 -0.03881 0.10071 -0.16458 0.0692 -0.14738 0.13731 -0.05933 -0.06038 0.05142 0.00023 0.1552 -0.11223 0.12222 -0.06236 -0.15669 -0.0258 -0.07459 -0.16627 0.00785 -0.13431 -0.13096 0.10173 0.05618 0.07546 0.14932 -0.1631 -0.1129 0.12221 0.08653 0.13764 0.0341 0.16064 -0.01095 0.15998 0.14779 -0.01964 0.11074 -0.08142 -0.0474 0.10676 0.05432 -0.15722 0.12347 0.07932 0.01319 0.13621 -0.11289 -0.0905 -0.14186 -0.10862 -0.14746 0.12146 -0.06276 0.09879 -0.01041 0.07957 -0.13327 0.0464 0.15322 0.11822 -0.01493 -0.17208 0.07033 0.12715 0.10728 -0.03132 0.05773 0.07008 -0.01161 -0.12632 -0.06468 0.07525 0.10476 0.07768 -0.15369 0.04473 0.02982 -0.12037 -0.12612 0.10314 -0.07574 -0.0675 -0.08179 -0.02842 -0.12608 0.0618 0.0303 -0.14123 -0.11876 -0.07613 -0.06478 0.04851 -0.10852 0.08125 0.07551 -0.06638 0.03709 -0.12928 0.13304 0.02348 0.08489 0.10019 0.16959 0.01454 -0.08679 -0.07571 0.16584 -0.03974 0.11429 -0.03778 -0.01306 0.12173 -0.03673 0.09742 -0.01936 -0.04198 -0.14735 0.09817 0.03325 0.02215 -0.11528 0.15299 -0.10522 -0.16733 -0.00403 0.06646 -0.06281 0.07831 -0.00987 0.13526 -0.04782 0.09882 -0.16222 0.0812 0.12359 -0.04619 -0.03458 0.15611 0.03232 -0.06183 0.14352 0.08611 -0.02001 0.0105 -0.01343 0.03914 -0.01471 0.01638 -0.02582 0.04286 0.162 0.04007 0.11432 -0.01641 -0.15036 -0.05386 0.08311 0.0113 -0.05866 -0.12355 0.05678 0.0063 0.00883 0.02186 -0.16637 0.02069 -0.08804 0.06339 0.08741
o	0.15824 -0.04655 0.15109 -0.02614 0.0201 -0.1558 -0.0054 0.01195 0.07072 0.15788 0.16305 -0.10927 0.05013 -0.03779 -0.02155 0.13947 -0.06323 0.12264 -0.10318 0.04404 -0.14592 -0.02867 -0.12797 -0.01213 0.09336 -0.10537 -0.15829 -0.10505 0.08042 -0.08046 0.10052 -0.01749 0.14167 0.14417 -0.06833 -0.03926 0.0058 0.12591 0.03521 0.14009 -0.03618 0.08847 0.07232 0.11949 0.1489 -0.14941 -0.10159 0.14542 0.09011 0.05561 -0.1643 0.11381 -0.04806 -0.07599 0.14656 0.14039 0.09695 -0.10526 0.10926 -0.07453 -0.16567 0.12007 0.02294 0.09661 0.01338 0.12432 0.1559 0.00568 0.03278 0.07967 -0.0331 0.00409 0.03492 0.07806 0.16759 -0.15706 0.14236 0.0499 -0.04739 0.09752 -0.14648 0.02844 0.07753 0.02867 0.13048 0.05518 0.09723 -0.13674 -0.1656 0.02829 -0.15449 -0.06966 0.12514 0.01921 -0.00985 -0.06199 0.1638 -0.15745 -0.12464 -0.06566 -0.12632 -0.06468 0.07525 0.10476 0.07768 -0.15369 0.04473 0.02982 -0.12037 -0.12612 0.10314 -0.07574 -0.0675 -0.08179 -0.02842 -0.12608 0.0618 0.0303 -0.14123 -0.11876 -0.07613 -0.06478 0.04851 -0.10852 0.08125 0.07551 -0.06638 0.03709 -0.12928 0.13304 0.02348 0.08489 0.10019 0.16959 0.01454 -0.08679 -0.07571 0.16584 -0.03974 0.11429 -0.03778 -0.01306 0.12173 -0.03673 0.09742 -0.01936 -0.04198 -0.14735 0.09817 0.03325 0.02215 -0.11528 0.15299 -0.10522 -0.16733 -0.00403 0.06646 -0.06281 0.07831 -0.00987 0.13526 -0.04782 0.09882 -0.16222 0.0812 0.12359 -0.04619 -0.03458 0.15611 0.03232 -0.06183 0.14352 0.08611 -0.02001 0.0105 -0.01343 0.03914 -0.01471 0.01638 -0.02582 0.04286 0.162 0.04007 0.11432 -0.01641 -0.15036 -0.05386 0.08311 0.0113 -0.05866 -0.12355 0.05678 0.0063 0.00883 0.02186 -0.16637 0.02069 -0.08804 0.06339 0.08741
a	-0.14358 -0.11198 -0.00288 0.0353 0.09518 0.12344 -0.12697 -0.02876 0.03093 0.02409 0.02226 -0.14369 -0.06913 0.14974 0.0891 0.17061 0.05607 -0.05702 -0.06734 0.16411 -0.0351 0.14964 0.09449 -0.14912 -0.02019 -0.13808 0.03662 0.03286 -0.14694 -0.16369 -0.10246 -0.10675 -0.09155 -0.08043 0.14352 0.13789 0.13711 -0.10746 0.12209 -0.01231 0.14556 0.0137 -0.13807 -0.1108 -0.15755 0.03997 0.11389 -0.16088 0.06714 -0.03794 -0.10845 0.07991 -0.06027 -0.06486 0.13717 0.06313 0.14326 -0.14637 0.01416 -0.05287 -0.10994 -0.06137 0.01181 0.04247 -0.03382 0.07671 -0.13921 0.01484 0.10345 -0.02227 0.08597 0.02797 -0.05177 0.04399 -0.02131 -0.13649 0.05675 -0.1362 0.1297 0.00116 0.03005 -0.15845 -0.07561 0.01513 0.17027 0.06463 -0.08334 0.16281 -0.12328 0.05107 -0.15246 -0.00343 0.1497 0.1563 0.1168 -0.02827 0.04497 -0.01214 -0.06196 0.08934 -0.12632 -0.06468 0.07525 0.10476 0.07768 -0.15369 0.04473 0.02982 -0.12037 -0.12612 0.10314 -0.07574 -0.0675 -0.08179 -0.02842 -0.12608 0.0618 0.0303 -0.14123 -0.11876 -0.07613 -0.06478 0.04851 -0.10852 0.08125 0.07551 -0.06638 0.03709 -0.12928 0.13304 0.02348 0.08489 0.10019 0.16959 0.01454 -0.08679 -0.07571 0.16584 -0.03974 0.11429 -0.03778 -0.01306 0.12173 -0.03673 0.09742 -0.01936 -0.04198 -0.14735 0.09817 0.03325 0.02215 -0.11528 0.15299 -0.10522 -0.16733 -0.00403 0.06646 -0.06281 0.07831 -0.00987 0.13526 -0.04782 0.09882 -0.16222 0.0812 0.12359 -0.04619 -0.03458 0.15611 0.03232 -0.06183 0.14352 0.08611 -0.02001 0.0105 -0.01343 0.03914 -0.01471 0.01638 -0.02582 0.04286 0.162 0.04007 0.11432 -0.01641 -0.15036 -0.05386 0.08311 0.0113 -0.05866 -0.12355 0.05678 0.0063 0.00883 0.02186 -0.16637 0.02069 -0.08804 0.06339 0.08741
f	-0.01024 0.01603 -0.15874 0.01079 0.1608 0.0697 0.1652 0.1349 0.01736 -0.00317 0.02231 -0.02175 -0.17111 -0.07278 -0.12004 -0.13363 -0.15764 -0.15054 0.1045 -0.01282 0.0864 -0.08991 0.01839 -0.0039 0.08081 0.09733 -0.06321 -0.09635 -0.05152 0.09015 0.02612 -0.16586 -0.06931 -0.0719 -0.03766 -0.11465 -0.1269 0.09246 -0.17284 0.00935 0.009 -0.15654 -0.1619 0.07068 0.1138 0.05439 -0.05833 -0.09507 -0.02356 -0.00172 0.0036 -0.09888 0.06302 -0.00329 0.12175 0.06627 -0.08213 -0.14907 0.11406 0.06844 0.10776 0.00318 -0.12277 -0.0076 0.14798 0.07853 0.02932 0.09667 0.15331 -0.05762 0.09341 0.09311 -0.01277 0.03843 -0.0612 -0.12103 0.16415 0.0671 0.14134 -0.14428 -0.06602 0.05716 0.02449 -0.16692 -0.04452 0.0911 -0.04726 -0.12985 -0.06002 -0.1269 0.15771 0.15421 0.02116 0.03464 -0.02951 0.07178 -0.10057 -0.04721 0.01425 0.01029 -0.12632 -0.06468 0.07525 0.10476 0.07768 -0.15369 0.04473 0.02982 -0.12037 -0.12612 0.10314 -0.07574 -0.0675 -0.08179 -0.02842 -0.12608 0.0618 0.0303 -0.14123 -0.11876 -0.07613 -0.06478 0.04851 -0.10852 0.08125 0.07551 -0.06638 0.03709 -0.12928 0.13304 0.02348 0.08489 0.10019 0.16959 0.01454 -0.08679 -0.07571 0.16584 -0.03974 0.11429 -0.03778 -0.01306 0.12173 -0.03673 0.09742 -0.01936 -0.04198 -0.14735 0.09817 0.03325 0.02215 -0.11528 0.15299 -0.10522 -0.16733 -0.00403 0.06646 -0.06281 0.07831 -0.00987 0.13526 -0.04782 0.09882 -0.16222 0.0812 0.12359 -0.04619 -0.03458 0.15611 0.03232 -0.06183 0.14352 0.08611 -0.02001 0.0105 -0.01343 0.03914 -0.01471 0.01638 -0.02582 0.04286 0.162 0.04007 0.11432 -0.01641 -0.15036 -0.05386 0.08311 0.0113 -0.05866 -0.12355 0.05678 0.0063 0.00883 0.02186 -0.16637 0.02069 -0.08804 0.06339 0.08741
ï	-0.14134 0.06164 -0.16835 0.14198 0.02863 0.01765 -0.00376 0.07454 -0.03165 0.07483 0.10172 -0.0254 -0.15951 0.13959 0.007 0.1418 -0.03169 0.15195 0.10083 -0.12323 -0.0306 -0.07454 -0.13724 -0.0178 -0.14467 0.03469 0.07593 -0.15149 0.1162 -0.06117 0.07509 -0.02277 -0.03335 -0.13001 0.05524 0.06441 0.16213 0.00998 -0.13012 0.00589 0.16843 0.15933 0.06618 -0.00053 -0.06639 0.04633 0.05983 0.07288 -0.0646 -0.09849 -0.02876 -0.06898 0.0553 -0.04242 -0.08899 -0.1307 0.072 -0.00704 -0.04165 -0.16192 0.08897 -0.0444 -0.11584 -0.12222 -0.09 0.01855 0.02772 0.04833 0.1651 0.08198 0.08756 0.13675 0.02787 -0.01332 0.10712 -0.16998 0.11211 0.05116 -0.04614 0.10468 -0.02858 0.16536 0.1141 -0.09291 -0.09956 0.16141 0.03933 0.04857 0.00244 -0.17126 -0.04131 0.13295 0.02098 0.13644 0.01413 -0.14302 0.07177 0.0169 -0.1286 0.02518 -0.12632 -0.06468 0.07525 0.10476 0.07768 -0.15369 0.04473 0.02982 -0.12037 -0.12612 0.10314 -0.07574 -0.0675 -0.08179 -0.02842 -0.12608 0.0618 0.0303 -0.14123 -0.11876 -0.07613 -0.06478 0.04851 -0.10852 0.08125 0.07551 -0.06638 0.03709 -0.12928 0.13304 0.02348 0.08489 0.10019 0.16959 0.01454 -0.08679 -0.07571 0.16584 -0.03974 0.11429 -0.03778 -0.01306 0.12173 -0.03673 0.09742 -0.01936 -0.04198 -0.14735 0.09817 0.03325 0.02215 -0.11528 0.15299 -0.10522 -0.16733 -0.00403 0.06646 -0.06281 0.07831 -0.00987 0.13526 -0.04782 0.09882 -0.16222 0.0812 0.12359 -0.04619 -0.03458 0.15611 0.03232 -0.06183 0.14352 0.08611 -0.02001 0.0105 -0.01343 0.03914 -0.01471 0.01638 -0.02582 0.04286 0.162 0.04007 0.11432 -0.01641 -0.15036 -0.05386 0.08311 0.0113 -0.05866 -0.12355 0.05678 0.0063 0.00883 0.02186 -0.16637 0.02069 -0.08804 0.06339 0.08741
x	-0.05994 -0.15671 -0.08266 0.14286 -0.09727 0.06568 0.05282 -0.12474 0.03483 -0.06845 -0.00097 -0.02829 0.12562 0.06427 0.1139 0.13286 0.12609 -0.10614 0.00638 -0.0572 0.16866 0.06811 0.06374 -0.08286 -0.06068 0.07661 -0.0059 -0.11611 -0.11029 -0.00482 0.15817 -0.15954 0.04433 -0.12592 -0.08589 -0.00198 -0.01678 -0.1332 0.01367 -0.12535 -0.14439 0.1304 -0.03455 -0.07252 0.05319 0.04635 0.13519 -0.16846 0.08148 -0.0444 -0.04464 -0.05164 0.14212 0.08341 -0.08645 -0.09604 0.0328 -0.0121 0.08209 0.08284 -0.11939 -0.02314 0.0181 0.04349 0.10486 -0.15654 0.10764 0.10112 -0.0193 0.06805 0.12276 -0.09412 0.02016 -0.11749 0.02444 -0.12235 -0.10401 0.10573 -0.03818 0.10471 0.07868 0.10626 0.12404 -0.08711 -0.12312 0.0526 0.13198 -0.06517 0.03879 0.1063 0.06346 -0.06601 -0.00633 -0.06968 -0.09113 0.1612 0.03396 0.10451 0.16612 0.02315 -0.12632 -0.06468 0.07525 0.10476 0.07768 -0.15369 0.04473 0.02982 -0.12037 -0.12612 0.10314 -0.07574 -0.0675 -0.08179 -0.02842 -0.12608 0.0618 0.0303 -0.14123 -0.11876 -0.07613 -0.06478 0.04851 -0.10852 0.08125 0.07551 -0.06638 0.03709 -0.12928 0.13304 0.02348 0.08489 0.10019 0.16959 0.01454 -0.08679 -0.07571 0.16584 -0.03974 0.11429 -0.03778 -0.01306 0.12173 -0.03673 0.09742 -0.01936 -0.04198 -0.14735 0.09817 0.03325 0.02215 -0.11528 0.15299 -0.10522 -0.16733 -0.00403 0.06646 -0.06281 0.07831 -0.00987 0.13526 -0.04782 0.09882 -0.16222 0.0812 0.12359 -0.04619 -0.03458 0.15611 0.03232 -0.06183 0.14352 0.08611 -0.02001 0.0105 -0.01343 0.03914 -0.01471 0.01638 -0.02582 0.04286 0.162 0.04007 0.11432 -0.01641 -0.15036 -0.05386 0.08311 0.0113 -0.05866 -0.12355 0.05678 0.0063 0.00883 0.02186 -0.16637 0.02069 -0.08804 0.06339 0.08741
œ	0.0055 0.05451 -0.00802 -0.02747 -0.05945 0.16504 -0.08874 -0.07919 -0.12912 -0.04497 -0.15065 0.00296 -0.12467 0.03142 0.07547 0.08718 0.00997 -0.02167 0.16505 0.15386 0.01041 0.13226 -0.13613 0.05101 0.11633 -0.15024 -0.1197 0.08397 0.04252 -0.06123 -0.07994 -0.0845 -0.10108 0.03852 -0.15908 -0.06562 -0.016 0.10608 0.12588 0.13288 0.05212 0.11392 -0.17293 -0.0609 -0.02064 0.13698 0.07365 0.01763 -0.02392 0.03571 -0.14929 0.07788 0.09888 -0.05172 0.09741 0.08293 0.11283 0.00033 0.09468 -0.12095 0.04127 -0.03224 -0.06501 -0.0186 0.11245 0.01159 -0.08422 -0.10794 0.15832 0.04717 0.16474 0.14485 0.15685 0.02916 -0.16508 0.12974 -0.0658 -0.11142 0.04765 -0.06425 -0.13797 -0.07128 0.09774 -0.09189 0.09496 0.00798 0.16617 0.07621 0.0762 0.0106 0.05804 -0.13185 -0.05652 0.15577 0.03912 -0.13389 0.0282 -0.09529 0.14654 0.05322 -0.12632 -0.06468 0.07525 0.10476 0.07768 -0.15369 0.04473 0.02982 -0.12037 -0.12612 0.10314 -0.07574 -0.0675 -0.08179 -0.02842 -0.12608 0.0618 0.0303 -0.14123 -0.11876 -0.07613 -0.06478 0.04851 -0.10852 0.08125 0.07551 -0.06638 0.03709 -0.12928 0.13304 0.02348 0.08489 0.10019 0.16959 0.01454 -0.08679 -0.07571 0.16584 -0.03974 0.11429 -0.03778 -0.01306 0.12173 -0.03673 0.09742 -0.01936 -0.04198 -0.14735 0.09817 0.03325 0.02215 -0.11528 0.15299 -0.10522 -0.16733 -0.00403 0.06646 -0.06281 0.07831 -0.00987 0.13526 -0.04782 0.09882 -0.16222 0.0812 0.12359 -0.04619 -0.03458 0.15611 0.03232 -0.06183 0.14352 0.08611 -0.02001 0.0105 -0.01343 0.03914 -0.01471 0.01638 -0.02582 0.04286 0.162 0.04007 0.11432 -0.01641 -0.15036 -0.05386 0.08311 0.0113 -0.05866 -0.12355 0.05678 0.0063 0.00883 0.02186 -0.16637 0.02069 -0.08804 0.06339 0.08741
z	-0.13597 -0.08612 -0.11415 0.11524 0.01912 -0.0767 -0.16341 -0.0827 0.14497 -0.07978 -0.10625 -0.1227 0.07911 0.15511 0.1331 0.07471 0.16487 0.14705 -0.07946 -0.15755 -0.10203 0.16233 -0.15199 0.11788 0.12149 0.12341 -0.099 0.16394 -0.05863 0.04699 -0.01188 0.06236 -0.16463 0.07518 0.01569 0.14672 0.12451 -0.14059 -0.09217 -0.09495 0.14388 -0.04585 -0.05358 -0.06371 0.13118 -0.11509 -0.11169 -0.14705 0.05506 0.05548 0.04812 -0.02034 -0.14642 0.02538 0.05348 -0.15364 -0.08872 0.15707 -0.1324 -0.03197 -0.01254 0.00217 -0.0504 0.01315 0.10578 0.01926 0.15835 -0.02069 -0.08352 -0.07075 0.01787 -0.09604 -0.05768 -0.05702 -0.07383 0.05154 -0.0807 0.009 -0.01152 -0.01066 0.08916 -0.04047 -0.16148 -0.13155 -0.03288 -0.08266 0.15815 -0.09797 -0.15997 -0.04059 0.00041 -0.09845 0.05471 0.04777 -0.12966 -0.02779 -0.00061 0.04719 -0.14518 0.08505 -0.12632 -0.06468 0.07525 0.10476 0.07768 -0.15369 0.04473 0.02982 -0.12037 -0.12612 0.10314 -0.07574 -0.0675 -0.08179 -0.02842 -0.12608 0.0618 0.0303 -0.14123 -0.11876 -0.07613 -0.06478 0.04851 -0.10852 0.08125 0.07551 -0.06638 0.03709 -0.12928 0.13304 0.02348 0.08489 0.10019 0.16959 0.01454 -0.08679 -0.07571 0.16584 -0.03974 0.11429 -0.03778 -0.01306 0.12173 -0.03673 0.09742 -0.01936 -0.04198 -0.14735 0.09817 0.03325 0.02215 -0.11528 0.15299 -0.10522 -0.16733 -0.00403 0.06646 -0.06281 0.07831 -0.00987 0.13526 -0.04782 0.09882 -0.16222 0.0812 0.12359 -0.04619 -0.03458 0.15611 0.03232 -0.06183 0.14352 0.08611 -0.02001 0.0105 -0.01343 0.03914 -0.01471 0.01638 -0.02582 0.04286 0.162 0.04007 0.11432 -0.01641 -0.15036 -0.05386 0.08311 0.0113 -0.05866 -0.12355 0.05678 0.0063 0.00883 0.02186 -0.16637 0.02069 -0.08804 0.06339 0.08741
ë	-0.13894 0.00604 0.14906 -0.16961 0.02875 0.16929 0.03466 -0.12922 -0.03117 0.11959 0.05873 0.04428 -0.07409 0.05373 -0.10641 -0.0844 -0.07574 0.1171 -0.02085 -0.09842 0.06209 -0.09645 0.12801 0.10224 0.07711 0.04454 -0.01004 0.03856 0.15727 0.16273 -0.1658 0.1081 0.00403 0.01887 0.02082 -0.01958 -0.11903 0.12 -0.07349 -0.15644 -0.1513 -0.08478 0.06062 -0.14137 -0.15809 0.03423 -0.16702 -0.05231 0.13494 -0.10791 0.01201 0.06455 0.11125 0.14521 0.15675 0.10053 -0.09317 0.09468 -0.03356 -0.04895 0.02089 0.09087 0.07101 -0.03677 -0.05673 -0.07903 0.03651 0.09951 0.0553 0.16541 -0.04016 0.05238 -0.04595 0.05538 -0.05945 -0.15229 0.12707 -0.14981 0.06535 0.03992 0.15826 0.0394 -0.00746 -0.12168 0.00889 -0.1288 -0.11821 -0.06749 0.16913 0.12146 0.05069 0.11648 0.01836 0.02232 0.12185 0.10335 0.06356 -0.13883 -0.03523 -0.01368 -0.12632 -0.06468 0.07525 0.10476 0.07768 -0.15369 0.04473 0.02982 -0.12037 -0.12612 0.10314 -0.07574 -0.0675 -0.08179 -0.02842 -0.12608 0.0618 0.0303 -0.14123 -0.11876 -0.07613 -0.06478 0.04851 -0.10852 0.08125 0.07551 -0.06638 0.03709 -0.12928 0.13304 0.02348 0.08489 0.10019 0.16959 0.01454 -0.08679 -0.07571 0.16584 -0.03974 0.11429 -0.03778 -0.01306 0.12173 -0.03673 0.09742 -0.01936 -0.04198 -0.14735 0.09817 0.03325 0.02215 -0.11528 0.15299 -0.10522 -0.16733 -0.00403 0.06646 -0.06281 0.07831 -0.00987 0.13526 -0.04782 0.09882 -0.16222 0.0812 0.12359 -0.04619 -0.03458 0.15611 0.03232 -0.06183 0.14352 0.08611 -0.02001 0.0105 -0.01343 0.03914 -0.01471 0.01638 -0.02582 0.04286 0.162 0.04007 0.11432 -0.01641 -0.15036 -0.05386 0.08311 0.0113 -0.05866 -0.12355 0.05678 0.0063 0.00883 0.02186 -0.16637 0.02069 -0.08804 0.06339 0.08741
q	-0.05382 0.02132 -0.07713 0.09163 0.11147 -0.12432 0.08416 0.01879 -0.1076 0.03241 -0.09486 -0.15265 0.16865 0.16049 0.09951 -0.16466 -0.09387 -0.05837 -0.00234 0.15531 -0.04432 0.06919 0.09759 -0.09521 -0.0391 0.0244 -0.02638 0.05598 0.10826 -0.05582 0.05419 0.11102 -0.06934 -0.10454 0.11471 -0.1438 -0.17182 -0.16323 0.05097 0.05517 -0.02203 -0.00185 0.12113 0.00356 0.16018 -0.15551 0.06765 -0.02182 0.14135 0.06565 0.02898 0.06008 -0.07468 0.04331 -0.12474 -0.11786 -0.00027 0.08238 0.05469 -0.02646 0.11941 -0.01513 0.01642 -0.07976 0.08101 -0.05795 -0.02838 -0.15959 0.11424 -0.00768 0.01672 0.12221 -0.13161 0.03887 -0.04068 -0.03323 -0.11846 0.04454 0.08642 0.09734 -0.12932 -0.05811 -0.16386 -0.12862 -0.10417 -0.00464 0.14377 0.11022 -0.10604 -0.05457 0.10993 0.11787 0.0413 -0.09929 0.07351 -0.13227 0.15396 0.06341 -0.13206 -0.07702 -0.12632 -0.06468 0.07525 0.10476 0.07768 -0.15369 0.04473 0.02982 -0.12037 -0.12612 0.10314 -0.07574 -0.0675 -0.08179 -0.02842 -0.12608 0.0618 0.0303 -0.14123 -0.11876 -0.07613 -0.06478 0.04851 -0.10852 0.08125 0.07551 -0.06638 0.03709 -0.12928 0.13304 0.02348 0.08489 0.10019 0.16959 0.01454 -0.08679 -0.07571 0.16584 -0.03974 0.11429 -0.03778 -0.01306 0.12173 -0.03673 0.09742 -0.01936 -0.04198 -0.14735 0.09817 0.03325 0.02215 -0.11528 0.15299 -0.10522 -0.16733 -0.00403 0.06646 -0.06281 0.07831 -0.00987 0.13526 -0.04782 0.09882 -0.16222 0.0812 0.12359 -0.04619 -0.03458 0.15611 0.03232 -0.06183 0.14352 0.08611 -0.02001 0.0105 -0.01343 0.03914 -0.01471 0.01638 -0.02582 0.04286 0.162 0.04007 0.11432 -0.01641 -0.15036 -0.05386 0.08311 0.0113 -0.05866 -0.12355 0.05678 0.0063 0.00883 0.02186 -0.16637 0.02069 -0.08804 0.06339 0.08741
ê	-0.13254 0.03643 -0.16134 -0.08343 0.0316 -0.06734 -0.08475 -0.12553 0.00502 -0.03652 -0.05179 0.12559 -0.01433 0.10034 0.16983 -0.12765 -0.16526 -0.08491 0.04049 0.04178 -0.11825 0.15028 -0.11817 -0.09887 0.02146 0.05898 0.1248 0.15269 0.08658 0.15263 0.06031 -0.06915 -0.02644 0.14846 0.09443 -0.06561 0.09619 0.10457 -0.14004 0.01547 -0.05693 0.05512 -0.12124 -0.13039 -0.01708 -0.1477 -0.00776 -0.07305 -0.14928 -0.02984 -0.17269 0.01054 0.00267 0.06126 -0.05015 -0.09793 -0.14019 0.14473 -0.14077 0.12774 -0.08955 0.05023 -0.12917 0.03655 0.14056 -0.12226 0.08121 0.05902 -0.17146 -0.14809 0.12886 -0.06117 -0.0511 -0.002 -0.14397 0.08011 0.01616 -0.01077 -0.08285 -0.11543 0.16745 -0.063 0.13913 -0.13772 -0.06262 0.1454 0.047 -0.09322 0.08018 -0.10662 0.08294 -0.16641 0.14346 0.15573 -0.0977 0.15133 0.15165 0.13968 0.14618 -0.09981 -0.12632 -0.06468 0.07525 0.10476 0.07768 -0.15369 0.04473 0.02982 -0.12037 -0.12612 0.10314 -0.07574 -0.0675 -0.08179 -0.02842 -0.12608 0.0618 0.0303 -0.14123 -0.11876 -0.07613 -0.06478 0.04851 -0.10852 0.08125 0.07551 -0.06638 0.03709 -0.12928 0.13304 0.02348 0.08489 0.10019 0.16959 0.01454 -0.08679 -0.07571 0.16584 -0.03974 0.11429 -0.03778 -0.01306 0.12173 -0.03673 0.09742 -0.01936 -0.04198 -0.14735 0.09817 0.03325 0.02215 -0.11528 0.15299 -0.10522 -0.16733 -0.00403 0.06646 -0.06281 0.07831 -0.00987 0.13526 -0.04782 0.09882 -0.16222 0.0812 0.12359 -0.04619 -0.03458 0.15611 0.03232 -0.06183 0.14352 0.08611 -0.02001 0.0105 -0.01343 0.03914 -0.01471 0.01638 -0.02582 0.04286 0.162 0.04007 0.11432 -0.01641 -0.15036 -0.05386 0.08311 0.0113 -0.05866 -0.12355 0.05678 0.0063 0.00883 0.02186 -0.16637 0.02069 -0.08804 0.06339 0.08741
r	0.05347 0.12503 0.06475 -0.03749 -0.1276 -0.15918 -0.04664 -0.12129 -0.13198 -0.08927 -0.00627 0.00988 -0.04425 -0.15307 -0.15528 -0.06258 -0.14873 0.16459 -0.07776 0.06137 -0.08181 0.02488 -0.15681 0.13356 0.13317 0.15575 0.17054 -0.16626 0.00082 -0.06724 0.01066 0.04644 0.15265 -0.05907 -0.0888 0.10835 -0.09585 0.06277 0.06805 -0.13941 0.02502 -0.12667 0.10523 -0.07012 -0.02691 -0.08572 0.09121 -0.03107 0.02443 -0.14275 -0.11758 0.15306 -0.01234 0.0782 -0.15885 0.08981 -0.02724 -0.04862 -0.01194 0.04379 -0.08227 -0.11842 0.01663 -0.07261 0.11105 -0.05594 -0.1687 -0.00138 -0.09269 0.02805 0.05498 0.02836 0.01065 0.16158 0.00276 -0.09329 -0.13972 0.11756 -0.10937 -0.13035 -0.01187 -0.07822 -0.0792 0.09416 0.03629 -0.03952 -0.12232 0.16468 -0.10551 0.04857 0.02007 -0.09054 -0.02234 0.16445 -0.07853 -0.16457 0.16248 0.01442 0.13951 -0.10937 -0.12632 -0.06468 0.07525 0.10476 0.07768 -0.15369 0.04473 0.02982 -0.12037 -0.12612 0.10314 -0.07574 -0.0675 -0.08179 -0.02842 -0.12608 0.0618 0.0303 -0.14123 -0.11876 -0.07613 -0.06478 0.04851 -0.10852 0.08125 0.07551 -0.06638 0.03709 -0.12928 0.13304 0.02348 0.08489 0.10019 0.16959 0.01454 -0.08679 -0.07571 0.16584 -0.03974 0.11429 -0.03778 -0.01306 0.12173 -0.03673 0.09742 -0.01936 -0.04198 -0.14735 0.09817 0.03325 0.02215 -0.11528 0.15299 -0.10522 -0.16733 -0.00403 0.06646 -0.06281 0.07831 -0.00987 0.13526 -0.04782 0.09882 -0.16222 0.0812 0.12359 -0.04619 -0.03458 0.15611 0.03232 -0.06183 0.14352 0.08611 -0.02001 0.0105 -0.01343 0.03914 -0.01471 0.01638 -0.02582 0.04286 0.162 0.04007 0.11432 -0.01641 -0.15036 -0.05386 0.08311 0.0113 -0.05866 -0.12355 0.05678 0.0063 0.00883 0.02186 -0.16637 0.02069 -0.08804 0.06339 0.08741
e	-0.09659 0.06804 -0.16436 -0.16196 -0.14581 -0.02308 0.11645 0.04755 -0.01484 0.06617 -0.16891 -0.08678 0.0356 0.06785 0.09522 0.12601 0.02297 0.08029 -0.12157 0.0402 -0.13414 0.08793 -0.15449 -0.07706 -0.16172 -0.11411 0.02657 -0.09156 -0.09743 -0.12063 0.00398 -0.15135 0.13952 -0.09915 -0.09264 0.00898 0.15695 0.02222 0.12845 -0.07734 0.15554 0.11586 -0.07757 0.01249 0.11523 0.01731 -0.03582 -0.01765 0.11143 0.09683 0.01042 0.12421 -0.12577 -0.09209 -0.09081 -0.13215 -0.081 -0.04259 0.11344 -0.08661 0.01616 0.0804 -0.05459 0.12201 -0.04523 -0.1668 -0.0237 -0.03277 0.10315 0.14234 -0.10085 0.12989 0.09002 0.01573 -0.11013 -0.17284 -0.0344 0.13744 -0.0355 0.08303 0.09521 -0.0158 0.00906 0.00332 -0.03658 0.00147 0.03372 -0.04045 0.06679 -0.03586 -0.07836 0.16202 0.02136 0.02579 0.00208 -0.03352 -0.0124 0.10159 0.16436 -0.00591 -0.12632 -0.06468 0.07525 0.10476 0.07768 -0.15369 0.04473 0.02982 -0.12037 -0.12612 0.10314 -0.07574 -0.0675 -0.08179 -0.02842 -0.12608 0.0618 0.0303 -0.14123 -0.11876 -0.07613 -0.06478 0.04851 -0.10852 0.08125 0.07551 -0.06638 0.03709 -0.12928 0.13304 0.02348 0.08489 0.10019 0.16959 0.01454 -0.08679 -0.07571 0.16584 -0.03974 0.11429 -0.03778 -0.01306 0.12173 -0.03673 0.09742 -0.01936 -0.04198 -0.14735 0.09817 0.03325 0.02215 -0.11528 0.15299 -0.10522 -0.16733 -0.00403 0.06646 -0.06281 0.07831 -0.00987 0.13526 -0.04782 0.09882 -0.16222 0.0812 0.12359 -0.04619 -0.03458 0.15611 0.03232 -0.06183 0.14352 0.08611 -0.02001 0.0105 -0.01343 0.03914 -0.01471 0.01638 -0.02582 0.04286 0.162 0.04007 0.11432 -0.01641 -0.15036 -0.05386 0.08311 0.0113 -0.05866 -0.12355 0.05678 0.0063 0.00883 0.02186 -0.16637 0.02069 -0.08804 0.06339 0.08741
c	-0.02877 0.09036 0.03351 -0.16992 0.00705 -0.01446 -0.0716 0.04345 -0.12534 -0.08178 -0.1307 0.0544 0.11686 0.13622 0.0853 -0.15233 0.14542 -0.03394 -0.01878 -0.03098 0.07609 0.1536 -0.02655 -0.15746 0.16628 0.09927 -0.07521 0.05211 0.15312 -0.1062 -0.11397 -0.10907 -0.09458 0.1703 0.00743 -0.03298 0.03484 -0.12036 0.04442 -0.12765 -0.06895 -0.16532 -0.13916 -0.09542 -0.06858 0.01041 -0.02677 -0.14275 0.02183 0.07363 0.05567 0.14411 -0.12285 -0.15495 -0.053 -0.02888 -0.12425 -0.10746 -0.09206 0.17281 -0.08657 0.06536 -0.10998 0.00359 0.1219 -0.00133 -0.01271 -0.03184 -0.06238 0.01358 -0.06878 0.00846 0.09559 -0.16814 0.03046 0.00093 -0.01474 0.1231 -0.08966 -0.05023 -0.15094 -0.04009 0.16214 -0.0012 0.068 -0.04453 0.11724 -0.16695 -0.08787 0.16549 0.08467 0.15892 0.13149 0.09507 -0.10099 0.12998 -0.11381 0.08332 -0.04244 -0.10233 -0.12632 -0.06468 0.07525 0.10476 0.07768 -0.15369 0.04473 0.02982 -0.12037 -0.12612 0.10314 -0.07574 -0.0675 -0.08179 -0.02842 -0.12608 0.0618 0.0303 -0.14123 -0.11876 -0.07613 -0.06478 0.04851 -0.10852 0.08125 0.07551 -0.06638 0.03709 -0.12928 0.13304 0.02348 0.08489 0.10019 0.16959 0.01454 -0.08679 -0.07571 0.16584 -0.03974 0.11429 -0.03778 -0.01306 0.12173 -0.03673 0.09742 -0.01936 -0.04198 -0.14735 0.09817 0.03325 0.02215 -0.11528 0.15299 -0.10522 -0.16733 -0.00403 0.06646 -0.06281 0.07831 -0.00987 0.13526 -0.04782 0.09882 -0.16222 0.0812 0.12359 -0.04619 -0.03458 0.15611 0.03232 -0.06183 0.14352 0.08611 -0.02001 0.0105 -0.01343 0.03914 -0.01471 0.01638 -0.02582 0.04286 0.162 0.04007 0.11432 -0.01641 -0.15036 -0.05386 0.08311 0.0113 -0.05866 -0.12355 0.05678 0.0063 0.00883 0.02186 -0.16637 0.02069 -0.08804 0.06339 0.08741
b	-0.11839 -0.02996 -0.02773 0.00314 -0.13405 0.09168 -0.13381 -0.06188 0.08318 -0.03337 -0.01629 -0.09946 0.16173 -0.08875 -0.14743 0.14892 0.05253 -0.07781 0.08764 0.16382 -0.05536 -0.01874 -0.09032 -0.04317 -0.11866 -0.10671 0.13766 -0.17021 -0.06206 -0.1494 -0.0388 -0.09205 -0.11691 0.01695 -0.05049 0.0821 -0.16421 -0.13347 -0.16274 0.00693 0.1306 0.08487 0.07716 -0.0603 -0.06478 0.12291 -0.014 -0.05785 0.06548 0.15196 -0.14885 -0.08264 0.04123 0.00523 0.03927 0.11354 0.08006 0.05033 -0.14407 -0.13699 -0.06697 -0.13628 -0.0594 -0.14578 -0.14411 0.04892 0.09205 0.12689 0.01854 -0.12502 -0.07312 -0.0417 -0.03516 0.07241 -0.15847 0.06084 0.06531 0.06018 -0.14909 -0.14771 0.01986 0.00777 0.14286 0.11823 -0.10066 -0.07294 0.03807 -0.11595 0.04207 0.12906 -0.05968 -0.02177 0.01451 -0.0124 -0.1727 0.15293 -0.16914 0.09299 0.08207 0.0124 -0.12632 -0.06468 0.07525 0.10476 0.07768 -0.15369 0.04473 0.02982 -0.12037 -0.12612 0.10314 -0.07574 -0.0675 -0.08179 -0.02842 -0.12608 0.0618 0.0303 -0.14123 -0.11876 -0.07613 -0.06478 0.04851 -0.10852 0.08125 0.07551 -0.06638 0.03709 -0.12928 0.13304 0.02348 0.08489 0.10019 0.16959 0.01454 -0.08679 -0.07571 0.16584 -0.03974 0.11429 -0.03778 -0.01306 0.12173 -0.03673 0.09742 -0.01936 -0.04198 -0.14735 0.09817 0.03325 0.02215 -0.11528 0.15299 -0.10522 -0.16733 -0.00403 0.06646 -0.06281 0.07831 -0.00987 0.13526 -0.04782 0.09882 -0.16222 0.0812 0.12359 -0.04619 -0.03458 0.15611 0.03232 -0.06183 0.14352 0.08611 -0.02001 0.0105 -0.01343 0.03914 -0.01471 0.01638 -0.02582 0.04286 0.162 0.04007 0.11432 -0.01641 -0.15036 -0.05386 0.08311 0.0113 -0.05866 -0.12355 0.05678 0.0063 0.00883 0.02186 -0.16637 0.02069 -0.08804 0.06339 0.08741
y	-0.05682 0.13445 -0.08326 0.10404 -0.01185 0.10227 -0.10416 -0.11993 -0.10322 -0.11979 -0.12312 -0.03807 -0.05667 -0.09134 0.09637 0.14058 0.03381 0.12259 0.15436 -0.09278 -0.13202 -0.0985 0.0164 0.16706 0.02873 -0.01472 -0.14681 -0.03346 0.10193 -0.04664 -0.16711 -0.05329 -0.07362 -0.15163 -0.1522 -0.06958 -0.12382 0.0112 0.10932 -0.14946 0.07219 0.12972 -0.12517 -0.05565 0.03121 -0.08846 0.02348 0.17038 0.08709 -0.00784 -0.04899 0.04091 -0.00909 -0.09796 -0.05951 0.00435 -0.03334 0.01128 0.00524 0.04538 -0.16543 -0.07289 -0.04843 -0.06059 0.00354 -0.03711 -0.11783 -0.03054 0.04598 0.05875 0.00504 0.00498 0.06405 0.01546 0.04007 0.11887 0.14814 -0.06655 0.00322 -0.16362 -0.06882 -0.07171 0.05372 -0.14995 -0.02146 0.0912 -0.14872 0.12764 0.08367 -0.13116 -0.14415 -0.10316 0.16622 -0.01736 0.03034 -0.07211 -0.00934 -0.15892 0.10555 -0.08429 -0.12632 -0.06468 0.07525 0.10476 0.07768 -0.15369 0.04473 0.02982 -0.12037 -0.12612 0.10314 -0.07574 -0.0675 -0.08179 -0.02842 -0.12608 0.0618 0.0303 -0.14123 -0.11876 -0.07613 -0.06478 0.04851 -0.10852 0.08125 0.07551 -0.06638 0.03709 -0.12928 0.13304 0.02348 0.08489 0.10019 0.16959 0.01454 -0.08679 -0.07571 0.16584 -0.03974 0.11429 -0.03778 -0.01306 0.12173 -0.03673 0.09742 -0.01936 -0.04198 -0.14735 0.09817 0.03325 0.02215 -0.11528 0.15299 -0.10522 -0.16733 -0.00403 0.06646 -0.06281 0.07831 -0.00987 0.13526 -0.04782 0.09882 -0.16222 0.0812 0.12359 -0.04619 -0.03458 0.15611 0.03232 -0.06183 0.14352 0.08611 -0.02001 0.0105 -0.01343 0.03914 -0.01471 0.01638 -0.02582 0.04286 0.162 0.04007 0.11432 -0.01641 -0.15036 -0.05386 0.08311 0.0113 -0.05866 -0.12355 0.05678 0.0063 0.00883 0.02186 -0.16637 0.02069 -0.08804 0.06339 0.08741
j	0.10833 0.08729 0.11477 0.0616 0.11453 0.09757 -0.14938 -0.13291 -0.05604 0.06742 -0.03579 -0.05151 0.07679 -0.13074 -0.08149 0.15872 0.06869 -0.10442 0.15146 0.10067 -0.13615 -0.07817 -0.0265 -0.17266 0.03604 -0.16769 0.01414 0.12907 0.10909 0.05664 -0.16616 -0.10406 -0.16511 0.16934 0.16655 -0.17275 0.08826 0.0167 0.13852 0.09465 -0.12346 -0.14439 0.05545 0.10144 -0.14689 -0.0521 -0.02683 -0.11153 0.16144 0.08149 0.07162 0.09823 -0.14719 0.08983 0.0684 0.07361 0.1693 -0.0658 -0.1381 0.12404 0.14265 0.05726 -0.04369 -0.1009 -0.11287 -0.08997 -0.12291 -0.15304 -0.11382 0.11532 0.03961 0.05478 -0.14182 -0.05253 -0.15579 -0.11677 0.08749 0.05538 0.01231 0.15173 0.12521 -0.08755 0.0414 -0.09071 -0.16245 0.17024 0.05799 0.1551 0.00383 0.17041 -0.08797 -0.11445 0.02858 -0.10638 0.06798 -0.09391 -0.13662 0.11924 -0.12969 -0.14831 -0.12632 -0.06468 0.07525 0.10476 0.07768 -0.15369 0.04473 0.02982 -0.12037 -0.12612 0.10314 -0.07574 -0.0675 -0.08179 -0.02842 -0.12608 0.0618 0.0303 -0.14123 -0.11876 -0.07613 -0.06478 0.04851 -0.10852 0.08125 0.07551 -0.06638 0.03709 -0.12928 0.13304 0.02348 0.08489 0.10019 0.16959 0.01454 -0.08679 -0.07571 0.16584 -0.03974 0.11429 -0.03778 -0.01306 0.12173 -0.03673 0.09742 -0.01936 -0.04198 -0.14735 0.09817 0.03325 0.02215 -0.11528 0.15299 -0.10522 -0.16733 -0.00403 0.06646 -0.06281 0.07831 -0.00987 0.13526 -0.04782 0.09882 -0.16222 0.0812 0.12359 -0.04619 -0.03458 0.15611 0.03232 -0.06183 0.14352 0.08611 -0.02001 0.0105 -0.01343 0.03914 -0.01471 0.01638 -0.02582 0.04286 0.162 0.04007 0.11432 -0.01641 -0.15036 -0.05386 0.08311 0.0113 -0.05866 -0.12355 0.05678 0.0063 0.00883 0.02186 -0.16637 0.02069 -0.08804 0.06339 0.08741
n	0.1008 0.15173 0.1674 -0.04182 0.00306 -0.11464 0.13166 0.12816 -0.16396 0.00273 0.16511 0.15725 -0.12276 0.1036 -0.01031 -0.14173 0.03149 0.16885 0.15573 -0.05258 0.12414 0.14569 0.12156 0.06707 0.03245 0.02214 -0.01619 0.12394 0.01382 -0.131 -0.06773 0.05969 -0.12067 0.13232 -0.16109 -0.02015 -0.1716 0.00823 -0.02255 0.05201 -0.03052 0.09431 0.16283 -0.03434 0.04845 -0.0199 -0.00898 -0.17059 0.09766 -0.09967 -0.10049 -0.10974 0.15213 0.11636 0.05587 0.07957 0.1001 0.01535 -0.15797 0.13088 -0.06724 -0.00311 0.07963 0.07282 -0.12903 0.11809 -0.09573 0.03347 -0.11007 0.03158 0.11192 -0.06621 0.13267 0.16443 -0.14037 0.13219 -0.16138 -0.11994 0.02076 0.01106 -0.05009 0.11727 -0.12418 -0.06015 0.0752 -0.07322 0.1616 -0.16091 0.06724 -0.14501 0.07584 -0.01944 -0.05716 -0.13176 0.11633 0.07115 -0.03771 -0.12881 -0.0378 -0.06036 -0.12632 -0.06468 0.07525 0.10476 0.07768 -0.15369 0.04473 0.02982 -0.12037 -0.12612 0.10314 -0.07574 -0.0675 -0.08179 -0.02842 -0.12608 0.0618 0.0303 -0.14123 -0.11876 -0.07613 -0.06478 0.04851 -0.10852 0.08125 0.07551 -0.06638 0.03709 -0.12928 0.13304 0.02348 0.08489 0.10019 0.16959 0.01454 -0.08679 -0.07571 0.16584 -0.03974 0.11429 -0.03778 -0.01306 0.12173 -0.03673 0.09742 -0.01936 -0.04198 -0.14735 0.09817 0.03325 0.02215 -0.11528 0.15299 -0.10522 -0.16733 -0.00403 0.06646 -0.06281 0.07831 -0.00987 0.13526 -0.04782 0.09882 -0.16222 0.0812 0.12359 -0.04619 -0.03458 0.15611 0.03232 -0.06183 0.14352 0.08611 -0.02001 0.0105 -0.01343 0.03914 -0.01471 0.01638 -0.02582 0.04286 0.162 0.04007 0.11432 -0.01641 -0.15036 -0.05386 0.08311 0.0113 -0.05866 -0.12355 0.05678 0.0063 0.00883 0.02186 -0.16637 0.02069 -0.08804 0.06339 0.08741
î	0.05242 -0.1519 0.12693 -0.00947 -0.14346 0.01061 -0.10337 -0.00262 -0.1014 0.0323 -0.02058 -0.07535 0.12536 -0.15682 -0.15718 0.02185 0.16708 0.12294 -0.13811 0.13272 0.09846 0.05481 -0.16527 0.04366 -0.06528 -0.10318 0.067 0.08052 -0.03963 -0.14194 0.10341 0.08362 0.01714 -0.07378 0.02666 0.05845 -0.06486 -0.06941 0.08368 -0.04965 -0.16616 -0.06727 -0.023 -0.10468 -0.09911 -0.05782 -0.04404 -0.08867 0.00118 -0.00554 -0.11673 -0.09633 -0.13854 0.08389 0.1657 0.0473 -0.13702 -0.08302 0.14353 0.12554 -0.0895 -0.17267 -0.0679 0.16516 -0.12376 0.16553 -0.14785 0.13182 0.13341 0.12413 0.00741 -0.04588 -0.16636 0.05938 0.1139 -0.07376 -0.14157 0.1544 -0.05302 -0.06092 0.1355 0.02409 -0.12712 -0.0637 -0.1307 -0.0422 0.07685 0.10535 0.1095 0.11513 0.08094 0.11759 0.16006 -0.09638 -0.01948 -0.10285 -0.16245 0.0653 0.04998 0.05288 -0.12632 -0.06468 0.07525 0.10476 0.07768 -0.15369 0.04473 0.02982 -0.12037 -0.12612 0.10314 -0.07574 -0.0675 -0.08179 -0.02842 -0.12608 0.0618 0.0303 -0.14123 -0.11876 -0.07613 -0.06478 0.04851 -0.10852 0.08125 0.07551 -0.06638 0.03709 -0.12928 0.13304 0.02348 0.08489 0.10019 0.16959 0.01454 -0.08679 -0.07571 0.16584 -0.03974 0.11429 -0.03778 -0.01306 0.12173 -0.03673 0.09742 -0.01936 -0.04198 -0.14735 0.09817 0.03325 0.02215 -0.11528 0.15299 -0.10522 -0.16733 -0.00403 0.06646 -0.06281 0.07831 -0.00987 0.13526 -0.04782 0.09882 -0.16222 0.0812 0.12359 -0.04619 -0.03458 0.15611 0.03232 -0.06183 0.14352 0.08611 -0.02001 0.0105 -0.01343 0.03914 -0.01471 0.01638 -0.02582 0.04286 0.162 0.04007 0.11432 -0.01641 -0.15036 -0.05386 0.08311 0.0113 -0.05866 -0.12355 0.05678 0.0063 0.00883 0.02186 -0.16637 0.02069 -0.08804 0.06339 0.08741
m	0.10893 0.10176 0.15828 -0.16141 -0.08026 0.06195 0.1434 -0.12183 -0.16729 -0.07452 -0.02546 -0.04143 0.03542 0.03428 -0.05596 -0.0537 0.06571 -0.15198 -0.0704 -0.12944 0.1468 0.14647 -0.12917 -0.12529 -0.09503 0.17226 -0.02537 0.03889 0.03374 0.05937 -0.11778 -0.06087 -0.13002 -0.00228 -0.10497 0.13047 -0.1203 -0.09618 -0.02525 -0.00428 0.1608 0.09179 -0.05201 -0.02613 -0.00597 0.13113 0.13497 0.12777 -0.05625 0.1623 0.07486 0.00587 -0.03554 -0.12667 0.02423 0.01964 0.1498 0.05044 0.0927 -0.03152 -0.08538 -0.11961 0.02842 -0.02581 0.05818 -0.058 -0.08002 -0.01589 -0.03451 -0.16737 0.03434 0.14933 0.05853 0.03573 -0.03004 -0.16661 -0.1084 -0.0978 0.15989 -0.17146 -0.08066 0.05963 0.10151 -0.05014 -0.04725 0.04221 0.07637 -0.13138 0.08816 -0.00708 -0.04149 -0.1487 0.09967 -0.06028 -0.04686 -0.15534 0.167 -0.07501 -0.02702 0.11891 -0.12632 -0.06468 0.07525 0.10476 0.07768 -0.15369 0.04473 0.02982 -0.12037 -0.12612 0.10314 -0.07574 -0.0675 -0.08179 -0.02842 -0.12608 0.0618 0.0303 -0.14123 -0.11876 -0.07613 -0.06478 0.04851 -0.10852 0.08125 0.07551 -0.06638 0.03709 -0.12928 0.13304 0.02348 0.08489 0.10019 0.16959 0.01454 -0.08679 -0.07571 0.16584 -0.03974 0.11429 -0.03778 -0.01306 0.12173 -0.03673 0.09742 -0.01936 -0.04198 -0.14735 0.09817 0.03325 0.02215 -0.11528 0.15299 -0.10522 -0.16733 -0.00403 0.06646 -0.06281 0.07831 -0.00987 0.13526 -0.04782 0.09882 -0.16222 0.0812 0.12359 -0.04619 -0.03458 0.15611 0.03232 -0.06183 0.14352 0.08611 -0.02001 0.0105 -0.01343 0.03914 -0.01471 0.01638 -0.02582 0.04286 0.162 0.04007 0.11432 -0.01641 -0.15036 -0.05386 0.08311 0.0113 -0.05866 -0.12355 0.05678 0.0063 0.00883 0.02186 -0.16637 0.02069 -0.08804 0.06339 0.08741
â	-0.15874 -0.03568 0.04076 -0.0199 0.16368 0.04256 0.12758 -0.11271 -0.07724 -0.06798 0.09809 -0.12797 -0.02632 -0.00578 0.17229 0.10626 -0.11258 0.14866 0.10796 -0.07852 -0.09287 -0.16061 -0.03917 -0.08596 0.01048 -0.16269 -0.08944 -0.14281 0.04166 -0.04744 -0.08184 0.15135 -0.02186 0.13812 0.02088 0.05656 0.10771 0.02449 0.04544 0.17302 0.04812 0.07778 -0.05147 0.03313 0.05027 0.06381 0.12645 -0.06295 0.04231 -0.08062 0.16315 -0.06141 -0.0293 -0.00077 0.14284 0.0074 0.09422 0.02451 0.16623 0.0893 -0.03872 -0.10694 0.08558 0.10001 -0.08343 -0.10502 0.13561 -0.03855 -0.02802 0.02698 -0.04967 0.11421 -0.12956 0.12903 -0.11791 -0.03027 0.12686 0.11541 -0.0386 -0.15 0.02962 0.04416 0.12244 -0.00534 0.03964 0.1175 -0.08189 -0.08706 0.12184 -0.16723 -0.12211 0.0212 0.05619 -0.03676 -0.14799 -0.16045 0.03519 -0.11128 0.05085 -0.17131 -0.12632 -0.06468 0.07525 0.10476 0.07768 -0.15369 0.04473 0.02982 -0.12037 -0.12612 0.10314 -0.07574 -0.0675 -0.08179 -0.02842 -0.12608 0.0618 0.0303 -0.14123 -0.11876 -0.07613 -0.06478 0.04851 -0.10852 0.08125 0.07551 -0.06638 0.03709 -0.12928 0.13304 0.02348 0.08489 0.10019 0.16959 0.01454 -0.08679 -0.07571 0.16584 -0.03974 0.11429 -0.03778 -0.01306 0.12173 -0.03673 0.09742 -0.01936 -0.04198 -0.14735 0.09817 0.03325 0.02215 -0.11528 0.15299 -0.10522 -0.16733 -0.00403 0.06646 -0.06281 0.07831 -0.00987 0.13526 -0.04782 0.09882 -0.16222 0.0812 0.12359 -0.04619 -0.03458 0.15611 0.03232 -0.06183 0.14352 0.08611 -0.02001 0.0105 -0.01343 0.03914 -0.01471 0.01638 -0.02582 0.04286 0.162 0.04007 0.11432 -0.01641 -0.15036 -0.05386 0.08311 0.0113 -0.05866 -0.12355 0.05678 0.0063 0.00883 0.02186 -0.16637 0.02069 -0.08804 0.06339 0.08741
i	-0.16522 -0.08206 -0.10174 -0.03376 -0.06067 0.14922 0.01435 0.12075 0.06934 -0.0589 -0.09054 -0.16165 -0.05525 -0.07581 0.0901 0.03683 -0.00447 0.07342 0.10386 0.02299 -0.12691 0.03742 -0.02947 -0.00581 0.16719 0.07692 0.02197 0.12356 -0.05313 0.15641 -0.01053 0.1346 -0.03398 0.03738 -0.02494 -0.058 0.03419 -0.01512 0.10151 0.02548 0.05861 0.14806 -0.16137 -0.11925 0.08743 0.13741 -0.16235 -0.08912 -0.02003 0.08019 -0.08231 -0.15303 -0.01581 -0.13588 -0.0064 -0.00241 0.11797 -0.14952 0.03257 0.05412 -0.09079 -0.10069 0.11494 -0.16882 -0.11298 -0.12982 0.13372 -0.05057 0.02347 -0.13932 0.06963 0.05487 -0.17211 0.1667 -0.08746 -0.11142 -0.01915 0.16442 -0.0507 0.15337 -0.1349 -0.08336 0.00123 -0.16019 -0.15287 -0.12484 0.06371 0.0535 0.08891 0.07301 -0.10723 -0.12764 0.02735 -0.16096 0.11054 0.00454 0.02922 0.02804 -0.03648 -0.00889 -0.12632 -0.06468 0.07525 0.10476 0.07768 -0.15369 0.04473 0.02982 -0.12037 -0.12612 0.10314 -0.07574 -0.0675 -0.08179 -0.02842 -0.12608 0.0618 0.0303 -0.14123 -0.11876 -0.07613 -0.06478 0.04851 -0.10852 0.08125 0.07551 -0.06638 0.03709 -0.12928 0.13304 0.02348 0.08489 0.10019 0.16959 0.01454 -0.08679 -0.07571 0.16584 -0.03974 0.11429 -0.03778 -0.01306 0.12173 -0.03673 0.09742 -0.01936 -0.04198 -0.14735 0.09817 0.03325 0.02215 -0.11528 0.15299 -0.10522 -0.16733 -0.00403 0.06646 -0.06281 0.07831 -0.00987 0.13526 -0.04782 0.09882 -0.16222 0.0812 0.12359 -0.04619 -0.03458 0.15611 0.03232 -0.06183 0.14352 0.08611 -0.02001 0.0105 -0.01343 0.03914 -0.01471 0.01638 -0.02582 0.04286 0.162 0.04007 0.11432 -0.01641 -0.15036 -0.05386 0.08311 0.0113 -0.05866 -0.12355 0.05678 0.0063 0.00883 0.02186 -0.16637 0.02069 -0.08804 0.06339 0.08741
l	-0.0919 -0.09503 -0.09216 -0.07545 -0.0869 -0.08685 -0.06879 0.12183 -0.02764 -0.07676 0.00146 -0.17171 0.05885 0.13846 0.02459 0.15831 0.05939 0.02198 -0.00606 0.00632 -0.04873 -0.10582 -0.16901 -0.05855 -0.07185 -0.14671 -0.05315 0.17008 0.15793 0.11799 -0.05579 0.13421 -0.10884 0.15394 -0.16035 0.11631 0.13209 0.00886 0.04042 -0.0538 -0.14306 -0.04652 -0.04952 0.09706 0.10299 -0.12527 0.1574 -0.01883 0.02741 -0.00243 0.13102 0.00182 -0.12977 0.05887 0.07254 0.15745 0.12289 0.03315 0.13666 0.0824 0.07228 -0.01914 0.01259 0.00563 0.04662 0.10006 -0.16947 -0.08458 -0.00941 -0.0889 -0.10822 -0.07828 0.13866 0.15516 -0.08945 0.04881 0.05818 -0.13089 -0.11156 0.01831 -0.10413 0.05862 -0.17248 0.09046 -0.06305 0.1162 -0.0747 -0.05318 -0.1456 0.10753 0.03483 0.0579 0.16907 0.04792 -0.1429 -0.14082 -0.02061 -0.14171 0.08278 -0.08789 -0.12632 -0.06468 0.07525 0.10476 0.07768 -0.15369 0.04473 0.02982 -0.12037 -0.12612 0.10314 -0.07574 -0.0675 -0.08179 -0.02842 -0.12608 0.0618 0.0303 -0.14123 -0.11876 -0.07613 -0.06478 0.04851 -0.10852 0.08125 0.07551 -0.06638 0.03709 -0.12928 0.13304 0.02348 0.08489 0.10019 0.16959 0.01454 -0.08679 -0.07571 0.16584 -0.03974 0.11429 -0.03778 -0.01306 0.12173 -0.03673 0.09742 -0.01936 -0.04198 -0.14735 0.09817 0.03325 0.02215 -0.11528 0.15299 -0.10522 -0.16733 -0.00403 0.06646 -0.06281 0.07831 -0.00987 0.13526 -0.04782 0.09882 -0.16222 0.0812 0.12359 -0.04619 -0.03458 0.15611 0.03232 -0.06183 0.14352 0.08611 -0.02001 0.0105 -0.01343 0.03914 -0.01471 0.01638 -0.02582 0.04286 0.162 0.04007 0.11432 -0.01641 -0.15036 -0.05386 0.08311 0.0113 -0.05866 -0.12355 0.05678 0.0063 0.00883 0.02186 -0.16637 0.02069 -0.08804 0.06339 0.08741
ô	0.03974 -0.16476 -0.14193 0.14507 -0.01273 0.05872 0.12732 0.11842 -0.0952 0.11011 -0.14693 -0.05182 0.02279 -0.15986 -0.15429 0.09696 0.07211 -0.14943 -0.03784 0.12338 0.16683 -0.11159 0.11685 0.16776 0.06572 -0.0318 0.08026 0.11966 -0.0538 -0.1672 0.1305 -0.13647 0.15333 0.00579 -0.13972 -0.10381 0.17061 0.10002 0.10929 -0.06117 -0.09846 -0.16463 0.11663 -0.02737 0.08079 -0.02987 -0.13889 -0.02213 -0.00347 0.08263 0.15626 -0.1533 -0.09213 0.03478 0.11917 -0.16635 -0.05757 -0.17167 -0.08973 -0.04529 0.05286 0.0831 0.04664 0.12126 -0.04308 0.12703 0.08336 0.02567 -0.03644 0.05349 0.13824 -0.08425 0.13668 -0.0448 0.1201 0.08405 0.14783 -0.17152 -0.15305 0.02274 -0.01556 0.01515 0.04183 -0.0453 -0.17248 0.15594 0.14705 0.09957 0.13343 -0.04914 -0.11209 -0.08957 0.08675 -0.06498 0.14871 -0.03027 -0.10154 0.07028 0.05041 0.08312 -0.12632 -0.06468 0.07525 0.10476 0.07768 -0.15369 0.04473 0.02982 -0.12037 -0.12612 0.10314 -0.07574 -0.0675 -0.08179 -0.02842 -0.12608 0.0618 0.0303 -0.14123 -0.11876 -0.07613 -0.06478 0.04851 -0.10852 0.08125 0.07551 -0.06638 0.03709 -0.12928 0.13304 0.02348 0.08489 0.10019 0.16959 0.01454 -0.08679 -0.07571 0.16584 -0.03974 0.11429 -0.03778 -0.01306 0.12173 -0.03673 0.09742 -0.01936 -0.04198 -0.14735 0.09817 0.03325 0.02215 -0.11528 0.15299 -0.10522 -0.16733 -0.00403 0.06646 -0.06281 0.07831 -0.00987 0.13526 -0.04782 0.09882 -0.16222 0.0812 0.12359 -0.04619 -0.03458 0.15611 0.03232 -0.06183 0.14352 0.08611 -0.02001 0.0105 -0.01343 0.03914 -0.01471 0.01638 -0.02582 0.04286 0.162 0.04007 0.11432 -0.01641 -0.15036 -0.05386 0.08311 0.0113 -0.05866 -0.12355 0.05678 0.0063 0.00883 0.02186 -0.16637 0.02069 -0.08804 0.06339 0.08741
d	-0.11203 0.10524 0.00208 -0.1581 0.15774 0.00114 0.12425 0.13065 -0.03016 0.02649 0.00224 0.12446 -0.00024 -0.1093 0.0933 -0.12313 -0.10397 0.00675 -0.15857 0.03308 0.14211 -0.03706 -0.02442 -0.13296 -0.10161 0.01507 -0.0145 -0.05952 0.1326 -0.15404 0.11558 -0.16329 0.14607 -0.09893 -0.1061 -0.06847 -0.16628 0.00473 0.1487 0.11661 0.08977 -0.0588 -0.14488 -0.14594 -0.00773 0.16492 -0.0218 0.15249 -0.08839 -0.07013 0.12108 -0.07629 -0.10846 -0.02416 -0.01856 0.00371 -0.08803 0.07258 0.07129 0.11182 0.16123 0.04149 -0.06325 0.00473 -0.10933 0.1386 -0.05878 -0.13604 -0.01864 -0.16279 0.00827 0.13666 -0.16397 0.04318 0.01333 0.13516 0.08166 0.10241 0.05013 -0.06902 0.11841 0.03438 0.16149 -0.16392 -0.12458 -0.11714 0.03519 0.00649 0.02977 -0.00082 0.10162 -0.16047 -0.04609 0.03636 0.04759 0.15135 0.08501 -0.16406 -0.07741 -0.11935 -0.12632 -0.06468 0.07525 0.10476 0.07768 -0.15369 0.04473 0.02982 -0.12037 -0.12612 0.10314 -0.07574 -0.0675 -0.08179 -0.02842 -0.12608 0.0618 0.0303 -0.14123 -0.11876 -0.07613 -0.06478 0.04851 -0.10852 0.08125 0.07551 -0.06638 0.03709 -0.12928 0.13304 0.02348 0.08489 0.10019 0.16959 0.01454 -0.08679 -0.07571 0.16584 -0.03974 0.11429 -0.03778 -0.01306 0.12173 -0.03673 0.09742 -0.01936 -0.04198 -0.14735 0.09817 0.03325 0.02215 -0.11528 0.15299 -0.10522 -0.16733 -0.00403 0.06646 -0.06281 0.07831 -0.00987 0.13526 -0.04782 0.09882 -0.16222 0.0812 0.12359 -0.04619 -0.03458 0.15611 0.03232 -0.06183 0.14352 0.08611 -0.02001 0.0105 -0.01343 0.03914 -0.01471 0.01638 -0.02582 0.04286 0.162 0.04007 0.11432 -0.01641 -0.15036 -0.05386 0.08311 0.0113 -0.05866 -0.12355 0.05678 0.0063 0.00883 0.02186 -0.16637 0.02069 -0.08804 0.06339 0.08741
s	0.14997 0.00634 -0.02401 0.13546 -0.10185 -0.03102 -0.05133 0.10318 -0.16552 0.10113 0.0884 0.04235 0.10204 0.11804 0.10652 -0.14746 -0.1432 0.16481 -0.02331 -0.14389 -0.0628 -0.01744 -0.0511 -0.02881 -0.10399 -0.00746 -0.0917 -0.04959 0.04899 0.0057 -0.00668 0.021 0.16399 -0.10379 0.04436 0.09532 0.04862 -0.11715 0.05843 0.04715 0.14874 -0.13832 0.00527 -0.09282 -0.09198 -0.02809 -0.02591 0.16609 -0.02505 -0.15492 0.10362 0.14978 0.02099 0.05266 0.05178 0.04779 0.04793 -0.0889 0.04428 0.17279 0.01047 -0.10733 -0.10376 -0.14047 -0.1391 -0.13056 -0.04 0.17106 -0.11893 0.02513 -0.16778 -0.06349 -0.08715 0.00042 0.04355 0.13541 -0.11231 0.14597 0.06815 0.09295 -0.16028 -0.08258 0.02873 0.00814 -0.12214 -0.14392 -0.16311 0.00969 -0.06631 -0.02874 0.07031 0.01738 0.08276 0.11699 -0.15605 -0.03744 -0.02113 0.0843 -0.05379 0.16203 -0.12632 -0.06468 0.07525 0.10476 0.07768 -0.15369 0.04473 0.02982 -0.12037 -0.12612 0.10314 -0.07574 -0.0675 -0.08179 -0.02842 -0.12608 0.0618 0.0303 -0.14123 -0.11876 -0.07613 -0.06478 0.04851 -0.10852 0.08125 0.07551 -0.06638 0.03709 -0.12928 0.13304 0.02348 0.08489 0.10019 0.16959 0.01454 -0.08679 -0.07571 0.16584 -0.03974 0.11429 -0.03778 -0.01306 0.12173 -0.03673 0.09742 -0.01936 -0.04198 -0.14735 0.09817 0.03325 0.02215 -0.11528 0.15299 -0.10522 -0.16733 -0.00403 0.06646 -0.06281 0.07831 -0.00987 0.13526 -0.04782 0.09882 -0.16222 0.0812 0.12359 -0.04619 -0.03458 0.15611 0.03232 -0.06183 0.14352 0.08611 -0.02001 0.0105 -0.01343 0.03914 -0.01471 0.01638 -0.02582 0.04286 0.162 0.04007 0.11432 -0.01641 -0.15036 -0.05386 0.08311 0.0113 -0.05866 -0.12355 0.05678 0.0063 0.00883 0.02186 -0.16637 0.02069 -0.08804 0.06339 0.08741
p	-0.13064 0.09189 -0.11235 0.04457 -0.01529 0.12305 -0.02618 0.01814 0.04783 0.15822 -0.16082 0.13584 0.08849 0.14426 0.08634 -0.12914 -0.01907 -0.13244 0.09922 -0.00143 0.03004 0.05868 -0.02402 -0.11068 -0.08516 0.00354 0.09935 0.01762 -0.03446 -0.1714 0.04183 -0.16206 -0.06537 0.02372 0.17123 -0.15447 0.14842 -0.02636 0.10576 0.05289 -0.05403 -0.12514 0.16094 0.07158 -0.13474 0.05762 -0.12988 -0.15144 0.1618 0.1103 -0.00273 0.10828 0.17033 0.0021 0.06779 0.10407 0.00791 0.04639 0.13455 -0.14017 0.10442 0.15228 -0.11851 -0.13099 -0.1641 -0.0742 -0.08612 0.09825 0.02672 -0.16079 -0.14643 0.00048 -0.02826 -0.00493 0.16216 -0.00294 -0.12875 0.06248 -0.03586 -0.06954 0.00773 -0.05507 0.0323 0.14465 -0.13338 0.05217 -0.15855 -0.05462 0.02439 -0.1537 -0.02592 -0.05571 0.13391 0.15741 -0.0592 0.02371 0.04802 -0.01784 -0.0064 0.05989 -0.12632 -0.06468 0.07525 0.10476 0.07768 -0.15369 0.04473 0.02982 -0.12037 -0.12612 0.10314 -0.07574 -0.0675 -0.08179 -0.02842 -0.12608 0.0618 0.0303 -0.14123 -0.11876 -0.07613 -0.06478 0.04851 -0.10852 0.08125 0.07551 -0.06638 0.03709 -0.12928 0.13304 0.02348 0.08489 0.10019 0.16959 0.01454 -0.08679 -0.07571 0.16584 -0.03974 0.11429 -0.03778 -0.01306 0.12173 -0.03673 0.09742 -0.01936 -0.04198 -0.14735 0.09817 0.03325 0.02215 -0.11528 0.15299 -0.10522 -0.16733 -0.00403 0.06646 -0.06281 0.07831 -0.00987 0.13526 -0.04782 0.09882 -0.16222 0.0812 0.12359 -0.04619 -0.03458 0.15611 0.03232 -0.06183 0.14352 0.08611 -0.02001 0.0105 -0.01343 0.03914 -0.01471 0.01638 -0.02582 0.04286 0.162 0.04007 0.11432 -0.01641 -0.15036 -0.05386 0.08311 0.0113 -0.05866 -0.12355 0.05678 0.0063 0.00883 0.02186 -0.16637 0.02069 -0.08804 0.06339 0.08741
à	-0.1082 -0.04557 -0.16392 -0.03331 0.08199 0.02345 0.1593 0.16337 -0.15777 0.02469 -0.06254 -0.04023 0.00015 -0.07914 0.0755 -0.14894 0.05775 0.17082 0.14386 -0.11721 -0.03306 0.12849 0.00874 0.11872 0.10924 -0.08103 -0.17009 0.09426 -0.15759 -0.0594 0.05156 -0.02917 -0.02294 0.02574 0.13595 0.04143 0.10248 -0.01549 0.1542 -0.03825 0.13917 0.02494 0.17188 0.05423 -0.05985 0.01046 0.17094 -0.16311 0.08407 0.14236 0.07209 0.02364 0.10238 -0.14933 0.16158 -0.04112 0.089 0.1633 -0.05138 -0.02593 0.17147 -0.01831 -0.01792 0.10601 -0.09423 -0.07325 -0.10218 0.1033 -0.098 -0.04315 -0.13852 0.09202 0.10647 -0.11738 -0.09575 -0.01846 0.16919 -0.13525 0.02673 0.01271 -0.01122 -0.08749 0.05628 -0.02323 0.16912 -0.05943 0.0562 0.08063 -0.12426 0.05683 -0.0889 0.07006 0.10088 0.07312 -0.16283 -0.06021 -0.02063 0.05709 -0.11497 0.12594 -0.12632 -0.06468 0.07525 0.10476 0.07768 -0.15369 0.04473 0.02982 -0.12037 -0.12612 0.10314 -0.07574 -0.0675 -0.08179 -0.02842 -0.12608 0.0618 0.0303 -0.14123 -0.11876 -0.07613 -0.06478 0.04851 -0.10852 0.08125 0.07551 -0.06638 0.03709 -0.12928 0.13304 0.02348 0.08489 0.10019 0.16959 0.01454 -0.08679 -0.07571 0.16584 -0.03974 0.11429 -0.03778 -0.01306 0.12173 -0.03673 0.09742 -0.01936 -0.04198 -0.14735 0.09817 0.03325 0.02215 -0.11528 0.15299 -0.10522 -0.16733 -0.00403 0.06646 -0.06281 0.07831 -0.00987 0.13526 -0.04782 0.09882 -0.16222 0.0812 0.12359 -0.04619 -0.03458 0.15611 0.03232 -0.06183 0.14352 0.08611 -0.02001 0.0105 -0.01343 0.03914 -0.01471 0.01638 -0.02582 0.04286 0.162 0.04007 0.11432 -0.01641 -0.15036 -0.05386 0.08311 0.0113 -0.05866 -0.12355 0.05678 0.0063 0.00883 0.02186 -0.16637 0.02069 -0.08804 0.06339 0.08741
