u	0.16771 -0.16466 -0.02181 -0.07107 -0.06432 0.08869 -0.173 0.11041 0.02217 0.13453 0.11477 -0.02906 -0.08513 0.03897 -0.05566 -0.09363 -0.06425 0.09229 0.06897 -0.12372 -0.02982 -0.12136 -0.17468 0.03471 -0.16563 0.10168 -0.16124 0.11091 0.1194 -0.07337 0.02348 0.04473 0.17236 0.12988 -0.07314 0.04241 0.15778 0.16297 -0.14969 0.07287 0.15797 0.10876 -4e-05 -0.10211 0.07862 -0.11302 -0.08597 -0.01994 0.07497 -0.01935 0.05501 0.07375 -0.04463 -0.01638 0.03824 0.15875 -0.11352 0.05029 0.16701 0.02812 0.05481 0.12478 0.07676 0.03918 0.12661 0.05107 -0.10015 0.14714 -0.11767 0.06104 -0.06187 -0.02113 -0.00574 -0.03324 -0.05953 0.08439 0.00271 -0.02551 0.16286 -0.03702 -0.02812 -0.07126 0.01638 0.0256 0.14884 0.10272 -0.05643 0.0044 0.04227 0.15067 0.03734 -0.0653 -0.02701 0.1609 0.023 -0.11927 0.08319 0.17211 -0.06736 0.00399 -0.02486 -0.0488 0.1494 -0.00076 -0.05513 0.06445 -0.15427 -0.03074 0.04849 0.16252 -0.02593 -0.0447 0.14964 0.07951 -0.08607 0.02196 0.16694 -0.03979 0.04756 0.13632 0.12752 -0.17011 -0.06385 -0.0714 -0.16634 -0.05344 -0.03204 -0.16798 0.11118 0.12335 -0.11204 -0.08759 -0.00262 0.05272 -0.0518 0.09369 -0.03534 0.09175 0.17224 -0.05679 -0.10319 0.12402 -0.00949 0.05857 0.06967 -0.09508 0.1499 0.0052 0.10537 0.03897 -0.14455 0.03007 -0.10451 -0.1345 -0.11524 0.06588 0.08182 -0.13732 0.14094 -0.04195 0.14612 0.02111 0.00735 0.16167 0.04861 0.05945 0.02833 -0.15558 -0.12179 0.08716 0.14366 0.01124 0.07813 0.09068 0.0154 0.04052 0.09825 0.05331 -0.07532 0.14764 -0.16474 -0.062 0.03363 0.03745 -0.15415 -0.14209 -0.02916 -0.00025 0.04136 0.09634 0.17223 -0.00415 0.0841 0.03137 0.0707 0.06694 0.15161 -0.16845 0.14929 -0.1681
t	0.12974 0.00189 0.16772 0.04402 -0.04062 0.06393 -0.17071 -0.023 0.05196 0.10781 -0.05288 0.0846 -0.10577 -0.02326 -0.10581 0.03561 0.12507 0.11588 0.14331 -0.12819 0.15437 0.04561 0.08028 0.077 0.16705 0.07991 0.02809 -0.11078 0.12593 -0.14162 -0.02943 0.08828 -0.16779 0.15423 -0.11895 -0.07857 -0.0581 0.11815 0.07813 -0.15633 0.08014 0.17247 -0.08829 0.06407 0.05972 -0.09964 0.1082 0.1132 -0.11772 0.14411 0.08673 0.15385 0.07188 -0.13188 -0.09705 -0.0295 -0.09968 0.02448 0.10517 -0.05932 -0.08958 -0.13408 -0.03262 -0.12811 -0.10232 0.12287 0.03802 0.11374 -0.10482 -0.14207 0.15033 -0.15443 0.00133 -0.16954 0.03782 -0.00367 0.12678 0.10129 -0.0325 -0.1198 -0.07497 0.00455 -0.1027 0.17149 -0.14619 -0.15176 0.03799 0.10067 0.11013 0.05752 -0.10705 0.16548 -0.09688 0.17137 0.13438 -0.10135 0.03866 0.12037 -0.09831 -0.1587 -0.02486 -0.0488 0.1494 -0.00076 -0.05513 0.06445 -0.15427 -0.03074 0.04849 0.16252 -0.02593 -0.0447 0.14964 0.07951 -0.08607 0.02196 0.16694 -0.03979 0.04756 0.13632 0.12752 -0.17011 -0.06385 -0.0714 -0.16634 -0.05344 -0.03204 -0.16798 0.11118 0.12335 -0.11204 -0.08759 -0.00262 0.05272 -0.0518 0.09369 -0.03534 0.09175 0.17224 -0.05679 -0.10319 0.12402 -0.00949 0.05857 0.06967 -0.09508 0.1499 0.0052 0.10537 0.03897 -0.14455 0.03007 -0.10451 -0.1345 -0.11524 0.06588 0.08182 -0.13732 0.14094 -0.04195 0.14612 0.02111 0.00735 0.16167 0.04861 0.05945 0.02833 -0.15558 -0.12179 0.08716 0.14366 0.01124 0.07813 0.09068 0.0154 0.04052 0.09825 0.05331 -0.07532 0.14764 -0.16474 -0.062 0.03363 0.03745 -0.15415 -0.14209 -0.02916 -0.00025 0.04136 0.09634 0.17223 -0.00415 0.0841 0.03137 0.0707 0.06694 0.15161 -0.16845 0.14929 -0.1681
-	0.11179 0.11096 0.16931 0.1716 -0.09622 -0.04391 0.01608 0.10215 -0.13202 -0.09307 -0.15406 0.14283 -0.06465 0.06135 -0.02477 0.01397 -0.07268 0.13478 -0.06866 -0.01495 0.01569 -0.16116 0.16154 -0.00427 -0.15117 0.10782 0.04765 0.09537 0.08163 0.05418 0.00485 0.14463 0.09505 0.16865 0.02808 0.14089 0.07243 -0.15768 -0.059 0.04923 -0.12571 0.05607 0.06474 0.16059 -0.0421 0.12808 0.15905 -0.10842 0.11915 -0.00916 0.07616 0.02774 -0.04838 -0.03779 0.08115 0.01846 -0.0757 -0.08978 0.03379 -0.10899 -0.06443 -0.04216 -0.08244 -0.04102 -0.08224 0.07675 0.09025 -0.05343 0.07613 0.17196 -0.16934 -0.04735 0.15937 -0.04686 0.10281 0.0856 0.03243 -0.02651 0.00115 -0.12743 0.11757 0.05955 0.12071 -0.16592 -0.0038 -0.09311 0.0386 0.01638 0.06917 0.03582 -0.09545 -0.12982 -0.03835 -0.06009 0.17172 -0.12493 0.01689 -0.06137 0.01031 0.03531 -0.02486 -0.0488 0.1494 -0.00076 -0.05513 0.06445 -0.15427 -0.03074 0.04849 0.16252 -0.02593 -0.0447 0.14964 0.07951 -0.08607 0.02196 0.16694 -0.03979 0.04756 0.13632 0.12752 -0.17011 -0.06385 -0.0714 -0.16634 -0.05344 -0.03204 -0.16798 0.11118 0.12335 -0.11204 -0.08759 -0.00262 0.05272 -0.0518 0.09369 -0.03534 0.09175 0.17224 -0.05679 -0.10319 0.12402 -0.00949 0.05857 0.06967 -0.09508 0.1499 0.0052 0.10537 0.03897 -0.14455 0.03007 -0.10451 -0.1345 -0.11524 0.06588 0.08182 -0.13732 0.14094 -0.04195 0.14612 0.02111 0.00735 0.16167 0.04861 0.05945 0.02833 -0.15558 -0.12179 0.08716 0.14366 0.01124 0.07813 0.09068 0.0154 0.04052 0.09825 0.05331 -0.07532 0.14764 -0.16474 -0.062 0.03363 0.03745 -0.15415 -0.14209 -0.02916 -0.00025 0.04136 0.09634 0.17223 -0.00415 0.0841 0.03137 0.0707 0.06694 0.15161 -0.16845 0.14929 -0.1681
g	0.12347 -0.01735 -0.15521 0.13897 0.05782 0.099 -0.03562 -0.15368 0.12101 -0.12275 0.0944 -0.07798 -0.08968 0.05876 -0.14741 0.1548 -0.12453 -0.0797 0.10276 0.05856 0.13039 -0.10619 -0.07991 -0.16369 -0.15823 -0.14839 0.0723 -0.02251 0.05248 -0.02487 -0.16294 0.17106 -0.05036 -0.09656 0.15932 0.13783 -0.04675 -0.13396 0.12503 -0.12968 0.00294 0.0725 -0.16145 0.02279 0.04463 0.05417 -0.0098 0.06435 0.00952 -0.07233 -0.16169 -0.06141 -0.084 0.12691 -0.03438 -0.10773 -0.00758 0.02308 -0.11781 0.15033 -0.15729 -0.1519 -0.05562 -0.02696 0.16326 -0.03512 -0.02631 -0.09386 -0.10254 0.05704 0.03604 0.01279 0.06503 0.10605 -0.03609 0.01625 -0.082 0.01261 -0.03599 0.0489 -0.05058 -0.09141 -0.06102 -0.00396 0.09555 0.13733 0.1481 0.0898 0.13244 0.17222 -0.02578 0.09147 0.16457 0.16848 -0.06391 0.09829 0.05942 0.12891 -0.04671 0.08493 -0.02486 -0.0488 0.1494 -0.00076 -0.05513 0.06445 -0.15427 -0.03074 0.04849 0.16252 -0.02593 -0.0447 0.14964 0.07951 -0.08607 0.02196 0.16694 -0.03979 0.04756 0.13632 0.12752 -0.17011 -0.06385 -0.0714 -0.16634 -0.05344 -0.03204 -0.16798 0.11118 0.12335 -0.11204 -0.08759 -0.00262 0.05272 -0.0518 0.09369 -0.03534 0.09175 0.17224 -0.05679 -0.10319 0.12402 -0.00949 0.05857 0.06967 -0.09508 0.1499 0.0052 0.10537 0.03897 -0.14455 0.03007 -0.10451 -0.1345 -0.11524 0.06588 0.08182 -0.13732 0.14094 -0.04195 0.14612 0.02111 0.00735 0.16167 0.04861 0.05945 0.02833 -0.15558 -0.12179 0.08716 0.14366 0.01124 0.07813 0.09068 0.0154 0.04052 0.09825 0.05331 -0.07532 0.14764 -0.16474 -0.062 0.03363 0.03745 -0.15415 -0.14209 -0.02916 -0.00025 0.04136 0.09634 0.17223 -0.00415 0.0841 0.03137 0.0707 0.06694 0.15161 -0.16845 0.14929 -0.1681
h	-0.1199 -0.14353 -0.14009 0.05085 0.1323 -0.07184 0.09912 0.02579 0.02829 -0.14239 -0.16791 -0.09414 -0.09243 0.08253 -0.08592 -0.03472 0.15158 0.08252 0.10687 -0.00544 -0.06394 -0.1342 0.1255 0.12188 -0.13296 -0.10441 -0.06671 -0.08886 -0.05782 -0.17258 0.10934 0.07995 0.02696 -0.01634 -0.06853 -0.03388 -0.09022 -0.06254 -0.1285 0.118 0.0258 -0.11795 0.00786 -0.06567 -0.01549 -0.09841 -0.15109 -0.02867 0.06074 0.06006 -0.00863 0.1245 0.16858 -0.06773 -0.13592 -0.16163 -0.14734 0.05634 -0.05702 -0.14275 0.12595 0.11832 -0.06408 0.1038 -0.16982 0.08724 -0.11441 -0.14736 -0.02205 -0.14543 -0.02358 -0.11746 -0.00049 -0.01422 -0.07529 -0.1389 0.01489 -0.04472 0.04429 -0.07991 -0.07355 0.03805 0.0798 -0.07673 -0.03306 -0.00855 -0.00461 -0.07575 0.09842 0.05948 0.09616 -0.08545 0.1395 0.04291 0.08653 0.02634 0.07615 0.17017 -0.09305 0.11697 -0.02486 -0.0488 0.1494 -0.00076 -0.05513 0.06445 -0.15427 -0.03074 0.04849 0.16252 -0.02593 -0.0447 0.14964 0.07951 -0.08607 0.02196 0.16694 -0.03979 0.04756 0.13632 0.12752 -0.17011 -0.06385 -0.0714 -0.16634 -0.05344 -0.03204 -0.16798 0.11118 0.12335 -0.11204 -0.08759 -0.00262 0.05272 -0.0518 0.09369 -0.03534 0.09175 0.17224 -0.05679 -0.10319 0.12402 -0.00949 0.05857 0.06967 -0.09508 0.1499 0.0052 0.10537 0.03897 -0.14455 0.03007 -0.10451 -0.1345 -0.11524 0.06588 0.08182 -0.13732 0.14094 -0.04195 0.14612 0.02111 0.00735 0.16167 0.04861 0.05945 0.02833 -0.15558 -0.12179 0.08716 0.14366 0.01124 0.07813 0.09068 0.0154 0.04052 0.09825 0.05331 -0.07532 0.14764 -0.16474 -0.062 0.03363 0.03745 -0.15415 -0.14209 -0.02916 -0.00025 0.04136 0.09634 0.17223 -0.00415 0.0841 0.03137 0.0707 0.06694 0.15161 -0.16845 0.14929 -0.1681
v	-0.16839 0.02488 0.13451 -0.1258 -0.17243 -0.08373 -0.02627 -0.04356 0.07779 -0.16047 -0.00063 -0.16648 -0.10328 0.15755 0.14096 -0.09018 0.08214 -0.00941 0.1538 0.0822 0.04663 -0.08416 -0.01161 -0.06491 -0.09404 -0.00993 0.13524 0.10114 0.10364 -0.02803 -0.13559 -0.01884 0.02202 -0.16543 0.12396 -0.02662 -0.1461 0.06129 0.13405 0.02636 -0.1244 -0.04633 0.12311 -0.14447 -0.04728 -0.04055 0.07318 -0.03154 -0.13448 -0.15969 0.13012 0.00162 0.12951 -0.02328 -0.061 0.06042 0.00543 -0.16104 -0.12763 0.03454 -0.16955 0.10309 0.14581 -0.14251 -0.07129 -0.12582 0.08271 -0.09133 -0.1598 0.16452 0.1658 0.1572 -0.0595 -0.12766 -0.09283 -0.06772 -0.12032 0.13131 0.1398 0.11774 -0.01024 0.11214 0.10422 0.16272 -0.05503 0.14474 -0.00872 -0.09308 0.10311 0.02621 0.16006 -0.1367 -0.03185 0.14546 0.0251 -0.05612 0.1681 0.16159 -0.07087 0.0394 -0.02486 -0.0488 0.1494 -0.00076 -0.05513 0.06445 -0.15427 -0.03074 0.04849 0.16252 -0.02593 -0.0447 0.14964 0.07951 -0.08607 0.02196 0.16694 -0.03979 0.04756 0.13632 0.12752 -0.17011 -0.06385 -0.0714 -0.16634 -0.05344 -0.03204 -0.16798 0.11118 0.12335 -0.11204 -0.08759 -0.00262 0.05272 -0.0518 0.09369 -0.03534 0.09175 0.17224 -0.05679 -0.10319 0.12402 -0.00949 0.05857 0.06967 -0.09508 0.1499 0.0052 0.10537 0.03897 -0.14455 0.03007 -0.10451 -0.1345 -0.11524 0.06588 0.08182 -0.13732 0.14094 -0.04195 0.14612 0.02111 0.00735 0.16167 0.04861 0.05945 0.02833 -0.15558 -0.12179 0.08716 0.14366 0.01124 0.07813 0.09068 0.0154 0.04052 0.09825 0.05331 -0.07532 0.14764 -0.16474 -0.062 0.03363 0.03745 -0.15415 -0.14209 -0.02916 -0.00025 0.04136 0.09634 0.17223 -0.00415 0.0841 0.03137 0.0707 0.06694 0.15161 -0.16845 0.14929 -0.1681
k	0.04601 -0.09067 0.00248 0.11743 -0.13082 0.05736 0.00642 0.00363 0.14387 0.02022 0.06213 0.01695 0.05957 0.16289 0.1254 0.15288 -0.07053 0.14259 -0.07733 0.09913 0.10303 -0.04225 -0.02224 -0.16713 -0.04738 0.04158 -0.00167 0.15013 0.15603 -0.107 0.10426 -0.04923 -0.09893 -0.08396 -0.04922 -0.14158 -0.13781 0.14312 0.14433 0.11457 -0.08225 -0.03363 0.02497 -0.00592 0.03223 -0.10443 0.0629 0.04875 0.16713 -0.02973 0.10638 0.10276 0.05875 -0.00632 -0.08995 -0.04676 -0.1471 -0.04012 0.16563 0.02845 -0.03831 -0.04197 -0.07402 0.00255 -0.08817 0.04057 -0.16853 -0.02924 -0.13382 -0.07852 -0.13841 -0.15073 0.08435 0.0167 0.12167 -0.15274 -0.08177 -0.04505 -0.02805 0.13249 0.12152 -0.07495 0.09868 0.17026 -0.06472 0.08844 0.06436 0.09827 -0.0091 -0.14018 0.07422 0.16734 0.07123 -0.10927 -0.03042 -0.11626 -0.08408 0.1527 -0.16621 0.00453 -0.02486 -0.0488 0.1494 -0.00076 -0.05513 0.06445 -0.15427 -0.03074 0.04849 0.16252 -0.02593 -0.0447 0.14964 0.07951 -0.08607 0.02196 0.16694 -0.03979 0.04756 0.13632 0.12752 -0.17011 -0.06385 -0.0714 -0.16634 -0.05344 -0.03204 -0.16798 0.11118 0.12335 -0.11204 -0.08759 -0.00262 0.05272 -0.0518 0.09369 -0.03534 0.09175 0.17224 -0.05679 -0.10319 0.12402 -0.00949 0.05857 0.06967 -0.09508 0.1499 0.0052 0.10537 0.03897 -0.14455 0.03007 -0.10451 -0.1345 -0.11524 0.06588 0.08182 -0.13732 0.14094 -0.04195 0.14612 0.02111 0.00735 0.16167 0.04861 0.05945 0.02833 -0.15558 -0.12179 0.08716 0.14366 0.01124 0.07813 0.09068 0.0154 0.04052 0.09825 0.05331 -0.07532 0.14764 -0.16474 -0.062 0.03363 0.03745 -0.15415 -0.14209 -0.02916 -0.00025 0.04136 0.09634 0.17223 -0.00415 0.0841 0.03137 0.0707 0.06694 0.15161 -0.16845 0.14929 -0.1681
w	0.00229 0.102 -0.05843 -0.01337 -0.16077 -0.0913 -0.12205 0.067 0.0375 -0.10974 -0.11044 0.12316 -0.039 0.14704 0.12062 -0.08981 0.05014 -0.05274 -0.11387 -0.01066 -0.0114 0.15925 -0.14144 0.11467 -0.07271 0.05819 -0.04564 -0.07459 0.04233 -0.04846 0.1407 -0.05021 -0.07426 0.08097 0.02688 0.00331 -0.05474 -0.03885 0.0019 -0.01084 -0.16363 -0.01883 0.06927 0.03078 0.05474 0.05444 0.05522 -0.12127 -0.13317 0.11534 0.12312 0.05528 0.00391 0.05739 0.15977 -0.13562 -0.01116 -0.01702 0.11141 0.03973 -0.00229 0.11136 0.09556 0.15409 -0.03689 0.13713 -0.05766 -0.11667 -0.05471 0.15414 0.15584 -0.12632 -0.13459 0.14464 0.04947 0.0783 -0.10897 -0.07691 -0.17137 0.05735 0.11161 -0.08524 -0.09961 -0.11523 0.08129 0.05619 -0.02577 -0.00601 0.11871 -0.02209 -0.04423 -0.11051 -0.16342 -0.0145 -0.06772 0.0854 -0.0965 0.09226 0.15402 -0.12635 -0.02486 -0.0488 0.1494 -0.00076 -0.05513 0.06445 -0.15427 -0.03074 0.04849 0.16252 -0.02593 -0.0447 0.14964 0.07951 -0.08607 0.02196 0.16694 -0.03979 0.04756 0.13632 0.12752 -0.17011 -0.06385 -0.0714 -0.16634 -0.05344 -0.03204 -0.16798 0.11118 0.12335 -0.11204 -0.08759 -0.00262 0.05272 -0.0518 0.09369 -0.03534 0.09175 0.17224 -0.05679 -0.10319 0.12402 -0.00949 0.05857 0.06967 -0.09508 0.1499 0.0052 0.10537 0.03897 -0.14455 0.03007 -0.10451 -0.1345 -0.11524 0.06588 0.08182 -0.13732 0.14094 -0.04195 0.14612 0.02111 0.00735 0.16167 0.04861 0.05945 0.02833 -0.15558 -0.12179 0.08716 0.14366 0.01124 0.07813 0.09068 0.0154 0.04052 0.09825 0.05331 -0.07532 0.14764 -0.16474 -0.062 0.03363 0.03745 -0.15415 -0.14209 -0.02916 -0.00025 0.04136 0.09634 0.17223 -0.00415 0.0841 0.03137 0.0707 0.06694 0.15161 -0.16845 0.14929 -0.1681
o	-0.02105 0.10059 0.00574 -0.14214 -0.11276 0.03345 0.11536 0.01719 -0.11193 -0.08881 -0.07593 -0.07805 -0.00497 -0.00365 0.03398 0.06623 0.12544 0.16251 -0.00908 0.16459 -0.09225 -0.01072 -0.17529 0.06321 0.07038 0.06893 0.15594 -0.11537 -0.1482 -0.08408 0.1027 -0.09549 0.07446 -0.13643 0.05242 -0.08473 -0.13537 -0.02054 0.1146 0.06237 -0.14434 -0.01812 0.16982 0.05897 0.02089 -0.03539 -0.07293 0.1641 0.04842 -0.01829 -0.11074 0.1171 0.07225 0.11551 0.04175 0.16809 0.11057 -0.13157 -0.04806 -0.13308 -0.14075 -0.08654 0.1172 0.06862 -0.01444 0.02097 0.06774 0.04368 0.13751 -0.07704 -0.17136 -0.12521 0.07305 -0.01528 0.03211 0.13478 -0.03249 -0.10805 -0.16105 -0.01755 -0.00551 0.10082 -0.08932 -0.05453 0.04021 0.00051 0.13201 0.15845 0.01097 -0.13042 0.09827 -0.08062 0.03086 -0.08459 0.14525 0.06961 -0.02418 0.10277 -0.04389 0.04678 -0.02486 -0.0488 0.1494 -0.00076 -0.05513 0.06445 -0.15427 -0.03074 0.04849 0.16252 -0.02593 -0.0447 0.14964 0.07951 -0.08607 0.02196 0.16694 -0.03979 0.04756 0.13632 0.12752 -0.17011 -0.06385 -0.0714 -0.16634 -0.05344 -0.03204 -0.16798 0.11118 0.12335 -0.11204 -0.08759 -0.00262 0.05272 -0.0518 0.09369 -0.03534 0.09175 0.17224 -0.05679 -0.10319 0.12402 -0.00949 0.05857 0.06967 -0.09508 0.1499 0.0052 0.10537 0.03897 -0.14455 0.03007 -0.10451 -0.1345 -0.11524 0.06588 0.08182 -0.13732 0.14094 -0.04195 0.14612 0.02111 0.00735 0.16167 0.04861 0.05945 0.02833 -0.15558 -0.12179 0.08716 0.14366 0.01124 0.07813 0.09068 0.0154 0.04052 0.09825 0.05331 -0.07532 0.14764 -0.16474 -0.062 0.03363 0.03745 -0.15415 -0.14209 -0.02916 -0.00025 0.04136 0.09634 0.17223 -0.00415 0.0841 0.03137 0.0707 0.06694 0.15161 -0.16845 0.14929 -0.1681
ȳ	0.11964 0.0153 0.13736 0.04013 0.15073 0.08875 -0.06997 -0.02546 0.06786 0.00563 0.03522 -0.17078 -0.15828 -0.05772 0.05739 -0.11617 -0.15462 0.12583 -0.08393 0.0378 -0.16288 -0.12428 -0.00871 0.00797 0.05013 0.02837 -0.08579 0.02174 0.00485 0.04395 -0.12408 0.11554 0.0903 0.09688 -0.07566 -0.09939 -0.13448 0.1619 0.16864 0.00924 -0.09354 -0.07083 -0.09923 0.12552 0.04276 -0.16289 -0.16038 0.03064 -0.03014 0.14932 0.05725 0.11285 0.01568 0.12874 0.14212 -0.11478 -0.10253 0.0663 0.12001 -0.12316 0.16367 0.06081 -0.04515 0.08626 0.12885 0.03373 -0.15204 -0.05904 0.14046 0.00527 -0.06849 -0.01702 -0.12078 0.02689 0.0711 -0.061 0.1624 0.10044 -0.15225 0.10923 0.00139 -0.0376 -0.13312 -0.08426 -0.14249 -0.09262 -0.03766 -0.05073 -0.08242 0.07057 -0.02888 0.14947 -0.02839 -0.14747 -0.00316 0.14586 0.11131 0.06118 0.08571 -0.01949 -0.02486 -0.0488 0.1494 -0.00076 -0.05513 0.06445 -0.15427 -0.03074 0.04849 0.16252 -0.02593 -0.0447 0.14964 0.07951 -0.08607 0.02196 0.16694 -0.03979 0.04756 0.13632 0.12752 -0.17011 -0.06385 -0.0714 -0.16634 -0.05344 -0.03204 -0.16798 0.11118 0.12335 -0.11204 -0.08759 -0.00262 0.05272 -0.0518 0.09369 -0.03534 0.09175 0.17224 -0.05679 -0.10319 0.12402 -0.00949 0.05857 0.06967 -0.09508 0.1499 0.0052 0.10537 0.03897 -0.14455 0.03007 -0.10451 -0.1345 -0.11524 0.06588 0.08182 -0.13732 0.14094 -0.04195 0.14612 0.02111 0.00735 0.16167 0.04861 0.05945 0.02833 -0.15558 -0.12179 0.08716 0.14366 0.01124 0.07813 0.09068 0.0154 0.04052 0.09825 0.05331 -0.07532 0.14764 -0.16474 -0.062 0.03363 0.03745 -0.15415 -0.14209 -0.02916 -0.00025 0.04136 0.09634 0.17223 -0.00415 0.0841 0.03137 0.0707 0.06694 0.15161 -0.16845 0.14929 -0.1681
a	0.13269 0.14006 0.10559 -0.08937 0.0736 -0.11436 0.03435 -0.06378 -0.06448 0.09058 0.06313 0.02513 -0.17836 0.07698 -0.11527 -0.04624 0.1328 -0.07829 -0.12731 0.06391 -0.02435 -0.10899 0.15105 -0.13614 -0.0848 0.02979 -0.08704 0.00714 0.01628 -0.0033 0.12695 -0.08461 0.00623 -0.12343 0.02318 0.14433 -0.07737 0.07692 -0.1791 0.10131 0.00207 -0.12608 0.16215 -0.03772 0.04457 0.1554 0.12897 -0.09496 0.1372 0.07448 0.15977 0.00656 0.07349 -0.05752 -0.02462 0.12291 -0.09598 0.05505 -0.06181 -0.1127 -0.10961 -0.02081 0.15884 -0.1618 0.07031 -0.14876 0.11435 0.13056 0.12427 -0.1334 -0.10952 0.02693 0.0329 0.04908 -0.00651 0.1585 0.02554 -0.16016 0.00982 -0.01964 0.05548 0.14915 -0.02609 -0.07337 -0.09468 -0.12492 -0.05828 -0.15906 -0.12631 -0.01388 -0.14768 0.07146 -0.14736 0.10825 -0.01252 0.1335 0.13483 0.11402 -0.13801 -0.06168 -0.02486 -0.0488 0.1494 -0.00076 -0.05513 0.06445 -0.15427 -0.03074 0.04849 0.16252 -0.02593 -0.0447 0.14964 0.07951 -0.08607 0.02196 0.16694 -0.03979 0.04756 0.13632 0.12752 -0.17011 -0.06385 -0.0714 -0.16634 -0.05344 -0.03204 -0.16798 0.11118 0.12335 -0.11204 -0.08759 -0.00262 0.05272 -0.0518 0.09369 -0.03534 0.09175 0.17224 -0.05679 -0.10319 0.12402 -0.00949 0.05857 0.06967 -0.09508 0.1499 0.0052 0.10537 0.03897 -0.14455 0.03007 -0.10451 -0.1345 -0.11524 0.06588 0.08182 -0.13732 0.14094 -0.04195 0.14612 0.02111 0.00735 0.16167 0.04861 0.05945 0.02833 -0.15558 -0.12179 0.08716 0.14366 0.01124 0.07813 0.09068 0.0154 0.04052 0.09825 0.05331 -0.07532 0.14764 -0.16474 -0.062 0.03363 0.03745 -0.15415 -0.14209 -0.02916 -0.00025 0.04136 0.09634 0.17223 -0.00415 0.0841 0.03137 0.0707 0.06694 0.15161 -0.16845 0.14929 -0.1681
f	0.04226 -0.00383 -0.08749 0.08297 0.04582 0.02222 -0.05162 -0.05079 0.001 0.15702 -0.04583 -0.1002 0.09596 0.03994 -0.17421 -0.10123 -0.05943 0.00903 0.0115 0.15629 0.07607 0.08651 0.16112 -0.1503 0.04117 -0.03198 -0.08825 -0.17154 -0.09915 0.03807 -0.01345 0.00482 -0.00532 0.10921 0.04108 -0.02835 -0.06927 0.14382 -0.02199 0.16376 0.11141 0.05877 -0.10634 0.08502 0.11006 -0.01776 -0.14284 0.14143 0.06088 -0.04475 0.14257 -0.12011 -0.10712 -0.0081 -0.01499 -0.10029 0.02034 0.04671 -0.132 0.03241 -0.08732 0.01443 -0.08216 0.13135 -0.1047 -0.08597 0.06217 -0.05733 0.15163 -0.07941 -0.02855 0.07245 -0.12266 -0.1197 0.08031 -0.15332 -0.13238 0.02853 -0.04717 -0.06963 -0.16539 -0.02923 0.15506 0.15364 -0.04733 0.09732 -0.04063 -0.07475 0.14312 -0.14047 0.14355 -0.12561 -0.07253 -0.0641 -0.03088 -0.09135 -0.06691 0.0298 0.06593 -0.06856 -0.02486 -0.0488 0.1494 -0.00076 -0.05513 0.06445 -0.15427 -0.03074 0.04849 0.16252 -0.02593 -0.0447 0.14964 0.07951 -0.08607 0.02196 0.16694 -0.03979 0.04756 0.13632 0.12752 -0.17011 -0.06385 -0.0714 -0.16634 -0.05344 -0.03204 -0.16798 0.11118 0.12335 -0.11204 -0.08759 -0.00262 0.05272 -0.0518 0.09369 -0.03534 0.09175 0.17224 -0.05679 -0.10319 0.12402 -0.00949 0.05857 0.06967 -0.09508 0.1499 0.0052 0.10537 0.03897 -0.14455 0.03007 -0.10451 -0.1345 -0.11524 0.06588 0.08182 -0.13732 0.14094 -0.04195 0.14612 0.02111 0.00735 0.16167 0.04861 0.05945 0.02833 -0.15558 -0.12179 0.08716 0.14366 0.01124 0.07813 0.09068 0.0154 0.04052 0.09825 0.05331 -0.07532 0.14764 -0.16474 -0.062 0.03363 0.03745 -0.15415 -0.14209 -0.02916 -0.00025 0.04136 0.09634 0.17223 -0.00415 0.0841 0.03137 0.0707 0.06694 0.15161 -0.16845 0.14929 -0.1681
x	-0.10629 0.13406 -0.09999 -0.1649 0.10196 -0.00522 0.09076 0.13785 -0.06776 -0.10725 -0.13858 0.03814 0.11906 -0.10007 -0.01332 -0.05061 0.06606 0.07374 0.0995 0.09696 0.035 -0.04766 0.15963 -0.10574 0.02806 -0.11708 -0.00305 0.01042 -0.13169 0.0482 -0.02894 0.1121 -0.09491 -0.06434 -0.01312 -0.0753 -0.06258 -0.119 0.02732 0.07338 0.01757 0.005 -0.16297 0.1094 0.15943 0.12624 -0.09335 0.10834 0.11087 0.072 0.14834 -0.11399 -0.13247 -0.11595 -0.07029 -0.05873 -0.05658 -0.12823 0.05449 0.07062 -0.08257 0.02169 -0.01033 -0.03981 0.09314 -0.0449 -0.08031 -0.10273 -0.09875 -0.16841 -0.15373 0.01433 0.06976 0.12703 -0.16935 -0.15935 -0.103 0.16655 -0.06078 0.12362 -0.07898 -0.16619 0.13951 -0.03576 -0.10416 0.00142 0.1617 -0.15492 0.12443 0.01843 0.04631 -0.04185 -0.03679 -0.16074 -0.08363 0.16722 -0.15847 0.06614 -0.0583 -0.11077 -0.02486 -0.0488 0.1494 -0.00076 -0.05513 0.06445 -0.15427 -0.03074 0.04849 0.16252 -0.02593 -0.0447 0.14964 0.07951 -0.08607 0.02196 0.16694 -0.03979 0.04756 0.13632 0.12752 -0.17011 -0.06385 -0.0714 -0.16634 -0.05344 -0.03204 -0.16798 0.11118 0.12335 -0.11204 -0.08759 -0.00262 0.05272 -0.0518 0.09369 -0.03534 0.09175 0.17224 -0.05679 -0.10319 0.12402 -0.00949 0.05857 0.06967 -0.09508 0.1499 0.0052 0.10537 0.03897 -0.14455 0.03007 -0.10451 -0.1345 -0.11524 0.06588 0.08182 -0.13732 0.14094 -0.04195 0.14612 0.02111 0.00735 0.16167 0.04861 0.05945 0.02833 -0.15558 -0.12179 0.08716 0.14366 0.01124 0.07813 0.09068 0.0154 0.04052 0.09825 0.05331 -0.07532 0.14764 -0.16474 -0.062 0.03363 0.03745 -0.15415 -0.14209 -0.02916 -0.00025 0.04136 0.09634 0.17223 -0.00415 0.0841 0.03137 0.0707 0.06694 0.15161 -0.16845 0.14929 -0.1681
ĭ	-0.0686 -0.12819 -0.01746 -0.05504 -0.03915 0.06536 0.01253 -0.0181 0.01787 -0.09585 0.02827 0.14662 0.15928 0.11087 0.04743 -0.11091 -0.15993 -0.02613 -0.02379 0.03354 0.03042 -0.0357 0.15881 0.13123 -0.02291 0.09818 0.06526 -0.10677 0.07688 0.04406 -0.01301 0.09878 -0.09475 -0.14982 0.14654 -0.13021 0.07789 -0.07727 -0.0708 0.05727 -0.04263 0.05526 0.15538 -0.1726 -0.09964 -0.10048 -0.00369 0.03721 -0.12016 0.1469 -0.07761 0.11925 -0.12515 -0.12626 -0.05097 0.08419 -0.11623 0.00806 0.08207 -0.06516 -0.11497 -0.12489 0.01522 -0.17186 -0.0956 0.04226 -0.10291 0.14622 0.09916 -0.09922 0.069 0.13738 0.00239 0.00886 0.12503 0.16741 -0.06651 -0.16263 -0.05083 -0.09628 0.13948 -0.04217 0.0742 0.07305 0.05126 0.12277 0.03953 -0.05151 0.16786 0.08153 -0.04899 0.07944 0.041 -0.07274 0.05519 -0.00051 0.02458 0.03152 -0.11205 -0.14617 -0.02486 -0.0488 0.1494 -0.00076 -0.05513 0.06445 -0.15427 -0.03074 0.04849 0.16252 -0.02593 -0.0447 0.14964 0.07951 -0.08607 0.02196 0.16694 -0.03979 0.04756 0.13632 0.12752 -0.17011 -0.06385 -0.0714 -0.16634 -0.05344 -0.03204 -0.16798 0.11118 0.12335 -0.11204 -0.08759 -0.00262 0.05272 -0.0518 0.09369 -0.03534 0.09175 0.17224 -0.05679 -0.10319 0.12402 -0.00949 0.05857 0.06967 -0.09508 0.1499 0.0052 0.10537 0.03897 -0.14455 0.03007 -0.10451 -0.1345 -0.11524 0.06588 0.08182 -0.13732 0.14094 -0.04195 0.14612 0.02111 0.00735 0.16167 0.04861 0.05945 0.02833 -0.15558 -0.12179 0.08716 0.14366 0.01124 0.07813 0.09068 0.0154 0.04052 0.09825 0.05331 -0.07532 0.14764 -0.16474 -0.062 0.03363 0.03745 -0.15415 -0.14209 -0.02916 -0.00025 0.04136 0.09634 0.17223 -0.00415 0.0841 0.03137 0.0707 0.06694 0.15161 -0.16845 0.14929 -0.1681
z	0.098 -0.01729 0.01669 -0.13534 -0.01326 0.09522 -0.10417 0.05752 -0.15505 -0.0933 -0.12628 -0.15898 0.06271 -0.09848 -0.14499 -0.166 -0.05634 0.08918 -0.04501 -0.06034 -0.15614 0.16586 -0.10448 -0.11009 0.14908 0.06134 0.15972 0.17035 0.06106 -0.05522 -0.16627 0.08831 0.07652 0.0454 0.08378 0.02959 -0.02961 -0.07089 -0.01196 0.00376 -0.01555 0.16974 -0.14257 -0.08365 0.03829 0.00896 -0.1365 0.17016 0.02953 0.07838 -0.07974 -0.06839 -0.11802 -0.03558 0.10386 -0.07391 0.07121 -0.03223 -0.06338 0.03676 0.09879 0.14962 0.04263 0.15992 0.0246 -0.05288 -0.05805 -0.12948 -0.09786 0.03545 -0.12517 -0.17017 0.12379 -0.01696 0.05595 -0.00813 -0.15456 -0.05916 -0.03857 -0.03796 -0.0485 -0.04671 0.1193 -0.11707 0.16141 -0.07544 -0.09773 0.10127 -0.08512 -0.01152 -0.16626 0.01868 -0.04916 0.0989 0.00285 -0.09219 -0.1034 -0.10379 -0.0164 -0.02442 -0.02486 -0.0488 0.1494 -0.00076 -0.05513 0.06445 -0.15427 -0.03074 0.04849 0.16252 -0.02593 -0.0447 0.14964 0.07951 -0.08607 0.02196 0.16694 -0.03979 0.04756 0.13632 0.12752 -0.17011 -0.06385 -0.0714 -0.16634 -0.05344 -0.03204 -0.16798 0.11118 0.12335 -0.11204 -0.08759 -0.00262 0.05272 -0.0518 0.09369 -0.03534 0.09175 0.17224 -0.05679 -0.10319 0.12402 -0.00949 0.05857 0.06967 -0.09508 0.1499 0.0052 0.10537 0.03897 -0.14455 0.03007 -0.10451 -0.1345 -0.11524 0.06588 0.08182 -0.13732 0.14094 -0.04195 0.14612 0.02111 0.00735 0.16167 0.04861 0.05945 0.02833 -0.15558 -0.12179 0.08716 0.14366 0.01124 0.07813 0.09068 0.0154 0.04052 0.09825 0.05331 -0.07532 0.14764 -0.16474 -0.062 0.03363 0.03745 -0.15415 -0.14209 -0.02916 -0.00025 0.04136 0.09634 0.17223 -0.00415 0.0841 0.03137 0.0707 0.06694 0.15161 -0.16845 0.14929 -0.1681
q	0.10448 0.14303 -0.09536 0.05645 0.07007 0.10732 0.05475 -0.01317 0.04794 0.11885 0.09948 0.08202 0.09101 0.1566 -0.12091 0.09395 0.17299 -0.03638 0.01251 -0.07994 0.08596 -0.08464 -0.06159 -0.1279 0.04838 0.16186 0.13343 0.14848 -0.14692 0.09245 0.12335 -0.13063 -0.14263 0.00777 0.10728 0.07506 -0.07531 0.08502 0.09142 0.14417 -0.0258 0.13605 0.06694 0.06396 -0.01098 -0.09249 0.00155 0.13516 -0.07249 -0.07487 -0.04007 0.13778 0.03236 0.04998 0.02577 0.1516 -0.07028 0.04751 0.03609 -0.13018 0.14655 0.04432 0.02784 0.06123 0.15757 0.12061 -0.15915 -0.07285 -0.08202 0.1652 -0.01745 0.14061 -0.00907 0.01988 -0.07847 0.10149 0.07939 0.03877 0.0836 0.04426 -0.14881 0.01268 -0.0578 -0.01522 -0.13565 0.01047 0.14793 0.09111 0.05371 0.13708 0.05856 -0.10909 0.10354 -0.03578 -0.10377 0.02123 -0.16727 -0.0695 0.02634 -0.04276 -0.02486 -0.0488 0.1494 -0.00076 -0.05513 0.06445 -0.15427 -0.03074 0.04849 0.16252 -0.02593 -0.0447 0.14964 0.07951 -0.08607 0.02196 0.16694 -0.03979 0.04756 0.13632 0.12752 -0.17011 -0.06385 -0.0714 -0.16634 -0.05344 -0.03204 -0.16798 0.11118 0.12335 -0.11204 -0.08759 -0.00262 0.05272 -0.0518 0.09369 -0.03534 0.09175 0.17224 -0.05679 -0.10319 0.12402 -0.00949 0.05857 0.06967 -0.09508 0.1499 0.0052 0.10537 0.03897 -0.14455 0.03007 -0.10451 -0.1345 -0.11524 0.06588 0.08182 -0.13732 0.14094 -0.04195 0.14612 0.02111 0.00735 0.16167 0.04861 0.05945 0.02833 -0.15558 -0.12179 0.08716 0.14366 0.01124 0.07813 0.09068 0.0154 0.04052 0.09825 0.05331 -0.07532 0.14764 -0.16474 -0.062 0.03363 0.03745 -0.15415 -0.14209 -0.02916 -0.00025 0.04136 0.09634 0.17223 -0.00415 0.0841 0.03137 0.0707 0.06694 0.15161 -0.16845 0.14929 -0.1681
̆	-0.07793 -0.1589 -0.10496 0.03405 0.07658 0.07326 0.05913 -0.00461 -0.05801 -0.14977 0.06763 0.17035 -0.09854 -0.06116 -0.15211 -0.01886 0.13627 0.14938 -0.05266 0.0563 0.0061 -0.07892 -0.11673 -0.13853 0.0031 -0.09675 0.0655 -0.12311 0.00179 0.12539 -0.09755 -0.12953 -0.11495 0.11677 0.04423 -0.14436 0.02351 -0.09795 0.04761 0.12051 -0.00526 -0.10552 0.04178 0.10768 -0.03708 -0.0215 -0.16083 0.14987 -0.15101 0.02093 0.07007 0.16001 -0.16444 0.0916 -0.15757 0.13338 -0.15917 -0.04238 0.06916 0.02565 -0.10321 -0.04855 0.14868 0.12665 -0.12354 -0.09081 -0.13466 0.09909 0.06532 -0.15276 -0.10672 0.06796 0.06417 -0.06925 0.0711 0.02133 -0.04082 0.12074 0.05352 -0.14177 0.14869 -0.08242 -0.13519 0.06515 0.0101 0.07228 -0.05392 0.03648 0.16699 -0.08984 0.05584 0.09952 0.00162 0.0637 0.06887 0.03832 0.05149 -0.14757 0.02082 -0.07186 -0.02486 -0.0488 0.1494 -0.00076 -0.05513 0.06445 -0.15427 -0.03074 0.04849 0.16252 -0.02593 -0.0447 0.14964 0.07951 -0.08607 0.02196 0.16694 -0.03979 0.04756 0.13632 0.12752 -0.17011 -0.06385 -0.0714 -0.16634 -0.05344 -0.03204 -0.16798 0.11118 0.12335 -0.11204 -0.08759 -0.00262 0.05272 -0.0518 0.09369 -0.03534 0.09175 0.17224 -0.05679 -0.10319 0.12402 -0.00949 0.05857 0.06967 -0.09508 0.1499 0.0052 0.10537 0.03897 -0.14455 0.03007 -0.10451 -0.1345 -0.11524 0.06588 0.08182 -0.13732 0.14094 -0.04195 0.14612 0.02111 0.00735 0.16167 0.04861 0.05945 0.02833 -0.15558 -0.12179 0.08716 0.14366 0.01124 0.07813 0.09068 0.0154 0.04052 0.09825 0.05331 -0.07532 0.14764 -0.16474 -0.062 0.03363 0.03745 -0.15415 -0.14209 -0.02916 -0.00025 0.04136 0.09634 0.17223 -0.00415 0.0841 0.03137 0.0707 0.06694 0.15161 -0.16845 0.14929 -0.1681
r	-0.01042 -0.03583 0.03419 -0.1521 0.11836 -0.11867 -0.03565 0.15462 -0.05603 -0.01791 -0.13097 0.10127 -0.15595 -0.15242 0.11412 0.12322 -0.15257 -0.13334 0.07471 0.05482 0.14467 0.03472 -0.12209 -0.07329 0.09638 0.13908 -0.02055 -0.06855 -0.02253 -0.07382 0.02257 0.04265 -0.12897 -0.09182 0.1305 0.01943 -0.08058 -0.1264 -0.14755 0.02366 -0.02186 -0.11845 0.17145 -0.10001 0.0021 -0.16402 -0.16284 0.01293 -0.09492 0.1087 -0.04133 -0.06981 -0.02418 -0.14373 -0.0518 -0.08821 -0.04452 -0.06299 0.12537 -0.04051 -0.13459 -0.07265 -0.15988 -0.12891 0.08245 0.00261 0.07445 -0.034 -0.08396 0.03136 -0.14752 0.01444 0.04449 -0.12604 0.05511 -0.0733 -0.01215 0.1509 -0.04333 -0.09631 0.06086 0.01159 -0.03735 -0.03387 -0.13817 0.06341 -0.13218 -0.01465 0.06482 -0.01799 -0.08911 0.01597 0.07959 -0.07741 -0.02991 0.12066 -0.03699 0.15618 -0.13397 -0.09833 -0.02486 -0.0488 0.1494 -0.00076 -0.05513 0.06445 -0.15427 -0.03074 0.04849 0.16252 -0.02593 -0.0447 0.14964 0.07951 -0.08607 0.02196 0.16694 -0.03979 0.04756 0.13632 0.12752 -0.17011 -0.06385 -0.0714 -0.16634 -0.05344 -0.03204 -0.16798 0.11118 0.12335 -0.11204 -0.08759 -0.00262 0.05272 -0.0518 0.09369 -0.03534 0.09175 0.17224 -0.05679 -0.10319 0.12402 -0.00949 0.05857 0.06967 -0.09508 0.1499 0.0052 0.10537 0.03897 -0.14455 0.03007 -0.10451 -0.1345 -0.11524 0.06588 0.08182 -0.13732 0.14094 -0.04195 0.14612 0.02111 0.00735 0.16167 0.04861 0.05945 0.02833 -0.15558 -0.12179 0.08716 0.14366 0.01124 0.07813 0.09068 0.0154 0.04052 0.09825 0.05331 -0.07532 0.14764 -0.16474 -0.062 0.03363 0.03745 -0.15415 -0.14209 -0.02916 -0.00025 0.04136 0.09634 0.17223 -0.00415 0.0841 0.03137 0.0707 0.06694 0.15161 -0.16845 0.14929 -0.1681
e	0.14291 -0.13098 0.05142 0.0171 -0.15605 -0.14156 0.12007 -0.01097 -0.06977 0.09792 -0.00196 0.03848 -0.14997 0.13949 0.00862 -0.01419 0.15609 -0.12738 -0.01288 -0.00428 0.09872 -0.1678 0.01083 -0.14411 0.15816 -0.00823 0.04065 0.12525 0.07318 -0.0856 0.16567 0.13084 -0.02551 0.16833 0.07101 0.10317 0.02676 -0.12874 0.09034 -0.01934 -0.07363 0.00942 0.0629 0.01042 0.07102 -0.00609 -0.15598 -0.04782 0.05617 -0.036 -0.1677 0.02927 0.04301 0.16006 -0.16231 -0.08021 -0.13457 -0.13441 0.0053 0.08636 0.05731 0.03828 0.0756 0.17637 -0.1302 -0.15527 -0.08722 -0.03084 -0.17251 0.09732 0.06291 -0.04963 0.16603 -0.11198 -0.12313 0.02798 0.01715 0.10259 0.05922 -0.12941 -0.00456 -0.07539 -0.08881 0.12404 0.0974 -0.11756 0.13942 -0.02462 -0.00076 -0.00871 0.02459 -0.11101 -0.15094 -0.17035 -0.10828 -0.03326 -0.01748 -0.15054 -0.12112 0.05155 -0.02486 -0.0488 0.1494 -0.00076 -0.05513 0.06445 -0.15427 -0.03074 0.04849 0.16252 -0.02593 -0.0447 0.14964 0.07951 -0.08607 0.02196 0.16694 -0.03979 0.04756 0.13632 0.12752 -0.17011 -0.06385 -0.0714 -0.16634 -0.05344 -0.03204 -0.16798 0.11118 0.12335 -0.11204 -0.08759 -0.00262 0.05272 -0.0518 0.09369 -0.03534 0.09175 0.17224 -0.05679 -0.10319 0.12402 -0.00949 0.05857 0.06967 -0.09508 0.1499 0.0052 0.10537 0.03897 -0.14455 0.03007 -0.10451 -0.1345 -0.11524 0.06588 0.08182 -0.13732 0.14094 -0.04195 0.14612 0.02111 0.00735 0.16167 0.04861 0.05945 0.02833 -0.15558 -0.12179 0.08716 0.14366 0.01124 0.07813 0.09068 0.0154 0.04052 0.09825 0.05331 -0.07532 0.14764 -0.16474 -0.062 0.03363 0.03745 -0.15415 -0.14209 -0.02916 -0.00025 0.04136 0.09634 0.17223 -0.00415 0.0841 0.03137 0.0707 0.06694 0.15161 -0.16845 0.14929 -0.1681
‎	0.10981 -0.13335 0.00532 0.02485 0.10614 -0.12818 0.0474 0.0271 0.05777 -0.00485 0.13407 -0.12135 0.07779 -0.01632 -0.14193 0.03282 0.13197 0.03209 -0.15275 -0.08129 -0.08522 -0.00311 -0.0101 -0.14942 -0.17304 -0.05554 -0.08772 -0.00889 -0.12397 -0.00544 0.16755 -0.16497 0.07512 0.04563 -0.02555 -0.13051 0.0035 -0.0242 -0.12019 -0.08941 -0.14527 -0.08594 -0.05962 -0.04836 -0.12719 0.16637 -0.10501 0.01153 0.08716 0.03788 -0.0013 0.05143 -0.10341 0.10222 -0.03466 0.13012 0.02996 -0.11923 -0.10771 0.10212 0.05578 -0.002 0.0052 -0.02773 0.17294 0.12227 -0.13075 -0.08781 0.13463 -0.06858 0.06841 -0.13446 0.13792 0.12386 -0.14655 0.05476 0.05125 0.03323 -0.14266 -0.09997 0.04273 0.06684 -0.1557 -0.13397 0.00201 -0.00376 -0.07925 0.14573 -0.05045 0.10219 -0.01598 -0.11088 -0.00157 0.11736 0.08095 -0.01187 0.0186 -0.02015 -0.12701 0.05145 -0.02486 -0.0488 0.1494 -0.00076 -0.05513 0.06445 -0.15427 -0.03074 0.04849 0.16252 -0.02593 -0.0447 0.14964 0.07951 -0.08607 0.02196 0.16694 -0.03979 0.04756 0.13632 0.12752 -0.17011 -0.06385 -0.0714 -0.16634 -0.05344 -0.03204 -0.16798 0.11118 0.12335 -0.11204 -0.08759 -0.00262 0.05272 -0.0518 0.09369 -0.03534 0.09175 0.17224 -0.05679 -0.10319 0.12402 -0.00949 0.05857 0.06967 -0.09508 0.1499 0.0052 0.10537 0.03897 -0.14455 0.03007 -0.10451 -0.1345 -0.11524 0.06588 0.08182 -0.13732 0.14094 -0.04195 0.14612 0.02111 0.00735 0.16167 0.04861 0.05945 0.02833 -0.15558 -0.12179 0.08716 0.14366 0.01124 0.07813 0.09068 0.0154 0.04052 0.09825 0.05331 -0.07532 0.14764 -0.16474 -0.062 0.03363 0.03745 -0.15415 -0.14209 -0.02916 -0.00025 0.04136 0.09634 0.17223 -0.00415 0.0841 0.03137 0.0707 0.06694 0.15161 -0.16845 0.14929 -0.1681
c	0.08609 0.11103 -0.05582 0.15204 -0.15394 0.10123 0.00335 -0.0545 -0.10531 -0.09327 0.14944 -0.06199 -0.03706 0.15479 0.04937 0.04196 0.00651 0.05801 0.00663 -0.11028 0.00699 0.01262 -0.03333 -0.08695 -0.15265 -0.14309 0.05156 -0.14855 0.15962 0.14312 -0.10702 -0.01975 0.02883 0.071 -0.16525 -0.10972 -0.05389 -0.0539 0.12998 -0.12125 -0.14641 0.0613 0.07025 0.03538 -0.10438 -0.10127 -0.13284 -0.12709 -0.00383 -0.00756 -0.17281 0.16368 0.13924 0.14828 0.01019 -0.12716 -0.02056 -0.01337 0.15292 -0.08749 -0.00395 -0.06058 -0.15239 -0.08719 0.0349 -0.07405 -0.01082 -0.17295 0.16811 0.0586 -0.01037 -0.01488 -0.14 0.10878 -0.04558 0.14774 0.05921 0.04396 0.04251 -0.0133 -0.00506 -0.08777 0.00709 -0.11142 -0.12287 -0.13467 0.12225 0.06833 0.01603 0.14679 -0.002 -0.15643 0.04958 -0.08154 0.06309 -0.05785 -0.06569 0.14282 -0.01909 -0.02764 -0.02486 -0.0488 0.1494 -0.00076 -0.05513 0.06445 -0.15427 -0.03074 0.04849 0.16252 -0.02593 -0.0447 0.14964 0.07951 -0.08607 0.02196 0.16694 -0.03979 0.04756 0.13632 0.12752 -0.17011 -0.06385 -0.0714 -0.16634 -0.05344 -0.03204 -0.16798 0.11118 0.12335 -0.11204 -0.08759 -0.00262 0.05272 -0.0518 0.09369 -0.03534 0.09175 0.17224 -0.05679 -0.10319 0.12402 -0.00949 0.05857 0.06967 -0.09508 0.1499 0.0052 0.10537 0.03897 -0.14455 0.03007 -0.10451 -0.1345 -0.11524 0.06588 0.08182 -0.13732 0.14094 -0.04195 0.14612 0.02111 0.00735 0.16167 0.04861 0.05945 0.02833 -0.15558 -0.12179 0.08716 0.14366 0.01124 0.07813 0.09068 0.0154 0.04052 0.09825 0.05331 -0.07532 0.14764 -0.16474 -0.062 0.03363 0.03745 -0.15415 -0.14209 -0.02916 -0.00025 0.04136 0.09634 0.17223 -0.00415 0.0841 0.03137 0.0707 0.06694 0.15161 -0.16845 0.14929 -0.1681
b	0.01032 -0.03356 0.1168 0.08804 0.0675 -0.08953 -0.12285 -0.05566 0.05672 0.04254 -0.14035 0.17359 -0.08129 -0.00222 -0.07556 -0.03947 -0.09743 -0.06943 -0.00558 -0.07088 -0.08073 -0.07715 -0.06276 0.10844 0.03845 -0.04803 -0.11473 0.16128 0.11651 -0.05184 -0.08237 0.06464 -0.05345 0.1133 0.06978 0.01597 -0.05952 -0.13079 -0.08348 -0.03117 0.1308 0.01391 -0.00034 -0.04192 -0.1403 0.0584 -0.12422 0.13475 -0.16048 -0.12273 0.13505 0.06037 -0.1395 0.11251 0.14527 -0.09971 0.16452 0.01129 -0.04596 0.08437 -0.13456 0.04423 0.04626 0.01271 0.12111 0.14764 -0.03967 0.15706 0.05418 -0.06365 0.06446 0.14982 0.07468 0.0216 -0.08085 -0.00678 -0.15768 -0.15098 -0.12466 -0.07881 0.15367 -0.07552 -0.12257 -0.09492 0.09169 -0.1323 0.07611 0.12732 -0.15334 0.03202 -0.0379 0.07688 -0.11763 -0.14139 0.13106 0.13532 0.02523 -0.0936 0.07833 -0.16219 -0.02486 -0.0488 0.1494 -0.00076 -0.05513 0.06445 -0.15427 -0.03074 0.04849 0.16252 -0.02593 -0.0447 0.14964 0.07951 -0.08607 0.02196 0.16694 -0.03979 0.04756 0.13632 0.12752 -0.17011 -0.06385 -0.0714 -0.16634 -0.05344 -0.03204 -0.16798 0.11118 0.12335 -0.11204 -0.08759 -0.00262 0.05272 -0.0518 0.09369 -0.03534 0.09175 0.17224 -0.05679 -0.10319 0.12402 -0.00949 0.05857 0.06967 -0.09508 0.1499 0.0052 0.10537 0.03897 -0.14455 0.03007 -0.10451 -0.1345 -0.11524 0.06588 0.08182 -0.13732 0.14094 -0.04195 0.14612 0.02111 0.00735 0.16167 0.04861 0.05945 0.02833 -0.15558 -0.12179 0.08716 0.14366 0.01124 0.07813 0.09068 0.0154 0.04052 0.09825 0.05331 -0.07532 0.14764 -0.16474 -0.062 0.03363 0.03745 -0.15415 -0.14209 -0.02916 -0.00025 0.04136 0.09634 0.17223 -0.00415 0.0841 0.03137 0.0707 0.06694 0.15161 -0.16845 0.14929 -0.1681
y	-0.10807 0.06183 -0.03548 -0.14742 -0.09553 0.04956 -2e-05 0.13864 -0.09995 0.09076 0.13757 0.01216 -0.16852 -0.01201 -0.14275 0.10208 -0.06005 0.07849 0.15203 -0.15541 -0.03429 -0.06113 -0.14106 0.1011 -0.06962 -0.14914 0.12849 0.02934 0.15768 -0.05224 0.15623 -0.06176 0.06606 0.12988 0.04624 -0.01321 -0.16458 0.03256 -0.14758 -0.01282 -0.14061 -0.05572 -0.02244 -0.06658 0.01488 -0.14223 -0.01918 -0.0531 0.08069 0.01793 -0.03067 0.12238 -0.02916 0.03549 -0.12773 -0.10318 0.09447 -0.144 -0.04848 0.11644 -0.05019 -0.13417 0.11827 -0.05414 0.03893 -0.1037 -0.14448 -0.156 -0.07185 -0.08875 -0.07841 -0.12784 0.00949 0.08389 0.08081 0.1268 -0.02469 0.0751 -0.0468 0.04002 -0.10635 0.01764 -0.08701 -0.10027 -0.10556 -0.13999 0.12092 0.08981 0.13274 -0.03513 0.03419 0.09726 -0.13325 -0.06178 -0.16599 -0.12525 -0.15338 0.15238 -0.0726 -0.03529 -0.02486 -0.0488 0.1494 -0.00076 -0.05513 0.06445 -0.15427 -0.03074 0.04849 0.16252 -0.02593 -0.0447 0.14964 0.07951 -0.08607 0.02196 0.16694 -0.03979 0.04756 0.13632 0.12752 -0.17011 -0.06385 -0.0714 -0.16634 -0.05344 -0.03204 -0.16798 0.11118 0.12335 -0.11204 -0.08759 -0.00262 0.05272 -0.0518 0.09369 -0.03534 0.09175 0.17224 -0.05679 -0.10319 0.12402 -0.00949 0.05857 0.06967 -0.09508 0.1499 0.0052 0.10537 0.03897 -0.14455 0.03007 -0.10451 -0.1345 -0.11524 0.06588 0.08182 -0.13732 0.14094 -0.04195 0.14612 0.02111 0.00735 0.16167 0.04861 0.05945 0.02833 -0.15558 -0.12179 0.08716 0.14366 0.01124 0.07813 0.09068 0.0154 0.04052 0.09825 0.05331 -0.07532 0.14764 -0.16474 -0.062 0.03363 0.03745 -0.15415 -0.14209 -0.02916 -0.00025 0.04136 0.09634 0.17223 -0.00415 0.0841 0.03137 0.0707 0.06694 0.15161 -0.16845 0.14929 -0.1681
j	0.0313 -0.13471 -0.0489 0.03772 0.08158 -0.03019 0.1539 -0.05684 0.03549 -0.04695 -0.05329 0.14453 -0.00689 0.04282 0.11351 0.05828 -0.00633 -0.05502 -0.08696 0.10892 -0.01748 0.05557 0.15894 0.04539 -0.16933 -0.07813 -0.15809 -0.05351 -0.13595 0.14931 -0.08813 -0.12177 0.00528 0.08282 -0.05278 0.11179 -0.07916 -0.06993 0.06606 0.16427 -0.04178 -0.04261 0.12339 -0.07968 0.05869 0.12394 0.13932 0.02305 -0.1539 -0.01401 -0.12445 -0.09207 0.01877 -0.02707 -0.08939 -0.05888 0.02493 -0.05 -0.07757 0.00591 0.02116 0.10679 -0.04191 0.07693 -0.16966 0.05922 -0.11085 0.12898 -0.10641 -0.11255 -0.0762 0.04111 0.0561 0.11646 -0.0959 0.1267 -0.15108 -0.00268 0.15762 0.08189 0.02972 -0.11605 0.09185 0.09316 0.02732 -0.15786 0.01893 0.03918 0.06364 -0.06781 -0.03489 0.04539 0.03883 0.04636 0.14312 -0.05392 -0.14058 -0.12306 0.09008 -0.00259 -0.02486 -0.0488 0.1494 -0.00076 -0.05513 0.06445 -0.15427 -0.03074 0.04849 0.16252 -0.02593 -0.0447 0.14964 0.07951 -0.08607 0.02196 0.16694 -0.03979 0.04756 0.13632 0.12752 -0.17011 -0.06385 -0.0714 -0.16634 -0.05344 -0.03204 -0.16798 0.11118 0.12335 -0.11204 -0.08759 -0.00262 0.05272 -0.0518 0.09369 -0.03534 0.09175 0.17224 -0.05679 -0.10319 0.12402 -0.00949 0.05857 0.06967 -0.09508 0.1499 0.0052 0.10537 0.03897 -0.14455 0.03007 -0.10451 -0.1345 -0.11524 0.06588 0.08182 -0.13732 0.14094 -0.04195 0.14612 0.02111 0.00735 0.16167 0.04861 0.05945 0.02833 -0.15558 -0.12179 0.08716 0.14366 0.01124 0.07813 0.09068 0.0154 0.04052 0.09825 0.05331 -0.07532 0.14764 -0.16474 -0.062 0.03363 0.03745 -0.15415 -0.14209 -0.02916 -0.00025 0.04136 0.09634 0.17223 -0.00415 0.0841 0.03137 0.0707 0.06694 0.15161 -0.16845 0.14929 -0.1681
n	0.17268 -0.12987 0.14547 -0.04829 -0.00911 0.03149 -0.10124 0.13407 0.1312 -0.00029 -0.12957 -0.05803 -0.02176 -0.09964 0.04041 0.12902 0.1087 0.05659 -0.08399 0.00049 0.06978 -0.12596 0.0863 -0.14196 0.15277 0.12147 0.13232 0.13439 0.13874 -0.11954 0.09873 0.03658 -0.06397 0.02628 0.14542 -0.05608 -0.15848 -0.13062 0.00713 -0.01191 0.08015 0.07561 -0.00933 0.0982 0.03304 -0.16994 0.03432 0.04318 0.10125 0.03169 -0.12806 -0.05881 -0.05076 0.15044 -0.08071 -0.08858 -0.15244 0.13419 0.15374 0.0905 -0.15007 0.11412 -0.01529 0.1626 -0.00573 -0.15549 0.11061 -0.13657 -0.12405 0.05909 0.03393 -0.02416 -0.14245 0.10868 -0.16319 0.14779 0.14745 -0.14319 -0.09511 -0.11367 0.14064 0.03728 0.05832 0.03204 -0.10895 -0.06632 0.16594 -0.0771 0.04009 -0.10739 -0.04608 0.11165 0.02991 -0.0402 0.00765 0.14102 -0.16609 -0.12688 -0.13151 -0.13986 -0.02486 -0.0488 0.1494 -0.00076 -0.05513 0.06445 -0.15427 -0.03074 0.04849 0.16252 -0.02593 -0.0447 0.14964 0.07951 -0.08607 0.02196 0.16694 -0.03979 0.04756 0.13632 0.12752 -0.17011 -0.06385 -0.0714 -0.16634 -0.05344 -0.03204 -0.16798 0.11118 0.12335 -0.11204 -0.08759 -0.00262 0.05272 -0.0518 0.09369 -0.03534 0.09175 0.17224 -0.05679 -0.10319 0.12402 -0.00949 0.05857 0.06967 -0.09508 0.1499 0.0052 0.10537 0.03897 -0.14455 0.03007 -0.10451 -0.1345 -0.11524 0.06588 0.08182 -0.13732 0.14094 -0.04195 0.14612 0.02111 0.00735 0.16167 0.04861 0.05945 0.02833 -0.15558 -0.12179 0.08716 0.14366 0.01124 0.07813 0.09068 0.0154 0.04052 0.09825 0.05331 -0.07532 0.14764 -0.16474 -0.062 0.03363 0.03745 -0.15415 -0.14209 -0.02916 -0.00025 0.04136 0.09634 0.17223 -0.00415 0.0841 0.03137 0.0707 0.06694 0.15161 -0.16845 0.14929 -0.1681
m	0.19367 0.17086 0.17319 0.12273 0.1106 -0.0326 -0.03747 -0.10071 -0.10453 -0.05085 0.0102 0.05279 -0.02331 -0.11594 0.06845 0.15827 -0.12317 -0.10829 -0.00281 -0.00998 0.14097 0.11295 0.01952 0.04964 -0.07613 0.08427 -3e-05 -0.0545 -0.03332 -0.11695 -0.04511 0.0423 0.14566 -0.12935 0.03164 0.11344 0.12814 0.03976 0.07251 0.0121 0.13765 -0.0507 0.05444 0.10468 -0.01364 0.08621 -0.06938 0.04155 -0.16017 0.01809 -0.1081 0.15834 0.13326 -0.1536 -0.04128 0.17003 -0.03277 0.12075 -0.08546 0.04066 -0.0047 -0.18824 0.08595 -0.03436 -0.14227 -0.12474 -0.03559 0.04037 0.02185 0.10644 0.00189 0.08865 -0.12558 0.09058 0.06467 -0.18817 0.09509 -0.07033 0.09474 -0.00929 0.10632 0.04835 0.08246 -0.05392 -0.04482 -0.08082 0.16814 0.00477 0.01988 0.15972 0.10517 0.00525 0.08126 -0.08511 0.11808 -0.02682 0.1322 0.13564 -0.07556 -0.0089 -0.02486 -0.0488 0.1494 -0.00076 -0.05513 0.06445 -0.15427 -0.03074 0.04849 0.16252 -0.02593 -0.0447 0.14964 0.07951 -0.08607 0.02196 0.16694 -0.03979 0.04756 0.13632 0.12752 -0.17011 -0.06385 -0.0714 -0.16634 -0.05344 -0.03204 -0.16798 0.11118 0.12335 -0.11204 -0.08759 -0.00262 0.05272 -0.0518 0.09369 -0.03534 0.09175 0.17224 -0.05679 -0.10319 0.12402 -0.00949 0.05857 0.06967 -0.09508 0.1499 0.0052 0.10537 0.03897 -0.14455 0.03007 -0.10451 -0.1345 -0.11524 0.06588 0.08182 -0.13732 0.14094 -0.04195 0.14612 0.02111 0.00735 0.16167 0.04861 0.05945 0.02833 -0.15558 -0.12179 0.08716 0.14366 0.01124 0.07813 0.09068 0.0154 0.04052 0.09825 0.05331 -0.07532 0.14764 -0.16474 -0.062 0.03363 0.03745 -0.15415 -0.14209 -0.02916 -0.00025 0.04136 0.09634 0.17223 -0.00415 0.0841 0.03137 0.0707 0.06694 0.15161 -0.16845 0.14929 -0.1681
i	0.07982 -0.05333 -0.03444 0.0421 -0.10756 -0.16366 0.16181 -0.16203 -0.11513 -0.15314 0.0856 -0.16373 -0.01687 0.16882 -0.02168 0.04421 -0.08329 0.1679 -0.13007 0.12804 0.07086 0.0924 0.13119 0.00179 -0.16592 0.16761 0.11695 0.07097 -0.09167 0.13772 0.06874 -0.07483 0.06527 -0.092 0.00172 -0.06235 -0.04437 -0.1724 -0.03704 -0.16666 -0.05142 -0.01522 -0.00022 -0.0821 -0.0121 -0.14383 0.09859 0.14033 0.05815 0.0745 0.16801 -0.00819 0.03837 -0.00916 -0.03149 -0.11619 -0.07838 -0.00232 -0.05742 0.11987 0.00289 0.1391 -0.02626 0.02206 0.07646 -0.15563 0.02905 -0.02448 -0.08229 -0.11253 -0.08522 0.16866 0.07338 0.1573 -0.12304 0.13757 -0.13477 0.12036 0.04683 0.10222 0.06214 0.06219 -0.09668 0.05766 -0.10696 0.02296 -0.11674 -0.00175 -0.14394 -0.02635 0.10107 -0.00033 -0.10813 -0.04528 -0.15202 0.07496 0.07685 0.00417 0.14689 -0.09764 -0.02486 -0.0488 0.1494 -0.00076 -0.05513 0.06445 -0.15427 -0.03074 0.04849 0.16252 -0.02593 -0.0447 0.14964 0.07951 -0.08607 0.02196 0.16694 -0.03979 0.04756 0.13632 0.12752 -0.17011 -0.06385 -0.0714 -0.16634 -0.05344 -0.03204 -0.16798 0.11118 0.12335 -0.11204 -0.08759 -0.00262 0.05272 -0.0518 0.09369 -0.03534 0.09175 0.17224 -0.05679 -0.10319 0.12402 -0.00949 0.05857 0.06967 -0.09508 0.1499 0.0052 0.10537 0.03897 -0.14455 0.03007 -0.10451 -0.1345 -0.11524 0.06588 0.08182 -0.13732 0.14094 -0.04195 0.14612 0.02111 0.00735 0.16167 0.04861 0.05945 0.02833 -0.15558 -0.12179 0.08716 0.14366 0.01124 0.07813 0.09068 0.0154 0.04052 0.09825 0.05331 -0.07532 0.14764 -0.16474 -0.062 0.03363 0.03745 -0.15415 -0.14209 -0.02916 -0.00025 0.04136 0.09634 0.17223 -0.00415 0.0841 0.03137 0.0707 0.06694 0.15161 -0.16845 0.14929 -0.1681
l	0.04591 0.07008 -0.13619 -0.05995 -0.11512 0.07039 -0.11953 0.13995 -0.10563 0.01415 -0.11751 0.10641 -0.16173 -0.05056 0.06564 0.01504 -0.12213 0.0361 -0.07237 0.03499 -0.12623 -0.01347 0.08234 -0.14002 -0.09927 0.1177 -0.15066 0.07322 -0.09072 0.04302 0.08599 0.17292 -0.12301 -0.11803 0.13136 0.01357 -0.08115 -0.08856 0.10059 0.03946 0.04828 0.15111 0.05405 -0.14863 0.04513 -0.12317 -0.10164 -0.06704 0.11794 0.07267 0.14411 -0.16552 -0.14323 -0.13336 0.16039 0.17406 -0.05901 0.00642 -0.01123 -0.16707 -0.08597 0.0522 -0.06549 -0.12133 -0.08655 -0.14255 -0.08536 0.03762 0.12228 0.10437 -0.07498 0.048 -0.09412 -0.1216 0.11911 0.04891 0.13805 -0.16663 -0.06489 -0.15567 -0.03633 0.15148 -0.1326 -0.05017 -0.10715 -0.02351 0.14395 0.0272 0.00983 -0.14966 0.01611 0.13818 0.01752 0.12366 0.06877 -0.14852 -0.12487 0.1259 -0.07146 0.13101 -0.02486 -0.0488 0.1494 -0.00076 -0.05513 0.06445 -0.15427 -0.03074 0.04849 0.16252 -0.02593 -0.0447 0.14964 0.07951 -0.08607 0.02196 0.16694 -0.03979 0.04756 0.13632 0.12752 -0.17011 -0.06385 -0.0714 -0.16634 -0.05344 -0.03204 -0.16798 0.11118 0.12335 -0.11204 -0.08759 -0.00262 0.05272 -0.0518 0.09369 -0.03534 0.09175 0.17224 -0.05679 -0.10319 0.12402 -0.00949 0.05857 0.06967 -0.09508 0.1499 0.0052 0.10537 0.03897 -0.14455 0.03007 -0.10451 -0.1345 -0.11524 0.06588 0.08182 -0.13732 0.14094 -0.04195 0.14612 0.02111 0.00735 0.16167 0.04861 0.05945 0.02833 -0.15558 -0.12179 0.08716 0.14366 0.01124 0.07813 0.09068 0.0154 0.04052 0.09825 0.05331 -0.07532 0.14764 -0.16474 -0.062 0.03363 0.03745 -0.15415 -0.14209 -0.02916 -0.00025 0.04136 0.09634 0.17223 -0.00415 0.0841 0.03137 0.0707 0.06694 0.15161 -0.16845 0.14929 -0.1681
ĕ	0.01334 0.16782 -0.04022 -0.06375 0.14412 0.08228 -0.05469 -0.07096 -0.05296 0.04766 0.06581 -0.07212 -0.01606 0.1538 -0.02127 -0.00023 0.15384 0.14433 0.06717 -0.11376 0.04487 0.01941 -0.15708 0.0756 0.12691 0.15785 0.02239 -0.00502 0.10209 0.00406 0.07351 -0.02143 -0.13399 0.12847 0.15508 0.12668 0.14631 -0.13681 -0.03637 0.04839 0.16513 0.07015 0.05192 -0.07938 -0.05089 -0.04472 -0.1423 -0.04764 0.15685 -0.09162 0.04277 -0.05502 -0.09631 0.15055 -0.13201 0.16649 -0.1173 -0.12939 0.13924 0.12537 0.03477 -0.08554 0.02294 -0.02426 -0.0679 0.13239 0.05817 -0.15608 0.00022 -0.08186 -0.11467 -0.11607 0.08575 0.0028 0.05008 -0.03854 -0.04691 0.08023 0.07339 -0.16093 0.0738 0.08794 0.11575 -0.05015 -0.11695 0.02542 -0.16305 0.0022 -0.05739 -0.15986 0.06012 0.02127 0.03844 0.15766 0.16161 0.14937 -0.155 -0.15247 0.16938 0.05349 -0.02486 -0.0488 0.1494 -0.00076 -0.05513 0.06445 -0.15427 -0.03074 0.04849 0.16252 -0.02593 -0.0447 0.14964 0.07951 -0.08607 0.02196 0.16694 -0.03979 0.04756 0.13632 0.12752 -0.17011 -0.06385 -0.0714 -0.16634 -0.05344 -0.03204 -0.16798 0.11118 0.12335 -0.11204 -0.08759 -0.00262 0.05272 -0.0518 0.09369 -0.03534 0.09175 0.17224 -0.05679 -0.10319 0.12402 -0.00949 0.05857 0.06967 -0.09508 0.1499 0.0052 0.10537 0.03897 -0.14455 0.03007 -0.10451 -0.1345 -0.11524 0.06588 0.08182 -0.13732 0.14094 -0.04195 0.14612 0.02111 0.00735 0.16167 0.04861 0.05945 0.02833 -0.15558 -0.12179 0.08716 0.14366 0.01124 0.07813 0.09068 0.0154 0.04052 0.09825 0.05331 -0.07532 0.14764 -0.16474 -0.062 0.03363 0.03745 -0.15415 -0.14209 -0.02916 -0.00025 0.04136 0.09634 0.17223 -0.00415 0.0841 0.03137 0.0707 0.06694 0.15161 -0.16845 0.14929 -0.1681
d	-0.04685 -0.04579 0.1679 -0.10354 -0.17427 0.00687 -0.00241 0.15353 0.05258 -0.1309 0.01627 -0.1161 0.0849 0.10117 -0.12102 0.11392 0.05961 -0.09845 -0.15525 -0.05746 0.07654 -0.16754 0.06125 -0.16455 0.08312 0.00559 -0.16627 -0.06192 -0.11581 -0.137 0.11034 0.00841 0.13851 -0.02562 0.10134 -0.12023 0.15209 0.11789 -0.12481 -0.06831 0.10695 -0.09568 -0.10988 0.03298 -0.05293 0.16713 -0.07857 -0.02678 0.08927 0.15266 -0.1704 -0.12677 -0.11328 0.02711 -0.14666 0.1362 0.13448 0.10893 0.09325 0.10972 -0.0559 0.09833 0.00488 -0.11184 0.06024 -0.08117 0.11054 -0.14815 -0.12782 -0.16963 -0.11729 0.05937 0.10578 0.09946 0.08848 0.04349 -0.08366 0.10457 0.05283 0.09492 -0.04523 0.16563 0.08397 0.12964 0.06002 0.00212 -0.14243 0.0635 0.02383 -0.12383 0.03662 -0.09833 -0.01336 -0.10849 -0.02726 -0.08828 0.1387 -0.0944 -0.11902 -0.17433 -0.02486 -0.0488 0.1494 -0.00076 -0.05513 0.06445 -0.15427 -0.03074 0.04849 0.16252 -0.02593 -0.0447 0.14964 0.07951 -0.08607 0.02196 0.16694 -0.03979 0.04756 0.13632 0.12752 -0.17011 -0.06385 -0.0714 -0.16634 -0.05344 -0.03204 -0.16798 0.11118 0.12335 -0.11204 -0.08759 -0.00262 0.05272 -0.0518 0.09369 -0.03534 0.09175 0.17224 -0.05679 -0.10319 0.12402 -0.00949 0.05857 0.06967 -0.09508 0.1499 0.0052 0.10537 0.03897 -0.14455 0.03007 -0.10451 -0.1345 -0.11524 0.06588 0.08182 -0.13732 0.14094 -0.04195 0.14612 0.02111 0.00735 0.16167 0.04861 0.05945 0.02833 -0.15558 -0.12179 0.08716 0.14366 0.01124 0.07813 0.09068 0.0154 0.04052 0.09825 0.05331 -0.07532 0.14764 -0.16474 -0.062 0.03363 0.03745 -0.15415 -0.14209 -0.02916 -0.00025 0.04136 0.09634 0.17223 -0.00415 0.0841 0.03137 0.0707 0.06694 0.15161 -0.16845 0.14929 -0.1681
s	0.10923 -0.00079 -0.05525 0.04701 -0.08434 0.16085 0.05142 -0.06142 -0.11728 0.16466 0.07535 0.0004 0.09677 -0.05921 -0.12492 0.08158 -0.07319 -0.15754 -0.01258 -0.16132 -0.10961 0.15405 -0.08153 -0.06286 -0.08873 0.15152 -0.14325 7e-05 0.01594 -0.09581 -0.01554 0.1205 -0.03053 0.01332 -0.13489 -0.14458 0.0736 0.07598 -0.12409 -0.01631 -0.11725 0.16036 0.12071 0.0706 0.05443 0.159 -0.0866 -0.10641 0.119 0.08195 -0.00267 -0.13032 0.03562 0.14775 0.0847 -0.0527 0.09415 0.01007 -0.15839 -0.03134 0.15632 0.01089 0.0435 -0.07467 -0.15954 -0.15853 -0.16089 0.03587 0.03811 0.15454 0.08624 0.10261 0.01601 0.02369 -0.0304 -0.0941 0.09927 0.08 -0.03346 0.09959 0.1573 -0.00053 0.04279 0.10473 -0.08463 -0.05778 0.0233 0.01942 -0.14077 -0.15072 0.0745 -0.14116 -0.04134 -0.10041 0.10594 -0.01975 -0.03002 0.1485 0.01639 0.04049 -0.02486 -0.0488 0.1494 -0.00076 -0.05513 0.06445 -0.15427 -0.03074 0.04849 0.16252 -0.02593 -0.0447 0.14964 0.07951 -0.08607 0.02196 0.16694 -0.03979 0.04756 0.13632 0.12752 -0.17011 -0.06385 -0.0714 -0.16634 -0.05344 -0.03204 -0.16798 0.11118 0.12335 -0.11204 -0.08759 -0.00262 0.05272 -0.0518 0.09369 -0.03534 0.09175 0.17224 -0.05679 -0.10319 0.12402 -0.00949 0.05857 0.06967 -0.09508 0.1499 0.0052 0.10537 0.03897 -0.14455 0.03007 -0.10451 -0.1345 -0.11524 0.06588 0.08182 -0.13732 0.14094 -0.04195 0.14612 0.02111 0.00735 0.16167 0.04861 0.05945 0.02833 -0.15558 -0.12179 0.08716 0.14366 0.01124 0.07813 0.09068 0.0154 0.04052 0.09825 0.05331 -0.07532 0.14764 -0.16474 -0.062 0.03363 0.03745 -0.15415 -0.14209 -0.02916 -0.00025 0.04136 0.09634 0.17223 -0.00415 0.0841 0.03137 0.0707 0.06694 0.15161 -0.16845 0.14929 -0.1681
p	0.14378 -0.10467 -0.15833 0.15007 0.10962 -0.00204 0.01992 0.15245 -0.01064 -0.1391 -0.10733 0.14276 -0.01068 -0.13214 0.12564 0.16193 0.14119 -0.04194 0.07801 0.11094 0.12256 0.01022 -0.12171 0.14894 -0.03386 -0.16979 0.00504 0.11976 -0.12661 0.11985 -0.05514 -0.16417 0.04005 -0.0149 -0.00369 -0.16719 -0.06204 -0.11562 -0.10591 -0.0718 -0.04606 0.0069 0.13146 0.13217 0.04242 -0.00202 0.14156 0.13984 -0.09303 0.16908 -0.04875 0.0211 0.15372 -0.1651 -0.12334 0.03525 -0.13498 0.09335 0.13546 0.07017 -0.14018 -0.11582 0.09568 -0.00244 0.11111 -0.08812 0.12615 0.02008 -0.10832 -0.12128 -0.07014 -0.16751 -0.15062 -0.05115 -0.08987 0.05263 0.16266 -0.12236 0.16295 -0.00613 0.04429 -0.04548 0.03943 0.04092 -0.16223 -0.14443 -0.13138 -0.01326 0.12771 -0.00338 -0.14421 0.13072 -0.17168 -0.11621 -0.11396 0.06883 -0.02561 -0.13598 -0.1186 0.06615 -0.02486 -0.0488 0.1494 -0.00076 -0.05513 0.06445 -0.15427 -0.03074 0.04849 0.16252 -0.02593 -0.0447 0.14964 0.07951 -0.08607 0.02196 0.16694 -0.03979 0.04756 0.13632 0.12752 -0.17011 -0.06385 -0.0714 -0.16634 -0.05344 -0.03204 -0.16798 0.11118 0.12335 -0.11204 -0.08759 -0.00262 0.05272 -0.0518 0.09369 -0.03534 0.09175 0.17224 -0.05679 -0.10319 0.12402 -0.00949 0.05857 0.06967 -0.09508 0.1499 0.0052 0.10537 0.03897 -0.14455 0.03007 -0.10451 -0.1345 -0.11524 0.06588 0.08182 -0.13732 0.14094 -0.04195 0.14612 0.02111 0.00735 0.16167 0.04861 0.05945 0.02833 -0.15558 -0.12179 0.08716 0.14366 0.01124 0.07813 0.09068 0.0154 0.04052 0.09825 0.05331 -0.07532 0.14764 -0.16474 -0.062 0.03363 0.03745 -0.15415 -0.14209 -0.02916 -0.00025 0.04136 0.09634 0.17223 -0.00415 0.0841 0.03137 0.0707 0.06694 0.15161 -0.16845 0.14929 -0.1681
