u	0.03214 0.14841 -0.0033 0.0169 -0.15164 -0.00549 0.11902 -0.03212 -0.03675 -0.08285 -0.15856 -0.0409 -0.12702 0.07902 -0.04756 0.14892 -0.12936 0.08866 -0.0926 -0.16853 0.08245 -0.00048 0.06174 -0.13487 0.15533 0.03318 0.10311 0.11205 0.12995 0.04899 -0.05707 -0.14857 0.07023 0.06493 -0.13617 -0.01855 0.14444 0.12238 -0.02125 -0.04306 0.07796 -0.01134 0.11562 -0.01193 -0.07897 -0.0281 -0.12439 -0.17157 0.0113 -0.07451 0.00576 -0.01192 0.11207 0.0092 0.15528 -0.03921 0.0893 -0.06682 -0.0172 0.11168 -0.15438 -0.13448 0.06015 0.07117 -0.01726 -0.13831 0.06285 0.11523 0.01698 -0.07158 0.09977 0.04556 -0.14375 0.02068 -0.10683 0.03616 0.00248 -0.12309 -0.1616 -0.1414 0.06403 0.14001 0.15934 0.01942 0.1158 0.04388 0.13461 0.0251 0.13334 0.16369 0.02148 0.12904 -0.1232 -0.07802 0.12756 -0.11933 -0.01842 0.00831 0.00362 0.08962 0.00057 -0.08689 -0.13913 -0.13792 -0.14386 0.07631 0.0441 -0.02 0.08453 -0.10789 0.08149 0.061 -0.15524 -0.01363 0.00662 -0.10689 0.14857 0.12659 -0.10355 0.09937 0.05414 -0.0819 -0.14794 -0.01752 0.05948 0.15092 0.00623 0.13009 -0.05848 0.0646 0.05556 -0.16161 0.07436 0.00885 -0.00441 0.03245 -0.06575 -0.07202 0.14722 0.02136 -0.00811 -0.07794 0.02874 -0.04166 0.14076 0.07782 -0.01675 -0.07922 -0.16453 -0.00681 -0.16737 0.08815 0.11904 0.12011 0.13904 -0.01778 -0.02522 -0.00876 -0.07127 0.00839 0.12318 0.12508 -0.0448 0.10846 -0.00274 -0.05728 -0.1285 -0.15795 -0.004 -0.08348 0.02271 0.14473 0.12829 0.09527 0.03529 -0.14893 0.08361 0.05064 0.04344 -0.10208 -0.03717 -0.02806 -0.10127 0.14345 0.01294 0.07804 -0.02267 0.16176 0.11152 -0.09623 -0.10706 0.12015 -0.05948 -0.03295 0.14884 -0.05163 0.11556 -0.06483 0.1174 0.1168
é	0.03267 0.17276 -0.11374 0.04823 -0.17308 -0.06539 0.12115 -0.15528 -0.01812 -0.03918 -0.08924 -0.14828 -0.0678 0.11251 0.13387 0.00872 0.11142 0.16258 0.04266 -0.04837 0.0762 0.09579 -0.01235 -0.04213 0.05728 -0.0647 -0.04845 -0.08785 0.09936 -0.10679 -0.00884 -0.06752 0.15572 0.13053 0.01667 -0.00843 -0.12465 -0.13397 0.08816 -0.13462 -0.08593 0.131 -0.0895 0.13433 -0.10563 -0.10292 -0.09982 0.04924 -0.08412 -0.16336 -0.12835 -0.12958 0.02886 -0.12417 -0.14328 0.07595 -0.09972 -0.14374 0.03281 0.1143 -0.066 -0.08159 -0.08052 -0.13809 0.10923 -0.10861 -0.03269 -0.14316 -0.07746 0.16526 -0.06823 -0.03286 0.08749 -0.16208 -0.13826 0.09863 -0.06638 0.07545 0.14525 0.12213 0.16747 0.05685 0.16685 0.01325 -0.05375 0.06215 -0.12987 0.06197 0.06382 -0.0558 -0.12408 -0.14777 -0.00977 -0.08385 0.0543 -0.00979 0.1528 -0.16619 0.10933 0.11627 0.00057 -0.08689 -0.13913 -0.13792 -0.14386 0.07631 0.0441 -0.02 0.08453 -0.10789 0.08149 0.061 -0.15524 -0.01363 0.00662 -0.10689 0.14857 0.12659 -0.10355 0.09937 0.05414 -0.0819 -0.14794 -0.01752 0.05948 0.15092 0.00623 0.13009 -0.05848 0.0646 0.05556 -0.16161 0.07436 0.00885 -0.00441 0.03245 -0.06575 -0.07202 0.14722 0.02136 -0.00811 -0.07794 0.02874 -0.04166 0.14076 0.07782 -0.01675 -0.07922 -0.16453 -0.00681 -0.16737 0.08815 0.11904 0.12011 0.13904 -0.01778 -0.02522 -0.00876 -0.07127 0.00839 0.12318 0.12508 -0.0448 0.10846 -0.00274 -0.05728 -0.1285 -0.15795 -0.004 -0.08348 0.02271 0.14473 0.12829 0.09527 0.03529 -0.14893 0.08361 0.05064 0.04344 -0.10208 -0.03717 -0.02806 -0.10127 0.14345 0.01294 0.07804 -0.02267 0.16176 0.11152 -0.09623 -0.10706 0.12015 -0.05948 -0.03295 0.14884 -0.05163 0.11556 -0.06483 0.1174 0.1168
t	0.04012 -0.01411 -0.0694 0.07361 -0.04723 -0.01513 0.16965 -0.02397 0.10546 0.14627 -0.02407 0.17033 0.02972 0.01942 -0.08655 0.05211 -0.1325 0.13632 -0.09365 -0.14826 -0.01363 -0.16862 -0.16019 -0.04832 -0.05336 0.10898 -0.00916 -0.12482 0.07134 0.10333 0.06074 0.12031 0.15457 -0.15545 -0.16446 0.11915 -0.00208 0.08997 0.1545 0.05568 -0.15425 0.16737 0.11807 -0.17114 -0.11996 0.09123 0.07155 -0.16881 -0.0979 -0.00366 0.07267 -0.05502 -0.10288 0.10864 -0.03757 0.06848 -0.08566 0.12779 0.0485 -0.16253 -0.16062 0.12917 0.1008 0.04734 0.10329 0.16002 0.11995 -0.08791 0.05343 0.1604 0.00551 0.01089 0.04562 -0.17218 -0.06984 0.06954 -0.07543 -0.00326 0.1356 0.01245 0.077 -0.11076 0.11686 0.0953 0.06239 -0.01365 0.03075 0.07179 -0.01879 -0.02048 0.02426 0.00706 -0.08631 0.14096 0.16153 0.1406 -0.08405 0.14266 0.04247 -0.08407 0.00057 -0.08689 -0.13913 -0.13792 -0.14386 0.07631 0.0441 -0.02 0.08453 -0.10789 0.08149 0.061 -0.15524 -0.01363 0.00662 -0.10689 0.14857 0.12659 -0.10355 0.09937 0.05414 -0.0819 -0.14794 -0.01752 0.05948 0.15092 0.00623 0.13009 -0.05848 0.0646 0.05556 -0.16161 0.07436 0.00885 -0.00441 0.03245 -0.06575 -0.07202 0.14722 0.02136 -0.00811 -0.07794 0.02874 -0.04166 0.14076 0.07782 -0.01675 -0.07922 -0.16453 -0.00681 -0.16737 0.08815 0.11904 0.12011 0.13904 -0.01778 -0.02522 -0.00876 -0.07127 0.00839 0.12318 0.12508 -0.0448 0.10846 -0.00274 -0.05728 -0.1285 -0.15795 -0.004 -0.08348 0.02271 0.14473 0.12829 0.09527 0.03529 -0.14893 0.08361 0.05064 0.04344 -0.10208 -0.03717 -0.02806 -0.10127 0.14345 0.01294 0.07804 -0.02267 0.16176 0.11152 -0.09623 -0.10706 0.12015 -0.05948 -0.03295 0.14884 -0.05163 0.11556 -0.06483 0.1174 0.1168
-	-0.14939 0.06765 0.13977 -0.0203 -0.15477 -0.12501 -0.02085 0.01201 -0.17132 -0.13595 0.09435 -0.15734 0.145 0.02267 0.16023 -0.03722 0.08488 -0.08061 -0.05772 -0.04681 0.11316 -0.06279 -0.12096 -0.08638 0.08655 -0.04477 0.01734 0.06021 0.0178 -0.16887 0.02781 0.06475 -0.00966 -0.09642 -0.15108 0.14359 -0.00303 -0.15021 0.00611 -0.09543 0.14236 -0.10648 0.0216 0.02857 0.03332 -0.15443 0.08239 -0.07663 0.13549 0.15388 -0.05052 0.05747 0.10778 0.05187 -0.02485 -0.15053 -0.04144 -0.09025 -0.10902 0.05288 -0.08195 -0.13462 -0.0685 -0.08006 -0.10033 0.12389 0.14363 0.12565 0.01114 0.12648 0.03949 0.14558 -0.11507 -0.08245 0.07153 0.0531 -0.10589 0.11882 -0.03109 -0.16424 -0.08451 -0.15218 0.14209 -0.14481 -0.04546 0.14309 0.11958 -0.10716 0.1685 0.11234 0.12884 0.11041 0.04699 -0.16603 0.11591 0.10128 0.09927 -0.11509 -0.17177 -0.03847 0.00057 -0.08689 -0.13913 -0.13792 -0.14386 0.07631 0.0441 -0.02 0.08453 -0.10789 0.08149 0.061 -0.15524 -0.01363 0.00662 -0.10689 0.14857 0.12659 -0.10355 0.09937 0.05414 -0.0819 -0.14794 -0.01752 0.05948 0.15092 0.00623 0.13009 -0.05848 0.0646 0.05556 -0.16161 0.07436 0.00885 -0.00441 0.03245 -0.06575 -0.07202 0.14722 0.02136 -0.00811 -0.07794 0.02874 -0.04166 0.14076 0.07782 -0.01675 -0.07922 -0.16453 -0.00681 -0.16737 0.08815 0.11904 0.12011 0.13904 -0.01778 -0.02522 -0.00876 -0.07127 0.00839 0.12318 0.12508 -0.0448 0.10846 -0.00274 -0.05728 -0.1285 -0.15795 -0.004 -0.08348 0.02271 0.14473 0.12829 0.09527 0.03529 -0.14893 0.08361 0.05064 0.04344 -0.10208 -0.03717 -0.02806 -0.10127 0.14345 0.01294 0.07804 -0.02267 0.16176 0.11152 -0.09623 -0.10706 0.12015 -0.05948 -0.03295 0.14884 -0.05163 0.11556 -0.06483 0.1174 0.1168
g	-0.06266 0.08499 0.16051 0.05647 -0.11199 -0.04384 -0.10126 -0.09013 -0.08389 0.06258 -0.04717 -0.09217 0.02377 -0.0707 0.08594 0.0126 -0.13923 -0.03117 -0.16304 0.15123 -0.1355 -0.01309 -0.06207 0.13317 -0.02416 0.01167 0.07813 0.11761 0.04949 0.00273 0.07506 -0.00898 0.13939 0.1163 0.17249 0.13698 -0.15621 0.11633 0.10618 0.16765 0.08043 -0.0075 -0.16735 -0.07203 -0.0768 0.04244 -0.00476 0.06781 -0.08832 0.14598 -0.15672 0.08285 0.08406 0.0277 -0.0265 0.12403 -0.03296 -0.00396 -0.0175 -0.17014 -0.01716 0.08666 -0.07925 0.09218 -0.03657 0.14051 0.14904 0.15347 -0.14871 -0.04515 0.0417 -0.1421 0.0922 -0.08098 -0.12735 -0.15563 -0.01932 0.16681 0.09481 0.06249 0.14713 0.10354 0.1709 0.02492 -0.04197 0.1527 -0.02802 -0.07715 -0.06221 -0.04783 -0.08481 0.02623 -0.13682 -0.03681 -0.04805 0.14088 -0.01196 -0.0691 -0.00401 -0.01234 0.00057 -0.08689 -0.13913 -0.13792 -0.14386 0.07631 0.0441 -0.02 0.08453 -0.10789 0.08149 0.061 -0.15524 -0.01363 0.00662 -0.10689 0.14857 0.12659 -0.10355 0.09937 0.05414 -0.0819 -0.14794 -0.01752 0.05948 0.15092 0.00623 0.13009 -0.05848 0.0646 0.05556 -0.16161 0.07436 0.00885 -0.00441 0.03245 -0.06575 -0.07202 0.14722 0.02136 -0.00811 -0.07794 0.02874 -0.04166 0.14076 0.07782 -0.01675 -0.07922 -0.16453 -0.00681 -0.16737 0.08815 0.11904 0.12011 0.13904 -0.01778 -0.02522 -0.00876 -0.07127 0.00839 0.12318 0.12508 -0.0448 0.10846 -0.00274 -0.05728 -0.1285 -0.15795 -0.004 -0.08348 0.02271 0.14473 0.12829 0.09527 0.03529 -0.14893 0.08361 0.05064 0.04344 -0.10208 -0.03717 -0.02806 -0.10127 0.14345 0.01294 0.07804 -0.02267 0.16176 0.11152 -0.09623 -0.10706 0.12015 -0.05948 -0.03295 0.14884 -0.05163 0.11556 -0.06483 0.1174 0.1168
ç	0.0278 0.1563 0.08096 0.14145 0.02313 -0.10299 0.13842 -0.0877 0.12147 0.1522 -0.13985 -0.13638 -0.02551 -0.12867 -0.03715 -0.10338 -0.11718 -0.14387 0.11438 -0.11035 -0.13031 0.16092 0.00693 0.03907 -0.01915 0.02489 -0.00394 -0.08392 -0.16886 -0.13908 0.0184 -0.07617 0.07227 0.08206 -0.01911 0.09838 -0.0734 -0.04333 -0.1212 0.03791 0.05498 0.03319 0.02865 0.11224 -0.02219 -0.05798 0.03567 -0.02183 0.13327 -0.15909 -0.09354 -0.15343 -0.16106 -0.08204 -0.14051 0.14846 -0.09318 -0.09264 -0.01358 0.08081 -0.06608 -0.13097 0.04698 -0.12883 -0.11352 -0.14703 -0.11772 -0.09967 -0.0551 0.12667 -0.02028 0.01864 0.06875 0.10772 0.15785 -0.07364 0.04269 0.14292 0.08291 0.12123 0.02781 0.11838 -0.1613 0.02764 0.16125 -0.02482 0.06142 -0.15906 -0.04302 -0.05662 -0.04947 0.13714 -0.06919 0.02905 -0.1672 0.14662 -0.06908 0.00448 -0.11986 0.0777 0.00057 -0.08689 -0.13913 -0.13792 -0.14386 0.07631 0.0441 -0.02 0.08453 -0.10789 0.08149 0.061 -0.15524 -0.01363 0.00662 -0.10689 0.14857 0.12659 -0.10355 0.09937 0.05414 -0.0819 -0.14794 -0.01752 0.05948 0.15092 0.00623 0.13009 -0.05848 0.0646 0.05556 -0.16161 0.07436 0.00885 -0.00441 0.03245 -0.06575 -0.07202 0.14722 0.02136 -0.00811 -0.07794 0.02874 -0.04166 0.14076 0.07782 -0.01675 -0.07922 -0.16453 -0.00681 -0.16737 0.08815 0.11904 0.12011 0.13904 -0.01778 -0.02522 -0.00876 -0.07127 0.00839 0.12318 0.12508 -0.0448 0.10846 -0.00274 -0.05728 -0.1285 -0.15795 -0.004 -0.08348 0.02271 0.14473 0.12829 0.09527 0.03529 -0.14893 0.08361 0.05064 0.04344 -0.10208 -0.03717 -0.02806 -0.10127 0.14345 0.01294 0.07804 -0.02267 0.16176 0.11152 -0.09623 -0.10706 0.12015 -0.05948 -0.03295 0.14884 -0.05163 0.11556 -0.06483 0.1174 0.1168
h	0.01693 0.12644 0.08256 -0.16519 0.1098 -0.05007 -0.07804 -0.13944 0.05133 -0.16782 -0.00089 -0.14658 0.03141 -0.00171 -0.0025 -0.07207 0.00808 -0.0553 0.09594 -0.1068 0.12901 0.0627 -0.1482 0.00903 0.07343 0.0818 -0.16005 -0.11628 0.08555 0.05622 -0.07881 0.06286 0.16151 -0.0663 0.16051 0.13661 0.03376 0.06068 0.02837 -0.11826 -0.06661 0.10439 -0.14213 0.06373 -0.00876 0.00216 0.11304 -0.14894 -0.00566 0.04165 -0.14788 0.01454 -0.00714 0.16787 0.06111 -0.08161 -0.03959 0.12527 -0.14789 0.04452 0.14995 -0.13802 0.08371 -0.11129 -0.00954 -0.07871 0.08899 0.10146 0.10419 0.09696 0.12732 0.11198 -0.04264 -0.12354 0.00075 0.07818 0.08938 0.15436 0.05613 0.15259 -0.15871 -0.00447 -0.02448 -0.08432 0.00821 -0.02902 0.02213 0.03987 -0.13642 0.10345 0.14508 -0.0364 0.1179 -0.09789 -0.0784 0.1629 0.1381 0.14736 0.13244 0.13546 0.00057 -0.08689 -0.13913 -0.13792 -0.14386 0.07631 0.0441 -0.02 0.08453 -0.10789 0.08149 0.061 -0.15524 -0.01363 0.00662 -0.10689 0.14857 0.12659 -0.10355 0.09937 0.05414 -0.0819 -0.14794 -0.01752 0.05948 0.15092 0.00623 0.13009 -0.05848 0.0646 0.05556 -0.16161 0.07436 0.00885 -0.00441 0.03245 -0.06575 -0.07202 0.14722 0.02136 -0.00811 -0.07794 0.02874 -0.04166 0.14076 0.07782 -0.01675 -0.07922 -0.16453 -0.00681 -0.16737 0.08815 0.11904 0.12011 0.13904 -0.01778 -0.02522 -0.00876 -0.07127 0.00839 0.12318 0.12508 -0.0448 0.10846 -0.00274 -0.05728 -0.1285 -0.15795 -0.004 -0.08348 0.02271 0.14473 0.12829 0.09527 0.03529 -0.14893 0.08361 0.05064 0.04344 -0.10208 -0.03717 -0.02806 -0.10127 0.14345 0.01294 0.07804 -0.02267 0.16176 0.11152 -0.09623 -0.10706 0.12015 -0.05948 -0.03295 0.14884 -0.05163 0.11556 -0.06483 0.1174 0.1168
v	0.04779 -0.14864 -0.13308 -0.16724 0.02728 0.0664 -0.09712 0.09767 0.08509 0.0053 0.17278 0.02228 0.03239 0.073 -0.02781 0.11138 -0.03936 0.07651 0.09008 0.1685 0.0787 -0.05297 -0.12119 0.08843 -0.10959 -0.09396 -0.12915 -0.08973 -0.0515 0.0575 -0.13352 -0.07181 -0.08413 -0.06937 0.08641 -0.12356 0.11072 0.02256 0.11912 -0.09727 0.09692 0.02288 0.15789 -0.04932 -0.02061 -0.15654 0.06792 0.14029 0.12083 -0.11199 -0.09804 -0.09766 -0.0032 -0.14345 0.15454 -0.0386 0.15079 -0.04491 0.11025 -0.05634 -0.01631 -0.09882 0.16692 -0.17145 0.11752 -0.10394 -0.08257 -0.13145 0.05985 -0.16419 0.04074 0.01067 -0.03896 0.02977 0.15987 0.16369 0.0474 -0.02328 -0.06215 -0.03362 -0.06833 -0.05349 0.13228 0.12909 -0.03581 -0.1695 -0.13024 -0.01335 -0.111 0.0399 -0.07615 0.11284 0.15009 -0.07807 -0.07207 0.08823 0.14673 -0.12629 0.09533 -0.03302 0.00057 -0.08689 -0.13913 -0.13792 -0.14386 0.07631 0.0441 -0.02 0.08453 -0.10789 0.08149 0.061 -0.15524 -0.01363 0.00662 -0.10689 0.14857 0.12659 -0.10355 0.09937 0.05414 -0.0819 -0.14794 -0.01752 0.05948 0.15092 0.00623 0.13009 -0.05848 0.0646 0.05556 -0.16161 0.07436 0.00885 -0.00441 0.03245 -0.06575 -0.07202 0.14722 0.02136 -0.00811 -0.07794 0.02874 -0.04166 0.14076 0.07782 -0.01675 -0.07922 -0.16453 -0.00681 -0.16737 0.08815 0.11904 0.12011 0.13904 -0.01778 -0.02522 -0.00876 -0.07127 0.00839 0.12318 0.12508 -0.0448 0.10846 -0.00274 -0.05728 -0.1285 -0.15795 -0.004 -0.08348 0.02271 0.14473 0.12829 0.09527 0.03529 -0.14893 0.08361 0.05064 0.04344 -0.10208 -0.03717 -0.02806 -0.10127 0.14345 0.01294 0.07804 -0.02267 0.16176 0.11152 -0.09623 -0.10706 0.12015 -0.05948 -0.03295 0.14884 -0.05163 0.11556 -0.06483 0.1174 0.1168
o	0.13859 0.14618 -0.05606 0.01 -0.12667 -0.01762 0.02285 -0.01976 0.01718 -0.14697 -0.1693 0.01274 0.16032 -0.09391 0.0548 -0.06861 -0.03894 -0.04709 -0.0842 -0.14501 -0.07557 0.04918 -0.07796 0.04982 0.06786 -0.07868 -0.16015 -0.03819 -0.06808 -0.1082 0.00531 0.00352 0.09731 -0.10069 0.07827 0.09982 -0.0119 -0.12852 0.16312 -0.13956 -0.0701 0.02352 0.14159 0.02936 0.11234 -0.02393 0.10196 -0.0539 -0.02722 0.07283 -0.01237 0.02564 -0.16679 -0.15145 -0.13783 0.04452 -0.14098 -0.09987 0.15244 -0.08173 0.01145 0.13485 0.12376 -0.01749 -0.04582 -0.15603 -0.03391 0.0578 0.11295 -0.02126 0.05861 -0.00489 -0.12406 -0.08604 -0.05577 0.04811 -0.09907 0.10301 0.05951 -0.15765 0.06935 0.01799 0.08534 -0.01325 -0.14166 0.03497 0.0492 -0.16636 0.02955 -0.0208 0.00054 0.07375 0.03051 -0.03828 0.06775 -0.11902 -0.02083 -0.07883 0.07407 0.06118 0.00057 -0.08689 -0.13913 -0.13792 -0.14386 0.07631 0.0441 -0.02 0.08453 -0.10789 0.08149 0.061 -0.15524 -0.01363 0.00662 -0.10689 0.14857 0.12659 -0.10355 0.09937 0.05414 -0.0819 -0.14794 -0.01752 0.05948 0.15092 0.00623 0.13009 -0.05848 0.0646 0.05556 -0.16161 0.07436 0.00885 -0.00441 0.03245 -0.06575 -0.07202 0.14722 0.02136 -0.00811 -0.07794 0.02874 -0.04166 0.14076 0.07782 -0.01675 -0.07922 -0.16453 -0.00681 -0.16737 0.08815 0.11904 0.12011 0.13904 -0.01778 -0.02522 -0.00876 -0.07127 0.00839 0.12318 0.12508 -0.0448 0.10846 -0.00274 -0.05728 -0.1285 -0.15795 -0.004 -0.08348 0.02271 0.14473 0.12829 0.09527 0.03529 -0.14893 0.08361 0.05064 0.04344 -0.10208 -0.03717 -0.02806 -0.10127 0.14345 0.01294 0.07804 -0.02267 0.16176 0.11152 -0.09623 -0.10706 0.12015 -0.05948 -0.03295 0.14884 -0.05163 0.11556 -0.06483 0.1174 0.1168
ă	0.10948 0.00178 -0.1078 -0.11329 0.0629 0.09314 0.11295 -0.13071 -0.14175 0.13252 0.01666 -0.0328 0.08905 0.01118 -0.05504 0.14381 -0.16292 -0.06511 -0.11645 -0.12531 -0.05663 0.01966 0.14353 0.13096 -0.03899 -0.1676 -0.04044 0.1405 -0.01164 -0.06534 -0.1252 0.04975 -0.15311 0.16716 0.00103 -0.04619 -0.13955 0.08312 -0.02647 0.05701 -0.03222 0.0788 0.01453 0.06841 0.12597 -0.07505 0.05666 -0.00954 0.12838 0.12595 0.10684 0.13355 -0.11371 0.11704 0.0255 0.02283 0.07075 0.01863 0.17014 -0.13783 -0.04031 -0.13305 -0.08348 0.02909 -0.0709 -0.01422 0.10456 0.15546 0.09864 -0.05711 0.05708 -0.07061 -0.07845 -0.15943 0.01429 -0.17128 -0.0737 0.1336 -0.1097 -0.03786 0.15316 0.11739 -0.03903 -0.12648 0.12818 -0.16856 -0.06349 0.0893 0.15417 0.04347 -0.03288 -0.15359 0.01639 0.0048 0.00582 0.06563 -0.08757 0.16382 0.09027 -0.09574 0.00057 -0.08689 -0.13913 -0.13792 -0.14386 0.07631 0.0441 -0.02 0.08453 -0.10789 0.08149 0.061 -0.15524 -0.01363 0.00662 -0.10689 0.14857 0.12659 -0.10355 0.09937 0.05414 -0.0819 -0.14794 -0.01752 0.05948 0.15092 0.00623 0.13009 -0.05848 0.0646 0.05556 -0.16161 0.07436 0.00885 -0.00441 0.03245 -0.06575 -0.07202 0.14722 0.02136 -0.00811 -0.07794 0.02874 -0.04166 0.14076 0.07782 -0.01675 -0.07922 -0.16453 -0.00681 -0.16737 0.08815 0.11904 0.12011 0.13904 -0.01778 -0.02522 -0.00876 -0.07127 0.00839 0.12318 0.12508 -0.0448 0.10846 -0.00274 -0.05728 -0.1285 -0.15795 -0.004 -0.08348 0.02271 0.14473 0.12829 0.09527 0.03529 -0.14893 0.08361 0.05064 0.04344 -0.10208 -0.03717 -0.02806 -0.10127 0.14345 0.01294 0.07804 -0.02267 0.16176 0.11152 -0.09623 -0.10706 0.12015 -0.05948 -0.03295 0.14884 -0.05163 0.11556 -0.06483 0.1174 0.1168
a	0.08156 0.09088 0.09261 -0.00383 -0.01434 -0.05963 0.03193 0.00264 0.08851 0.17266 -0.04294 0.00884 -0.01952 0.1599 -0.09904 0.12194 0.01734 -0.1665 0.0371 0.14458 -0.08259 0.01311 -0.032 -0.11069 -0.13189 0.03147 0.02569 -0.08336 0.10621 -0.15583 -0.16068 0.01408 0.15184 0.06854 -0.13219 0.02426 -0.09809 -0.07577 0.16837 0.15712 0.06246 0.17015 -0.14317 -0.08875 0.09312 -0.0834 -0.03491 0.16139 -0.03177 0.04642 0.03216 -0.05012 -0.00634 0.05093 0.13172 -0.03164 0.05766 0.06448 -0.10614 -0.05163 0.06421 0.12921 -0.01706 -0.11369 -0.09429 0.01901 -0.13246 0.12083 0.02984 0.07401 -0.04995 0.03212 0.14662 -0.12532 -0.15655 -0.15656 0.05659 0.07049 0.11193 -0.0477 -0.02512 0.01132 -0.09035 -0.08097 -0.03419 0.09639 -0.06337 0.16678 -0.14238 -0.12254 -0.12286 0.04245 0.15679 -0.1264 0.03944 0.15835 0.0391 -0.08133 -0.12983 0.1095 0.00057 -0.08689 -0.13913 -0.13792 -0.14386 0.07631 0.0441 -0.02 0.08453 -0.10789 0.08149 0.061 -0.15524 -0.01363 0.00662 -0.10689 0.14857 0.12659 -0.10355 0.09937 0.05414 -0.0819 -0.14794 -0.01752 0.05948 0.15092 0.00623 0.13009 -0.05848 0.0646 0.05556 -0.16161 0.07436 0.00885 -0.00441 0.03245 -0.06575 -0.07202 0.14722 0.02136 -0.00811 -0.07794 0.02874 -0.04166 0.14076 0.07782 -0.01675 -0.07922 -0.16453 -0.00681 -0.16737 0.08815 0.11904 0.12011 0.13904 -0.01778 -0.02522 -0.00876 -0.07127 0.00839 0.12318 0.12508 -0.0448 0.10846 -0.00274 -0.05728 -0.1285 -0.15795 -0.004 -0.08348 0.02271 0.14473 0.12829 0.09527 0.03529 -0.14893 0.08361 0.05064 0.04344 -0.10208 -0.03717 -0.02806 -0.10127 0.14345 0.01294 0.07804 -0.02267 0.16176 0.11152 -0.09623 -0.10706 0.12015 -0.05948 -0.03295 0.14884 -0.05163 0.11556 -0.06483 0.1174 0.1168
f	-0.16253 -0.12258 -0.08467 0.12118 -0.01055 0.09514 0.06159 -0.04946 -0.12503 -0.08807 0.02531 -0.04358 -0.00368 -0.12767 0.16905 0.07213 0.16372 -0.12648 0.11343 -0.15182 -0.05314 0.07456 -0.0403 -0.05899 0.0779 -0.00274 -0.16205 0.14319 -0.12948 -0.00305 0.09775 -0.12131 -0.10154 0.1699 0.04722 0.14838 0.01998 -0.04783 -0.12901 -0.11203 0.07828 -0.0835 -0.14179 -0.04913 -0.07799 -0.17303 -0.02189 0.10788 0.07431 0.10078 -0.15425 0.15801 0.11791 0.14637 0.1298 0.06242 0.03556 -0.00996 -0.14577 -0.17136 -0.06429 0.01496 -0.08664 0.09811 -0.03035 -0.03826 -0.11564 0.05228 -0.13734 0.12064 -0.11958 0.16853 -0.11297 0.17164 0.10677 -0.00099 0.02005 -0.15574 -0.16253 0.06413 -0.1056 0.04154 -0.05577 0.04604 -0.00738 0.03026 0.02328 -0.04277 -0.01706 0.11858 0.07881 -0.08042 -0.01376 -0.02971 -0.14415 -0.02701 0.12067 -0.02991 0.12628 -0.14657 0.00057 -0.08689 -0.13913 -0.13792 -0.14386 0.07631 0.0441 -0.02 0.08453 -0.10789 0.08149 0.061 -0.15524 -0.01363 0.00662 -0.10689 0.14857 0.12659 -0.10355 0.09937 0.05414 -0.0819 -0.14794 -0.01752 0.05948 0.15092 0.00623 0.13009 -0.05848 0.0646 0.05556 -0.16161 0.07436 0.00885 -0.00441 0.03245 -0.06575 -0.07202 0.14722 0.02136 -0.00811 -0.07794 0.02874 -0.04166 0.14076 0.07782 -0.01675 -0.07922 -0.16453 -0.00681 -0.16737 0.08815 0.11904 0.12011 0.13904 -0.01778 -0.02522 -0.00876 -0.07127 0.00839 0.12318 0.12508 -0.0448 0.10846 -0.00274 -0.05728 -0.1285 -0.15795 -0.004 -0.08348 0.02271 0.14473 0.12829 0.09527 0.03529 -0.14893 0.08361 0.05064 0.04344 -0.10208 -0.03717 -0.02806 -0.10127 0.14345 0.01294 0.07804 -0.02267 0.16176 0.11152 -0.09623 -0.10706 0.12015 -0.05948 -0.03295 0.14884 -0.05163 0.11556 -0.06483 0.1174 0.1168
x	0.00892 -0.10076 -0.09237 0.11342 0.17196 0.15794 -0.16572 -0.025 0.11354 0.09489 -0.07158 0.11383 -0.04134 0.01638 0.06713 -0.114 0.04578 0.14011 -0.06106 0.11576 0.02467 -0.14284 -0.08743 -0.16931 0.0517 0.15263 -0.13182 -0.14194 -0.08959 0.11091 0.16169 -0.12803 -0.00175 -0.16077 -0.16676 -0.00815 0.02431 0.10377 0.14465 0.01148 -0.067 -0.01346 0.10157 -0.05178 0.0081 0.06482 0.04124 0.06924 -0.13272 -0.13963 -0.15011 0.15864 -0.13803 -0.0363 0.0386 -0.10523 0.16479 -0.00941 -0.10585 0.0484 0.15965 0.05543 -0.00509 -0.09397 -0.02733 0.02314 0.04334 0.11382 -0.08005 0.12934 0.06723 -0.13184 0.02156 0.07091 0.09818 -0.12516 -0.09632 -0.0078 0.16502 0.01762 -0.04974 -0.04932 -0.06031 -0.13813 0.02085 -0.02608 -0.12306 0.12612 0.04983 0.023 -0.08781 -0.11863 0.0363 -0.10025 0.02798 0.04136 0.12767 -0.0836 0.08065 0.04385 0.00057 -0.08689 -0.13913 -0.13792 -0.14386 0.07631 0.0441 -0.02 0.08453 -0.10789 0.08149 0.061 -0.15524 -0.01363 0.00662 -0.10689 0.14857 0.12659 -0.10355 0.09937 0.05414 -0.0819 -0.14794 -0.01752 0.05948 0.15092 0.00623 0.13009 -0.05848 0.0646 0.05556 -0.16161 0.07436 0.00885 -0.00441 0.03245 -0.06575 -0.07202 0.14722 0.02136 -0.00811 -0.07794 0.02874 -0.04166 0.14076 0.07782 -0.01675 -0.07922 -0.16453 -0.00681 -0.16737 0.08815 0.11904 0.12011 0.13904 -0.01778 -0.02522 -0.00876 -0.07127 0.00839 0.12318 0.12508 -0.0448 0.10846 -0.00274 -0.05728 -0.1285 -0.15795 -0.004 -0.08348 0.02271 0.14473 0.12829 0.09527 0.03529 -0.14893 0.08361 0.05064 0.04344 -0.10208 -0.03717 -0.02806 -0.10127 0.14345 0.01294 0.07804 -0.02267 0.16176 0.11152 -0.09623 -0.10706 0.12015 -0.05948 -0.03295 0.14884 -0.05163 0.11556 -0.06483 0.1174 0.1168
ã	-0.1165 -0.05213 0.01082 -0.12982 0.06013 0.12899 0.05718 -0.14666 0.15132 0.13087 -0.16635 -0.00606 0.07208 -0.01458 -0.06591 0.05457 -0.07532 0.15802 0.02961 -0.06252 0.10315 0.10317 -0.12313 -0.00537 -0.14828 -0.01544 -0.0685 0.12098 0.1015 0.13519 0.13404 -0.12585 -0.06891 -0.13469 -0.09313 -0.01699 0.10388 0.09889 0.04359 -0.09762 0.10432 -0.15956 -0.16432 0.12693 0.08394 -0.12261 0.11439 0.09675 0.16908 -0.03394 0.06054 -0.04938 -0.0602 -0.03099 0.16486 0.02809 0.10559 0.04344 0.04746 -0.01055 -0.03457 -0.05234 0.03267 -0.06975 -0.05186 0.04475 -0.16448 0.07713 0.0649 0.1523 -0.08745 -0.1413 0.0318 0.04728 -0.13918 0.09961 -0.01421 -0.03514 0.13964 -0.12406 -0.16712 0.10884 0.12042 -0.15802 0.09348 -0.0899 -0.14611 0.13868 0.00543 -0.00833 0.06872 -0.02293 -0.00222 -0.09732 0.15229 0.12176 -0.14342 0.07211 -0.11289 0.07371 0.00057 -0.08689 -0.13913 -0.13792 -0.14386 0.07631 0.0441 -0.02 0.08453 -0.10789 0.08149 0.061 -0.15524 -0.01363 0.00662 -0.10689 0.14857 0.12659 -0.10355 0.09937 0.05414 -0.0819 -0.14794 -0.01752 0.05948 0.15092 0.00623 0.13009 -0.05848 0.0646 0.05556 -0.16161 0.07436 0.00885 -0.00441 0.03245 -0.06575 -0.07202 0.14722 0.02136 -0.00811 -0.07794 0.02874 -0.04166 0.14076 0.07782 -0.01675 -0.07922 -0.16453 -0.00681 -0.16737 0.08815 0.11904 0.12011 0.13904 -0.01778 -0.02522 -0.00876 -0.07127 0.00839 0.12318 0.12508 -0.0448 0.10846 -0.00274 -0.05728 -0.1285 -0.15795 -0.004 -0.08348 0.02271 0.14473 0.12829 0.09527 0.03529 -0.14893 0.08361 0.05064 0.04344 -0.10208 -0.03717 -0.02806 -0.10127 0.14345 0.01294 0.07804 -0.02267 0.16176 0.11152 -0.09623 -0.10706 0.12015 -0.05948 -0.03295 0.14884 -0.05163 0.11556 -0.06483 0.1174 0.1168
z	-0.01385 0.06001 0.00261 -0.156 -0.12701 0.13096 0.13597 0.13057 0.13864 0.13171 -0.06463 0.113 -0.03395 0.01645 -0.0932 -0.08621 0.09899 -0.00523 -0.06224 0.09044 0.14851 -0.12058 -0.12485 -0.05652 0.06602 -0.10582 0.06875 -0.10694 -0.01098 -0.00233 -0.04292 0.1435 -0.13334 0.11284 0.1203 -0.06809 -0.11694 0.05037 0.06544 -0.0986 0.12837 -0.06549 -0.05373 -0.07471 -0.15049 0.15924 -0.09013 -0.09286 0.07324 -0.00477 0.03684 -0.10197 0.10738 0.15822 0.14857 -0.02608 -0.04745 -0.12397 0.14708 -0.11597 0.16126 0.02525 0.03295 0.00596 -0.04309 -0.1037 -0.06018 -0.08206 -0.11165 -0.13534 0.15353 0.17031 0.13184 -0.01448 0.13335 -0.07621 0.02435 -0.12506 -0.02225 -0.15377 0.15815 -0.15532 -0.03563 0.11435 -0.16543 -0.09259 0.06752 0.09197 0.15885 -0.0741 0.03933 0.04139 0.05676 -0.02717 0.15008 -0.08022 0.14531 0.01115 0.1623 0.12964 0.00057 -0.08689 -0.13913 -0.13792 -0.14386 0.07631 0.0441 -0.02 0.08453 -0.10789 0.08149 0.061 -0.15524 -0.01363 0.00662 -0.10689 0.14857 0.12659 -0.10355 0.09937 0.05414 -0.0819 -0.14794 -0.01752 0.05948 0.15092 0.00623 0.13009 -0.05848 0.0646 0.05556 -0.16161 0.07436 0.00885 -0.00441 0.03245 -0.06575 -0.07202 0.14722 0.02136 -0.00811 -0.07794 0.02874 -0.04166 0.14076 0.07782 -0.01675 -0.07922 -0.16453 -0.00681 -0.16737 0.08815 0.11904 0.12011 0.13904 -0.01778 -0.02522 -0.00876 -0.07127 0.00839 0.12318 0.12508 -0.0448 0.10846 -0.00274 -0.05728 -0.1285 -0.15795 -0.004 -0.08348 0.02271 0.14473 0.12829 0.09527 0.03529 -0.14893 0.08361 0.05064 0.04344 -0.10208 -0.03717 -0.02806 -0.10127 0.14345 0.01294 0.07804 -0.02267 0.16176 0.11152 -0.09623 -0.10706 0.12015 -0.05948 -0.03295 0.14884 -0.05163 0.11556 -0.06483 0.1174 0.1168
q	-0.08786 0.06714 -0.05142 -0.16051 -0.03979 -0.15406 0.16921 -0.09609 -0.13563 0.01601 0.02559 -0.09258 -0.03888 -0.12163 0.00921 -0.09647 -0.09466 0.16554 0.12858 0.1617 0.15273 -0.02417 -0.03714 -0.12788 0.11361 -0.04138 -0.12533 0.15109 0.11893 -0.00848 0.15611 -0.02839 0.05376 -0.11858 -0.03854 -0.16423 -0.12973 -0.12657 0.01414 -0.10889 -0.08943 -0.0653 0.11931 0.09542 -0.05048 -0.15105 0.11946 -0.11698 0.11569 -0.10883 0.0414 -0.07035 -0.08067 -0.02838 0.15805 -0.12858 0.15998 -0.05124 0.16608 0.09675 -0.1642 0.09367 -0.11429 -0.06281 -0.13171 -0.1529 -0.07014 0.13909 0.09017 -0.03915 0.08374 -0.04056 0.17066 0.10817 0.01183 0.16672 0.14858 -0.02912 0.03428 -0.09076 -0.13987 0.04452 0.01411 -0.09306 -0.14947 -0.0123 0.00441 0.10045 0.01498 0.11661 0.13274 -0.07305 0.12737 0.0682 -0.13792 0.11206 0.06642 -0.15062 0.12989 -0.07789 0.00057 -0.08689 -0.13913 -0.13792 -0.14386 0.07631 0.0441 -0.02 0.08453 -0.10789 0.08149 0.061 -0.15524 -0.01363 0.00662 -0.10689 0.14857 0.12659 -0.10355 0.09937 0.05414 -0.0819 -0.14794 -0.01752 0.05948 0.15092 0.00623 0.13009 -0.05848 0.0646 0.05556 -0.16161 0.07436 0.00885 -0.00441 0.03245 -0.06575 -0.07202 0.14722 0.02136 -0.00811 -0.07794 0.02874 -0.04166 0.14076 0.07782 -0.01675 -0.07922 -0.16453 -0.00681 -0.16737 0.08815 0.11904 0.12011 0.13904 -0.01778 -0.02522 -0.00876 -0.07127 0.00839 0.12318 0.12508 -0.0448 0.10846 -0.00274 -0.05728 -0.1285 -0.15795 -0.004 -0.08348 0.02271 0.14473 0.12829 0.09527 0.03529 -0.14893 0.08361 0.05064 0.04344 -0.10208 -0.03717 -0.02806 -0.10127 0.14345 0.01294 0.07804 -0.02267 0.16176 0.11152 -0.09623 -0.10706 0.12015 -0.05948 -0.03295 0.14884 -0.05163 0.11556 -0.06483 0.1174 0.1168
ê	0.12309 -0.09219 0.12731 -0.13993 -0.16404 -0.04646 -0.06162 -0.14822 -0.09143 0.10493 0.16622 -0.06367 -0.10482 -0.13035 -0.07028 0.07798 -0.0735 -0.03341 -0.16546 0.11345 0.05525 0.04529 0.15423 -0.10173 0.05558 -0.11599 0.03821 0.00718 0.05553 -0.14589 0.06778 -0.15943 -0.00014 -0.01302 0.0557 0.02755 -0.06597 -0.15749 0.00859 0.15858 -0.15987 -0.02791 0.09081 0.0125 0.16776 -0.03908 -0.13296 -0.15167 -0.06208 -0.01089 -0.0525 0.10731 0.0043 0.12813 0.05915 0.10056 0.00966 0.16509 0.10808 -0.17227 0.07809 -0.02754 -0.05551 -0.11899 -0.06595 0.04259 0.14615 0.11614 0.17062 -0.16745 0.08363 -0.16238 -0.07186 0.10762 -0.0774 0.08689 0.08318 0.10596 -0.04126 0.11586 0.01804 0.07499 0.023 -0.07693 -0.10345 0.0753 -0.05661 0.03297 0.05591 -0.0567 -0.04436 -0.08009 0.15515 0.04153 -0.05946 0.14144 0.12273 0.09996 0.07942 0.05507 0.00057 -0.08689 -0.13913 -0.13792 -0.14386 0.07631 0.0441 -0.02 0.08453 -0.10789 0.08149 0.061 -0.15524 -0.01363 0.00662 -0.10689 0.14857 0.12659 -0.10355 0.09937 0.05414 -0.0819 -0.14794 -0.01752 0.05948 0.15092 0.00623 0.13009 -0.05848 0.0646 0.05556 -0.16161 0.07436 0.00885 -0.00441 0.03245 -0.06575 -0.07202 0.14722 0.02136 -0.00811 -0.07794 0.02874 -0.04166 0.14076 0.07782 -0.01675 -0.07922 -0.16453 -0.00681 -0.16737 0.08815 0.11904 0.12011 0.13904 -0.01778 -0.02522 -0.00876 -0.07127 0.00839 0.12318 0.12508 -0.0448 0.10846 -0.00274 -0.05728 -0.1285 -0.15795 -0.004 -0.08348 0.02271 0.14473 0.12829 0.09527 0.03529 -0.14893 0.08361 0.05064 0.04344 -0.10208 -0.03717 -0.02806 -0.10127 0.14345 0.01294 0.07804 -0.02267 0.16176 0.11152 -0.09623 -0.10706 0.12015 -0.05948 -0.03295 0.14884 -0.05163 0.11556 -0.06483 0.1174 0.1168
r	-0.11927 0.0215 0.10128 0.11317 -0.00371 -0.00181 0.05116 0.13359 0.11592 -0.15988 -0.03125 0.15355 -0.09858 0.09987 -0.06244 -0.11214 0.03828 -0.03236 -0.16644 -0.10097 0.13633 0.13222 -0.09928 0.04043 0.04627 -0.04464 0.09815 0.03067 0.1152 -0.15915 -0.11873 -0.00534 0.16835 0.05314 0.13258 0.07004 0.10484 0.14232 0.05072 -0.12485 0.02183 0.05473 -0.01889 -0.08673 0.089 0.09475 0.05889 0.10914 0.09653 0.03763 -0.09694 -0.04043 -0.06896 0.05565 0.14877 -0.16787 -0.0277 -0.09362 -0.09059 -0.07465 -0.13481 -0.1166 0.12482 -0.03503 -0.14559 0.09357 -0.01739 0.13925 0.12937 -0.00215 0.06707 -0.13697 0.0946 -0.03113 -0.05041 -0.11404 0.06513 0.02883 -0.15549 0.03118 0.02507 -0.11015 0.16114 0.01382 -0.00828 -0.07834 0.06738 0.15266 -0.03579 0.09505 0.16829 -0.16246 -0.095 -0.03246 0.16765 -0.14559 -0.17228 -0.10807 0.00835 0.00996 0.00057 -0.08689 -0.13913 -0.13792 -0.14386 0.07631 0.0441 -0.02 0.08453 -0.10789 0.08149 0.061 -0.15524 -0.01363 0.00662 -0.10689 0.14857 0.12659 -0.10355 0.09937 0.05414 -0.0819 -0.14794 -0.01752 0.05948 0.15092 0.00623 0.13009 -0.05848 0.0646 0.05556 -0.16161 0.07436 0.00885 -0.00441 0.03245 -0.06575 -0.07202 0.14722 0.02136 -0.00811 -0.07794 0.02874 -0.04166 0.14076 0.07782 -0.01675 -0.07922 -0.16453 -0.00681 -0.16737 0.08815 0.11904 0.12011 0.13904 -0.01778 -0.02522 -0.00876 -0.07127 0.00839 0.12318 0.12508 -0.0448 0.10846 -0.00274 -0.05728 -0.1285 -0.15795 -0.004 -0.08348 0.02271 0.14473 0.12829 0.09527 0.03529 -0.14893 0.08361 0.05064 0.04344 -0.10208 -0.03717 -0.02806 -0.10127 0.14345 0.01294 0.07804 -0.02267 0.16176 0.11152 -0.09623 -0.10706 0.12015 -0.05948 -0.03295 0.14884 -0.05163 0.11556 -0.06483 0.1174 0.1168
e	-0.02848 0.12808 0.10193 0.15385 -0.10273 -0.16197 0.13394 -0.16758 -0.1239 0.15533 -0.13057 0.11847 -0.16868 0.14449 0.14958 -0.14144 0.09691 -0.02192 0.02003 -0.10288 0.0687 -0.13588 -0.14802 -0.07152 0.0775 0.12896 0.10812 0.11287 -0.10698 0.09725 0.03425 0.04108 0.02971 -0.16205 -0.07849 -0.12227 -0.09353 0.15943 0.0936 -0.04665 0.10248 -0.14509 0.00165 -0.1635 -0.06115 -0.0804 -0.14525 -0.052 -0.10298 -0.11941 0.16738 -0.10244 -0.03947 0.1549 -0.0639 0.14258 -0.00704 -0.16015 0.09961 -0.06134 -0.05061 -0.13841 0.0581 -0.04708 -0.14072 0.13309 -0.16175 -0.0685 0.13113 0.00949 -0.08893 0.05967 0.01651 0.1665 0.12052 0.06608 -0.10094 -0.09744 -0.05888 -0.08532 0.0257 0.0349 0.02209 0.04009 -0.02403 -0.1593 0.04595 -0.03581 -0.05677 -0.15748 0.16023 0.08095 -0.03469 0.04675 0.10532 0.11104 -0.10107 0.14723 0.16029 0.03638 0.00057 -0.08689 -0.13913 -0.13792 -0.14386 0.07631 0.0441 -0.02 0.08453 -0.10789 0.08149 0.061 -0.15524 -0.01363 0.00662 -0.10689 0.14857 0.12659 -0.10355 0.09937 0.05414 -0.0819 -0.14794 -0.01752 0.05948 0.15092 0.00623 0.13009 -0.05848 0.0646 0.05556 -0.16161 0.07436 0.00885 -0.00441 0.03245 -0.06575 -0.07202 0.14722 0.02136 -0.00811 -0.07794 0.02874 -0.04166 0.14076 0.07782 -0.01675 -0.07922 -0.16453 -0.00681 -0.16737 0.08815 0.11904 0.12011 0.13904 -0.01778 -0.02522 -0.00876 -0.07127 0.00839 0.12318 0.12508 -0.0448 0.10846 -0.00274 -0.05728 -0.1285 -0.15795 -0.004 -0.08348 0.02271 0.14473 0.12829 0.09527 0.03529 -0.14893 0.08361 0.05064 0.04344 -0.10208 -0.03717 -0.02806 -0.10127 0.14345 0.01294 0.07804 -0.02267 0.16176 0.11152 -0.09623 -0.10706 0.12015 -0.05948 -0.03295 0.14884 -0.05163 0.11556 -0.06483 0.1174 0.1168
c	0.06899 0.16192 0.02691 0.1211 -0.01985 -0.12026 0.01113 -0.04022 0.14229 0.044 -0.12742 0.0363 -0.00879 0.1205 0.08876 0.04445 -0.08329 0.05934 0.16074 0.05928 -0.16551 0.01323 0.05378 0.12885 0.11952 -0.07361 0.09088 -0.07358 0.125 -0.09302 0.06216 -0.13558 -0.10664 0.13186 0.02825 0.09204 0.14852 -0.11522 -0.06187 -0.10427 -0.00671 -0.08446 -0.05497 -0.13554 -0.14595 -0.03833 0.14337 -0.13208 0.05101 -0.08216 -0.07565 0.04084 0.11419 0.13535 0.05746 -0.17286 -0.01683 0.06028 0.14782 0.05314 -0.06364 -0.00411 -0.14656 0.02415 0.10263 0.07603 0.13313 0.13006 -0.04311 0.1005 0.0904 0.10712 0.13101 0.15414 -0.117 -0.02343 -0.0066 -0.15099 0.03673 0.14715 -0.16075 -0.05757 -0.07119 0.007 0.07456 0.13054 0.06557 0.06464 0.14591 0.03613 -0.15081 -0.16376 0.04436 0.08875 -0.1294 0.10927 -0.02122 0.09464 -0.10694 -0.12845 0.00057 -0.08689 -0.13913 -0.13792 -0.14386 0.07631 0.0441 -0.02 0.08453 -0.10789 0.08149 0.061 -0.15524 -0.01363 0.00662 -0.10689 0.14857 0.12659 -0.10355 0.09937 0.05414 -0.0819 -0.14794 -0.01752 0.05948 0.15092 0.00623 0.13009 -0.05848 0.0646 0.05556 -0.16161 0.07436 0.00885 -0.00441 0.03245 -0.06575 -0.07202 0.14722 0.02136 -0.00811 -0.07794 0.02874 -0.04166 0.14076 0.07782 -0.01675 -0.07922 -0.16453 -0.00681 -0.16737 0.08815 0.11904 0.12011 0.13904 -0.01778 -0.02522 -0.00876 -0.07127 0.00839 0.12318 0.12508 -0.0448 0.10846 -0.00274 -0.05728 -0.1285 -0.15795 -0.004 -0.08348 0.02271 0.14473 0.12829 0.09527 0.03529 -0.14893 0.08361 0.05064 0.04344 -0.10208 -0.03717 -0.02806 -0.10127 0.14345 0.01294 0.07804 -0.02267 0.16176 0.11152 -0.09623 -0.10706 0.12015 -0.05948 -0.03295 0.14884 -0.05163 0.11556 -0.06483 0.1174 0.1168
b	-0.00439 0.02153 -0.10246 0.11548 0.13639 0.11343 0.1259 -0.02114 0.02988 -0.0108 0.07455 0.00649 -0.0233 0.17198 0.04043 -0.05322 0.12299 0.02957 -0.15536 0.10972 -0.08212 0.12214 0.16412 0.082 0.02179 -0.10588 0.05204 0.1421 -0.00868 0.05844 0.12538 -0.13603 -0.03201 0.12645 -0.01457 0.08457 0.13927 0.11876 0.01098 -0.08289 0.08385 0.06489 0.00519 0.04648 0.09553 0.12556 -0.09418 0.08997 -0.035 -0.06424 -0.09508 -0.1091 0.10588 0.09064 0.15945 -0.0081 0.00562 0.04022 0.14918 -0.12231 -0.07539 -0.16739 -0.16719 -0.06123 0.04865 0.0164 0.12685 -0.10329 0.09518 0.15665 0.12966 0.07394 -0.1506 -0.08253 0.06845 -0.03733 0.14295 0.11305 0.10848 0.14427 0.1362 0.12078 -0.12627 0.17262 -0.13831 0.12516 0.04263 -0.03639 -0.00333 0.10537 -0.14011 -0.11599 0.13044 -0.02154 0.14894 0.06503 -0.15247 -0.16963 0.12511 0.15432 0.00057 -0.08689 -0.13913 -0.13792 -0.14386 0.07631 0.0441 -0.02 0.08453 -0.10789 0.08149 0.061 -0.15524 -0.01363 0.00662 -0.10689 0.14857 0.12659 -0.10355 0.09937 0.05414 -0.0819 -0.14794 -0.01752 0.05948 0.15092 0.00623 0.13009 -0.05848 0.0646 0.05556 -0.16161 0.07436 0.00885 -0.00441 0.03245 -0.06575 -0.07202 0.14722 0.02136 -0.00811 -0.07794 0.02874 -0.04166 0.14076 0.07782 -0.01675 -0.07922 -0.16453 -0.00681 -0.16737 0.08815 0.11904 0.12011 0.13904 -0.01778 -0.02522 -0.00876 -0.07127 0.00839 0.12318 0.12508 -0.0448 0.10846 -0.00274 -0.05728 -0.1285 -0.15795 -0.004 -0.08348 0.02271 0.14473 0.12829 0.09527 0.03529 -0.14893 0.08361 0.05064 0.04344 -0.10208 -0.03717 -0.02806 -0.10127 0.14345 0.01294 0.07804 -0.02267 0.16176 0.11152 -0.09623 -0.10706 0.12015 -0.05948 -0.03295 0.14884 -0.05163 0.11556 -0.06483 0.1174 0.1168
y	0.14969 -0.006 0.16394 -0.01499 0.16959 -0.11424 0.09391 -0.12867 0.12004 -0.03734 0.01987 -0.04293 -0.14748 0.15512 0.0264 0.07167 0.16138 -0.02977 0.11116 -0.0741 -0.07894 -0.09273 -0.14405 -0.0985 -0.07185 0.1586 0.03759 0.10411 0.16141 0.11027 0.07532 -0.05764 0.09436 -0.04508 -0.15552 0.06908 0.04466 0.02106 0.11214 -0.03904 -0.0203 -0.12041 0.0639 -0.1031 0.11022 -0.0552 0.14578 -0.02856 -0.13197 -0.00659 -0.04313 -0.04188 0.02383 -0.15205 0.00738 0.01546 -0.03173 0.17052 -0.10864 0.03296 -0.0207 0.11291 -0.16442 0.08998 0.11028 -0.08732 -0.04088 -0.14887 0.14567 0.159 -0.06339 0.02376 0.11176 -0.10233 -0.00251 0.10303 0.0295 -0.00668 0.14645 -0.00292 -0.0428 0.09834 -0.16301 -0.17185 -0.17136 -0.15703 -0.10997 0.07828 -0.01034 0.17024 -0.01378 0.00779 -0.15372 0.07067 0.14477 0.02092 0.12418 -0.07693 -0.11432 0.07573 0.00057 -0.08689 -0.13913 -0.13792 -0.14386 0.07631 0.0441 -0.02 0.08453 -0.10789 0.08149 0.061 -0.15524 -0.01363 0.00662 -0.10689 0.14857 0.12659 -0.10355 0.09937 0.05414 -0.0819 -0.14794 -0.01752 0.05948 0.15092 0.00623 0.13009 -0.05848 0.0646 0.05556 -0.16161 0.07436 0.00885 -0.00441 0.03245 -0.06575 -0.07202 0.14722 0.02136 -0.00811 -0.07794 0.02874 -0.04166 0.14076 0.07782 -0.01675 -0.07922 -0.16453 -0.00681 -0.16737 0.08815 0.11904 0.12011 0.13904 -0.01778 -0.02522 -0.00876 -0.07127 0.00839 0.12318 0.12508 -0.0448 0.10846 -0.00274 -0.05728 -0.1285 -0.15795 -0.004 -0.08348 0.02271 0.14473 0.12829 0.09527 0.03529 -0.14893 0.08361 0.05064 0.04344 -0.10208 -0.03717 -0.02806 -0.10127 0.14345 0.01294 0.07804 -0.02267 0.16176 0.11152 -0.09623 -0.10706 0.12015 -0.05948 -0.03295 0.14884 -0.05163 0.11556 -0.06483 0.1174 0.1168
j	0.11542 -0.05484 -0.00605 0.06955 -0.10482 -0.13962 -0.03817 0.00244 -0.13154 -0.13392 -0.01072 -0.01351 0.01014 -0.05304 -0.03738 -0.16112 -0.16284 -0.14393 0.12131 -0.0211 -0.04096 0.1714 0.07718 0.05708 -0.12188 -0.13916 0.02624 -0.05096 0.14853 0.1687 0.11476 0.00869 -0.14869 -0.11785 0.1087 -0.06072 -0.04739 0.10813 0.08523 0.09984 -0.07125 0.11017 -0.00788 0.11829 -0.11663 0.16049 -0.14192 -0.08733 0.11293 0.17166 -0.10793 0.06885 0.1432 0.05479 -0.01634 0.09055 -0.10202 -0.14622 -0.16492 0.14097 0.10208 -0.1333 -0.07435 0.06041 -0.0409 -0.0178 -0.0305 0.15012 -0.07339 0.07524 -0.0642 -0.01299 -0.12801 -0.0083 -0.08689 -0.01525 -0.12239 0.13951 0.15325 -0.13771 0.10394 -0.09488 0.12387 -0.14294 -0.12612 0.11788 0.11498 0.13343 -0.14755 -0.04697 0.02827 0.07335 0.14719 0.1453 0.1457 -0.11874 0.1188 0.12768 0.0178 -0.03668 0.00057 -0.08689 -0.13913 -0.13792 -0.14386 0.07631 0.0441 -0.02 0.08453 -0.10789 0.08149 0.061 -0.15524 -0.01363 0.00662 -0.10689 0.14857 0.12659 -0.10355 0.09937 0.05414 -0.0819 -0.14794 -0.01752 0.05948 0.15092 0.00623 0.13009 -0.05848 0.0646 0.05556 -0.16161 0.07436 0.00885 -0.00441 0.03245 -0.06575 -0.07202 0.14722 0.02136 -0.00811 -0.07794 0.02874 -0.04166 0.14076 0.07782 -0.01675 -0.07922 -0.16453 -0.00681 -0.16737 0.08815 0.11904 0.12011 0.13904 -0.01778 -0.02522 -0.00876 -0.07127 0.00839 0.12318 0.12508 -0.0448 0.10846 -0.00274 -0.05728 -0.1285 -0.15795 -0.004 -0.08348 0.02271 0.14473 0.12829 0.09527 0.03529 -0.14893 0.08361 0.05064 0.04344 -0.10208 -0.03717 -0.02806 -0.10127 0.14345 0.01294 0.07804 -0.02267 0.16176 0.11152 -0.09623 -0.10706 0.12015 -0.05948 -0.03295 0.14884 -0.05163 0.11556 -0.06483 0.1174 0.1168
n	-0.13869 0.17025 -0.08008 0.11622 -0.07007 -0.05691 -0.13169 0.15572 0.0874 -0.07263 0.00361 -0.06132 0.11086 0.09092 0.01832 0.13294 0.06199 -0.04654 0.00902 0.11043 0.14399 0.00617 0.02759 0.01726 0.04633 -0.12687 -0.12639 0.16953 0.048 -0.16593 0.02325 0.08732 0.03271 0.10954 0.15806 -0.0911 -0.16158 -0.17193 -0.12026 -0.09743 -0.01768 -0.11002 -0.05744 0.10815 0.08047 0.02961 -0.03785 0.07831 0.13983 -0.11542 -0.02429 0.15409 0.1471 -0.089 0.14714 -0.01348 0.07411 -0.15937 0.11157 0.10923 0.1342 0.00785 -0.14112 0.11312 -0.00528 0.04673 -0.16852 -0.03076 -0.12789 0.10176 0.14272 0.06948 -0.00491 0.07539 0.14708 -0.03494 -0.01042 -0.08958 -0.12013 -0.03419 -0.15928 0.0321 0.05561 0.11652 -0.06136 0.06202 -0.08502 0.14746 -0.01997 -0.08611 0.10672 -0.02581 -0.14112 0.15129 0.04011 0.04336 0.07567 0.14722 0.15235 0.03093 0.00057 -0.08689 -0.13913 -0.13792 -0.14386 0.07631 0.0441 -0.02 0.08453 -0.10789 0.08149 0.061 -0.15524 -0.01363 0.00662 -0.10689 0.14857 0.12659 -0.10355 0.09937 0.05414 -0.0819 -0.14794 -0.01752 0.05948 0.15092 0.00623 0.13009 -0.05848 0.0646 0.05556 -0.16161 0.07436 0.00885 -0.00441 0.03245 -0.06575 -0.07202 0.14722 0.02136 -0.00811 -0.07794 0.02874 -0.04166 0.14076 0.07782 -0.01675 -0.07922 -0.16453 -0.00681 -0.16737 0.08815 0.11904 0.12011 0.13904 -0.01778 -0.02522 -0.00876 -0.07127 0.00839 0.12318 0.12508 -0.0448 0.10846 -0.00274 -0.05728 -0.1285 -0.15795 -0.004 -0.08348 0.02271 0.14473 0.12829 0.09527 0.03529 -0.14893 0.08361 0.05064 0.04344 -0.10208 -0.03717 -0.02806 -0.10127 0.14345 0.01294 0.07804 -0.02267 0.16176 0.11152 -0.09623 -0.10706 0.12015 -0.05948 -0.03295 0.14884 -0.05163 0.11556 -0.06483 0.1174 0.1168
m	0.05775 -0.1507 -0.03094 0.14331 0.16674 0.148 0.10437 -0.17169 -0.11383 0.09564 -0.05888 0.07778 0.05679 -0.05816 -0.04432 0.12251 0.03634 0.07997 0.06375 0.01115 -0.0683 0.11593 0.14988 0.133 0.12125 -0.08596 0.14504 -0.01662 -0.0503 0.01361 -0.16687 -0.14202 -0.05398 -0.01348 0.15383 -0.10249 -0.07652 0.14672 0.03191 0.07275 -0.13508 -0.06908 -0.16709 -0.03099 0.14891 -0.13724 0.08583 0.04686 -0.07832 0.13924 0.0947 -0.16664 0.07589 0.08495 0.07989 -0.12142 -0.16565 -0.09019 -0.16075 -0.03554 0.01856 -0.11501 0.14576 0.13931 -0.14875 -0.13968 0.01024 -0.12549 -0.05409 -0.14879 0.07185 0.09883 -0.12165 -0.16269 0.07145 0.04145 0.10149 -0.03722 -0.04332 -0.13001 -0.05169 -0.04404 0.09568 -0.00407 -0.04206 0.15801 0.01263 -0.16289 0.15522 0.10343 0.03195 0.13177 -0.04567 -0.17274 -0.12301 -0.06762 0.13863 0.06605 -0.16173 0.02013 0.00057 -0.08689 -0.13913 -0.13792 -0.14386 0.07631 0.0441 -0.02 0.08453 -0.10789 0.08149 0.061 -0.15524 -0.01363 0.00662 -0.10689 0.14857 0.12659 -0.10355 0.09937 0.05414 -0.0819 -0.14794 -0.01752 0.05948 0.15092 0.00623 0.13009 -0.05848 0.0646 0.05556 -0.16161 0.07436 0.00885 -0.00441 0.03245 -0.06575 -0.07202 0.14722 0.02136 -0.00811 -0.07794 0.02874 -0.04166 0.14076 0.07782 -0.01675 -0.07922 -0.16453 -0.00681 -0.16737 0.08815 0.11904 0.12011 0.13904 -0.01778 -0.02522 -0.00876 -0.07127 0.00839 0.12318 0.12508 -0.0448 0.10846 -0.00274 -0.05728 -0.1285 -0.15795 -0.004 -0.08348 0.02271 0.14473 0.12829 0.09527 0.03529 -0.14893 0.08361 0.05064 0.04344 -0.10208 -0.03717 -0.02806 -0.10127 0.14345 0.01294 0.07804 -0.02267 0.16176 0.11152 -0.09623 -0.10706 0.12015 -0.05948 -0.03295 0.14884 -0.05163 0.11556 -0.06483 0.1174 0.1168
ũ	-0.05483 -0.16763 0.17149 0.00164 0.09676 0.12148 0.03339 0.0964 0.04015 -0.046 0.14804 -0.02947 0.10246 -0.04935 0.16914 0.06433 0.02558 -0.15358 0.12217 0.16535 -0.03459 0.05071 0.06114 0.01035 0.06871 0.09139 0.10067 -0.07606 -0.12781 0.04652 0.02993 0.01169 -0.06541 0.07732 -0.1 -0.08972 0.12176 -0.09096 0.14735 0.16724 0.02858 -0.06549 0.11146 -0.10694 0.07461 0.03098 -0.08592 -0.16649 -0.10305 -0.1348 0.08175 0.01851 0.1017 -0.0519 -0.11927 -0.06704 -0.01208 -0.15981 0.11466 -0.01461 -0.04865 -0.17238 -0.14851 -0.06772 -0.06662 -0.0428 -0.03835 0.00934 0.17009 -0.03237 -0.04216 -0.03966 -0.04884 0.1331 -0.03721 0.15252 -0.02366 0.03722 -0.16674 -0.00415 -0.12728 0.10419 -0.03175 -0.13062 -0.12949 -0.01021 -0.16785 -0.05189 -0.13029 0.14567 0.0522 0.03271 -0.08784 0.06337 -0.03585 0.10502 -0.17215 0.08339 0.00201 0.06058 0.00057 -0.08689 -0.13913 -0.13792 -0.14386 0.07631 0.0441 -0.02 0.08453 -0.10789 0.08149 0.061 -0.15524 -0.01363 0.00662 -0.10689 0.14857 0.12659 -0.10355 0.09937 0.05414 -0.0819 -0.14794 -0.01752 0.05948 0.15092 0.00623 0.13009 -0.05848 0.0646 0.05556 -0.16161 0.07436 0.00885 -0.00441 0.03245 -0.06575 -0.07202 0.14722 0.02136 -0.00811 -0.07794 0.02874 -0.04166 0.14076 0.07782 -0.01675 -0.07922 -0.16453 -0.00681 -0.16737 0.08815 0.11904 0.12011 0.13904 -0.01778 -0.02522 -0.00876 -0.07127 0.00839 0.12318 0.12508 -0.0448 0.10846 -0.00274 -0.05728 -0.1285 -0.15795 -0.004 -0.08348 0.02271 0.14473 0.12829 0.09527 0.03529 -0.14893 0.08361 0.05064 0.04344 -0.10208 -0.03717 -0.02806 -0.10127 0.14345 0.01294 0.07804 -0.02267 0.16176 0.11152 -0.09623 -0.10706 0.12015 -0.05948 -0.03295 0.14884 -0.05163 0.11556 -0.06483 0.1174 0.1168
í	-0.07313 -0.15482 -0.0599 -0.043 -0.07778 0.11598 -0.05368 0.11969 0.02951 0.0407 -0.06031 0.01205 -0.05833 0.01942 0.15127 0.06878 0.0743 0.15326 -0.01513 -0.06539 0.16037 -0.09616 -0.08177 -0.11397 -0.1198 -0.17187 -0.10297 0.02939 -0.00459 -0.14029 0.05677 0.12197 0.1152 0.14566 0.07411 0.12108 -0.13341 0.08661 0.1691 -0.08434 0.03853 -0.05572 -0.08606 0.06632 0.01618 0.1483 -0.0869 -0.04942 -0.14525 0.09949 -0.05321 0.03118 -0.02326 0.05203 -0.12586 0.16877 0.01874 0.07079 0.05106 0.05245 0.03981 0.05724 -0.03313 -0.13371 -0.09603 0.03113 -0.15915 -0.12635 0.04842 -0.16789 0.07136 -0.16975 0.08546 -0.11871 0.06302 -0.13144 0.14046 -0.11653 0.05662 -0.02942 0.10079 -0.11021 -0.10327 -0.01238 0.13989 0.0666 -0.01616 -0.09102 -0.06446 0.14541 -0.01656 0.10979 -0.06744 0.12995 -0.09176 0.02716 0.04786 0.0555 -0.04372 -0.1624 0.00057 -0.08689 -0.13913 -0.13792 -0.14386 0.07631 0.0441 -0.02 0.08453 -0.10789 0.08149 0.061 -0.15524 -0.01363 0.00662 -0.10689 0.14857 0.12659 -0.10355 0.09937 0.05414 -0.0819 -0.14794 -0.01752 0.05948 0.15092 0.00623 0.13009 -0.05848 0.0646 0.05556 -0.16161 0.07436 0.00885 -0.00441 0.03245 -0.06575 -0.07202 0.14722 0.02136 -0.00811 -0.07794 0.02874 -0.04166 0.14076 0.07782 -0.01675 -0.07922 -0.16453 -0.00681 -0.16737 0.08815 0.11904 0.12011 0.13904 -0.01778 -0.02522 -0.00876 -0.07127 0.00839 0.12318 0.12508 -0.0448 0.10846 -0.00274 -0.05728 -0.1285 -0.15795 -0.004 -0.08348 0.02271 0.14473 0.12829 0.09527 0.03529 -0.14893 0.08361 0.05064 0.04344 -0.10208 -0.03717 -0.02806 -0.10127 0.14345 0.01294 0.07804 -0.02267 0.16176 0.11152 -0.09623 -0.10706 0.12015 -0.05948 -0.03295 0.14884 -0.05163 0.11556 -0.06483 0.1174 0.1168
â	-0.15265 -0.06987 -0.13791 0.06848 -0.09063 0.13504 -0.05934 -0.1303 -0.05284 0.12934 -0.09394 -0.06171 0.13873 -0.01756 -0.00756 -0.11982 -0.03587 0.15234 0.08183 -0.00593 -0.07033 -0.03856 0.02829 -0.01021 -0.14855 0.16982 -0.15862 -0.11019 -0.0948 -0.09688 -0.00225 0.07775 -0.09743 0.10329 -0.0846 0.05789 -0.13045 0.14463 -0.17064 0.01351 0.0245 0.12944 -0.16757 0.09312 -0.10463 0.06807 -0.15508 -0.09399 -0.08866 -0.15298 0.11854 -0.00233 -0.02702 0.09749 -0.10011 0.09052 0.15186 0.05378 0.08965 -0.00065 -0.0593 0.13818 -0.09954 -0.04583 -0.05035 -0.01395 -0.13051 -0.03746 0.00367 -0.02775 0.04157 0.11597 0.09902 0.16902 0.15603 -0.03912 0.13969 0.1602 -0.03148 -0.16592 0.1001 0.00327 0.12808 0.15901 -0.03464 0.15862 0.15991 0.0425 -0.02111 0.15464 -0.03114 -0.05371 -0.10921 -0.0235 0.03993 0.10954 0.10504 -0.05727 -0.1554 0.02022 0.00057 -0.08689 -0.13913 -0.13792 -0.14386 0.07631 0.0441 -0.02 0.08453 -0.10789 0.08149 0.061 -0.15524 -0.01363 0.00662 -0.10689 0.14857 0.12659 -0.10355 0.09937 0.05414 -0.0819 -0.14794 -0.01752 0.05948 0.15092 0.00623 0.13009 -0.05848 0.0646 0.05556 -0.16161 0.07436 0.00885 -0.00441 0.03245 -0.06575 -0.07202 0.14722 0.02136 -0.00811 -0.07794 0.02874 -0.04166 0.14076 0.07782 -0.01675 -0.07922 -0.16453 -0.00681 -0.16737 0.08815 0.11904 0.12011 0.13904 -0.01778 -0.02522 -0.00876 -0.07127 0.00839 0.12318 0.12508 -0.0448 0.10846 -0.00274 -0.05728 -0.1285 -0.15795 -0.004 -0.08348 0.02271 0.14473 0.12829 0.09527 0.03529 -0.14893 0.08361 0.05064 0.04344 -0.10208 -0.03717 -0.02806 -0.10127 0.14345 0.01294 0.07804 -0.02267 0.16176 0.11152 -0.09623 -0.10706 0.12015 -0.05948 -0.03295 0.14884 -0.05163 0.11556 -0.06483 0.1174 0.1168
i	0.14056 0.01023 -0.14726 -0.08971 0.01103 -0.08592 0.01627 0.0628 0.00849 0.15273 -0.11281 -0.00576 -0.12792 0.14558 0.01516 -0.16885 0.15079 -0.03797 0.17106 0.135 -0.04726 0.06673 0.0835 0.04101 0.05055 0.11468 -0.03439 -0.15955 0.04334 0.13721 -0.10393 0.1319 0.15168 0.12892 0.12738 0.08772 0.00862 0.01055 -0.08604 0.04821 0.10985 -0.05915 0.11172 -0.16495 -0.13761 0.08282 0.14676 0.11933 0.11272 -0.06914 0.05958 0.11358 0.02814 0.0975 -0.06173 0.14068 0.02699 0.10878 0.00237 0.11261 -0.16307 -0.13876 0.0465 -0.12594 -0.12369 -0.13015 0.06884 0.03893 -0.13764 0.07259 0.15217 -0.08024 0.02393 -0.05208 -0.08165 0.11842 0.06313 0.02113 -0.13324 0.01836 0.08728 -0.10329 0.09432 -0.04988 -0.00178 -0.02899 -0.09838 0.07337 0.16758 -0.08481 -0.0456 -0.08214 -0.10032 0.02796 -0.17133 0.01231 0.02495 -0.09347 -0.08836 -0.11683 0.00057 -0.08689 -0.13913 -0.13792 -0.14386 0.07631 0.0441 -0.02 0.08453 -0.10789 0.08149 0.061 -0.15524 -0.01363 0.00662 -0.10689 0.14857 0.12659 -0.10355 0.09937 0.05414 -0.0819 -0.14794 -0.01752 0.05948 0.15092 0.00623 0.13009 -0.05848 0.0646 0.05556 -0.16161 0.07436 0.00885 -0.00441 0.03245 -0.06575 -0.07202 0.14722 0.02136 -0.00811 -0.07794 0.02874 -0.04166 0.14076 0.07782 -0.01675 -0.07922 -0.16453 -0.00681 -0.16737 0.08815 0.11904 0.12011 0.13904 -0.01778 -0.02522 -0.00876 -0.07127 0.00839 0.12318 0.12508 -0.0448 0.10846 -0.00274 -0.05728 -0.1285 -0.15795 -0.004 -0.08348 0.02271 0.14473 0.12829 0.09527 0.03529 -0.14893 0.08361 0.05064 0.04344 -0.10208 -0.03717 -0.02806 -0.10127 0.14345 0.01294 0.07804 -0.02267 0.16176 0.11152 -0.09623 -0.10706 0.12015 -0.05948 -0.03295 0.14884 -0.05163 0.11556 -0.06483 0.1174 0.1168
l	0.03952 -0.12184 0.01172 0.16543 0.0249 0.07695 0.15086 0.11659 -0.1683 -0.14371 0.14146 0.14029 0.09564 -0.03333 0.17226 0.06409 -0.09019 0.13094 0.07225 0.04878 0.13925 -0.00716 -0.03017 -0.07473 0.00612 -0.02915 0.01131 -0.15585 -0.08981 0.11809 -0.15556 0.15971 -0.05415 -0.09866 -0.07425 0.05007 0.08195 0.07483 -0.0719 0.14496 -0.0345 0.02123 -0.05758 0.01073 -0.06442 0.17007 -0.06486 0.07595 0.06435 -0.09091 -0.15717 -0.00306 -0.09093 0.11575 0.0091 -0.12832 -0.03715 0.06347 0.14316 -0.11083 -0.01427 -0.14591 0.1457 0.13144 0.01158 -0.14443 0.08523 -0.06246 -0.01084 -0.01977 0.04168 0.06222 0.11797 -0.13825 0.15899 0.15734 -0.03335 0.16413 -0.05077 -0.04979 -0.14516 -0.07889 0.07115 -0.01602 -0.0888 0.04153 0.00653 0.16196 -0.0984 -0.03933 0.15197 0.15429 -0.00799 -0.16515 -0.07856 -0.0436 0.04917 -0.02683 0.14282 -0.17123 0.00057 -0.08689 -0.13913 -0.13792 -0.14386 0.07631 0.0441 -0.02 0.08453 -0.10789 0.08149 0.061 -0.15524 -0.01363 0.00662 -0.10689 0.14857 0.12659 -0.10355 0.09937 0.05414 -0.0819 -0.14794 -0.01752 0.05948 0.15092 0.00623 0.13009 -0.05848 0.0646 0.05556 -0.16161 0.07436 0.00885 -0.00441 0.03245 -0.06575 -0.07202 0.14722 0.02136 -0.00811 -0.07794 0.02874 -0.04166 0.14076 0.07782 -0.01675 -0.07922 -0.16453 -0.00681 -0.16737 0.08815 0.11904 0.12011 0.13904 -0.01778 -0.02522 -0.00876 -0.07127 0.00839 0.12318 0.12508 -0.0448 0.10846 -0.00274 -0.05728 -0.1285 -0.15795 -0.004 -0.08348 0.02271 0.14473 0.12829 0.09527 0.03529 -0.14893 0.08361 0.05064 0.04344 -0.10208 -0.03717 -0.02806 -0.10127 0.14345 0.01294 0.07804 -0.02267 0.16176 0.11152 -0.09623 -0.10706 0.12015 -0.05948 -0.03295 0.14884 -0.05163 0.11556 -0.06483 0.1174 0.1168
ô	-0.0042 -0.01137 -0.04237 0.16948 0.12746 -0.01282 -0.10684 -0.06697 -0.13913 0.03384 -0.02475 -0.14616 0.00365 0.15615 -0.02468 0.10928 -0.02408 -0.02321 -0.02093 0.06972 -0.13137 0.08436 -0.10193 0.0614 0.15776 -0.02748 -0.1102 0.09924 -0.11106 0.15084 -0.15889 0.0618 -0.01907 0.01484 -0.14085 -0.00163 -0.0049 -0.0497 0.11494 0.15199 -0.0561 -0.08781 0.07684 0.1541 0.10378 -0.14594 0.04331 -0.07303 -0.14796 0.03328 0.00432 -0.15817 -0.02924 0.00484 0.16681 0.16358 -0.11597 -0.02046 0.07074 -0.06384 0.00559 0.01291 0.13591 -0.09776 0.02052 -0.03878 0.0619 0.02592 0.12677 -0.08175 -0.08408 0.09726 -0.0062 -0.06293 -0.08372 0.12521 -0.10316 -0.02393 -0.08491 -0.03715 -0.04951 0.08392 -0.13408 -0.06759 0.1591 -0.06754 -0.02848 0.08313 -0.07889 0.00225 -0.0048 0.00391 0.12001 0.16659 0.05109 -0.04143 -0.08334 0.03008 -0.08841 0.08769 0.00057 -0.08689 -0.13913 -0.13792 -0.14386 0.07631 0.0441 -0.02 0.08453 -0.10789 0.08149 0.061 -0.15524 -0.01363 0.00662 -0.10689 0.14857 0.12659 -0.10355 0.09937 0.05414 -0.0819 -0.14794 -0.01752 0.05948 0.15092 0.00623 0.13009 -0.05848 0.0646 0.05556 -0.16161 0.07436 0.00885 -0.00441 0.03245 -0.06575 -0.07202 0.14722 0.02136 -0.00811 -0.07794 0.02874 -0.04166 0.14076 0.07782 -0.01675 -0.07922 -0.16453 -0.00681 -0.16737 0.08815 0.11904 0.12011 0.13904 -0.01778 -0.02522 -0.00876 -0.07127 0.00839 0.12318 0.12508 -0.0448 0.10846 -0.00274 -0.05728 -0.1285 -0.15795 -0.004 -0.08348 0.02271 0.14473 0.12829 0.09527 0.03529 -0.14893 0.08361 0.05064 0.04344 -0.10208 -0.03717 -0.02806 -0.10127 0.14345 0.01294 0.07804 -0.02267 0.16176 0.11152 -0.09623 -0.10706 0.12015 -0.05948 -0.03295 0.14884 -0.05163 0.11556 -0.06483 0.1174 0.1168
ó	0.02304 0.01872 0.11466 -0.13452 -0.09482 0.05691 0.12684 -0.07963 -0.08201 0.08264 0.03681 0.09714 -0.02431 0.13579 0.01643 0.10195 0.12818 -0.06849 0.14469 -0.05238 0.13837 -0.1486 0.08858 -0.07339 0.06458 0.05062 -0.09402 -0.02132 -0.12526 0.12926 0.05991 0.11357 0.15216 0.16262 -0.09366 0.00583 -0.02196 0.13068 0.15054 -0.02124 0.00139 0.0452 -0.03706 0.10498 -0.13858 0.12019 -0.1292 0.1311 -0.05523 -0.17048 0.00717 0.01226 -0.13173 -0.16849 -0.05715 0.14079 -0.04008 0.07914 0.00378 -0.12972 -0.11048 -0.06255 0.17176 -0.13054 0.09731 0.10358 -0.09669 0.00212 -0.0219 0.10377 0.12846 -0.14279 -0.15587 0.05911 0.07534 0.02996 -0.12743 -0.11596 -0.15426 0.15954 -0.04423 0.06865 -0.08366 0.17067 -0.1063 -0.05308 -0.08397 0.09842 -0.13771 0.02325 -0.1653 0.0617 0.00131 -0.02996 -0.02965 0.12716 0.16925 -0.08662 -0.05769 -0.10419 0.00057 -0.08689 -0.13913 -0.13792 -0.14386 0.07631 0.0441 -0.02 0.08453 -0.10789 0.08149 0.061 -0.15524 -0.01363 0.00662 -0.10689 0.14857 0.12659 -0.10355 0.09937 0.05414 -0.0819 -0.14794 -0.01752 0.05948 0.15092 0.00623 0.13009 -0.05848 0.0646 0.05556 -0.16161 0.07436 0.00885 -0.00441 0.03245 -0.06575 -0.07202 0.14722 0.02136 -0.00811 -0.07794 0.02874 -0.04166 0.14076 0.07782 -0.01675 -0.07922 -0.16453 -0.00681 -0.16737 0.08815 0.11904 0.12011 0.13904 -0.01778 -0.02522 -0.00876 -0.07127 0.00839 0.12318 0.12508 -0.0448 0.10846 -0.00274 -0.05728 -0.1285 -0.15795 -0.004 -0.08348 0.02271 0.14473 0.12829 0.09527 0.03529 -0.14893 0.08361 0.05064 0.04344 -0.10208 -0.03717 -0.02806 -0.10127 0.14345 0.01294 0.07804 -0.02267 0.16176 0.11152 -0.09623 -0.10706 0.12015 -0.05948 -0.03295 0.14884 -0.05163 0.11556 -0.06483 0.1174 0.1168
ú	-0.14439 0.16341 -0.06418 0.11224 -0.10041 -0.02016 0.15974 -0.09058 0.02681 0.04624 0.17083 -0.06204 -0.06891 0.05543 0.11514 -0.15213 0.15936 -0.0811 -0.11123 -0.00371 -0.17033 -0.05675 0.07715 0.00181 0.13157 0.15972 0.05219 0.02122 0.107 -0.06152 -0.10663 -0.05153 0.13364 0.00512 -0.02455 -0.09003 -0.10039 -0.11652 0.04511 0.07521 0.0668 0.03859 -0.0605 0.08159 0.01053 -0.02007 -0.1338 0.16688 0.01338 0.06629 -0.03413 0.16862 0.15749 -0.12864 0.13997 -0.14693 0.12489 0.14204 0.13329 -0.13537 -0.16714 0.16383 -0.04872 0.05345 -0.07263 0.01599 0.09908 -0.08728 0.07723 -0.0269 0.08606 -0.0222 -0.06947 -0.07316 -0.13177 0.12553 0.11036 -0.04585 -0.02621 -0.15393 -0.01514 -0.12647 0.12239 -0.1117 -0.07293 -0.00213 0.12829 -0.03154 -0.13367 0.16824 -0.05502 0.17061 -0.05982 0.06172 -0.00125 0.08076 0.11935 -0.11227 0.0779 -0.13643 0.00057 -0.08689 -0.13913 -0.13792 -0.14386 0.07631 0.0441 -0.02 0.08453 -0.10789 0.08149 0.061 -0.15524 -0.01363 0.00662 -0.10689 0.14857 0.12659 -0.10355 0.09937 0.05414 -0.0819 -0.14794 -0.01752 0.05948 0.15092 0.00623 0.13009 -0.05848 0.0646 0.05556 -0.16161 0.07436 0.00885 -0.00441 0.03245 -0.06575 -0.07202 0.14722 0.02136 -0.00811 -0.07794 0.02874 -0.04166 0.14076 0.07782 -0.01675 -0.07922 -0.16453 -0.00681 -0.16737 0.08815 0.11904 0.12011 0.13904 -0.01778 -0.02522 -0.00876 -0.07127 0.00839 0.12318 0.12508 -0.0448 0.10846 -0.00274 -0.05728 -0.1285 -0.15795 -0.004 -0.08348 0.02271 0.14473 0.12829 0.09527 0.03529 -0.14893 0.08361 0.05064 0.04344 -0.10208 -0.03717 -0.02806 -0.10127 0.14345 0.01294 0.07804 -0.02267 0.16176 0.11152 -0.09623 -0.10706 0.12015 -0.05948 -0.03295 0.14884 -0.05163 0.11556 -0.06483 0.1174 0.1168
á	-0.13254 -0.10862 0.10801 0.01958 0.03959 -0.11922 0.16678 0.15699 0.13221 0.02068 0.13858 -0.08985 0.11514 -0.05617 0.16247 0.09237 -0.14488 -0.03679 -0.01379 0.13012 -0.05293 -0.08781 0.14994 0.15652 -0.08369 0.03826 -0.0299 -0.14677 0.05587 0.07506 -0.10304 0.1359 -0.07078 -0.00626 -0.10162 0.13827 0.04964 0.07575 0.07906 -0.02992 -0.01971 -0.02016 0.10956 -0.12907 -0.01945 0.00407 0.00243 0.04674 0.11065 0.0004 -0.08452 -0.02531 0.08259 -0.09957 0.004 0.06351 -0.06963 0.11263 -0.01207 -0.1184 -0.14264 -0.14251 0.04819 0.02481 0.16106 0.09634 -0.0681 -0.08878 0.07866 -0.00374 -0.01207 0.09934 -0.07385 -0.11275 -0.04798 -0.14228 -0.1138 -0.01715 0.03758 -0.02917 -0.16683 0.09339 -0.13637 0.06989 -0.02039 -0.06404 -0.00455 -0.16932 0.17128 -0.05483 -0.03513 -0.0685 0.13055 0.0812 0.01618 -0.13048 -0.01248 0.00546 0.03155 0.05509 0.00057 -0.08689 -0.13913 -0.13792 -0.14386 0.07631 0.0441 -0.02 0.08453 -0.10789 0.08149 0.061 -0.15524 -0.01363 0.00662 -0.10689 0.14857 0.12659 -0.10355 0.09937 0.05414 -0.0819 -0.14794 -0.01752 0.05948 0.15092 0.00623 0.13009 -0.05848 0.0646 0.05556 -0.16161 0.07436 0.00885 -0.00441 0.03245 -0.06575 -0.07202 0.14722 0.02136 -0.00811 -0.07794 0.02874 -0.04166 0.14076 0.07782 -0.01675 -0.07922 -0.16453 -0.00681 -0.16737 0.08815 0.11904 0.12011 0.13904 -0.01778 -0.02522 -0.00876 -0.07127 0.00839 0.12318 0.12508 -0.0448 0.10846 -0.00274 -0.05728 -0.1285 -0.15795 -0.004 -0.08348 0.02271 0.14473 0.12829 0.09527 0.03529 -0.14893 0.08361 0.05064 0.04344 -0.10208 -0.03717 -0.02806 -0.10127 0.14345 0.01294 0.07804 -0.02267 0.16176 0.11152 -0.09623 -0.10706 0.12015 -0.05948 -0.03295 0.14884 -0.05163 0.11556 -0.06483 0.1174 0.1168
ü	-0.14973 0.10531 -0.04974 0.0661 -0.13837 -0.15273 -0.08484 0.01351 0.10944 -0.03904 0.10615 -0.02893 -0.15186 -0.01875 -0.06884 0.171 -0.13653 0.00066 -0.0105 -0.13406 -0.04459 0.02699 0.12642 0.05903 -0.09328 0.00435 0.09317 -0.1449 0.16657 -0.03221 -0.11356 -0.12898 0.04866 -0.07588 0.13156 0.10921 -0.00053 -0.08533 -0.06018 -0.15301 0.14467 0.10475 0.1306 -0.1498 -0.05008 -0.07475 0.01159 -0.12051 -0.06825 -0.15566 0.05299 0.08 -0.14733 0.01884 -0.01404 -0.07639 -0.12651 -0.08883 -0.09736 -0.01589 0.00886 -0.14712 -0.14971 0.09226 0.12859 0.02647 -0.10808 -0.08788 -0.00017 -0.06176 -0.0576 -0.11194 0.16815 -0.12128 -0.15707 0.05915 0.11371 -0.0818 0.00619 -0.01505 0.02029 -0.10131 -0.08095 -0.16055 0.04548 -0.08139 0.05833 -0.1476 0.10227 -0.15359 -0.16392 0.06433 0.05604 0.14152 0.12521 -0.15472 0.0882 -0.14135 0.08353 0.08967 0.00057 -0.08689 -0.13913 -0.13792 -0.14386 0.07631 0.0441 -0.02 0.08453 -0.10789 0.08149 0.061 -0.15524 -0.01363 0.00662 -0.10689 0.14857 0.12659 -0.10355 0.09937 0.05414 -0.0819 -0.14794 -0.01752 0.05948 0.15092 0.00623 0.13009 -0.05848 0.0646 0.05556 -0.16161 0.07436 0.00885 -0.00441 0.03245 -0.06575 -0.07202 0.14722 0.02136 -0.00811 -0.07794 0.02874 -0.04166 0.14076 0.07782 -0.01675 -0.07922 -0.16453 -0.00681 -0.16737 0.08815 0.11904 0.12011 0.13904 -0.01778 -0.02522 -0.00876 -0.07127 0.00839 0.12318 0.12508 -0.0448 0.10846 -0.00274 -0.05728 -0.1285 -0.15795 -0.004 -0.08348 0.02271 0.14473 0.12829 0.09527 0.03529 -0.14893 0.08361 0.05064 0.04344 -0.10208 -0.03717 -0.02806 -0.10127 0.14345 0.01294 0.07804 -0.02267 0.16176 0.11152 -0.09623 -0.10706 0.12015 -0.05948 -0.03295 0.14884 -0.05163 0.11556 -0.06483 0.1174 0.1168
d	0.08595 -0.07814 -0.16168 -0.02711 -0.17303 -0.09809 0.15353 0.01316 -0.16326 -0.07873 -0.04486 -0.0011 -0.16122 -0.03921 0.10138 0.068 0.12659 0.01872 -0.06114 0.0929 -0.00363 -0.1177 0.13235 0.15516 0.04847 -0.08292 -0.0776 -0.00958 0.15376 0.06925 0.13122 0.06502 0.09675 -0.13949 0.09604 -0.06117 0.01228 -0.11736 -0.01059 -0.01348 -0.11892 -0.02012 -0.00512 0.06822 0.10788 0.06318 -0.1403 0.08794 -0.06011 -0.04898 0.16176 0.1435 0.14938 0.08744 0.14387 -0.05223 -0.126 -0.10445 0.14424 0.07007 0.03298 -0.08513 0.12202 -0.08146 0.12753 -0.00241 0.0458 -0.09456 -0.03095 -0.14991 0.12932 -0.05211 -0.06692 0.04619 -0.00336 0.01616 -0.11765 -0.10893 0.03367 0.10164 -0.08417 0.13068 0.1409 0.02657 0.01292 -0.0556 -0.08666 -0.14427 -0.12976 0.14931 0.1428 -0.00688 0.06399 -0.03883 0.1026 -0.12878 0.17197 -0.13807 -0.05312 -0.02137 0.00057 -0.08689 -0.13913 -0.13792 -0.14386 0.07631 0.0441 -0.02 0.08453 -0.10789 0.08149 0.061 -0.15524 -0.01363 0.00662 -0.10689 0.14857 0.12659 -0.10355 0.09937 0.05414 -0.0819 -0.14794 -0.01752 0.05948 0.15092 0.00623 0.13009 -0.05848 0.0646 0.05556 -0.16161 0.07436 0.00885 -0.00441 0.03245 -0.06575 -0.07202 0.14722 0.02136 -0.00811 -0.07794 0.02874 -0.04166 0.14076 0.07782 -0.01675 -0.07922 -0.16453 -0.00681 -0.16737 0.08815 0.11904 0.12011 0.13904 -0.01778 -0.02522 -0.00876 -0.07127 0.00839 0.12318 0.12508 -0.0448 0.10846 -0.00274 -0.05728 -0.1285 -0.15795 -0.004 -0.08348 0.02271 0.14473 0.12829 0.09527 0.03529 -0.14893 0.08361 0.05064 0.04344 -0.10208 -0.03717 -0.02806 -0.10127 0.14345 0.01294 0.07804 -0.02267 0.16176 0.11152 -0.09623 -0.10706 0.12015 -0.05948 -0.03295 0.14884 -0.05163 0.11556 -0.06483 0.1174 0.1168
s	0.09122 0.15454 0.09183 -0.06243 -0.02263 0.03825 -0.10655 0.13938 0.07769 -0.01396 -0.10253 -0.09718 0.07535 0.07759 -0.00305 0.15263 0.09357 -0.02006 0.09194 -0.09145 0.10977 0.14912 0.00589 -0.03936 -0.09645 -0.0674 -0.05481 -0.0369 -0.05998 -0.11805 0.09733 -0.03843 0.12301 -0.02372 0.15414 -0.11933 -0.07854 0.03336 -0.07468 0.1385 0.00052 0.13851 -0.11361 -0.14848 -0.04925 0.14161 0.08841 0.16207 -0.13249 0.1586 -0.10656 -0.01028 -0.16267 -0.08849 -0.10368 0.08129 -0.12878 -0.01226 -0.05852 0.12979 -0.13306 0.16003 -0.11798 -0.10036 -0.0411 -0.05399 0.06758 -0.10134 -0.12426 -0.0444 -0.08164 0.06787 -0.06506 -0.14347 0.01522 -0.02754 -0.16922 0.08818 0.02585 -0.09724 0.12997 -0.05756 -0.06069 0.1315 0.01518 0.1026 -0.01543 0.01449 -0.11537 0.06242 -0.00928 -0.08768 -0.01802 -0.12839 -0.03845 0.12068 -0.09624 -0.05164 -0.03157 -0.03493 0.00057 -0.08689 -0.13913 -0.13792 -0.14386 0.07631 0.0441 -0.02 0.08453 -0.10789 0.08149 0.061 -0.15524 -0.01363 0.00662 -0.10689 0.14857 0.12659 -0.10355 0.09937 0.05414 -0.0819 -0.14794 -0.01752 0.05948 0.15092 0.00623 0.13009 -0.05848 0.0646 0.05556 -0.16161 0.07436 0.00885 -0.00441 0.03245 -0.06575 -0.07202 0.14722 0.02136 -0.00811 -0.07794 0.02874 -0.04166 0.14076 0.07782 -0.01675 -0.07922 -0.16453 -0.00681 -0.16737 0.08815 0.11904 0.12011 0.13904 -0.01778 -0.02522 -0.00876 -0.07127 0.00839 0.12318 0.12508 -0.0448 0.10846 -0.00274 -0.05728 -0.1285 -0.15795 -0.004 -0.08348 0.02271 0.14473 0.12829 0.09527 0.03529 -0.14893 0.08361 0.05064 0.04344 -0.10208 -0.03717 -0.02806 -0.10127 0.14345 0.01294 0.07804 -0.02267 0.16176 0.11152 -0.09623 -0.10706 0.12015 -0.05948 -0.03295 0.14884 -0.05163 0.11556 -0.06483 0.1174 0.1168
p	0.08989 0.11671 0.13454 0.03087 -0.00367 0.0084 0.10635 0.17196 0.12278 0.16652 -0.11862 0.12298 -0.0998 0.00305 0.14277 -0.12364 -0.11678 -0.14369 0.0959 0.10576 -0.14697 -0.03211 -0.05434 -0.11231 0.09838 -0.03781 -0.02662 0.16058 -0.06712 -0.17156 -0.07192 0.07574 -0.05136 -0.16588 0.13041 0.16486 0.08444 -0.0332 -0.12456 -0.16425 0.16089 -0.09717 0.02761 -0.00505 -0.12916 -0.14063 -0.05326 0.14517 -0.06034 0.00802 -0.04647 -0.1472 0.10666 -0.12299 0.02984 0.09251 -0.01187 0.05861 0.10132 0.14128 0.1197 0.03091 -0.12802 -0.09424 -0.02447 0.08147 -0.0735 0.1083 0.03219 0.06932 -0.11143 0.02142 -0.09389 -0.11129 0.05485 -0.1203 0.14502 0.00428 0.16607 0.10636 0.0283 0.12985 0.14922 0.14049 -0.06685 -0.15335 0.17027 -0.03087 0.05879 0.09413 0.09346 0.10441 0.14878 0.03963 -0.02845 0.07245 0.04944 0.09419 -0.15187 -0.0775 0.00057 -0.08689 -0.13913 -0.13792 -0.14386 0.07631 0.0441 -0.02 0.08453 -0.10789 0.08149 0.061 -0.15524 -0.01363 0.00662 -0.10689 0.14857 0.12659 -0.10355 0.09937 0.05414 -0.0819 -0.14794 -0.01752 0.05948 0.15092 0.00623 0.13009 -0.05848 0.0646 0.05556 -0.16161 0.07436 0.00885 -0.00441 0.03245 -0.06575 -0.07202 0.14722 0.02136 -0.00811 -0.07794 0.02874 -0.04166 0.14076 0.07782 -0.01675 -0.07922 -0.16453 -0.00681 -0.16737 0.08815 0.11904 0.12011 0.13904 -0.01778 -0.02522 -0.00876 -0.07127 0.00839 0.12318 0.12508 -0.0448 0.10846 -0.00274 -0.05728 -0.1285 -0.15795 -0.004 -0.08348 0.02271 0.14473 0.12829 0.09527 0.03529 -0.14893 0.08361 0.05064 0.04344 -0.10208 -0.03717 -0.02806 -0.10127 0.14345 0.01294 0.07804 -0.02267 0.16176 0.11152 -0.09623 -0.10706 0.12015 -0.05948 -0.03295 0.14884 -0.05163 0.11556 -0.06483 0.1174 0.1168
