u	-0.02356 -0.00257 -0.05132 -0.01944 -0.01354 0.11892 -0.09857 -0.10461 0.02565 0.04315 -0.00934 0.00953 0.1141 -0.02284 0.08993 -0.1363 -0.09056 -0.02682 -0.07018 -0.03624 -0.0897 0.16816 -0.14175 -0.10762 0.06121 0.13732 0.0115 0.04447 -0.02369 -0.09904 0.06178 0.0289 -0.01965 -0.11905 -0.16395 0.06649 -0.11899 0.00252 0.04254 -0.10282 -0.1176 -0.09939 0.15229 -0.04433 0.02758 0.16423 -0.06697 0.11788 -0.04336 0.02353 0.06817 -0.15494 0.14143 -0.07383 -0.081 0.02384 0.15046 0.06615 -0.15485 0.16612 -0.01306 0.0009 -0.01818 -0.09313 0.13653 0.00299 -0.02569 0.13251 -0.01274 0.00214 0.06819 0.15413 -0.04185 0.06846 -0.00972 -0.1081 0.07496 0.02139 0.15936 -0.07218 -0.07331 -0.02962 0.13423 -0.07003 0.03461 -0.05808 0.12035 -0.01175 -0.07925 -0.01885 -0.0754 0.02215 -0.00013 0.02549 -0.11675 0.07724 0.11903 0.14346 -0.02748 -0.1177 -0.06457 0.14256 -0.12269 0.04353 0.13494 -0.03454 0.02074 -0.07452 0.12129 -0.06916 -0.04039 0.0166 0.12664 0.12919 0.12382 0.05846 0.04725 -0.01385 0.07474 0.10661 0.01284 0.06239 0.115 -0.11202 0.13936 0.11048 0.14963 -0.06806 0.148 -0.03606 0.04266 -0.06862 0.0678 0.05875 -0.1413 -0.01831 0.15621 0.12771 -0.0259 0.07499 -0.05776 -0.17053 -0.05013 0.13167 0.00039 0.04195 -0.10489 0.15609 -0.15047 0.04461 0.01646 -0.01988 -0.00082 0.0356 -0.04485 -0.0561 -0.07958 0.0546 0.14417 0.13507 -0.03652 0.00512 0.01457 0.0078 -0.00067 -0.09293 -0.10637 -0.13601 0.13351 0.00668 0.07724 -0.02575 0.09587 -0.13749 -0.0625 -0.17153 0.01366 -0.01608 -0.05654 -0.12545 0.0874 0.06787 -0.12355 0.05246 -0.16994 -0.08521 -0.10331 -0.02762 -0.15191 0.04024 0.00186 0.04613 0.1477 0.00584 0.03141 -0.16233 -0.16633 -0.00927 -0.04611 0.03282
é	0.13028 0.02907 -0.03014 0.0221 0.02111 0.10306 -0.14072 -0.13502 -0.07676 -0.09604 0.05607 -0.03505 -0.06309 -0.1523 -0.02764 -0.00363 -0.17214 -0.01329 0.13805 0.07324 0.02854 -0.10205 0.04094 -0.07171 -0.06709 -0.09978 0.0702 0.12174 -0.03916 0.13752 0.10715 0.10115 -0.02817 -0.10818 0.09057 0.06103 -0.17084 -0.15572 0.11371 -0.01875 -0.12304 -0.07836 0.07522 -0.0204 -0.0544 -0.04218 0.00389 -0.11738 -0.14796 -0.08904 -0.08246 0.12702 -0.15907 -0.11987 0.08273 0.16873 -0.14519 -0.13936 -0.15092 0.15706 0.03759 0.02425 -0.04788 -0.10488 0.00357 0.11454 0.12336 0.10746 0.16533 0.05871 0.1337 -0.00026 -0.09191 -0.00285 0.09123 -0.1073 0.0999 0.10475 0.07009 0.17181 -0.08477 -0.1354 0.13485 -0.05295 -0.05363 0.11455 0.02469 0.08718 0.08919 -0.02868 -0.03672 -0.16648 -0.07863 0.11973 -0.12102 0.07652 0.1015 -0.16354 -0.1543 -0.09404 -0.06457 0.14256 -0.12269 0.04353 0.13494 -0.03454 0.02074 -0.07452 0.12129 -0.06916 -0.04039 0.0166 0.12664 0.12919 0.12382 0.05846 0.04725 -0.01385 0.07474 0.10661 0.01284 0.06239 0.115 -0.11202 0.13936 0.11048 0.14963 -0.06806 0.148 -0.03606 0.04266 -0.06862 0.0678 0.05875 -0.1413 -0.01831 0.15621 0.12771 -0.0259 0.07499 -0.05776 -0.17053 -0.05013 0.13167 0.00039 0.04195 -0.10489 0.15609 -0.15047 0.04461 0.01646 -0.01988 -0.00082 0.0356 -0.04485 -0.0561 -0.07958 0.0546 0.14417 0.13507 -0.03652 0.00512 0.01457 0.0078 -0.00067 -0.09293 -0.10637 -0.13601 0.13351 0.00668 0.07724 -0.02575 0.09587 -0.13749 -0.0625 -0.17153 0.01366 -0.01608 -0.05654 -0.12545 0.0874 0.06787 -0.12355 0.05246 -0.16994 -0.08521 -0.10331 -0.02762 -0.15191 0.04024 0.00186 0.04613 0.1477 0.00584 0.03141 -0.16233 -0.16633 -0.00927 -0.04611 0.03282
t	-0.13086 0.11174 0.16755 0.10871 -0.04132 0.0698 -0.02353 0.04025 0.03669 -0.02629 -0.02397 0.11738 -0.04105 0.15591 -0.02833 -0.07753 -0.15754 0.10046 -0.02363 0.16275 -0.02842 -0.03238 -0.01016 0.06499 -0.08507 -0.04613 0.02284 -0.16751 0.0078 0.01788 -0.04051 -0.00232 0.01063 -0.14825 0.10794 0.10864 0.05171 -0.07176 0.10754 0.12066 -0.09544 -0.1029 0.09093 0.08719 0.05527 0.06273 -0.07602 -0.11385 -0.02221 -0.11986 0.07504 -0.14141 0.11878 0.17406 0.16876 -0.11556 -0.09142 -0.17224 -0.10804 -0.1672 0.0899 0.0237 0.04028 -0.12826 -0.17244 0.06726 -0.01177 0.13011 0.0057 -0.13832 -0.08363 0.08743 -0.00054 0.07112 -0.13804 0.02916 -0.01225 0.04194 -0.06197 -0.09304 0.03955 0.08627 -0.12174 0.13676 -0.14036 0.02397 0.03178 -0.01879 -0.065 -0.06088 -0.13114 -0.08467 -0.00641 -0.10748 0.15147 -0.1587 -0.12852 0.01837 0.14922 -0.06742 -0.06457 0.14256 -0.12269 0.04353 0.13494 -0.03454 0.02074 -0.07452 0.12129 -0.06916 -0.04039 0.0166 0.12664 0.12919 0.12382 0.05846 0.04725 -0.01385 0.07474 0.10661 0.01284 0.06239 0.115 -0.11202 0.13936 0.11048 0.14963 -0.06806 0.148 -0.03606 0.04266 -0.06862 0.0678 0.05875 -0.1413 -0.01831 0.15621 0.12771 -0.0259 0.07499 -0.05776 -0.17053 -0.05013 0.13167 0.00039 0.04195 -0.10489 0.15609 -0.15047 0.04461 0.01646 -0.01988 -0.00082 0.0356 -0.04485 -0.0561 -0.07958 0.0546 0.14417 0.13507 -0.03652 0.00512 0.01457 0.0078 -0.00067 -0.09293 -0.10637 -0.13601 0.13351 0.00668 0.07724 -0.02575 0.09587 -0.13749 -0.0625 -0.17153 0.01366 -0.01608 -0.05654 -0.12545 0.0874 0.06787 -0.12355 0.05246 -0.16994 -0.08521 -0.10331 -0.02762 -0.15191 0.04024 0.00186 0.04613 0.1477 0.00584 0.03141 -0.16233 -0.16633 -0.00927 -0.04611 0.03282
-	0.01929 0.16385 -0.07042 0.02799 0.14578 0.04323 0.08245 0.03039 0.15588 0.15991 0.10894 -0.06258 0.02042 -0.1626 -0.14906 0.15699 0.049 -0.14852 0.04812 0.02438 0.16279 -0.1147 0.10494 0.08001 -0.00817 0.16394 0.16427 -0.16433 0.15247 0.11187 0.10397 -0.1459 0.11796 0.05822 -0.14521 0.14297 -0.06602 -0.14951 0.12558 0.17073 -0.1069 -0.13066 -0.06444 -0.13716 -0.09382 -0.08757 -0.0248 -0.08845 -0.14798 0.15236 0.06609 0.15606 0.09386 0.14593 -0.1502 0.06495 0.09689 0.00743 -0.00925 0.14654 -0.03852 0.13162 -0.04088 -0.1167 0.15179 0.14132 -0.0646 0.0979 -0.00577 0.07232 -0.12939 0.15259 0.10915 -0.10365 -0.0925 0.11438 0.0244 -0.01579 0.02047 -0.11887 -0.0275 -0.12414 0.09622 0.17164 0.00337 0.13474 -0.15624 -0.06817 -0.06395 -0.04263 -0.0541 0.03207 -0.16058 0.07325 -0.14611 0.0294 -0.05675 -0.06625 0.0176 -0.15484 -0.06457 0.14256 -0.12269 0.04353 0.13494 -0.03454 0.02074 -0.07452 0.12129 -0.06916 -0.04039 0.0166 0.12664 0.12919 0.12382 0.05846 0.04725 -0.01385 0.07474 0.10661 0.01284 0.06239 0.115 -0.11202 0.13936 0.11048 0.14963 -0.06806 0.148 -0.03606 0.04266 -0.06862 0.0678 0.05875 -0.1413 -0.01831 0.15621 0.12771 -0.0259 0.07499 -0.05776 -0.17053 -0.05013 0.13167 0.00039 0.04195 -0.10489 0.15609 -0.15047 0.04461 0.01646 -0.01988 -0.00082 0.0356 -0.04485 -0.0561 -0.07958 0.0546 0.14417 0.13507 -0.03652 0.00512 0.01457 0.0078 -0.00067 -0.09293 -0.10637 -0.13601 0.13351 0.00668 0.07724 -0.02575 0.09587 -0.13749 -0.0625 -0.17153 0.01366 -0.01608 -0.05654 -0.12545 0.0874 0.06787 -0.12355 0.05246 -0.16994 -0.08521 -0.10331 -0.02762 -0.15191 0.04024 0.00186 0.04613 0.1477 0.00584 0.03141 -0.16233 -0.16633 -0.00927 -0.04611 0.03282
g	-0.03636 0.10689 0.05548 -0.08064 0.08735 0.02832 0.11679 0.00311 -0.06099 0.074 -0.01415 -0.03253 0.03908 0.01958 -0.13856 -0.06144 0.04638 0.12929 -0.01301 0.05975 0.01367 -0.03387 -0.06131 -0.06634 -0.17114 -0.00154 0.03202 0.1248 0.03853 0.01067 0.02832 0.15384 -0.0801 -0.01867 0.02969 0.06407 0.05682 0.02318 -0.12788 -0.09229 0.16846 0.09105 0.15206 0.10594 0.02228 -0.15996 -0.15711 0.1019 0.09774 -0.10783 -0.11713 0.03534 -0.08518 -0.03348 -0.00721 0.09742 -0.16162 0.01217 -0.06244 0.0727 -0.16017 0.01488 -0.0038 -0.14854 -0.16188 0.00299 -0.07245 0.07471 -0.17242 0.16346 0.1634 0.17221 -0.05777 -0.13648 0.0585 -0.07071 -0.14246 -0.03331 0.0972 0.07049 -0.1157 0.05225 -0.11565 0.07887 -0.16796 -0.05961 0.12067 0.01067 -0.05471 0.06959 -0.12062 0.02227 0.08859 0.05086 0.1724 0.04959 -0.00589 0.10198 0.01565 -0.09186 -0.06457 0.14256 -0.12269 0.04353 0.13494 -0.03454 0.02074 -0.07452 0.12129 -0.06916 -0.04039 0.0166 0.12664 0.12919 0.12382 0.05846 0.04725 -0.01385 0.07474 0.10661 0.01284 0.06239 0.115 -0.11202 0.13936 0.11048 0.14963 -0.06806 0.148 -0.03606 0.04266 -0.06862 0.0678 0.05875 -0.1413 -0.01831 0.15621 0.12771 -0.0259 0.07499 -0.05776 -0.17053 -0.05013 0.13167 0.00039 0.04195 -0.10489 0.15609 -0.15047 0.04461 0.01646 -0.01988 -0.00082 0.0356 -0.04485 -0.0561 -0.07958 0.0546 0.14417 0.13507 -0.03652 0.00512 0.01457 0.0078 -0.00067 -0.09293 -0.10637 -0.13601 0.13351 0.00668 0.07724 -0.02575 0.09587 -0.13749 -0.0625 -0.17153 0.01366 -0.01608 -0.05654 -0.12545 0.0874 0.06787 -0.12355 0.05246 -0.16994 -0.08521 -0.10331 -0.02762 -0.15191 0.04024 0.00186 0.04613 0.1477 0.00584 0.03141 -0.16233 -0.16633 -0.00927 -0.04611 0.03282
ñ	0.16781 -0.12775 -0.00387 -0.14221 0.07058 -0.05551 -0.07608 0.01109 -0.0433 0.11251 0.08162 0.0355 0.10521 0.11396 0.07312 0.08759 0.07176 -0.14824 0.12628 0.15597 -0.05343 0.16703 -0.01306 0.05966 -0.06978 0.03343 -0.01593 0.01641 -0.12412 -0.1076 0.12 0.17041 -0.02335 0.0403 0.02286 -0.04908 0.06565 0.1213 0.06822 -0.04407 0.05178 0.03205 0.08331 -0.02921 -0.00404 0.09375 0.06954 -0.15202 -0.10477 -0.07345 0.14966 -0.08697 -0.10999 -0.10182 -0.12196 0.1348 -0.02701 -0.06092 -0.16624 -0.04419 -0.11305 -0.15582 0.15541 -0.06876 0.15806 -0.11355 -0.15094 0.00533 0.09967 0.14556 -0.15948 -0.15436 -0.0862 -0.12283 -0.0201 0.03244 0.08088 -0.13924 0.08943 -0.0961 -0.10864 0.03733 -0.06111 -0.11972 -0.0718 0.00922 0.12124 -0.02457 -0.13511 0.16641 -0.15724 0.16451 -0.16667 -0.08818 -0.01028 -0.01403 -0.01698 -0.01519 -0.0878 0.03607 -0.06457 0.14256 -0.12269 0.04353 0.13494 -0.03454 0.02074 -0.07452 0.12129 -0.06916 -0.04039 0.0166 0.12664 0.12919 0.12382 0.05846 0.04725 -0.01385 0.07474 0.10661 0.01284 0.06239 0.115 -0.11202 0.13936 0.11048 0.14963 -0.06806 0.148 -0.03606 0.04266 -0.06862 0.0678 0.05875 -0.1413 -0.01831 0.15621 0.12771 -0.0259 0.07499 -0.05776 -0.17053 -0.05013 0.13167 0.00039 0.04195 -0.10489 0.15609 -0.15047 0.04461 0.01646 -0.01988 -0.00082 0.0356 -0.04485 -0.0561 -0.07958 0.0546 0.14417 0.13507 -0.03652 0.00512 0.01457 0.0078 -0.00067 -0.09293 -0.10637 -0.13601 0.13351 0.00668 0.07724 -0.02575 0.09587 -0.13749 -0.0625 -0.17153 0.01366 -0.01608 -0.05654 -0.12545 0.0874 0.06787 -0.12355 0.05246 -0.16994 -0.08521 -0.10331 -0.02762 -0.15191 0.04024 0.00186 0.04613 0.1477 0.00584 0.03141 -0.16233 -0.16633 -0.00927 -0.04611 0.03282
h	-0.03785 0.11768 -0.12247 0.09096 0.00169 0.11855 -0.06914 0.11599 -0.10018 0.12261 0.00878 -0.06972 -0.13356 0.06978 0.0526 0.16659 -0.05072 -0.1433 -0.14178 0.05076 -0.13752 -0.03474 -0.14494 -0.07558 0.10501 0.11751 -0.16651 0.06856 -0.04198 0.14158 0.05141 -0.02217 0.14737 0.0052 -0.00509 -0.08542 0.16153 -0.03612 -0.09525 -0.0814 -0.07165 -0.17101 -0.04119 -0.07684 0.00134 -0.10811 -0.1226 -0.08658 -0.07271 0.0686 -0.04591 0.15192 0.06242 -0.16206 0.01151 0.1698 0.1452 -0.08491 -0.0137 -0.00131 -0.14676 -0.04035 0.03537 -0.08824 0.14305 -0.16898 0.01018 0.16663 -0.13733 -0.10184 -0.11367 0.00773 0.09574 0.07918 -0.1532 0.0364 0.04675 -0.09349 -0.0715 -0.10835 -0.03706 0.11625 0.1592 -0.06973 0.0633 -0.00021 0.00502 -0.16688 0.1104 -0.13381 -0.14332 -0.1355 -0.12309 -0.05282 0.02271 0.039 0.10711 -0.14575 0.10414 -0.09815 -0.06457 0.14256 -0.12269 0.04353 0.13494 -0.03454 0.02074 -0.07452 0.12129 -0.06916 -0.04039 0.0166 0.12664 0.12919 0.12382 0.05846 0.04725 -0.01385 0.07474 0.10661 0.01284 0.06239 0.115 -0.11202 0.13936 0.11048 0.14963 -0.06806 0.148 -0.03606 0.04266 -0.06862 0.0678 0.05875 -0.1413 -0.01831 0.15621 0.12771 -0.0259 0.07499 -0.05776 -0.17053 -0.05013 0.13167 0.00039 0.04195 -0.10489 0.15609 -0.15047 0.04461 0.01646 -0.01988 -0.00082 0.0356 -0.04485 -0.0561 -0.07958 0.0546 0.14417 0.13507 -0.03652 0.00512 0.01457 0.0078 -0.00067 -0.09293 -0.10637 -0.13601 0.13351 0.00668 0.07724 -0.02575 0.09587 -0.13749 -0.0625 -0.17153 0.01366 -0.01608 -0.05654 -0.12545 0.0874 0.06787 -0.12355 0.05246 -0.16994 -0.08521 -0.10331 -0.02762 -0.15191 0.04024 0.00186 0.04613 0.1477 0.00584 0.03141 -0.16233 -0.16633 -0.00927 -0.04611 0.03282
v	0.08605 0.16746 -0.11197 -0.11775 0.17232 -0.01014 0.15957 0.13507 -0.13535 -0.05498 -0.07216 -0.15595 -0.03767 0.151 -0.05839 0.15554 0.07759 -0.03955 -0.00729 -0.01753 -0.16048 -0.17124 -0.13045 -0.13843 -0.14826 -0.10685 0.13316 0.02777 -0.06673 0.08936 -0.06094 -0.04562 -0.07829 -0.06865 -0.13387 0.06012 0.0475 -0.11499 0.06848 -0.04544 0.03472 0.06827 -0.02372 0.0174 -0.01568 0.08322 -0.09263 -0.02266 0.03746 -0.06559 -0.15319 -0.01036 0.07746 -0.05649 0.07719 0.05162 -0.02599 -0.06548 0.13995 0.11482 -0.01185 0.06477 -0.04567 0.10127 0.02409 0.09068 0.10564 -0.10576 0.01131 0.06426 -0.00234 -0.06698 0.04071 -0.09289 -0.06151 0.14242 -0.02186 0.0344 -0.11595 0.03785 0.02946 -0.04306 -0.03048 0.03355 0.07319 0.06041 -0.149 -0.0688 0.13636 -0.05979 0.15947 0.15201 0.13874 -0.15894 -0.03316 0.15914 -0.04103 0.10847 -0.13497 -0.10642 -0.06457 0.14256 -0.12269 0.04353 0.13494 -0.03454 0.02074 -0.07452 0.12129 -0.06916 -0.04039 0.0166 0.12664 0.12919 0.12382 0.05846 0.04725 -0.01385 0.07474 0.10661 0.01284 0.06239 0.115 -0.11202 0.13936 0.11048 0.14963 -0.06806 0.148 -0.03606 0.04266 -0.06862 0.0678 0.05875 -0.1413 -0.01831 0.15621 0.12771 -0.0259 0.07499 -0.05776 -0.17053 -0.05013 0.13167 0.00039 0.04195 -0.10489 0.15609 -0.15047 0.04461 0.01646 -0.01988 -0.00082 0.0356 -0.04485 -0.0561 -0.07958 0.0546 0.14417 0.13507 -0.03652 0.00512 0.01457 0.0078 -0.00067 -0.09293 -0.10637 -0.13601 0.13351 0.00668 0.07724 -0.02575 0.09587 -0.13749 -0.0625 -0.17153 0.01366 -0.01608 -0.05654 -0.12545 0.0874 0.06787 -0.12355 0.05246 -0.16994 -0.08521 -0.10331 -0.02762 -0.15191 0.04024 0.00186 0.04613 0.1477 0.00584 0.03141 -0.16233 -0.16633 -0.00927 -0.04611 0.03282
o	0.04801 0.03761 0.09088 0.06062 0.08744 -0.16011 -0.15545 0.11197 0.08527 0.04234 0.1331 0.06706 -0.12867 -0.0442 0.08873 -0.05768 0.07603 -0.02125 0.15159 0.09157 0.15156 -0.03552 0.05234 0.06326 0.01352 0.11638 0.02657 -0.11587 0.16317 0.03103 0.11472 -0.09835 0.17136 -0.11392 0.03456 0.02779 0.08015 -0.01231 -0.05342 -0.09091 -0.04983 -0.08071 0.03381 0.15022 -0.0094 -0.13554 -0.04886 0.08996 -0.06651 -0.07273 -0.02072 -0.03232 -0.11788 -0.02193 -0.00756 -0.06846 0.13982 0.10105 -0.16191 -0.14712 -0.08571 0.01095 -0.13752 0.03159 0.16477 4e-05 -0.02625 0.09005 0.08912 0.04067 0.11596 -0.06474 0.07522 0.11173 0.03628 0.08623 -0.04089 0.14963 -0.04467 -0.16941 0.10928 -0.04161 0.16374 0.11173 -0.02674 0.03917 -0.11808 0.03512 0.11266 0.07133 -0.12018 0.08441 -0.05364 -0.10434 0.00575 -0.14605 0.03584 -0.1073 0.02881 0.06991 -0.06457 0.14256 -0.12269 0.04353 0.13494 -0.03454 0.02074 -0.07452 0.12129 -0.06916 -0.04039 0.0166 0.12664 0.12919 0.12382 0.05846 0.04725 -0.01385 0.07474 0.10661 0.01284 0.06239 0.115 -0.11202 0.13936 0.11048 0.14963 -0.06806 0.148 -0.03606 0.04266 -0.06862 0.0678 0.05875 -0.1413 -0.01831 0.15621 0.12771 -0.0259 0.07499 -0.05776 -0.17053 -0.05013 0.13167 0.00039 0.04195 -0.10489 0.15609 -0.15047 0.04461 0.01646 -0.01988 -0.00082 0.0356 -0.04485 -0.0561 -0.07958 0.0546 0.14417 0.13507 -0.03652 0.00512 0.01457 0.0078 -0.00067 -0.09293 -0.10637 -0.13601 0.13351 0.00668 0.07724 -0.02575 0.09587 -0.13749 -0.0625 -0.17153 0.01366 -0.01608 -0.05654 -0.12545 0.0874 0.06787 -0.12355 0.05246 -0.16994 -0.08521 -0.10331 -0.02762 -0.15191 0.04024 0.00186 0.04613 0.1477 0.00584 0.03141 -0.16233 -0.16633 -0.00927 -0.04611 0.03282
a	-0.04815 -0.05172 -0.05801 -0.13576 0.16787 -0.00767 0.09784 0.13499 -0.14537 -0.03833 0.02115 0.00275 0.09135 -0.11694 0.11889 -0.12829 -0.02061 -0.0392 0.03659 0.1123 -0.13058 0.16894 0.12557 0.08701 -0.08487 0.05973 -0.02065 0.12545 -0.1551 -0.04762 0.12732 0.15969 0.01909 -0.04148 0.10699 0.0885 -0.1529 -0.02801 -0.04819 0.01335 0.17607 -0.16063 -0.08177 0.13578 -0.03336 -0.02666 0.04927 -0.03863 0.00566 -0.15335 -0.15101 0.00166 0.01781 -0.14574 -0.15032 0.08295 0.10327 -0.1759 -0.06557 0.11892 -0.17484 -0.15999 0.01365 0.08853 -0.16065 -0.03839 -0.07126 -0.0295 0.11934 0.13811 -0.01555 0.05174 0.08124 0.0484 -0.03139 0.0356 0.05998 -0.02617 0.01695 0.14581 0.14467 -0.08342 -0.10678 -0.05052 0.16354 0.12887 -0.0093 -0.10612 -0.03242 0.09078 0.02617 -0.09139 0.03769 0.10601 -0.12184 0.14776 0.05563 0.02714 0.05948 0.04729 -0.06457 0.14256 -0.12269 0.04353 0.13494 -0.03454 0.02074 -0.07452 0.12129 -0.06916 -0.04039 0.0166 0.12664 0.12919 0.12382 0.05846 0.04725 -0.01385 0.07474 0.10661 0.01284 0.06239 0.115 -0.11202 0.13936 0.11048 0.14963 -0.06806 0.148 -0.03606 0.04266 -0.06862 0.0678 0.05875 -0.1413 -0.01831 0.15621 0.12771 -0.0259 0.07499 -0.05776 -0.17053 -0.05013 0.13167 0.00039 0.04195 -0.10489 0.15609 -0.15047 0.04461 0.01646 -0.01988 -0.00082 0.0356 -0.04485 -0.0561 -0.07958 0.0546 0.14417 0.13507 -0.03652 0.00512 0.01457 0.0078 -0.00067 -0.09293 -0.10637 -0.13601 0.13351 0.00668 0.07724 -0.02575 0.09587 -0.13749 -0.0625 -0.17153 0.01366 -0.01608 -0.05654 -0.12545 0.0874 0.06787 -0.12355 0.05246 -0.16994 -0.08521 -0.10331 -0.02762 -0.15191 0.04024 0.00186 0.04613 0.1477 0.00584 0.03141 -0.16233 -0.16633 -0.00927 -0.04611 0.03282
f	0.04664 -0.15284 -0.14244 0.15484 -0.11985 0.10977 0.1189 0.02232 -0.12766 0.16102 0.16177 0.15612 0.04533 -0.05676 -0.14189 -0.03329 0.00892 0.16133 0.01557 0.0641 -0.08933 -0.1682 0.09928 -0.08574 0.07761 -0.11504 0.14791 0.14366 0.0418 -0.16658 -0.04747 0.04826 -0.01243 -0.05088 -0.06711 -0.04356 0.00942 0.05212 0.009 0.01325 -0.15346 0.1729 0.15598 0.10008 0.03838 -0.05705 0.1035 -0.13825 0.09582 -0.08326 -0.07548 0.11885 0.01756 -0.02373 0.12977 -0.0648 -0.08443 0.10103 0.11715 -0.04235 0.10315 -0.11006 0.00082 -0.13648 0.06698 -0.17189 -0.16872 -0.09704 0.09657 0.17256 0.078 0.09803 -0.038 0.03965 0.08767 0.1129 -0.01021 0.09417 0.1395 -0.07299 -0.12485 -0.15677 0.12257 0.04274 0.1273 0.03982 0.03851 0.07461 0.15328 -0.0832 0.03199 0.03088 -0.15796 -0.13358 0.03149 0.05095 0.11683 0.03206 0.06204 0.06642 -0.06457 0.14256 -0.12269 0.04353 0.13494 -0.03454 0.02074 -0.07452 0.12129 -0.06916 -0.04039 0.0166 0.12664 0.12919 0.12382 0.05846 0.04725 -0.01385 0.07474 0.10661 0.01284 0.06239 0.115 -0.11202 0.13936 0.11048 0.14963 -0.06806 0.148 -0.03606 0.04266 -0.06862 0.0678 0.05875 -0.1413 -0.01831 0.15621 0.12771 -0.0259 0.07499 -0.05776 -0.17053 -0.05013 0.13167 0.00039 0.04195 -0.10489 0.15609 -0.15047 0.04461 0.01646 -0.01988 -0.00082 0.0356 -0.04485 -0.0561 -0.07958 0.0546 0.14417 0.13507 -0.03652 0.00512 0.01457 0.0078 -0.00067 -0.09293 -0.10637 -0.13601 0.13351 0.00668 0.07724 -0.02575 0.09587 -0.13749 -0.0625 -0.17153 0.01366 -0.01608 -0.05654 -0.12545 0.0874 0.06787 -0.12355 0.05246 -0.16994 -0.08521 -0.10331 -0.02762 -0.15191 0.04024 0.00186 0.04613 0.1477 0.00584 0.03141 -0.16233 -0.16633 -0.00927 -0.04611 0.03282
x	-0.05227 -0.1323 0.15731 0.02551 0.03405 -0.04455 0.055 0.13937 0.02567 -0.15924 -0.12683 -0.07938 0.01635 0.1503 -0.03954 -0.02851 0.10927 0.06122 -0.02444 -0.07958 0.03921 0.01249 0.01023 -0.12312 0.09552 -0.10181 0.05189 -0.04365 0.12368 -0.04622 0.13539 -0.08343 0.00304 0.14327 -0.05803 -0.13095 -0.09842 0.00232 -0.17111 -0.11775 0.0397 0.07183 -0.08245 0.0622 0.05969 -0.03887 0.05103 0.16358 -0.17127 0.00731 0.14523 0.0976 0.15318 0.10141 -0.08206 0.11973 -0.15707 -0.03313 -0.10756 0.11079 -0.16791 0.02409 -0.05029 0.13739 0.06113 0.07056 0.16118 -0.10194 0.0615 0.12632 -0.09488 0.08392 0.1226 -0.06408 -0.09687 -0.02796 0.15599 0.08992 0.15199 0.16081 0.03952 -0.08205 0.0426 -0.12633 -0.00806 -0.13727 -0.046 -0.04661 0.03518 0.07586 0.14146 0.14246 -0.02647 0.15257 0.15104 -0.12723 -0.02827 -0.02285 -0.05364 -0.17208 -0.06457 0.14256 -0.12269 0.04353 0.13494 -0.03454 0.02074 -0.07452 0.12129 -0.06916 -0.04039 0.0166 0.12664 0.12919 0.12382 0.05846 0.04725 -0.01385 0.07474 0.10661 0.01284 0.06239 0.115 -0.11202 0.13936 0.11048 0.14963 -0.06806 0.148 -0.03606 0.04266 -0.06862 0.0678 0.05875 -0.1413 -0.01831 0.15621 0.12771 -0.0259 0.07499 -0.05776 -0.17053 -0.05013 0.13167 0.00039 0.04195 -0.10489 0.15609 -0.15047 0.04461 0.01646 -0.01988 -0.00082 0.0356 -0.04485 -0.0561 -0.07958 0.0546 0.14417 0.13507 -0.03652 0.00512 0.01457 0.0078 -0.00067 -0.09293 -0.10637 -0.13601 0.13351 0.00668 0.07724 -0.02575 0.09587 -0.13749 -0.0625 -0.17153 0.01366 -0.01608 -0.05654 -0.12545 0.0874 0.06787 -0.12355 0.05246 -0.16994 -0.08521 -0.10331 -0.02762 -0.15191 0.04024 0.00186 0.04613 0.1477 0.00584 0.03141 -0.16233 -0.16633 -0.00927 -0.04611 0.03282
z	-0.13535 0.14099 0.00028 -0.08471 -0.08812 0.071 -0.15761 0.06661 0.04129 -0.11522 0.08132 0.14511 0.09849 -0.07401 0.14253 0.09743 0.09066 -0.09869 -0.01946 -0.00162 -0.16986 0.11013 0.12067 -0.05628 0.02596 -0.10284 0.16684 -0.04266 0.07894 0.09581 -0.09289 -0.05388 -0.14099 0.14974 0.10694 0.02121 -0.05236 0.09409 -0.03674 0.13295 0.09639 0.15252 -0.10878 0.13909 -0.16791 0.15067 -0.02941 -0.10457 -0.13978 0.16557 -0.07274 -0.10124 -0.06487 0.15866 -0.14325 -0.04909 -0.10431 -0.09349 0.11461 -0.14515 0.01711 -0.02047 -0.07554 0.09161 -0.14801 -0.11832 -0.08551 0.12222 -0.0697 0.02663 -0.12267 -0.15075 0.09379 0.13013 0.03578 0.15943 0.16686 0.0393 -0.09772 0.11583 0.06125 0.0432 -0.05108 -0.09529 -0.02719 -0.09187 0.03565 -0.15605 -0.09863 -0.01498 0.1583 -0.0394 -0.16658 -0.04456 -0.107 0.08977 -0.09589 -0.12534 0.093 -0.06773 -0.06457 0.14256 -0.12269 0.04353 0.13494 -0.03454 0.02074 -0.07452 0.12129 -0.06916 -0.04039 0.0166 0.12664 0.12919 0.12382 0.05846 0.04725 -0.01385 0.07474 0.10661 0.01284 0.06239 0.115 -0.11202 0.13936 0.11048 0.14963 -0.06806 0.148 -0.03606 0.04266 -0.06862 0.0678 0.05875 -0.1413 -0.01831 0.15621 0.12771 -0.0259 0.07499 -0.05776 -0.17053 -0.05013 0.13167 0.00039 0.04195 -0.10489 0.15609 -0.15047 0.04461 0.01646 -0.01988 -0.00082 0.0356 -0.04485 -0.0561 -0.07958 0.0546 0.14417 0.13507 -0.03652 0.00512 0.01457 0.0078 -0.00067 -0.09293 -0.10637 -0.13601 0.13351 0.00668 0.07724 -0.02575 0.09587 -0.13749 -0.0625 -0.17153 0.01366 -0.01608 -0.05654 -0.12545 0.0874 0.06787 -0.12355 0.05246 -0.16994 -0.08521 -0.10331 -0.02762 -0.15191 0.04024 0.00186 0.04613 0.1477 0.00584 0.03141 -0.16233 -0.16633 -0.00927 -0.04611 0.03282
q	-0.04434 0.05052 0.17201 -0.07907 0.16791 0.15765 -0.10642 0.05747 -0.01042 -0.05699 0.09011 -0.06885 -0.04175 0.02561 -0.14292 0.01731 -0.00217 -0.16795 0.14511 0.05882 -0.07665 -0.15209 -0.03701 0.13624 -0.0019 -0.08231 0.14016 0.07776 0.00326 -0.12024 -0.07469 -0.1506 -0.0489 0.17118 -0.15145 0.08705 0.17037 -0.14891 -0.1035 0.02026 -0.13288 0.00963 -0.11548 -0.04638 0.15596 -0.01179 0.04191 0.13672 -0.01046 -0.11071 -0.14793 -0.16589 0.15241 -0.0707 -0.09326 0.03135 0.13137 0.03688 0.16079 0.07937 -0.08058 -0.15861 -0.06751 -0.14204 0.01082 0.01566 0.07633 -0.03398 -0.07465 -0.06173 0.05689 0.10014 0.12584 0.11311 -0.09065 0.12197 -0.02638 0.00947 0.11282 -0.15162 0.03163 0.05943 0.15322 0.11028 -0.08226 -0.15046 -0.0934 0.04178 0.0307 -0.00302 -0.03259 -0.07084 0.05325 0.12809 -0.08325 -0.11504 -0.12773 0.16662 0.09083 -0.04677 -0.06457 0.14256 -0.12269 0.04353 0.13494 -0.03454 0.02074 -0.07452 0.12129 -0.06916 -0.04039 0.0166 0.12664 0.12919 0.12382 0.05846 0.04725 -0.01385 0.07474 0.10661 0.01284 0.06239 0.115 -0.11202 0.13936 0.11048 0.14963 -0.06806 0.148 -0.03606 0.04266 -0.06862 0.0678 0.05875 -0.1413 -0.01831 0.15621 0.12771 -0.0259 0.07499 -0.05776 -0.17053 -0.05013 0.13167 0.00039 0.04195 -0.10489 0.15609 -0.15047 0.04461 0.01646 -0.01988 -0.00082 0.0356 -0.04485 -0.0561 -0.07958 0.0546 0.14417 0.13507 -0.03652 0.00512 0.01457 0.0078 -0.00067 -0.09293 -0.10637 -0.13601 0.13351 0.00668 0.07724 -0.02575 0.09587 -0.13749 -0.0625 -0.17153 0.01366 -0.01608 -0.05654 -0.12545 0.0874 0.06787 -0.12355 0.05246 -0.16994 -0.08521 -0.10331 -0.02762 -0.15191 0.04024 0.00186 0.04613 0.1477 0.00584 0.03141 -0.16233 -0.16633 -0.00927 -0.04611 0.03282
r	0.0917 0.11526 -0.08735 -0.04756 0.02819 0.16143 0.14338 -0.15871 0.07239 0.11421 -0.0233 0.096 -0.00586 0.03797 -0.0518 -0.12581 0.01244 -0.08021 0.00961 0.14138 -0.17473 -0.1278 0.17264 0.1393 -0.16309 -0.03294 -0.12116 -0.13888 -0.06839 -0.04681 -0.01993 -0.03615 -0.17341 -0.13991 0.02765 0.00423 0.08048 0.13209 0.00824 0.0247 -0.11054 -0.01898 0.09715 0.06857 -0.05221 -0.14596 0.1077 0.00271 0.04252 -0.05501 -0.04089 0.14122 0.15322 -0.15321 0.07208 0.10868 -0.0772 0.14854 -0.17536 0.12891 0.15926 -0.17451 -0.03148 0.12313 -0.11492 -0.00625 0.07693 -0.02293 -0.11475 -0.12718 0.00811 0.1254 0.13603 -0.00694 0.00593 -0.10454 -0.01241 0.10825 -0.0252 -0.00213 -0.02214 0.06264 -0.13216 0.10037 0.04277 -0.11253 0.10425 0.05279 0.11686 -0.1154 -0.03982 -0.0519 -0.11615 -0.17148 0.0059 0.0306 0.11076 0.16929 -0.02668 0.16122 -0.06457 0.14256 -0.12269 0.04353 0.13494 -0.03454 0.02074 -0.07452 0.12129 -0.06916 -0.04039 0.0166 0.12664 0.12919 0.12382 0.05846 0.04725 -0.01385 0.07474 0.10661 0.01284 0.06239 0.115 -0.11202 0.13936 0.11048 0.14963 -0.06806 0.148 -0.03606 0.04266 -0.06862 0.0678 0.05875 -0.1413 -0.01831 0.15621 0.12771 -0.0259 0.07499 -0.05776 -0.17053 -0.05013 0.13167 0.00039 0.04195 -0.10489 0.15609 -0.15047 0.04461 0.01646 -0.01988 -0.00082 0.0356 -0.04485 -0.0561 -0.07958 0.0546 0.14417 0.13507 -0.03652 0.00512 0.01457 0.0078 -0.00067 -0.09293 -0.10637 -0.13601 0.13351 0.00668 0.07724 -0.02575 0.09587 -0.13749 -0.0625 -0.17153 0.01366 -0.01608 -0.05654 -0.12545 0.0874 0.06787 -0.12355 0.05246 -0.16994 -0.08521 -0.10331 -0.02762 -0.15191 0.04024 0.00186 0.04613 0.1477 0.00584 0.03141 -0.16233 -0.16633 -0.00927 -0.04611 0.03282
e	0.17214 -0.13523 -0.11823 -0.06443 0.10559 0.04734 0.03094 -0.01389 0.03219 0.01698 -0.16471 0.14904 -0.01127 -0.00664 0.12445 0.1002 -0.03671 0.01326 0.11365 -0.04698 -0.1281 0.03589 0.15637 -0.16405 0.13746 -0.10132 -0.15805 -0.07354 0.09737 0.13754 -0.11319 -0.08156 -0.09812 0.08588 0.01119 0.12811 0.09653 0.0386 -0.10185 -0.1618 -0.16069 -0.16455 -0.02885 -0.14425 -0.16616 0.02311 0.09012 0.09091 0.15015 -0.15472 0.16009 -0.10376 -0.08122 0.08156 0.09417 0.05035 0.13859 -0.02693 0.13136 0.02947 0.05862 -0.16932 -0.0037 -0.15901 -0.06961 0.05734 0.09444 0.14651 -0.13744 0.17087 -0.09155 0.12772 -0.0843 0.07697 -0.02493 -0.09684 -0.00268 0.14957 0.13305 -0.03018 0.03004 -0.07451 -0.00239 -0.01689 -0.0404 0.00495 0.16948 0.08484 -0.02734 0.10323 -0.10371 0.07169 -0.09468 0.05395 -0.13857 -0.12198 0.04475 -0.03519 -0.03554 0.01657 -0.06457 0.14256 -0.12269 0.04353 0.13494 -0.03454 0.02074 -0.07452 0.12129 -0.06916 -0.04039 0.0166 0.12664 0.12919 0.12382 0.05846 0.04725 -0.01385 0.07474 0.10661 0.01284 0.06239 0.115 -0.11202 0.13936 0.11048 0.14963 -0.06806 0.148 -0.03606 0.04266 -0.06862 0.0678 0.05875 -0.1413 -0.01831 0.15621 0.12771 -0.0259 0.07499 -0.05776 -0.17053 -0.05013 0.13167 0.00039 0.04195 -0.10489 0.15609 -0.15047 0.04461 0.01646 -0.01988 -0.00082 0.0356 -0.04485 -0.0561 -0.07958 0.0546 0.14417 0.13507 -0.03652 0.00512 0.01457 0.0078 -0.00067 -0.09293 -0.10637 -0.13601 0.13351 0.00668 0.07724 -0.02575 0.09587 -0.13749 -0.0625 -0.17153 0.01366 -0.01608 -0.05654 -0.12545 0.0874 0.06787 -0.12355 0.05246 -0.16994 -0.08521 -0.10331 -0.02762 -0.15191 0.04024 0.00186 0.04613 0.1477 0.00584 0.03141 -0.16233 -0.16633 -0.00927 -0.04611 0.03282
c	-0.16229 -0.14507 0.04721 -0.14983 0.14866 0.168 0.06162 -0.08688 0.09531 -0.01031 0.05637 -0.09736 -0.15377 -0.09348 -0.16246 -0.1262 0.06509 0.07814 0.12957 0.02254 0.07617 0.13003 0.00657 0.06025 -0.04836 -0.07768 0.13221 -0.14887 0.07973 0.14199 0.03641 -0.00184 -0.01005 -0.01074 0.03938 -0.08375 0.09334 -0.03265 0.14861 -0.02017 -0.07142 -0.02045 0.03146 0.08195 -0.1478 -0.03391 0.01647 -0.05053 0.01179 0.02589 0.06288 -0.03792 0.0553 -0.02775 0.0321 -0.00623 -0.01636 -0.10985 -0.01036 0.13757 -0.16889 0.06294 -0.12712 0.14074 -0.13988 -0.00347 -0.07605 0.13996 -0.10682 0.10674 -0.0958 -0.13581 -0.0987 -0.10781 -0.06561 0.17155 0.12863 -0.10555 0.12326 0.13447 0.09692 0.15769 0.09775 -0.11926 -0.14399 -0.01364 0.08144 -0.16691 0.12079 0.10372 -0.07919 -0.00317 0.03243 0.02733 0.01073 -0.01091 -0.12197 0.02156 -0.07128 0.01592 -0.06457 0.14256 -0.12269 0.04353 0.13494 -0.03454 0.02074 -0.07452 0.12129 -0.06916 -0.04039 0.0166 0.12664 0.12919 0.12382 0.05846 0.04725 -0.01385 0.07474 0.10661 0.01284 0.06239 0.115 -0.11202 0.13936 0.11048 0.14963 -0.06806 0.148 -0.03606 0.04266 -0.06862 0.0678 0.05875 -0.1413 -0.01831 0.15621 0.12771 -0.0259 0.07499 -0.05776 -0.17053 -0.05013 0.13167 0.00039 0.04195 -0.10489 0.15609 -0.15047 0.04461 0.01646 -0.01988 -0.00082 0.0356 -0.04485 -0.0561 -0.07958 0.0546 0.14417 0.13507 -0.03652 0.00512 0.01457 0.0078 -0.00067 -0.09293 -0.10637 -0.13601 0.13351 0.00668 0.07724 -0.02575 0.09587 -0.13749 -0.0625 -0.17153 0.01366 -0.01608 -0.05654 -0.12545 0.0874 0.06787 -0.12355 0.05246 -0.16994 -0.08521 -0.10331 -0.02762 -0.15191 0.04024 0.00186 0.04613 0.1477 0.00584 0.03141 -0.16233 -0.16633 -0.00927 -0.04611 0.03282
b	0.08861 0.06707 -0.00025 -0.13242 0.04112 -0.02376 -0.03068 0.15086 0.05411 -0.07832 0.05769 -0.01534 -0.15755 0.12164 -0.1061 -0.14533 -0.09136 -0.16489 0.07986 0.13656 -0.08564 -0.05977 0.00499 0.14961 -0.04191 -0.14586 -0.03266 -0.06217 -0.14517 -0.15708 0.1218 0.11447 0.08384 0.05468 0.16899 0.05526 0.13807 0.01302 0.10789 -0.01119 0.08089 -0.0745 0.01657 0.11243 -0.03431 -0.01324 -0.01798 0.16658 0.07301 -0.04181 0.08483 -0.11099 -0.10404 -0.09826 0.15673 0.02171 0.04978 -0.14716 0.01154 0.04297 0.04689 0.11188 -0.09203 -0.11967 -0.08549 0.04957 -0.16776 -0.05629 -0.08435 -0.14059 0.08574 0.16658 0.08721 -0.03355 -0.1086 0.05404 -0.05233 0.04526 0.12278 -0.16945 -0.01491 0.14911 0.12656 -0.13813 -0.15807 -0.1308 0.06858 -0.12207 0.16468 0.06725 0.02393 0.0258 -0.04579 0.02964 -0.1497 -0.16698 0.11205 -0.15133 -0.09836 -0.15896 -0.06457 0.14256 -0.12269 0.04353 0.13494 -0.03454 0.02074 -0.07452 0.12129 -0.06916 -0.04039 0.0166 0.12664 0.12919 0.12382 0.05846 0.04725 -0.01385 0.07474 0.10661 0.01284 0.06239 0.115 -0.11202 0.13936 0.11048 0.14963 -0.06806 0.148 -0.03606 0.04266 -0.06862 0.0678 0.05875 -0.1413 -0.01831 0.15621 0.12771 -0.0259 0.07499 -0.05776 -0.17053 -0.05013 0.13167 0.00039 0.04195 -0.10489 0.15609 -0.15047 0.04461 0.01646 -0.01988 -0.00082 0.0356 -0.04485 -0.0561 -0.07958 0.0546 0.14417 0.13507 -0.03652 0.00512 0.01457 0.0078 -0.00067 -0.09293 -0.10637 -0.13601 0.13351 0.00668 0.07724 -0.02575 0.09587 -0.13749 -0.0625 -0.17153 0.01366 -0.01608 -0.05654 -0.12545 0.0874 0.06787 -0.12355 0.05246 -0.16994 -0.08521 -0.10331 -0.02762 -0.15191 0.04024 0.00186 0.04613 0.1477 0.00584 0.03141 -0.16233 -0.16633 -0.00927 -0.04611 0.03282
y	-0.11685 -0.02677 -0.13684 0.0708 -0.16953 0.1519 -0.02035 0.05869 0.10922 -0.0316 -0.02777 0.10971 0.05484 -0.03566 -0.16162 -0.12846 0.05905 0.17293 -0.14624 0.12233 0.14004 -0.13705 0.1265 0.03562 0.06271 -0.10077 0.11911 -0.08463 -0.06766 -0.0284 0.10962 0.02718 -0.14205 -0.07062 0.05491 0.01592 -0.11115 -0.03976 -0.02752 0.11008 0.1193 0.12656 0.1253 -0.11707 0.04932 -0.08941 -0.0613 0.10568 0.05856 0.09026 0.01415 -0.14151 0.14589 -0.08359 0.15251 -0.14826 -0.0232 -0.10371 -0.09087 -0.02638 0.14781 0.09019 0.13095 -0.0644 -0.13895 -0.10473 -0.10238 0.0269 0.12611 0.01073 0.13855 0.0248 -0.13589 0.11655 0.14556 0.09982 0.05813 -0.14924 0.11997 0.08419 -0.09402 0.11803 -0.11496 0.05723 -0.04078 -0.08278 0.16242 -0.0142 -0.07394 -0.0484 0.00029 0.1023 -0.07013 -0.12406 -0.08937 0.04917 0.0955 0.06101 -0.0177 -0.02257 -0.06457 0.14256 -0.12269 0.04353 0.13494 -0.03454 0.02074 -0.07452 0.12129 -0.06916 -0.04039 0.0166 0.12664 0.12919 0.12382 0.05846 0.04725 -0.01385 0.07474 0.10661 0.01284 0.06239 0.115 -0.11202 0.13936 0.11048 0.14963 -0.06806 0.148 -0.03606 0.04266 -0.06862 0.0678 0.05875 -0.1413 -0.01831 0.15621 0.12771 -0.0259 0.07499 -0.05776 -0.17053 -0.05013 0.13167 0.00039 0.04195 -0.10489 0.15609 -0.15047 0.04461 0.01646 -0.01988 -0.00082 0.0356 -0.04485 -0.0561 -0.07958 0.0546 0.14417 0.13507 -0.03652 0.00512 0.01457 0.0078 -0.00067 -0.09293 -0.10637 -0.13601 0.13351 0.00668 0.07724 -0.02575 0.09587 -0.13749 -0.0625 -0.17153 0.01366 -0.01608 -0.05654 -0.12545 0.0874 0.06787 -0.12355 0.05246 -0.16994 -0.08521 -0.10331 -0.02762 -0.15191 0.04024 0.00186 0.04613 0.1477 0.00584 0.03141 -0.16233 -0.16633 -0.00927 -0.04611 0.03282
j	-0.13337 -0.17117 -0.04215 -0.12061 0.08089 -0.1025 -0.08616 -0.0043 -0.05258 0.03901 0.01972 0.10134 -0.14722 -0.01215 -0.05264 0.06109 0.0804 -0.05001 0.00697 0.10517 0.17237 0.06967 -0.10097 -0.16879 -0.15233 -0.08026 -0.09516 0.00177 0.04746 0.10253 -0.03983 -0.03647 0.02871 0.0437 0.16926 -0.11698 0.05558 0.03656 -0.00983 -0.03311 -0.03975 -0.04212 0.07321 0.00929 -0.0384 0.1047 -0.07412 0.15875 -0.07734 0.12452 -0.07013 0.02561 0.11465 0.05392 0.13424 0.08927 0.06804 -0.01266 0.13422 0.16331 -0.1285 0.11332 0.0303 0.04886 -0.10959 -0.13107 -0.08148 -0.16288 -0.04799 -0.07499 -0.09785 0.10831 -0.06082 0.10068 -0.04453 -0.05291 0.02001 0.0312 0.10965 0.13352 0.04792 -0.09863 0.02603 0.15734 -0.14651 0.16165 0.16521 -0.03138 0.10199 -0.14561 0.05389 -0.01091 -0.04658 -0.09019 -0.04434 -0.07235 0.08349 -0.01575 0.14902 0.10532 -0.06457 0.14256 -0.12269 0.04353 0.13494 -0.03454 0.02074 -0.07452 0.12129 -0.06916 -0.04039 0.0166 0.12664 0.12919 0.12382 0.05846 0.04725 -0.01385 0.07474 0.10661 0.01284 0.06239 0.115 -0.11202 0.13936 0.11048 0.14963 -0.06806 0.148 -0.03606 0.04266 -0.06862 0.0678 0.05875 -0.1413 -0.01831 0.15621 0.12771 -0.0259 0.07499 -0.05776 -0.17053 -0.05013 0.13167 0.00039 0.04195 -0.10489 0.15609 -0.15047 0.04461 0.01646 -0.01988 -0.00082 0.0356 -0.04485 -0.0561 -0.07958 0.0546 0.14417 0.13507 -0.03652 0.00512 0.01457 0.0078 -0.00067 -0.09293 -0.10637 -0.13601 0.13351 0.00668 0.07724 -0.02575 0.09587 -0.13749 -0.0625 -0.17153 0.01366 -0.01608 -0.05654 -0.12545 0.0874 0.06787 -0.12355 0.05246 -0.16994 -0.08521 -0.10331 -0.02762 -0.15191 0.04024 0.00186 0.04613 0.1477 0.00584 0.03141 -0.16233 -0.16633 -0.00927 -0.04611 0.03282
n	0.06626 0.13309 0.16118 0.05058 0.06551 -0.15765 0.16408 -0.09561 0.06567 -0.05575 0.15451 0.00857 0.0422 0.01819 0.17206 -0.03052 -0.17012 -0.1272 0.09038 0.00957 0.06256 0.13845 -0.0708 -0.17067 -0.08089 -0.01955 0.12525 0.06093 -0.15607 -0.01247 0.11819 -0.06608 0.06338 0.0718 0.02431 0.02951 -0.02208 0.04956 0.16174 -0.11867 -0.10621 -0.0032 0.10795 0.07842 0.02121 0.07546 -0.04116 -0.14716 0.16774 0.03156 0.13331 -0.10407 0.03161 0.10477 0.14852 -0.01464 -0.00361 -0.01297 -0.08628 -0.09869 0.043 0.06137 -0.09994 -0.12778 -0.04911 -0.07457 -0.00377 0.12703 -0.03814 0.13481 -0.04642 -0.01493 0.10363 0.11987 -0.04563 -0.07161 -0.03795 -0.12898 0.0817 0.08852 -0.1639 0.07352 0.06698 -0.15223 -0.11566 0.11162 -0.06235 -0.12152 -0.00132 0.07709 -0.14851 -0.0995 0.17029 -0.12869 -0.09222 0.00044 -0.08427 -0.05209 -0.11097 -0.00217 -0.06457 0.14256 -0.12269 0.04353 0.13494 -0.03454 0.02074 -0.07452 0.12129 -0.06916 -0.04039 0.0166 0.12664 0.12919 0.12382 0.05846 0.04725 -0.01385 0.07474 0.10661 0.01284 0.06239 0.115 -0.11202 0.13936 0.11048 0.14963 -0.06806 0.148 -0.03606 0.04266 -0.06862 0.0678 0.05875 -0.1413 -0.01831 0.15621 0.12771 -0.0259 0.07499 -0.05776 -0.17053 -0.05013 0.13167 0.00039 0.04195 -0.10489 0.15609 -0.15047 0.04461 0.01646 -0.01988 -0.00082 0.0356 -0.04485 -0.0561 -0.07958 0.0546 0.14417 0.13507 -0.03652 0.00512 0.01457 0.0078 -0.00067 -0.09293 -0.10637 -0.13601 0.13351 0.00668 0.07724 -0.02575 0.09587 -0.13749 -0.0625 -0.17153 0.01366 -0.01608 -0.05654 -0.12545 0.0874 0.06787 -0.12355 0.05246 -0.16994 -0.08521 -0.10331 -0.02762 -0.15191 0.04024 0.00186 0.04613 0.1477 0.00584 0.03141 -0.16233 -0.16633 -0.00927 -0.04611 0.03282
m	0.15192 -0.13108 0.00778 -0.06941 0.0208 0.12622 0.12131 -0.05208 0.06605 -0.05017 0.10525 0.05853 -0.15111 0.15145 -0.13657 0.02647 -0.07657 -0.06987 0.12396 -0.15125 -0.13288 0.04206 0.05315 -0.09022 0.10514 0.10932 -0.10962 -0.03895 -0.11411 0.01512 -0.02571 0.12978 0.10759 0.01597 0.14921 0.16037 0.02551 0.10339 0.17124 0.14502 0.11245 0.11386 0.16966 -0.11567 0.12036 0.15468 0.07596 0.13346 -0.06005 0.03119 -0.05468 0.10561 -0.12544 -0.00348 -0.14944 0.12974 -0.01292 -0.10157 -0.12783 0.09298 -0.09782 -0.11255 0.06538 0.12373 0.05379 0.05722 0.16354 0.11614 -0.1381 0.08481 -0.11364 0.00657 -0.02421 0.07533 -0.13544 0.01309 0.04264 0.11238 -0.03211 -0.07708 0.15723 -0.03559 0.16716 0.08215 0.05319 -0.02968 0.016 0.03741 -0.00296 0.05245 -0.11976 -0.16342 -0.12257 -0.17185 0.00012 0.15052 -0.15282 -0.15933 -0.05942 -0.03354 -0.06457 0.14256 -0.12269 0.04353 0.13494 -0.03454 0.02074 -0.07452 0.12129 -0.06916 -0.04039 0.0166 0.12664 0.12919 0.12382 0.05846 0.04725 -0.01385 0.07474 0.10661 0.01284 0.06239 0.115 -0.11202 0.13936 0.11048 0.14963 -0.06806 0.148 -0.03606 0.04266 -0.06862 0.0678 0.05875 -0.1413 -0.01831 0.15621 0.12771 -0.0259 0.07499 -0.05776 -0.17053 -0.05013 0.13167 0.00039 0.04195 -0.10489 0.15609 -0.15047 0.04461 0.01646 -0.01988 -0.00082 0.0356 -0.04485 -0.0561 -0.07958 0.0546 0.14417 0.13507 -0.03652 0.00512 0.01457 0.0078 -0.00067 -0.09293 -0.10637 -0.13601 0.13351 0.00668 0.07724 -0.02575 0.09587 -0.13749 -0.0625 -0.17153 0.01366 -0.01608 -0.05654 -0.12545 0.0874 0.06787 -0.12355 0.05246 -0.16994 -0.08521 -0.10331 -0.02762 -0.15191 0.04024 0.00186 0.04613 0.1477 0.00584 0.03141 -0.16233 -0.16633 -0.00927 -0.04611 0.03282
í	0.0977 -0.16153 0.09151 0.12433 0.1711 -0.1428 -0.02449 -0.0241 0.12673 0.00533 0.05264 0.05032 -0.01782 0.03932 0.00022 -0.14823 -0.14495 0.02435 -0.09545 -0.03283 -0.14421 -0.1465 0.02221 0.04748 0.12218 -0.10437 0.08098 -0.0705 0.16236 -0.1234 0.00079 -0.0044 -0.14878 -0.12091 -0.1045 -0.04079 -0.01831 -0.10896 -0.09262 -0.17243 0.03261 0.14354 0.15571 -0.03779 0.07376 -0.12864 0.16121 -0.12158 0.15537 0.06196 0.16054 0.13145 0.11035 -0.02712 -0.00312 -0.13659 0.12439 -0.00942 0.1647 -0.04799 0.16654 0.14454 -0.0847 0.03929 -0.07799 0.14209 -0.11405 0.1023 0.11909 -0.10471 -0.08918 -0.00985 0.05142 0.14195 -0.01322 0.08478 0.16253 -0.06806 0.00695 -0.1579 0.11174 0.09477 -0.14885 -0.15085 0.03172 0.08372 -0.04608 -0.09595 0.1461 -0.13682 -0.15529 0.01779 -0.10688 -0.1402 -0.04819 0.16584 0.16588 0.12598 0.16695 -0.03337 -0.06457 0.14256 -0.12269 0.04353 0.13494 -0.03454 0.02074 -0.07452 0.12129 -0.06916 -0.04039 0.0166 0.12664 0.12919 0.12382 0.05846 0.04725 -0.01385 0.07474 0.10661 0.01284 0.06239 0.115 -0.11202 0.13936 0.11048 0.14963 -0.06806 0.148 -0.03606 0.04266 -0.06862 0.0678 0.05875 -0.1413 -0.01831 0.15621 0.12771 -0.0259 0.07499 -0.05776 -0.17053 -0.05013 0.13167 0.00039 0.04195 -0.10489 0.15609 -0.15047 0.04461 0.01646 -0.01988 -0.00082 0.0356 -0.04485 -0.0561 -0.07958 0.0546 0.14417 0.13507 -0.03652 0.00512 0.01457 0.0078 -0.00067 -0.09293 -0.10637 -0.13601 0.13351 0.00668 0.07724 -0.02575 0.09587 -0.13749 -0.0625 -0.17153 0.01366 -0.01608 -0.05654 -0.12545 0.0874 0.06787 -0.12355 0.05246 -0.16994 -0.08521 -0.10331 -0.02762 -0.15191 0.04024 0.00186 0.04613 0.1477 0.00584 0.03141 -0.16233 -0.16633 -0.00927 -0.04611 0.03282
i	-0.08281 -0.155 -0.11692 -0.10215 -0.07109 -0.01876 -0.10998 -0.16158 -0.06703 -0.01131 -0.03281 0.12655 -0.14397 -0.15126 -0.10462 -0.12662 -0.14128 -0.03913 0.1553 0.08401 0.09515 -0.12203 0.02723 -0.10526 -0.15289 -0.16161 -0.14222 0.10385 -0.04851 -0.03108 0.1385 -0.15711 0.0425 0.15242 0.06119 -0.0095 -0.17438 0.11603 -0.12615 0.1515 0.09769 -0.02579 0.02647 0.03211 -0.13427 -0.13778 -0.16601 -0.00987 -0.04395 -0.08999 0.1007 -0.13137 -0.10272 0.10776 -0.11103 -0.05533 -0.07598 0.15446 -0.05078 -0.17035 0.03483 -0.04535 -0.03444 0.05488 0.10193 -0.08261 -0.17074 0.04212 0.12872 0.1455 0.00705 0.14711 0.12755 0.09439 -0.13705 -0.02947 -0.07106 0.06547 0.00197 0.12859 0.04365 -0.12338 -0.0922 -0.13311 -0.14967 -0.07318 0.13412 -0.0185 0.05541 -0.00433 -0.00093 -0.11828 -0.13117 0.07276 -0.13223 -0.04496 -0.15941 0.11405 -0.11131 0.06749 -0.06457 0.14256 -0.12269 0.04353 0.13494 -0.03454 0.02074 -0.07452 0.12129 -0.06916 -0.04039 0.0166 0.12664 0.12919 0.12382 0.05846 0.04725 -0.01385 0.07474 0.10661 0.01284 0.06239 0.115 -0.11202 0.13936 0.11048 0.14963 -0.06806 0.148 -0.03606 0.04266 -0.06862 0.0678 0.05875 -0.1413 -0.01831 0.15621 0.12771 -0.0259 0.07499 -0.05776 -0.17053 -0.05013 0.13167 0.00039 0.04195 -0.10489 0.15609 -0.15047 0.04461 0.01646 -0.01988 -0.00082 0.0356 -0.04485 -0.0561 -0.07958 0.0546 0.14417 0.13507 -0.03652 0.00512 0.01457 0.0078 -0.00067 -0.09293 -0.10637 -0.13601 0.13351 0.00668 0.07724 -0.02575 0.09587 -0.13749 -0.0625 -0.17153 0.01366 -0.01608 -0.05654 -0.12545 0.0874 0.06787 -0.12355 0.05246 -0.16994 -0.08521 -0.10331 -0.02762 -0.15191 0.04024 0.00186 0.04613 0.1477 0.00584 0.03141 -0.16233 -0.16633 -0.00927 -0.04611 0.03282
l	-0.16877 0.12058 0.09756 0.02671 -0.12734 -0.14882 -0.05206 -0.0638 0.10654 -0.16243 0.16092 -0.08962 0.14423 0.08585 0.14829 -0.0965 0.133 0.06879 0.158 0.12863 0.15309 -0.06784 -0.14253 -0.13744 0.00261 -0.11381 -0.02827 0.14261 0.00087 0.08738 -0.01132 0.08516 0.05318 -0.0065 -0.04671 -0.0533 0.02142 -0.12755 0.06081 -0.04672 0.15879 0.01535 -0.14052 0.11684 -0.14939 -0.04084 0.02478 -0.03273 0.06459 -0.09098 0.16111 0.0977 0.09681 0.06894 -0.10033 -0.05677 0.08618 -0.0315 0.02018 -0.0033 -0.14848 -0.09402 -0.0544 0.05905 0.00412 -0.1634 -0.05433 -0.128 -0.05182 0.04676 -0.1162 0.06194 0.03411 0.06536 -0.09883 -0.08218 -0.00864 -0.14679 0.1159 0.13083 -0.16201 -0.01849 0.16708 -0.02653 -0.09603 0.13418 -0.04552 -0.05953 0.1721 -0.0375 -0.08636 -0.11444 -0.16918 -0.02503 0.00234 -0.10258 -0.13164 -0.16479 0.10856 -0.15569 -0.06457 0.14256 -0.12269 0.04353 0.13494 -0.03454 0.02074 -0.07452 0.12129 -0.06916 -0.04039 0.0166 0.12664 0.12919 0.12382 0.05846 0.04725 -0.01385 0.07474 0.10661 0.01284 0.06239 0.115 -0.11202 0.13936 0.11048 0.14963 -0.06806 0.148 -0.03606 0.04266 -0.06862 0.0678 0.05875 -0.1413 -0.01831 0.15621 0.12771 -0.0259 0.07499 -0.05776 -0.17053 -0.05013 0.13167 0.00039 0.04195 -0.10489 0.15609 -0.15047 0.04461 0.01646 -0.01988 -0.00082 0.0356 -0.04485 -0.0561 -0.07958 0.0546 0.14417 0.13507 -0.03652 0.00512 0.01457 0.0078 -0.00067 -0.09293 -0.10637 -0.13601 0.13351 0.00668 0.07724 -0.02575 0.09587 -0.13749 -0.0625 -0.17153 0.01366 -0.01608 -0.05654 -0.12545 0.0874 0.06787 -0.12355 0.05246 -0.16994 -0.08521 -0.10331 -0.02762 -0.15191 0.04024 0.00186 0.04613 0.1477 0.00584 0.03141 -0.16233 -0.16633 -0.00927 -0.04611 0.03282
ó	-0.00891 0.15441 0.08724 -0.01358 0.12519 0.08026 -0.16208 -0.0111 -0.15466 0.08529 -0.1074 0.09486 0.00415 0.03559 -0.13379 0.11806 0.11363 -0.02413 -0.01462 0.00526 -0.05466 -0.13522 -0.15511 0.03757 -0.14542 0.02894 -0.16058 0.04962 0.02238 0.15938 -0.148 0.17159 -0.16417 0.07115 -0.01538 -0.06997 0.00637 0.01658 0.07524 0.03691 -0.11778 0.01186 -0.07725 -0.12162 0.05489 0.06235 -0.06843 -0.01602 0.02977 -0.06019 -0.07013 0.02777 -0.1345 0.11261 -0.11183 -0.07474 -0.11184 -0.04457 0.13819 0.12456 0.07612 0.0948 -0.04879 -0.04142 0.08363 0.15158 -0.13785 0.09266 -0.15378 0.06381 0.16859 0.15154 0.11712 0.03438 -0.04561 0.04291 0.09982 -0.08061 0.02798 -0.14881 0.03338 0.10055 -0.04405 -0.12851 0.03494 -0.17153 0.03162 0.04405 -0.00928 0.16581 -0.13767 0.13017 -0.13635 -0.15967 -0.09049 -0.10325 -0.00374 0.11344 0.11005 0.12117 -0.06457 0.14256 -0.12269 0.04353 0.13494 -0.03454 0.02074 -0.07452 0.12129 -0.06916 -0.04039 0.0166 0.12664 0.12919 0.12382 0.05846 0.04725 -0.01385 0.07474 0.10661 0.01284 0.06239 0.115 -0.11202 0.13936 0.11048 0.14963 -0.06806 0.148 -0.03606 0.04266 -0.06862 0.0678 0.05875 -0.1413 -0.01831 0.15621 0.12771 -0.0259 0.07499 -0.05776 -0.17053 -0.05013 0.13167 0.00039 0.04195 -0.10489 0.15609 -0.15047 0.04461 0.01646 -0.01988 -0.00082 0.0356 -0.04485 -0.0561 -0.07958 0.0546 0.14417 0.13507 -0.03652 0.00512 0.01457 0.0078 -0.00067 -0.09293 -0.10637 -0.13601 0.13351 0.00668 0.07724 -0.02575 0.09587 -0.13749 -0.0625 -0.17153 0.01366 -0.01608 -0.05654 -0.12545 0.0874 0.06787 -0.12355 0.05246 -0.16994 -0.08521 -0.10331 -0.02762 -0.15191 0.04024 0.00186 0.04613 0.1477 0.00584 0.03141 -0.16233 -0.16633 -0.00927 -0.04611 0.03282
ú	-0.07549 -0.01493 -0.13074 0.06737 0.00664 -0.11083 0.07357 0.03451 -0.05318 0.02305 -0.05194 -0.01365 0.08336 -0.00965 0.05573 -0.17008 -0.07672 -0.11301 0.11909 0.14505 0.02863 0.08328 0.12414 0.14949 -0.09451 0.04221 0.03098 0.15219 0.09987 -0.1312 -0.12826 -0.15887 -0.02929 0.03108 -0.03713 -0.09425 -0.07217 0.08317 -0.12718 -0.06564 -0.08412 0.03523 0.01584 -0.04277 0.05683 -0.01002 0.1295 -0.06689 0.07485 0.12772 0.09067 -0.00307 -0.11828 0.02754 -0.00034 -0.149 0.15865 -0.0407 0.13227 -0.05282 0.13884 0.08181 0.14466 -0.05294 0.00347 0.08114 -0.08199 0.15067 -0.14342 -0.1681 0.08733 -0.13544 -0.07666 -0.14501 -0.03762 -0.11925 0.16125 0.09682 0.06581 -0.04774 0.11891 -0.15798 -0.09123 0.12434 0.04549 0.10253 0.05662 -0.15654 -0.08673 0.13864 -0.06068 -0.04403 -0.04854 0.12987 0.07236 -0.04744 0.00272 -0.00079 0.0684 0.0211 -0.06457 0.14256 -0.12269 0.04353 0.13494 -0.03454 0.02074 -0.07452 0.12129 -0.06916 -0.04039 0.0166 0.12664 0.12919 0.12382 0.05846 0.04725 -0.01385 0.07474 0.10661 0.01284 0.06239 0.115 -0.11202 0.13936 0.11048 0.14963 -0.06806 0.148 -0.03606 0.04266 -0.06862 0.0678 0.05875 -0.1413 -0.01831 0.15621 0.12771 -0.0259 0.07499 -0.05776 -0.17053 -0.05013 0.13167 0.00039 0.04195 -0.10489 0.15609 -0.15047 0.04461 0.01646 -0.01988 -0.00082 0.0356 -0.04485 -0.0561 -0.07958 0.0546 0.14417 0.13507 -0.03652 0.00512 0.01457 0.0078 -0.00067 -0.09293 -0.10637 -0.13601 0.13351 0.00668 0.07724 -0.02575 0.09587 -0.13749 -0.0625 -0.17153 0.01366 -0.01608 -0.05654 -0.12545 0.0874 0.06787 -0.12355 0.05246 -0.16994 -0.08521 -0.10331 -0.02762 -0.15191 0.04024 0.00186 0.04613 0.1477 0.00584 0.03141 -0.16233 -0.16633 -0.00927 -0.04611 0.03282
á	-0.16449 -0.07042 -0.05829 -0.0933 -0.05404 -0.12471 0.10388 0.02461 0.04216 0.13276 -0.05772 -0.03152 0.07025 0.07809 0.09477 -0.00747 -0.06661 -0.01972 -0.04853 0.03901 0.08948 0.15836 -0.00815 0.03979 -0.13377 -0.0253 -0.15997 0.13486 -0.09848 0.12192 -0.15835 0.16488 0.09407 -0.1357 0.05108 0.0179 0.00752 0.10681 0.12504 0.1533 0.13557 0.03012 -0.05642 0.0849 0.12157 -0.00357 0.15671 0.15493 -0.10624 -0.05954 0.0392 0.13742 0.08114 -0.06792 -0.17047 -0.098 -0.07157 -0.12374 0.09575 0.00487 0.15315 -0.01228 0.07544 -0.03837 -0.02374 -0.10053 0.14538 0.0304 0.1729 -0.17084 -0.16639 -0.01334 0.04313 0.08907 0.06261 -0.03419 0.03099 -0.0904 -0.15013 0.06339 0.11799 -0.1141 -0.03428 -0.02776 -0.07734 0.00484 -0.11394 0.10076 0.11728 0.06328 -0.04027 0.12051 -0.07214 -0.00664 0.15548 0.08767 -0.15786 0.09186 -0.13273 -0.03404 -0.06457 0.14256 -0.12269 0.04353 0.13494 -0.03454 0.02074 -0.07452 0.12129 -0.06916 -0.04039 0.0166 0.12664 0.12919 0.12382 0.05846 0.04725 -0.01385 0.07474 0.10661 0.01284 0.06239 0.115 -0.11202 0.13936 0.11048 0.14963 -0.06806 0.148 -0.03606 0.04266 -0.06862 0.0678 0.05875 -0.1413 -0.01831 0.15621 0.12771 -0.0259 0.07499 -0.05776 -0.17053 -0.05013 0.13167 0.00039 0.04195 -0.10489 0.15609 -0.15047 0.04461 0.01646 -0.01988 -0.00082 0.0356 -0.04485 -0.0561 -0.07958 0.0546 0.14417 0.13507 -0.03652 0.00512 0.01457 0.0078 -0.00067 -0.09293 -0.10637 -0.13601 0.13351 0.00668 0.07724 -0.02575 0.09587 -0.13749 -0.0625 -0.17153 0.01366 -0.01608 -0.05654 -0.12545 0.0874 0.06787 -0.12355 0.05246 -0.16994 -0.08521 -0.10331 -0.02762 -0.15191 0.04024 0.00186 0.04613 0.1477 0.00584 0.03141 -0.16233 -0.16633 -0.00927 -0.04611 0.03282
ü	0.03188 0.07316 0.11773 0.10806 -0.06659 -0.10805 -0.00558 0.06448 -0.10044 -0.09533 0.05673 -0.05936 0.10459 -0.02785 -0.16973 -0.14986 0.12701 -0.12195 0.08187 0.03069 0.0448 0.16799 0.14153 0.11015 -0.04675 0.08776 -0.17016 0.11032 0.09215 -0.1638 -0.0569 -0.08897 0.06681 -0.15622 -0.16227 0.12942 0.05053 -0.08294 -0.07729 0.00285 -0.08591 0.03475 -0.0281 -0.06212 0.13437 -0.05997 -0.11456 0.00561 0.06841 -0.15433 -0.04024 0.04102 -0.00817 0.1471 0.12072 0.14414 -0.09543 -0.14476 0.09427 0.16704 0.16464 -0.08913 0.15508 -0.0706 -0.13885 -0.00291 0.12044 0.12165 0.09149 -0.04808 -0.04881 -0.07797 -0.06984 0.11821 0.03848 -0.11326 0.07637 -0.08783 0.06537 -0.02889 0.11547 -0.03439 -0.09765 0.02616 -0.13237 0.09646 0.05507 0.096 -0.01133 0.10113 -0.01367 -0.07235 0.15148 0.04921 -0.01551 0.07779 -0.08375 -0.04061 -0.12826 0.11025 -0.06457 0.14256 -0.12269 0.04353 0.13494 -0.03454 0.02074 -0.07452 0.12129 -0.06916 -0.04039 0.0166 0.12664 0.12919 0.12382 0.05846 0.04725 -0.01385 0.07474 0.10661 0.01284 0.06239 0.115 -0.11202 0.13936 0.11048 0.14963 -0.06806 0.148 -0.03606 0.04266 -0.06862 0.0678 0.05875 -0.1413 -0.01831 0.15621 0.12771 -0.0259 0.07499 -0.05776 -0.17053 -0.05013 0.13167 0.00039 0.04195 -0.10489 0.15609 -0.15047 0.04461 0.01646 -0.01988 -0.00082 0.0356 -0.04485 -0.0561 -0.07958 0.0546 0.14417 0.13507 -0.03652 0.00512 0.01457 0.0078 -0.00067 -0.09293 -0.10637 -0.13601 0.13351 0.00668 0.07724 -0.02575 0.09587 -0.13749 -0.0625 -0.17153 0.01366 -0.01608 -0.05654 -0.12545 0.0874 0.06787 -0.12355 0.05246 -0.16994 -0.08521 -0.10331 -0.02762 -0.15191 0.04024 0.00186 0.04613 0.1477 0.00584 0.03141 -0.16233 -0.16633 -0.00927 -0.04611 0.03282
d	0.08903 0.12722 0.144 0.0411 0.11937 0.15585 0.12932 -0.05246 0.06389 -0.02081 -0.14414 -0.15932 -0.15795 -0.06823 0.0041 -0.17243 0.06174 -0.06501 0.15162 0.12529 0.00413 0.11592 0.07506 0.0662 0.00503 -0.13747 -0.1081 0.16637 -0.17522 -0.04595 -0.09742 0.07391 -0.11638 0.0027 -0.02736 -0.11013 -0.14486 -0.06415 -0.04001 0.14892 -0.10896 -0.11196 0.15837 -0.05453 0.12494 0.02305 -0.10886 0.08615 -0.08803 -0.08062 0.16996 -0.10392 -0.03896 0.13143 0.14874 0.0734 0.08036 -0.06969 -0.10279 0.01316 0.16832 0.06535 -0.04994 0.02205 0.06834 -0.00372 0.17024 -0.03852 0.12177 -0.16155 0.10739 -0.02247 0.15891 -0.07269 0.08505 0.01101 -0.00562 -0.09501 0.06025 0.02254 0.11319 0.1378 -0.13042 -0.04794 0.10415 -0.16899 -0.0764 -0.06401 0.14143 -0.15658 0.05758 0.00132 -0.09855 0.04491 -0.01244 0.13081 -0.07358 -0.07805 0.02139 0.17376 -0.06457 0.14256 -0.12269 0.04353 0.13494 -0.03454 0.02074 -0.07452 0.12129 -0.06916 -0.04039 0.0166 0.12664 0.12919 0.12382 0.05846 0.04725 -0.01385 0.07474 0.10661 0.01284 0.06239 0.115 -0.11202 0.13936 0.11048 0.14963 -0.06806 0.148 -0.03606 0.04266 -0.06862 0.0678 0.05875 -0.1413 -0.01831 0.15621 0.12771 -0.0259 0.07499 -0.05776 -0.17053 -0.05013 0.13167 0.00039 0.04195 -0.10489 0.15609 -0.15047 0.04461 0.01646 -0.01988 -0.00082 0.0356 -0.04485 -0.0561 -0.07958 0.0546 0.14417 0.13507 -0.03652 0.00512 0.01457 0.0078 -0.00067 -0.09293 -0.10637 -0.13601 0.13351 0.00668 0.07724 -0.02575 0.09587 -0.13749 -0.0625 -0.17153 0.01366 -0.01608 -0.05654 -0.12545 0.0874 0.06787 -0.12355 0.05246 -0.16994 -0.08521 -0.10331 -0.02762 -0.15191 0.04024 0.00186 0.04613 0.1477 0.00584 0.03141 -0.16233 -0.16633 -0.00927 -0.04611 0.03282
s	0.14501 0.04631 0.12529 -0.09435 0.15497 0.16852 0.07268 0.02011 -0.16362 -0.03098 -0.14193 -0.14045 -0.12387 0.14265 0.04676 0.1179 0.06507 -0.08658 0.17141 0.15827 -0.11246 0.16839 -0.11098 -0.17078 0.15366 -0.08344 -0.11648 0.02917 0.11021 0.12014 0.04977 0.07995 -0.04483 0.1373 -0.03478 -0.14246 -0.13919 -0.05384 -0.03212 0.1095 -0.12773 -0.07469 -0.15519 -0.12363 0.1105 -0.15168 0.08064 0.02694 0.0706 0.00097 -0.07386 0.02892 0.11077 -0.03085 0.05465 -0.09326 0.01074 -0.11304 -0.08175 0.0529 -0.04152 0.06157 -0.12834 -0.10425 -0.11214 0.00798 0.03036 0.07282 -0.12181 -0.04434 0.06528 0.16972 0.10716 0.04271 0.12615 0.05927 -0.01975 0.02517 -0.03185 -0.14485 -0.10954 -0.11552 -0.01595 -0.03886 0.06888 0.09821 -0.07015 -0.13084 -0.03842 -0.12357 0.16035 0.0757 -0.02488 -0.0446 -0.14074 -0.00843 0.05199 0.01233 -0.05393 0.00024 -0.06457 0.14256 -0.12269 0.04353 0.13494 -0.03454 0.02074 -0.07452 0.12129 -0.06916 -0.04039 0.0166 0.12664 0.12919 0.12382 0.05846 0.04725 -0.01385 0.07474 0.10661 0.01284 0.06239 0.115 -0.11202 0.13936 0.11048 0.14963 -0.06806 0.148 -0.03606 0.04266 -0.06862 0.0678 0.05875 -0.1413 -0.01831 0.15621 0.12771 -0.0259 0.07499 -0.05776 -0.17053 -0.05013 0.13167 0.00039 0.04195 -0.10489 0.15609 -0.15047 0.04461 0.01646 -0.01988 -0.00082 0.0356 -0.04485 -0.0561 -0.07958 0.0546 0.14417 0.13507 -0.03652 0.00512 0.01457 0.0078 -0.00067 -0.09293 -0.10637 -0.13601 0.13351 0.00668 0.07724 -0.02575 0.09587 -0.13749 -0.0625 -0.17153 0.01366 -0.01608 -0.05654 -0.12545 0.0874 0.06787 -0.12355 0.05246 -0.16994 -0.08521 -0.10331 -0.02762 -0.15191 0.04024 0.00186 0.04613 0.1477 0.00584 0.03141 -0.16233 -0.16633 -0.00927 -0.04611 0.03282
p	0.11912 0.1602 -0.06786 -0.04452 -0.14832 0.02302 -0.06043 0.07778 0.13456 0.0286 -0.14244 -0.12239 -0.08716 0.13041 -0.16548 0.1435 0.00683 0.00057 -0.07556 0.09941 -0.17684 -0.06256 0.15324 -0.13264 -0.05258 -0.17062 -0.14389 0.14403 -0.14512 -0.0197 -0.0187 -0.0558 0.00101 0.14704 -0.06875 -0.16078 -0.12826 -0.07355 0.05071 0.03347 -0.08141 -0.10937 -0.11999 0.07669 0.0947 0.01626 -0.05568 0.04153 0.16343 0.14343 0.00111 -0.15503 0.14342 -0.05446 -0.12991 0.13888 0.08988 -0.15337 -0.0308 0.09667 -0.14636 -0.01432 -0.11897 0.14442 0.07836 0.00263 -0.14795 -0.04688 0.04565 0.04652 -0.14164 0.1367 0.14157 0.14391 0.0463 0.0104 0.12554 0.00768 -0.1654 -0.08315 0.02148 0.08589 0.07855 -0.1689 -0.0143 0.06135 0.14713 0.04556 -0.14806 -0.11348 -0.0625 -0.00807 -0.03084 -0.05387 0.0766 -0.01231 -0.01634 -0.15601 -0.08852 -0.03108 -0.06457 0.14256 -0.12269 0.04353 0.13494 -0.03454 0.02074 -0.07452 0.12129 -0.06916 -0.04039 0.0166 0.12664 0.12919 0.12382 0.05846 0.04725 -0.01385 0.07474 0.10661 0.01284 0.06239 0.115 -0.11202 0.13936 0.11048 0.14963 -0.06806 0.148 -0.03606 0.04266 -0.06862 0.0678 0.05875 -0.1413 -0.01831 0.15621 0.12771 -0.0259 0.07499 -0.05776 -0.17053 -0.05013 0.13167 0.00039 0.04195 -0.10489 0.15609 -0.15047 0.04461 0.01646 -0.01988 -0.00082 0.0356 -0.04485 -0.0561 -0.07958 0.0546 0.14417 0.13507 -0.03652 0.00512 0.01457 0.0078 -0.00067 -0.09293 -0.10637 -0.13601 0.13351 0.00668 0.07724 -0.02575 0.09587 -0.13749 -0.0625 -0.17153 0.01366 -0.01608 -0.05654 -0.12545 0.0874 0.06787 -0.12355 0.05246 -0.16994 -0.08521 -0.10331 -0.02762 -0.15191 0.04024 0.00186 0.04613 0.1477 0.00584 0.03141 -0.16233 -0.16633 -0.00927 -0.04611 0.03282
