ţ	-0.06823 0.12372 0.07979 -0.06989 -0.00563 0.09265 -0.07306 0.12309 -0.08336 0.13961 -0.14703 -0.09482 -0.15397 0.08243 -0.02278 -0.00822 -0.08217 0.10997 0.08574 0.06907 -0.09382 0.11954 0.10771 -0.09397 0.05682 0.09036 -0.01595 0.00462 0.04642 0.06882 0.04814 0.14515 0.01679 0.09416 0.15431 -0.16599 0.16318 0.02585 0.0949 -0.02738 -0.13335 0.10107 -0.10169 0.09577 -0.13946 0.09802 0.02736 -0.11886 0.08822 -0.02633 0.08536 0.09128 -0.0851 -0.08721 0.06306 -0.03928 0.05851 -0.01109 -0.16867 0.05012 -0.15179 0.01749 -0.00458 -0.09526 0.13617 0.10568 0.13054 -0.08253 0.16689 0.12192 0.12809 0.016 -0.10088 0.1191 0.01937 -0.12163 0.02342 0.13138 -0.03168 -0.06453 -0.06801 0.02544 -0.14126 -0.05733 0.02733 0.17253 0.0114 0.07988 -0.05794 -0.13768 -0.16597 0.15432 -0.04053 -0.08926 -0.08489 0.07155 -0.10206 -0.05973 0.02826 -0.16596 -0.02503 0.03237 0.08521 -0.12475 -0.06842 -0.16888 0.0441 0.17127 0.01235 0.16351 -0.10158 -0.12367 0.12854 -0.08646 0.00497 0.16867 -0.00641 0.08233 -0.03584 0.04977 -0.14751 0.12062 -0.08994 0.03504 -0.10825 0.06176 -0.01428 -0.12228 0.02752 -0.02247 0.02217 0.10833 0.10665 -0.136 0.04723 -0.02297 -0.05739 0.13542 0.0852 -0.08745 -0.06211 -0.09454 -0.07155 0.01668 -0.05799 -0.01144 -0.09368 -0.15598 -0.16492 -0.16996 -0.03458 -0.13698 0.01888 0.06505 -0.15615 0.06264 -0.13073 -0.08522 0.10592 -0.04185 -0.17185 -0.04165 0.0663 0.08849 -0.10024 0.08931 -0.03608 -0.1333 -0.03605 -0.09089 -0.0233 -0.03888 -0.10765 0.0938 0.08843 0.02358 -0.12536 0.11116 -0.14824 -0.15859 0.03331 -0.11049 -0.09202 0.12768 -0.13044 -0.10735 -0.08741 -0.09639 0.03616 0.16464 -0.06263 -0.14624 0.03801 -0.03784 -0.05044 0.01819 0.05394 0.02276 -0.00218 0.00888
u	-0.09936 0.05652 -0.16933 -0.09757 -0.11385 0.10197 -0.13815 0.15632 0.03144 -0.12372 -0.17205 -0.12014 0.10026 -0.06531 0.09568 0.02215 -0.1386 0.15101 -0.1399 0.13293 0.12807 -0.05371 0.00671 0.17208 -0.08619 0.09994 0.09966 -0.15363 -0.08124 0.15684 0.09859 0.16018 0.14427 -0.09564 0.00683 0.12379 0.03132 0.11924 -0.16411 0.0165 0.00773 0.08018 -0.03801 0.16265 0.11422 0.08205 -0.01256 -0.02893 0.06668 -0.10492 0.07211 -0.07769 0.10964 0.04219 -0.03439 0.12538 -0.14234 0.14386 0.16974 0.16348 -0.15512 0.05735 0.09438 -0.16382 0.10754 -0.10248 0.05066 0.08676 0.09475 0.05915 0.08771 0.15937 0.03519 -0.13827 0.08046 -0.16709 -0.09828 0.03733 -0.08015 -0.00023 -0.05465 -0.03471 0.05292 -0.06997 -0.07184 -0.0816 0.11343 0.15219 -0.01203 0.14249 -0.14099 0.14046 -0.00968 -0.13963 -0.06502 0.11476 0.12553 -0.03935 -0.02064 -0.04044 -0.02503 0.03237 0.08521 -0.12475 -0.06842 -0.16888 0.0441 0.17127 0.01235 0.16351 -0.10158 -0.12367 0.12854 -0.08646 0.00497 0.16867 -0.00641 0.08233 -0.03584 0.04977 -0.14751 0.12062 -0.08994 0.03504 -0.10825 0.06176 -0.01428 -0.12228 0.02752 -0.02247 0.02217 0.10833 0.10665 -0.136 0.04723 -0.02297 -0.05739 0.13542 0.0852 -0.08745 -0.06211 -0.09454 -0.07155 0.01668 -0.05799 -0.01144 -0.09368 -0.15598 -0.16492 -0.16996 -0.03458 -0.13698 0.01888 0.06505 -0.15615 0.06264 -0.13073 -0.08522 0.10592 -0.04185 -0.17185 -0.04165 0.0663 0.08849 -0.10024 0.08931 -0.03608 -0.1333 -0.03605 -0.09089 -0.0233 -0.03888 -0.10765 0.0938 0.08843 0.02358 -0.12536 0.11116 -0.14824 -0.15859 0.03331 -0.11049 -0.09202 0.12768 -0.13044 -0.10735 -0.08741 -0.09639 0.03616 0.16464 -0.06263 -0.14624 0.03801 -0.03784 -0.05044 0.01819 0.05394 0.02276 -0.00218 0.00888
t	-0.07962 -0.15652 -0.10105 -0.04728 0.01038 -0.00973 0.03447 -0.07086 0.01291 -0.14182 0.0664 0.15878 -0.07469 -0.15132 0.0462 -0.14281 -0.00788 0.00179 0.16156 0.1418 -0.11761 -0.08964 0.06691 -0.03663 0.0385 0.08838 0.09042 -0.1375 -0.12811 0.06829 -0.04908 -0.02021 -0.02849 0.12612 -0.06002 -0.06777 -0.03607 -0.09743 0.00893 -0.03599 -0.12666 0.09313 0.09076 -0.147 -0.11353 -0.15808 0.0867 0.0827 -0.08098 0.01733 0.00553 -0.17006 -0.0737 0.00235 0.09739 0.03652 0.13747 -0.09775 0.0294 0.0542 -0.098 -0.15351 0.08003 -0.03879 0.10551 -0.05192 -0.13359 -0.03189 0.16695 -0.12516 -0.12775 0.01614 0.14277 0.15744 -0.12862 -0.12654 -0.15553 -0.13238 -0.13436 0.1669 0.05114 0.06508 -0.0557 -0.13292 -0.13879 -0.0664 0.04172 0.16945 -0.15589 -0.06201 0.05948 -0.02045 -0.16577 -0.00443 0.01375 -0.03425 -0.06776 -0.13546 0.02718 -0.16123 -0.02503 0.03237 0.08521 -0.12475 -0.06842 -0.16888 0.0441 0.17127 0.01235 0.16351 -0.10158 -0.12367 0.12854 -0.08646 0.00497 0.16867 -0.00641 0.08233 -0.03584 0.04977 -0.14751 0.12062 -0.08994 0.03504 -0.10825 0.06176 -0.01428 -0.12228 0.02752 -0.02247 0.02217 0.10833 0.10665 -0.136 0.04723 -0.02297 -0.05739 0.13542 0.0852 -0.08745 -0.06211 -0.09454 -0.07155 0.01668 -0.05799 -0.01144 -0.09368 -0.15598 -0.16492 -0.16996 -0.03458 -0.13698 0.01888 0.06505 -0.15615 0.06264 -0.13073 -0.08522 0.10592 -0.04185 -0.17185 -0.04165 0.0663 0.08849 -0.10024 0.08931 -0.03608 -0.1333 -0.03605 -0.09089 -0.0233 -0.03888 -0.10765 0.0938 0.08843 0.02358 -0.12536 0.11116 -0.14824 -0.15859 0.03331 -0.11049 -0.09202 0.12768 -0.13044 -0.10735 -0.08741 -0.09639 0.03616 0.16464 -0.06263 -0.14624 0.03801 -0.03784 -0.05044 0.01819 0.05394 0.02276 -0.00218 0.00888
-	-0.07393 0.14697 -0.1484 0.03873 -0.05377 0.09376 0.02857 -0.05766 0.05387 -0.11498 0.11826 0.12769 -0.14253 0.10229 -0.06802 -0.01101 -0.12246 0.16984 0.06623 0.16367 -0.09821 0.0276 -0.07063 0.04389 -0.07252 0.13064 -0.15535 0.01492 -0.16825 -0.12283 0.15152 0.14326 0.14675 -0.10206 0.10003 -0.03005 -0.05674 0.09379 0.10699 -0.00621 -0.13092 -0.1175 0.12578 0.03429 0.01564 -0.08099 -0.06652 0.01669 0.16211 -0.05793 -0.11791 0.03288 -0.01251 -0.13023 -0.13223 -0.11143 -0.0993 0.0682 0.11103 -0.16006 -0.1328 0.04841 -0.16692 -0.15492 0.06824 -0.06517 -0.01979 -0.14951 -0.01842 0.02096 0.03101 -0.00292 0.17251 0.08917 -0.0373 -0.102 -0.02728 -0.04967 0.16863 0.16357 0.08319 -0.011 0.14085 0.02864 0.04358 -0.11357 0.07176 0.10768 0.15313 0.05723 0.02521 -0.14686 -0.1637 0.00321 -0.05425 -0.13122 -0.15577 0.09131 -0.12138 0.07717 -0.02503 0.03237 0.08521 -0.12475 -0.06842 -0.16888 0.0441 0.17127 0.01235 0.16351 -0.10158 -0.12367 0.12854 -0.08646 0.00497 0.16867 -0.00641 0.08233 -0.03584 0.04977 -0.14751 0.12062 -0.08994 0.03504 -0.10825 0.06176 -0.01428 -0.12228 0.02752 -0.02247 0.02217 0.10833 0.10665 -0.136 0.04723 -0.02297 -0.05739 0.13542 0.0852 -0.08745 -0.06211 -0.09454 -0.07155 0.01668 -0.05799 -0.01144 -0.09368 -0.15598 -0.16492 -0.16996 -0.03458 -0.13698 0.01888 0.06505 -0.15615 0.06264 -0.13073 -0.08522 0.10592 -0.04185 -0.17185 -0.04165 0.0663 0.08849 -0.10024 0.08931 -0.03608 -0.1333 -0.03605 -0.09089 -0.0233 -0.03888 -0.10765 0.0938 0.08843 0.02358 -0.12536 0.11116 -0.14824 -0.15859 0.03331 -0.11049 -0.09202 0.12768 -0.13044 -0.10735 -0.08741 -0.09639 0.03616 0.16464 -0.06263 -0.14624 0.03801 -0.03784 -0.05044 0.01819 0.05394 0.02276 -0.00218 0.00888
g	0.0048 -0.00511 -0.06976 0.04907 0.07833 0.15498 -0.16402 -0.04398 0.16751 -0.01239 -0.17147 -0.02242 0.09447 -0.09152 0.15154 -0.02005 0.03247 -0.01871 -0.01903 -0.1289 -0.12833 -0.16997 0.01392 0.08443 0.04341 0.08752 -0.04456 0.07335 -0.00284 0.12033 0.0124 -0.00524 -0.15112 0.00132 0.02212 0.053 -0.01799 0.03268 0.09927 -0.0045 -0.15714 0.07721 0.07338 -0.04814 -0.099 -0.05789 -0.03671 -0.0428 0.03471 0.11126 -0.02376 -0.03217 -0.14136 -0.09044 -0.04536 -0.08875 0.01902 0.12437 0.156 -0.08625 0.01697 0.02721 0.05327 -0.04463 0.07926 -0.06857 -0.15996 0.07805 -0.0703 -0.13756 0.11836 0.13114 -0.05223 -0.02851 0.05112 0.16383 0.16927 -0.13612 0.05033 -0.1505 -0.12161 0.09626 -0.14024 0.11873 -0.07636 -0.07615 0.11574 -0.06218 0.13196 0.15983 -0.00399 0.10827 0.1556 -0.09258 0.05181 -0.06224 -0.00613 0.02458 -0.17187 0.14156 -0.02503 0.03237 0.08521 -0.12475 -0.06842 -0.16888 0.0441 0.17127 0.01235 0.16351 -0.10158 -0.12367 0.12854 -0.08646 0.00497 0.16867 -0.00641 0.08233 -0.03584 0.04977 -0.14751 0.12062 -0.08994 0.03504 -0.10825 0.06176 -0.01428 -0.12228 0.02752 -0.02247 0.02217 0.10833 0.10665 -0.136 0.04723 -0.02297 -0.05739 0.13542 0.0852 -0.08745 -0.06211 -0.09454 -0.07155 0.01668 -0.05799 -0.01144 -0.09368 -0.15598 -0.16492 -0.16996 -0.03458 -0.13698 0.01888 0.06505 -0.15615 0.06264 -0.13073 -0.08522 0.10592 -0.04185 -0.17185 -0.04165 0.0663 0.08849 -0.10024 0.08931 -0.03608 -0.1333 -0.03605 -0.09089 -0.0233 -0.03888 -0.10765 0.0938 0.08843 0.02358 -0.12536 0.11116 -0.14824 -0.15859 0.03331 -0.11049 -0.09202 0.12768 -0.13044 -0.10735 -0.08741 -0.09639 0.03616 0.16464 -0.06263 -0.14624 0.03801 -0.03784 -0.05044 0.01819 0.05394 0.02276 -0.00218 0.00888
h	0.14857 0.1284 -0.16454 0.06481 0.11361 0.02917 -0.02629 0.10191 0.17033 0.14415 -0.05079 -0.01634 -0.02996 -0.02699 0.171 0.08045 -0.00672 -0.06376 0.06273 -0.09611 0.12579 0.02334 0.12303 -0.07027 0.00371 -0.17189 0.1028 0.04187 -0.0581 0.1204 0.084 -0.07575 -0.08045 -0.1411 0.10249 -0.135 -0.14121 0.01155 0.06956 0.16072 -0.10176 -0.14599 0.06341 -0.07247 -0.10394 0.05552 0.00706 -0.13276 0.07528 0.00285 0.04305 -0.08454 -0.01613 -0.03726 0.05473 0.10724 -0.07145 -0.01864 -0.0924 0.02718 0.0799 0.04688 -0.06791 0.15968 0.09593 0.16639 -0.14748 0.16477 -0.16221 -0.14264 0.13644 -0.13868 -0.08853 -0.03134 0.05964 0.05754 -0.11281 -0.09071 0.10602 0.06836 0.09982 0.14211 0.17302 -0.11135 -0.13585 -0.15066 -0.14986 0.0444 0.06676 -0.01503 0.012 -0.16564 0.03669 0.11575 0.02299 -0.07471 -0.00879 0.01086 0.11695 0.1147 -0.02503 0.03237 0.08521 -0.12475 -0.06842 -0.16888 0.0441 0.17127 0.01235 0.16351 -0.10158 -0.12367 0.12854 -0.08646 0.00497 0.16867 -0.00641 0.08233 -0.03584 0.04977 -0.14751 0.12062 -0.08994 0.03504 -0.10825 0.06176 -0.01428 -0.12228 0.02752 -0.02247 0.02217 0.10833 0.10665 -0.136 0.04723 -0.02297 -0.05739 0.13542 0.0852 -0.08745 -0.06211 -0.09454 -0.07155 0.01668 -0.05799 -0.01144 -0.09368 -0.15598 -0.16492 -0.16996 -0.03458 -0.13698 0.01888 0.06505 -0.15615 0.06264 -0.13073 -0.08522 0.10592 -0.04185 -0.17185 -0.04165 0.0663 0.08849 -0.10024 0.08931 -0.03608 -0.1333 -0.03605 -0.09089 -0.0233 -0.03888 -0.10765 0.0938 0.08843 0.02358 -0.12536 0.11116 -0.14824 -0.15859 0.03331 -0.11049 -0.09202 0.12768 -0.13044 -0.10735 -0.08741 -0.09639 0.03616 0.16464 -0.06263 -0.14624 0.03801 -0.03784 -0.05044 0.01819 0.05394 0.02276 -0.00218 0.00888
v	-0.13063 -0.08544 -0.14082 0.16849 -0.05574 -0.05967 0.16292 -0.08568 0.04299 0.10126 0.08226 -0.0916 -0.1681 -0.00633 0.15882 -0.0999 -0.03312 0.12188 0.14036 -0.07522 0.14497 -0.01201 0.02443 -0.16074 0.14963 0.01827 0.10596 0.14477 -0.12904 0.0882 -0.0049 -0.01904 0.07164 0.14884 -0.00032 0.03623 0.07879 0.10902 -0.00107 0.14446 0.0078 -0.15749 0.12161 -0.0339 -0.14371 -0.10624 -0.08445 -0.05159 -0.09254 -0.10422 -0.09696 -0.07694 -0.15499 0.01281 -0.14279 -0.05988 -0.05952 -0.11054 -0.03021 -0.06612 -0.07588 -0.11563 -0.00839 -0.17152 0.13346 0.12162 0.11775 -0.03773 -0.15053 0.08054 0.03648 0.00993 -0.02462 -0.08167 -0.06079 -0.12316 0.15341 -0.05342 0.14532 -0.03174 -0.1325 0.03278 0.04983 0.14322 -0.0263 -0.03447 0.14946 -0.03249 -0.15892 0.13127 0.01971 0.07335 0.01921 0.00268 0.06935 -0.04451 0.16744 -0.16959 -0.1171 -0.10021 -0.02503 0.03237 0.08521 -0.12475 -0.06842 -0.16888 0.0441 0.17127 0.01235 0.16351 -0.10158 -0.12367 0.12854 -0.08646 0.00497 0.16867 -0.00641 0.08233 -0.03584 0.04977 -0.14751 0.12062 -0.08994 0.03504 -0.10825 0.06176 -0.01428 -0.12228 0.02752 -0.02247 0.02217 0.10833 0.10665 -0.136 0.04723 -0.02297 -0.05739 0.13542 0.0852 -0.08745 -0.06211 -0.09454 -0.07155 0.01668 -0.05799 -0.01144 -0.09368 -0.15598 -0.16492 -0.16996 -0.03458 -0.13698 0.01888 0.06505 -0.15615 0.06264 -0.13073 -0.08522 0.10592 -0.04185 -0.17185 -0.04165 0.0663 0.08849 -0.10024 0.08931 -0.03608 -0.1333 -0.03605 -0.09089 -0.0233 -0.03888 -0.10765 0.0938 0.08843 0.02358 -0.12536 0.11116 -0.14824 -0.15859 0.03331 -0.11049 -0.09202 0.12768 -0.13044 -0.10735 -0.08741 -0.09639 0.03616 0.16464 -0.06263 -0.14624 0.03801 -0.03784 -0.05044 0.01819 0.05394 0.02276 -0.00218 0.00888
o	0.09296 0.03851 -0.08554 0.07069 0.12972 0.10507 -0.12543 0.05992 0.07826 -0.14495 -0.025 -0.02604 0.14663 -0.12447 0.0128 -0.05454 -0.04158 0.16708 0.06274 -0.16118 0.14812 -0.16668 -0.13184 0.1214 0.041 -0.05985 -0.11037 -0.10235 0.03001 -0.15802 -0.09512 0.09942 -0.11414 -0.11909 -0.01271 0.1004 -0.11217 -0.10677 -0.16878 0.01085 -0.173 0.03382 -0.16146 -0.13307 0.11312 -0.00592 -0.0924 0.10713 0.03175 -0.01253 -0.01409 0.04028 0.00289 0.09652 -0.16177 0.00927 0.13247 0.00946 0.0542 -0.14244 -0.17211 -0.08442 0.03915 0.02694 -0.08148 0.06426 -0.16186 -0.02814 -0.0667 0.15536 -0.13899 -0.0901 -0.12314 0.16814 0.01963 -0.00913 -0.04089 -0.12425 -0.02407 -0.01165 0.04027 -0.14024 0.15866 0.03626 0.10228 0.14335 -0.08481 -0.05291 0.17232 -0.07306 0.07499 0.05311 0.03612 0.1166 -0.07774 0.16125 -0.13479 -0.03434 0.14782 -0.08498 -0.02503 0.03237 0.08521 -0.12475 -0.06842 -0.16888 0.0441 0.17127 0.01235 0.16351 -0.10158 -0.12367 0.12854 -0.08646 0.00497 0.16867 -0.00641 0.08233 -0.03584 0.04977 -0.14751 0.12062 -0.08994 0.03504 -0.10825 0.06176 -0.01428 -0.12228 0.02752 -0.02247 0.02217 0.10833 0.10665 -0.136 0.04723 -0.02297 -0.05739 0.13542 0.0852 -0.08745 -0.06211 -0.09454 -0.07155 0.01668 -0.05799 -0.01144 -0.09368 -0.15598 -0.16492 -0.16996 -0.03458 -0.13698 0.01888 0.06505 -0.15615 0.06264 -0.13073 -0.08522 0.10592 -0.04185 -0.17185 -0.04165 0.0663 0.08849 -0.10024 0.08931 -0.03608 -0.1333 -0.03605 -0.09089 -0.0233 -0.03888 -0.10765 0.0938 0.08843 0.02358 -0.12536 0.11116 -0.14824 -0.15859 0.03331 -0.11049 -0.09202 0.12768 -0.13044 -0.10735 -0.08741 -0.09639 0.03616 0.16464 -0.06263 -0.14624 0.03801 -0.03784 -0.05044 0.01819 0.05394 0.02276 -0.00218 0.00888
ă	-0.09866 -0.13128 -0.03568 0.06225 -0.07088 -0.07053 -0.16966 0.07896 -0.06384 0.05421 -0.02848 0.00411 -0.13503 0.13194 -0.10184 -0.13726 0.04623 -0.00718 -0.00317 0.12981 0.04396 0.0456 -0.04122 0.05934 -0.1238 0.00761 -0.0973 -0.04802 0.0666 -0.04423 -0.04527 -0.11201 -0.15445 -0.06223 0.14645 -0.17237 0.02748 -0.09599 0.04534 0.10805 0.16669 0.12487 0.0389 -0.04328 -0.0601 -0.06868 -0.0537 0.09205 -0.16219 -0.02104 -0.00333 0.13049 -0.09164 -0.02336 -0.03383 -0.0029 -0.01483 0.08104 -0.13633 0.0759 0.07257 0.09954 -0.00262 0.13121 0.04091 -0.1579 0.09869 -0.14161 -0.10571 -0.01349 -0.03311 -0.09922 0.10978 -0.07364 -0.12046 -0.07056 0.01239 0.02362 -0.11265 0.01246 -0.10787 -0.03249 -0.10541 0.02503 0.06186 -0.12305 0.08364 0.06158 -0.15875 -0.08805 0.14965 -0.14727 0.07137 0.01591 0.10601 -0.06368 0.03728 0.00973 0.09598 -0.06974 -0.02503 0.03237 0.08521 -0.12475 -0.06842 -0.16888 0.0441 0.17127 0.01235 0.16351 -0.10158 -0.12367 0.12854 -0.08646 0.00497 0.16867 -0.00641 0.08233 -0.03584 0.04977 -0.14751 0.12062 -0.08994 0.03504 -0.10825 0.06176 -0.01428 -0.12228 0.02752 -0.02247 0.02217 0.10833 0.10665 -0.136 0.04723 -0.02297 -0.05739 0.13542 0.0852 -0.08745 -0.06211 -0.09454 -0.07155 0.01668 -0.05799 -0.01144 -0.09368 -0.15598 -0.16492 -0.16996 -0.03458 -0.13698 0.01888 0.06505 -0.15615 0.06264 -0.13073 -0.08522 0.10592 -0.04185 -0.17185 -0.04165 0.0663 0.08849 -0.10024 0.08931 -0.03608 -0.1333 -0.03605 -0.09089 -0.0233 -0.03888 -0.10765 0.0938 0.08843 0.02358 -0.12536 0.11116 -0.14824 -0.15859 0.03331 -0.11049 -0.09202 0.12768 -0.13044 -0.10735 -0.08741 -0.09639 0.03616 0.16464 -0.06263 -0.14624 0.03801 -0.03784 -0.05044 0.01819 0.05394 0.02276 -0.00218 0.00888
a	-0.11737 0.03499 0.15996 0.06201 0.0011 0.10999 -0.06224 -0.08525 -0.07372 0.09969 0.12348 0.00905 0.01528 -0.11845 -0.09767 -0.08692 0.01155 0.10916 -0.11639 0.01969 0.01056 0.11044 0.14177 -0.14288 -0.11286 -0.00183 -0.03811 0.04307 -0.00741 0.13498 -0.05769 -0.05184 -0.1212 -0.16204 0.05796 0.14945 0.04247 0.1345 0.0431 -0.12843 -0.15387 -0.11334 -0.05461 0.11622 -0.02458 0.02759 0.00427 -0.15795 -0.1126 0.1504 -0.04574 -0.15027 0.12073 -0.14671 0.14406 -0.08058 0.14249 -0.00037 0.02629 0.15008 0.16713 0.13757 0.10172 -0.05401 0.07358 0.0111 -0.09156 -0.07568 0.09521 -0.03835 0.04577 -0.15666 0.0994 0.10078 0.05502 -0.117 -0.0705 0.07364 0.11986 0.16677 0.05486 -0.05317 0.14119 -0.00492 -0.03315 -5e-05 0.03715 -0.03345 0.16008 0.01085 -0.00124 -0.08601 -0.15655 0.13682 -0.17092 -0.07761 -0.16277 0.0219 0.04444 0.04366 -0.02503 0.03237 0.08521 -0.12475 -0.06842 -0.16888 0.0441 0.17127 0.01235 0.16351 -0.10158 -0.12367 0.12854 -0.08646 0.00497 0.16867 -0.00641 0.08233 -0.03584 0.04977 -0.14751 0.12062 -0.08994 0.03504 -0.10825 0.06176 -0.01428 -0.12228 0.02752 -0.02247 0.02217 0.10833 0.10665 -0.136 0.04723 -0.02297 -0.05739 0.13542 0.0852 -0.08745 -0.06211 -0.09454 -0.07155 0.01668 -0.05799 -0.01144 -0.09368 -0.15598 -0.16492 -0.16996 -0.03458 -0.13698 0.01888 0.06505 -0.15615 0.06264 -0.13073 -0.08522 0.10592 -0.04185 -0.17185 -0.04165 0.0663 0.08849 -0.10024 0.08931 -0.03608 -0.1333 -0.03605 -0.09089 -0.0233 -0.03888 -0.10765 0.0938 0.08843 0.02358 -0.12536 0.11116 -0.14824 -0.15859 0.03331 -0.11049 -0.09202 0.12768 -0.13044 -0.10735 -0.08741 -0.09639 0.03616 0.16464 -0.06263 -0.14624 0.03801 -0.03784 -0.05044 0.01819 0.05394 0.02276 -0.00218 0.00888
f	-0.02412 -0.08918 0.03526 0.00225 0.11664 0.0946 0.15033 -0.15888 -0.07959 -0.05999 -0.00391 -0.11537 -0.13294 0.02868 -0.03883 -0.04138 -0.06688 -0.09772 -0.10513 -0.16682 -0.06798 0.08407 0.10828 -0.02276 0.01061 -0.12438 -0.04818 -0.01539 0.16312 -0.03858 -0.12109 -0.13562 0.03788 0.14471 0.08456 -0.11831 0.01787 0.14091 -0.00799 -0.11138 0.05245 -0.02121 0.16466 0.11058 0.17015 -0.10227 0.04274 0.03746 0.01696 -0.16676 0.11329 0.12474 0.08522 -0.13239 0.03574 -0.17183 0.07935 0.0032 0.03464 -0.03067 -0.03235 0.04818 0.02281 -0.09276 -0.06892 0.02762 0.05844 -0.01633 0.14559 -0.03079 0.15861 -0.12198 -0.12282 0.08712 0.05163 -0.03242 -0.15689 -0.16335 0.05747 0.03163 0.06556 -0.08132 -0.04568 -0.15998 0.12878 -0.0266 0.15873 -0.13696 0.1221 -0.04201 0.0777 0.06907 0.01943 0.07023 -0.09702 -0.0699 -0.07938 -0.04804 0.01087 0.15788 -0.02503 0.03237 0.08521 -0.12475 -0.06842 -0.16888 0.0441 0.17127 0.01235 0.16351 -0.10158 -0.12367 0.12854 -0.08646 0.00497 0.16867 -0.00641 0.08233 -0.03584 0.04977 -0.14751 0.12062 -0.08994 0.03504 -0.10825 0.06176 -0.01428 -0.12228 0.02752 -0.02247 0.02217 0.10833 0.10665 -0.136 0.04723 -0.02297 -0.05739 0.13542 0.0852 -0.08745 -0.06211 -0.09454 -0.07155 0.01668 -0.05799 -0.01144 -0.09368 -0.15598 -0.16492 -0.16996 -0.03458 -0.13698 0.01888 0.06505 -0.15615 0.06264 -0.13073 -0.08522 0.10592 -0.04185 -0.17185 -0.04165 0.0663 0.08849 -0.10024 0.08931 -0.03608 -0.1333 -0.03605 -0.09089 -0.0233 -0.03888 -0.10765 0.0938 0.08843 0.02358 -0.12536 0.11116 -0.14824 -0.15859 0.03331 -0.11049 -0.09202 0.12768 -0.13044 -0.10735 -0.08741 -0.09639 0.03616 0.16464 -0.06263 -0.14624 0.03801 -0.03784 -0.05044 0.01819 0.05394 0.02276 -0.00218 0.00888
x	-0.10983 -0.09121 -0.06382 -0.06515 -0.13456 0.00579 0.09411 0.13944 0.0734 0.09308 0.04416 0.1509 0.1389 0.07999 -0.0165 0.11243 -0.08912 -0.08133 -0.04665 -0.15249 -0.12958 0.17146 -0.00139 0.00312 -0.10837 -0.15635 -0.0457 -0.14678 0.06959 0.10309 -0.14366 0.15073 0.13174 0.13619 0.05956 0.09308 -0.08026 -0.05919 0.07276 0.14369 -0.07789 -0.0098 0.17056 -0.073 0.1551 -0.16957 -0.05184 0.07228 0.0137 -0.11788 0.15997 -0.11271 0.12314 0.072 0.12476 0.02045 0.16532 0.13883 -0.16764 0.03877 -0.07834 -0.09647 0.07018 -0.12569 -0.07851 0.05839 -0.08625 -0.13197 0.03903 0.12588 -0.00885 0.03528 -0.10134 -0.10598 -0.14329 0.08201 -0.06637 0.07963 0.14745 0.06791 -0.03427 -0.0918 -0.11751 0.0177 0.09058 -0.13054 -0.14408 0.07486 -0.12247 0.02181 -0.06358 0.09029 -0.16391 -0.10826 0.03682 -0.03937 0.09631 -0.10996 0.04037 0.0362 -0.02503 0.03237 0.08521 -0.12475 -0.06842 -0.16888 0.0441 0.17127 0.01235 0.16351 -0.10158 -0.12367 0.12854 -0.08646 0.00497 0.16867 -0.00641 0.08233 -0.03584 0.04977 -0.14751 0.12062 -0.08994 0.03504 -0.10825 0.06176 -0.01428 -0.12228 0.02752 -0.02247 0.02217 0.10833 0.10665 -0.136 0.04723 -0.02297 -0.05739 0.13542 0.0852 -0.08745 -0.06211 -0.09454 -0.07155 0.01668 -0.05799 -0.01144 -0.09368 -0.15598 -0.16492 -0.16996 -0.03458 -0.13698 0.01888 0.06505 -0.15615 0.06264 -0.13073 -0.08522 0.10592 -0.04185 -0.17185 -0.04165 0.0663 0.08849 -0.10024 0.08931 -0.03608 -0.1333 -0.03605 -0.09089 -0.0233 -0.03888 -0.10765 0.0938 0.08843 0.02358 -0.12536 0.11116 -0.14824 -0.15859 0.03331 -0.11049 -0.09202 0.12768 -0.13044 -0.10735 -0.08741 -0.09639 0.03616 0.16464 -0.06263 -0.14624 0.03801 -0.03784 -0.05044 0.01819 0.05394 0.02276 -0.00218 0.00888
z	0.07418 -0.10782 0.04726 0.01654 0.02617 -0.14586 0.0944 0.0107 0.02402 -0.14095 0.00065 -0.01348 0.14001 0.03449 -0.12764 -0.05729 -0.08416 0.08748 -0.1166 -0.11348 -0.09457 0.00986 -0.15403 0.06315 0.14718 -0.01752 0.00681 0.13777 -0.16525 0.07142 -0.17142 0.13856 0.16163 -0.1476 0.01572 0.07987 -0.1578 0.15321 0.10918 -0.03442 -0.0886 0.01493 0.1694 -0.12611 0.04122 0.11685 -0.07518 0.10051 0.17139 -0.15563 0.08979 0.07462 0.06593 -0.01712 0.04387 0.12183 0.01126 -0.09068 -0.07412 0.12952 -0.07502 -0.14183 0.08892 -0.0082 0.08668 -0.07768 0.16781 0.01048 0.08292 -0.07014 0.12097 0.14904 0.01343 -0.03089 0.00885 -0.0274 -0.16546 -0.04015 -0.0349 0.03019 0.07483 -0.15011 0.09727 -0.16756 0.02702 0.11096 -0.07975 -0.05864 0.07763 0.12126 -0.03034 -0.00421 -0.07726 -0.04941 -0.11682 0.07832 0.03519 -0.08214 -0.08607 -0.15647 -0.02503 0.03237 0.08521 -0.12475 -0.06842 -0.16888 0.0441 0.17127 0.01235 0.16351 -0.10158 -0.12367 0.12854 -0.08646 0.00497 0.16867 -0.00641 0.08233 -0.03584 0.04977 -0.14751 0.12062 -0.08994 0.03504 -0.10825 0.06176 -0.01428 -0.12228 0.02752 -0.02247 0.02217 0.10833 0.10665 -0.136 0.04723 -0.02297 -0.05739 0.13542 0.0852 -0.08745 -0.06211 -0.09454 -0.07155 0.01668 -0.05799 -0.01144 -0.09368 -0.15598 -0.16492 -0.16996 -0.03458 -0.13698 0.01888 0.06505 -0.15615 0.06264 -0.13073 -0.08522 0.10592 -0.04185 -0.17185 -0.04165 0.0663 0.08849 -0.10024 0.08931 -0.03608 -0.1333 -0.03605 -0.09089 -0.0233 -0.03888 -0.10765 0.0938 0.08843 0.02358 -0.12536 0.11116 -0.14824 -0.15859 0.03331 -0.11049 -0.09202 0.12768 -0.13044 -0.10735 -0.08741 -0.09639 0.03616 0.16464 -0.06263 -0.14624 0.03801 -0.03784 -0.05044 0.01819 0.05394 0.02276 -0.00218 0.00888
ț	0.00924 -0.11438 -0.12479 -0.14788 0.07624 -0.05932 0.05845 0.04233 -0.09873 0.09164 -0.05671 0.172 -0.13196 -0.08999 0.09238 0.13175 0.01188 -0.05429 0.08529 0.16192 0.11331 -0.13896 0.15584 0.06211 0.01082 -0.02644 0.0325 0.12859 -0.11074 -0.15432 -0.17306 0.11725 -0.00446 0.05818 0.03083 0.16091 0.03867 -0.15265 -0.16051 -0.05776 -0.06064 0.05866 -0.07987 -0.0085 0.08029 -0.11113 -0.05962 0.02554 -0.1626 0.10095 -0.14998 0.17128 0.01417 0.14769 0.02907 -0.05815 0.17065 -0.16589 0.01233 -0.12887 -0.16713 0.01133 0.03707 0.00664 -0.08966 0.09308 -0.09268 0.0292 0.10127 0.07004 0.08208 0.13777 -0.1474 0.01284 0.14242 0.15574 -0.11497 0.12508 0.05801 0.08365 0.04265 0.00297 0.02905 0.1261 0.14305 0.17012 0.11762 -0.02924 -0.05989 -0.01387 -0.12302 -0.1146 -0.08273 0.04097 -0.07832 -0.05742 0.0054 -0.05743 -0.04851 -0.04721 -0.02503 0.03237 0.08521 -0.12475 -0.06842 -0.16888 0.0441 0.17127 0.01235 0.16351 -0.10158 -0.12367 0.12854 -0.08646 0.00497 0.16867 -0.00641 0.08233 -0.03584 0.04977 -0.14751 0.12062 -0.08994 0.03504 -0.10825 0.06176 -0.01428 -0.12228 0.02752 -0.02247 0.02217 0.10833 0.10665 -0.136 0.04723 -0.02297 -0.05739 0.13542 0.0852 -0.08745 -0.06211 -0.09454 -0.07155 0.01668 -0.05799 -0.01144 -0.09368 -0.15598 -0.16492 -0.16996 -0.03458 -0.13698 0.01888 0.06505 -0.15615 0.06264 -0.13073 -0.08522 0.10592 -0.04185 -0.17185 -0.04165 0.0663 0.08849 -0.10024 0.08931 -0.03608 -0.1333 -0.03605 -0.09089 -0.0233 -0.03888 -0.10765 0.0938 0.08843 0.02358 -0.12536 0.11116 -0.14824 -0.15859 0.03331 -0.11049 -0.09202 0.12768 -0.13044 -0.10735 -0.08741 -0.09639 0.03616 0.16464 -0.06263 -0.14624 0.03801 -0.03784 -0.05044 0.01819 0.05394 0.02276 -0.00218 0.00888
r	0.10823 -0.04024 0.01094 -0.05541 -0.09229 -0.05158 -0.07997 -0.11559 0.14766 0.1408 -0.00492 -0.04864 0.02648 -0.00344 0.05255 0.02266 0.09967 -0.0292 0.13203 0.08812 0.09154 0.0162 0.02694 -0.04542 0.16657 -0.08802 0.11098 -0.06627 -0.04783 -0.0363 0.07968 -0.07546 -0.11677 -0.1224 -0.03229 0.12691 0.1419 -0.08488 -0.04311 -0.02455 0.00623 -0.08075 -0.02151 0.03319 0.03086 0.08664 -0.13373 0.00557 -0.11125 -0.10711 -0.14427 -0.07489 0.15354 -0.11001 -0.04066 0.07825 -0.0023 0.11791 -0.01523 0.11474 0.07416 0.03885 0.16814 0.09023 -0.15287 0.00554 -0.04388 -0.12624 0.10815 -0.0106 0.02994 -0.02119 0.12486 0.08432 -0.14359 -0.13852 -0.0566 -0.16942 0.13147 0.13606 -0.04757 -0.16624 0.024 -0.1011 0.13371 -0.17059 -0.0954 0.1419 0.08723 -0.03266 -0.02928 -0.13961 -0.12104 -0.01701 0.16926 -0.02396 0.12122 -0.08579 -0.02154 -0.07976 -0.02503 0.03237 0.08521 -0.12475 -0.06842 -0.16888 0.0441 0.17127 0.01235 0.16351 -0.10158 -0.12367 0.12854 -0.08646 0.00497 0.16867 -0.00641 0.08233 -0.03584 0.04977 -0.14751 0.12062 -0.08994 0.03504 -0.10825 0.06176 -0.01428 -0.12228 0.02752 -0.02247 0.02217 0.10833 0.10665 -0.136 0.04723 -0.02297 -0.05739 0.13542 0.0852 -0.08745 -0.06211 -0.09454 -0.07155 0.01668 -0.05799 -0.01144 -0.09368 -0.15598 -0.16492 -0.16996 -0.03458 -0.13698 0.01888 0.06505 -0.15615 0.06264 -0.13073 -0.08522 0.10592 -0.04185 -0.17185 -0.04165 0.0663 0.08849 -0.10024 0.08931 -0.03608 -0.1333 -0.03605 -0.09089 -0.0233 -0.03888 -0.10765 0.0938 0.08843 0.02358 -0.12536 0.11116 -0.14824 -0.15859 0.03331 -0.11049 -0.09202 0.12768 -0.13044 -0.10735 -0.08741 -0.09639 0.03616 0.16464 -0.06263 -0.14624 0.03801 -0.03784 -0.05044 0.01819 0.05394 0.02276 -0.00218 0.00888
e	-0.09951 -0.10876 0.05748 -0.09752 0.12256 -0.12047 -0.00149 0.1333 -0.01781 -0.11008 0.05025 -0.12617 -0.02981 -0.16275 -0.08602 -0.08031 0.05291 -0.09088 0.06345 0.06153 -0.13926 -0.031 -0.08383 -0.15432 0.07641 -0.04307 0.07779 -0.02504 -0.1541 0.04209 0.11048 0.00729 -0.02975 -0.01097 0.10182 0.04909 -0.14405 0.07487 -0.0748 0.08096 -0.14937 -0.05779 -0.11627 0.01026 0.00508 -0.10771 0.08448 0.07835 -0.03089 0.05756 -0.10443 0.0181 -0.10578 -0.04352 -0.02712 0.04265 0.02658 -0.07538 -0.13515 -0.15354 0.00876 0.00953 -0.00805 0.15113 0.12011 0.04162 -0.08653 0.08389 0.16692 0.15132 -0.07511 -0.04148 -0.14318 0.08211 0.12923 0.12096 0.10629 0.0353 0.01588 0.16558 -0.05522 -0.09978 -0.03919 0.05217 0.13414 0.07576 -0.14531 0.07487 0.0051 -0.02695 -0.05995 -0.05303 0.02572 0.08409 0.06501 -0.13145 -0.12457 0.123 -0.12833 0.17147 -0.02503 0.03237 0.08521 -0.12475 -0.06842 -0.16888 0.0441 0.17127 0.01235 0.16351 -0.10158 -0.12367 0.12854 -0.08646 0.00497 0.16867 -0.00641 0.08233 -0.03584 0.04977 -0.14751 0.12062 -0.08994 0.03504 -0.10825 0.06176 -0.01428 -0.12228 0.02752 -0.02247 0.02217 0.10833 0.10665 -0.136 0.04723 -0.02297 -0.05739 0.13542 0.0852 -0.08745 -0.06211 -0.09454 -0.07155 0.01668 -0.05799 -0.01144 -0.09368 -0.15598 -0.16492 -0.16996 -0.03458 -0.13698 0.01888 0.06505 -0.15615 0.06264 -0.13073 -0.08522 0.10592 -0.04185 -0.17185 -0.04165 0.0663 0.08849 -0.10024 0.08931 -0.03608 -0.1333 -0.03605 -0.09089 -0.0233 -0.03888 -0.10765 0.0938 0.08843 0.02358 -0.12536 0.11116 -0.14824 -0.15859 0.03331 -0.11049 -0.09202 0.12768 -0.13044 -0.10735 -0.08741 -0.09639 0.03616 0.16464 -0.06263 -0.14624 0.03801 -0.03784 -0.05044 0.01819 0.05394 0.02276 -0.00218 0.00888
c	-0.15121 0.1388 0.03839 -0.04374 0.1247 0.0954 0.06841 -0.07048 0.01053 -0.049 -0.10791 -0.12939 -0.11015 0.12947 0.02329 0.10611 0.01565 0.1667 0.10171 0.0847 0.17161 -0.07617 0.12109 0.10777 0.14892 0.10238 -0.12993 -0.03643 0.08581 0.12988 0.01115 -0.03329 0.05287 -0.00788 -0.09432 -0.06288 -0.13825 -0.16209 0.04544 0.08308 0.16638 -0.14484 0.02927 0.06301 -0.11571 0.13383 0.0093 -0.17057 0.00479 0.07875 0.13047 0.09809 0.14967 0.00661 0.05162 0.14843 0.08407 -0.07616 0.02543 0.04462 -0.00043 -0.11164 -0.1424 0.06442 0.07363 0.05302 0.13484 0.06987 0.10739 0.08904 -0.16155 0.0821 0.01644 0.00408 -0.079 -0.13946 -0.11027 0.11189 0.12967 0.16695 0.0245 0.03498 -0.00699 0.1447 0.02498 -0.07536 0.08534 -0.04188 -0.05948 -0.04617 -0.00678 -0.08044 0.00572 -0.15681 -0.09788 0.16061 0.08317 0.05575 0.13847 0.0401 -0.02503 0.03237 0.08521 -0.12475 -0.06842 -0.16888 0.0441 0.17127 0.01235 0.16351 -0.10158 -0.12367 0.12854 -0.08646 0.00497 0.16867 -0.00641 0.08233 -0.03584 0.04977 -0.14751 0.12062 -0.08994 0.03504 -0.10825 0.06176 -0.01428 -0.12228 0.02752 -0.02247 0.02217 0.10833 0.10665 -0.136 0.04723 -0.02297 -0.05739 0.13542 0.0852 -0.08745 -0.06211 -0.09454 -0.07155 0.01668 -0.05799 -0.01144 -0.09368 -0.15598 -0.16492 -0.16996 -0.03458 -0.13698 0.01888 0.06505 -0.15615 0.06264 -0.13073 -0.08522 0.10592 -0.04185 -0.17185 -0.04165 0.0663 0.08849 -0.10024 0.08931 -0.03608 -0.1333 -0.03605 -0.09089 -0.0233 -0.03888 -0.10765 0.0938 0.08843 0.02358 -0.12536 0.11116 -0.14824 -0.15859 0.03331 -0.11049 -0.09202 0.12768 -0.13044 -0.10735 -0.08741 -0.09639 0.03616 0.16464 -0.06263 -0.14624 0.03801 -0.03784 -0.05044 0.01819 0.05394 0.02276 -0.00218 0.00888
b	-0.15404 0.0801 0.06368 0.02453 0.03481 0.08248 0.11395 0.12548 0.01092 -0.08969 -0.01781 -0.09377 -0.04279 0.13121 -0.08619 0.02997 0.16234 -0.07401 -0.08379 0.12402 0.10716 -0.00823 0.06126 -0.0907 -0.02846 0.06665 -0.02058 0.0506 -0.09934 -0.10641 -0.04076 0.16642 -0.16266 -0.02782 -0.16143 -0.09444 -0.0801 0.17271 0.04775 0.14811 -0.02313 0.16447 -0.15016 -0.0457 -0.12006 -0.12323 -0.05688 -0.09134 0.01298 0.14928 0.01715 -0.03447 0.13221 -0.13718 0.13677 -0.12897 -0.05911 0.12938 -0.01247 -0.143 0.13492 -0.03764 0.05104 0.01792 -0.15434 0.15542 0.11574 -0.16757 -0.00368 0.02953 0.07826 -0.09403 0.01003 -0.15462 0.07746 0.17037 -0.11522 -0.02449 0.02025 0.0034 0.05437 -0.16789 -0.08371 -0.17184 -0.08917 0.0458 0.03503 0.03054 -0.16547 -0.16185 -0.13575 0.07044 0.11172 0.0878 -0.06189 0.10147 0.0171 0.10939 -0.13722 0.00098 -0.02503 0.03237 0.08521 -0.12475 -0.06842 -0.16888 0.0441 0.17127 0.01235 0.16351 -0.10158 -0.12367 0.12854 -0.08646 0.00497 0.16867 -0.00641 0.08233 -0.03584 0.04977 -0.14751 0.12062 -0.08994 0.03504 -0.10825 0.06176 -0.01428 -0.12228 0.02752 -0.02247 0.02217 0.10833 0.10665 -0.136 0.04723 -0.02297 -0.05739 0.13542 0.0852 -0.08745 -0.06211 -0.09454 -0.07155 0.01668 -0.05799 -0.01144 -0.09368 -0.15598 -0.16492 -0.16996 -0.03458 -0.13698 0.01888 0.06505 -0.15615 0.06264 -0.13073 -0.08522 0.10592 -0.04185 -0.17185 -0.04165 0.0663 0.08849 -0.10024 0.08931 -0.03608 -0.1333 -0.03605 -0.09089 -0.0233 -0.03888 -0.10765 0.0938 0.08843 0.02358 -0.12536 0.11116 -0.14824 -0.15859 0.03331 -0.11049 -0.09202 0.12768 -0.13044 -0.10735 -0.08741 -0.09639 0.03616 0.16464 -0.06263 -0.14624 0.03801 -0.03784 -0.05044 0.01819 0.05394 0.02276 -0.00218 0.00888
j	0.14165 0.16501 0.06602 0.15629 -0.05268 0.02127 -0.07279 0.02388 0.08303 -0.03604 0.04277 0.0466 0.01922 -0.05762 0.10852 -0.01546 0.05686 0.12706 0.11505 -0.0746 -0.02287 -0.0415 0.04507 0.10334 0.14738 0.10294 -0.05849 -0.00791 0.06271 -0.11569 -0.02033 -0.08758 0.14819 -0.11593 0.02302 0.14203 0.11374 0.1051 -0.09074 0.10527 0.12933 -0.09716 -0.16722 0.16562 -0.16075 -0.0956 0.12292 0.07202 -0.08898 -0.10909 0.04683 -0.12775 0.11191 -0.0904 -0.03175 -0.0934 0.08071 -0.15332 -0.11099 -0.06288 0.04344 0.09397 0.14351 0.12061 -0.12762 -0.14463 0.13308 0.08386 -0.03779 -0.05085 0.09216 -0.0743 -0.065 0.01563 -0.1404 0.14457 0.09672 0.11901 -0.16382 -0.11772 0.16313 -0.10061 -0.01159 -0.01859 -0.08502 0.03252 -0.06442 0.00106 -0.05373 -0.169 0.1322 0.14524 0.08182 0.07296 -0.05776 -0.03925 -0.11567 -0.15724 -0.07803 0.07062 -0.02503 0.03237 0.08521 -0.12475 -0.06842 -0.16888 0.0441 0.17127 0.01235 0.16351 -0.10158 -0.12367 0.12854 -0.08646 0.00497 0.16867 -0.00641 0.08233 -0.03584 0.04977 -0.14751 0.12062 -0.08994 0.03504 -0.10825 0.06176 -0.01428 -0.12228 0.02752 -0.02247 0.02217 0.10833 0.10665 -0.136 0.04723 -0.02297 -0.05739 0.13542 0.0852 -0.08745 -0.06211 -0.09454 -0.07155 0.01668 -0.05799 -0.01144 -0.09368 -0.15598 -0.16492 -0.16996 -0.03458 -0.13698 0.01888 0.06505 -0.15615 0.06264 -0.13073 -0.08522 0.10592 -0.04185 -0.17185 -0.04165 0.0663 0.08849 -0.10024 0.08931 -0.03608 -0.1333 -0.03605 -0.09089 -0.0233 -0.03888 -0.10765 0.0938 0.08843 0.02358 -0.12536 0.11116 -0.14824 -0.15859 0.03331 -0.11049 -0.09202 0.12768 -0.13044 -0.10735 -0.08741 -0.09639 0.03616 0.16464 -0.06263 -0.14624 0.03801 -0.03784 -0.05044 0.01819 0.05394 0.02276 -0.00218 0.00888
n	-0.16967 0.08229 -0.08855 -0.17056 -0.05856 0.01839 -0.14232 0.09367 -0.08362 -0.1494 0.10752 0.17311 -0.08111 0.00698 0.12965 0.16385 -0.1661 -0.16019 -0.03306 -0.14292 -0.03061 -0.09446 -0.15055 -0.11587 0.06393 0.14462 -0.15743 0.01542 -0.12034 -0.06961 0.07431 -0.09403 0.04333 0.10939 -0.01486 -0.02068 0.11647 0.03145 0.09477 0.00752 0.16762 -0.04408 -0.01482 0.07901 0.0111 -0.04536 -0.04344 -0.01754 0.05728 -0.11121 -0.00848 0.06657 -0.07773 0.05131 -0.01458 0.02698 0.00151 -0.12475 -0.16113 -0.13526 0.04928 -0.04289 -0.14936 0.01699 -0.03033 -0.11379 -0.07981 0.14365 0.007 -0.04655 0.07959 -0.07964 -0.07149 -0.06486 -0.16922 -0.00746 -0.13289 -0.07968 0.14033 -0.12725 -0.1401 -0.01312 -0.06221 -0.06048 0.04772 0.17181 -0.01125 -0.05586 -0.00288 -0.03375 -0.02856 -0.16139 0.1016 -0.02159 0.01017 -0.05269 -0.13672 0.12461 -0.08976 0.0116 -0.02503 0.03237 0.08521 -0.12475 -0.06842 -0.16888 0.0441 0.17127 0.01235 0.16351 -0.10158 -0.12367 0.12854 -0.08646 0.00497 0.16867 -0.00641 0.08233 -0.03584 0.04977 -0.14751 0.12062 -0.08994 0.03504 -0.10825 0.06176 -0.01428 -0.12228 0.02752 -0.02247 0.02217 0.10833 0.10665 -0.136 0.04723 -0.02297 -0.05739 0.13542 0.0852 -0.08745 -0.06211 -0.09454 -0.07155 0.01668 -0.05799 -0.01144 -0.09368 -0.15598 -0.16492 -0.16996 -0.03458 -0.13698 0.01888 0.06505 -0.15615 0.06264 -0.13073 -0.08522 0.10592 -0.04185 -0.17185 -0.04165 0.0663 0.08849 -0.10024 0.08931 -0.03608 -0.1333 -0.03605 -0.09089 -0.0233 -0.03888 -0.10765 0.0938 0.08843 0.02358 -0.12536 0.11116 -0.14824 -0.15859 0.03331 -0.11049 -0.09202 0.12768 -0.13044 -0.10735 -0.08741 -0.09639 0.03616 0.16464 -0.06263 -0.14624 0.03801 -0.03784 -0.05044 0.01819 0.05394 0.02276 -0.00218 0.00888
î	0.14336 0.01161 -0.02045 0.09395 0.09198 0.0189 -0.02979 0.03241 -0.17161 -0.06604 0.01599 -0.076 -0.15333 0.03052 -0.0585 0.11647 0.14271 0.0628 -0.11412 0.04374 0.16476 -0.07204 -0.03096 -0.11735 0.00444 -0.06683 -0.11969 0.06285 0.16192 0.03665 0.16484 -0.10041 0.09068 -0.01333 0.17153 0.12668 -0.08441 -0.10197 0.1626 0.15406 -0.15362 0.05589 -0.00116 0.15731 -0.1683 -0.06895 -0.15928 0.0987 0.09436 0.15546 0.12364 0.15991 0.05608 -0.04231 -0.04758 0.09591 -0.09159 0.05498 -0.16667 0.11348 -0.10516 -0.15074 0.16393 0.03471 0.12096 -0.11527 0.06304 0.07774 0.00527 -0.15951 -0.13055 0.12393 -0.01556 -0.05774 -0.03428 -0.16879 -0.04645 0.14164 0.04558 0.013 0.15 0.08271 0.10409 -0.05435 -0.12562 0.1357 -0.01258 0.11669 -0.0326 -0.15288 0.07712 0.12825 0.0888 0.14323 -0.11701 0.06679 -0.13837 -0.01224 -0.08623 -0.06488 -0.02503 0.03237 0.08521 -0.12475 -0.06842 -0.16888 0.0441 0.17127 0.01235 0.16351 -0.10158 -0.12367 0.12854 -0.08646 0.00497 0.16867 -0.00641 0.08233 -0.03584 0.04977 -0.14751 0.12062 -0.08994 0.03504 -0.10825 0.06176 -0.01428 -0.12228 0.02752 -0.02247 0.02217 0.10833 0.10665 -0.136 0.04723 -0.02297 -0.05739 0.13542 0.0852 -0.08745 -0.06211 -0.09454 -0.07155 0.01668 -0.05799 -0.01144 -0.09368 -0.15598 -0.16492 -0.16996 -0.03458 -0.13698 0.01888 0.06505 -0.15615 0.06264 -0.13073 -0.08522 0.10592 -0.04185 -0.17185 -0.04165 0.0663 0.08849 -0.10024 0.08931 -0.03608 -0.1333 -0.03605 -0.09089 -0.0233 -0.03888 -0.10765 0.0938 0.08843 0.02358 -0.12536 0.11116 -0.14824 -0.15859 0.03331 -0.11049 -0.09202 0.12768 -0.13044 -0.10735 -0.08741 -0.09639 0.03616 0.16464 -0.06263 -0.14624 0.03801 -0.03784 -0.05044 0.01819 0.05394 0.02276 -0.00218 0.00888
m	-0.1579 0.02523 -0.10358 -0.04304 0.01266 -0.12608 -0.07147 0.01491 0.02001 -0.13506 -0.12289 -0.07165 -0.09136 0.04248 0.13415 0.16559 -0.08816 0.07604 -0.14105 0.12397 -0.12181 0.0203 0.14036 0.12073 0.0395 -0.06193 -0.0093 0.09576 -0.13603 -0.13983 -0.08652 0.08908 0.13038 -0.01189 -0.13452 0.05645 -0.07728 -0.10959 -0.07235 0.02721 0.07129 0.07402 0.04634 0.05267 -0.01543 -0.00886 0.0052 0.14274 0.10946 -0.11014 0.00822 -0.02752 -0.10366 -0.0266 0.03606 0.13537 0.08764 0.07682 -0.02314 0.11584 0.09328 -0.10503 -0.12707 -0.05982 -0.02749 0.14373 0.16007 0.156 -0.05628 0.07027 -0.0066 0.03573 0.00749 0.1394 0.06089 -0.04218 -0.11081 0.15536 0.04109 -0.06027 0.13022 -0.10074 0.00481 -0.15518 0.01039 -0.08512 -0.09494 -0.15639 -0.09993 -0.07572 0.0972 0.02 -0.09034 0.05082 -0.15407 0.03898 -0.16385 -0.01106 -0.06477 0.14542 -0.02503 0.03237 0.08521 -0.12475 -0.06842 -0.16888 0.0441 0.17127 0.01235 0.16351 -0.10158 -0.12367 0.12854 -0.08646 0.00497 0.16867 -0.00641 0.08233 -0.03584 0.04977 -0.14751 0.12062 -0.08994 0.03504 -0.10825 0.06176 -0.01428 -0.12228 0.02752 -0.02247 0.02217 0.10833 0.10665 -0.136 0.04723 -0.02297 -0.05739 0.13542 0.0852 -0.08745 -0.06211 -0.09454 -0.07155 0.01668 -0.05799 -0.01144 -0.09368 -0.15598 -0.16492 -0.16996 -0.03458 -0.13698 0.01888 0.06505 -0.15615 0.06264 -0.13073 -0.08522 0.10592 -0.04185 -0.17185 -0.04165 0.0663 0.08849 -0.10024 0.08931 -0.03608 -0.1333 -0.03605 -0.09089 -0.0233 -0.03888 -0.10765 0.0938 0.08843 0.02358 -0.12536 0.11116 -0.14824 -0.15859 0.03331 -0.11049 -0.09202 0.12768 -0.13044 -0.10735 -0.08741 -0.09639 0.03616 0.16464 -0.06263 -0.14624 0.03801 -0.03784 -0.05044 0.01819 0.05394 0.02276 -0.00218 0.00888
ș	-0.14193 0.07363 -0.05223 0.10141 -0.0384 0.10832 -0.04013 0.15743 0.14903 0.08336 0.09832 -0.04418 0.03854 -0.05859 -0.15184 0.09634 -0.08032 0.00524 -0.0442 -0.03754 0.07187 -0.02768 -0.1626 -0.07795 0.1457 0.01677 -0.163 -0.16387 -0.00203 0.06437 0.05882 -0.16982 0.05233 -0.06289 -0.08628 0.01226 0.06573 -0.1568 -0.07547 0.03206 0.03113 -0.13787 0.14 0.0798 -0.12043 -0.09024 -0.10631 -0.15348 8e-05 0.03172 -0.09642 -0.06538 0.02449 0.12251 0.0815 0.01183 -0.1611 -0.11317 -0.11079 0.15774 -0.04881 0.02825 -0.05101 -0.09029 0.00413 -0.1113 0.08121 -0.15219 0.14983 0.09079 -0.11091 0.17313 -0.14984 -0.14769 -0.04564 0.01342 -0.16118 -0.12649 -0.06087 0.01152 -0.01175 0.13045 -0.16086 -0.17029 -0.1052 0.12183 0.0359 0.02555 0.1045 -0.02256 0.05748 0.14584 0.09875 0.07805 -0.04135 0.05586 0.12495 -0.09725 0.02019 -0.16978 -0.02503 0.03237 0.08521 -0.12475 -0.06842 -0.16888 0.0441 0.17127 0.01235 0.16351 -0.10158 -0.12367 0.12854 -0.08646 0.00497 0.16867 -0.00641 0.08233 -0.03584 0.04977 -0.14751 0.12062 -0.08994 0.03504 -0.10825 0.06176 -0.01428 -0.12228 0.02752 -0.02247 0.02217 0.10833 0.10665 -0.136 0.04723 -0.02297 -0.05739 0.13542 0.0852 -0.08745 -0.06211 -0.09454 -0.07155 0.01668 -0.05799 -0.01144 -0.09368 -0.15598 -0.16492 -0.16996 -0.03458 -0.13698 0.01888 0.06505 -0.15615 0.06264 -0.13073 -0.08522 0.10592 -0.04185 -0.17185 -0.04165 0.0663 0.08849 -0.10024 0.08931 -0.03608 -0.1333 -0.03605 -0.09089 -0.0233 -0.03888 -0.10765 0.0938 0.08843 0.02358 -0.12536 0.11116 -0.14824 -0.15859 0.03331 -0.11049 -0.09202 0.12768 -0.13044 -0.10735 -0.08741 -0.09639 0.03616 0.16464 -0.06263 -0.14624 0.03801 -0.03784 -0.05044 0.01819 0.05394 0.02276 -0.00218 0.00888
â	0.08518 0.0565 0.04676 -0.03754 -0.07959 -0.13411 0.03062 0.10575 0.07679 -0.16001 -0.07947 -0.15526 -0.08829 -0.03431 -0.10482 0.07496 0.14276 0.01046 0.15814 -0.01224 -0.09844 0.02988 -0.14006 0.06154 -0.10358 -0.15737 -0.15405 0.14433 0.00971 0.04455 0.07003 0.16432 0.14721 0.1121 0.15528 0.1499 0.15809 -0.07498 -0.00316 0.15888 0.00673 0.004 -0.16696 0.06584 -0.00868 -0.1351 0.01457 0.12499 0.01656 0.01699 0.093 -0.10788 -0.08788 -0.10979 0.01506 0.03305 -0.14643 -0.12037 0.05352 0.08921 -0.13769 -0.14338 0.17217 -0.11471 -0.09042 -0.10962 -0.16885 -0.13423 0.09412 0.09855 0.11281 0.07403 -0.07943 0.14779 -0.13771 0.05265 -0.16467 -0.02309 -0.10912 -0.12375 -0.15158 -0.05088 0.09238 0.10587 0.03175 0.0232 0.01757 -0.14515 0.13892 0.14551 0.09489 0.04138 -0.14733 -0.14871 0.05541 -0.07182 -0.06319 -0.12003 0.07353 0.03546 -0.02503 0.03237 0.08521 -0.12475 -0.06842 -0.16888 0.0441 0.17127 0.01235 0.16351 -0.10158 -0.12367 0.12854 -0.08646 0.00497 0.16867 -0.00641 0.08233 -0.03584 0.04977 -0.14751 0.12062 -0.08994 0.03504 -0.10825 0.06176 -0.01428 -0.12228 0.02752 -0.02247 0.02217 0.10833 0.10665 -0.136 0.04723 -0.02297 -0.05739 0.13542 0.0852 -0.08745 -0.06211 -0.09454 -0.07155 0.01668 -0.05799 -0.01144 -0.09368 -0.15598 -0.16492 -0.16996 -0.03458 -0.13698 0.01888 0.06505 -0.15615 0.06264 -0.13073 -0.08522 0.10592 -0.04185 -0.17185 -0.04165 0.0663 0.08849 -0.10024 0.08931 -0.03608 -0.1333 -0.03605 -0.09089 -0.0233 -0.03888 -0.10765 0.0938 0.08843 0.02358 -0.12536 0.11116 -0.14824 -0.15859 0.03331 -0.11049 -0.09202 0.12768 -0.13044 -0.10735 -0.08741 -0.09639 0.03616 0.16464 -0.06263 -0.14624 0.03801 -0.03784 -0.05044 0.01819 0.05394 0.02276 -0.00218 0.00888
i	0.01964 0.02962 0.00441 -0.15288 -0.10794 -0.09955 -0.15094 0.01626 0.15254 -0.13286 -0.10515 0.1647 0.15377 -0.07517 -0.02686 -0.06649 0.1477 -0.03276 -0.0127 -0.16845 0.02003 -0.02963 0.0883 -0.16364 -0.09263 0.11702 -0.04873 0.10869 0.06567 0.14978 0.039 0.15921 -0.10199 -0.04909 0.0672 -0.06747 -0.1562 -0.02702 -0.0328 -0.15331 -0.07295 0.13736 0.00528 -0.09515 -0.02679 0.08132 0.16468 0.01019 -0.15487 0.13921 -0.08293 -0.12924 0.15299 0.05576 0.13931 -0.12688 0.11193 -0.13427 0.08019 -0.05013 -0.09335 0.03228 -0.00603 -0.12715 -0.12264 0.14947 -0.02985 -0.00571 -0.16785 -0.1068 -0.15869 -0.09631 -0.13516 -0.03882 0.15105 -0.05478 0.03106 -0.08505 0.1674 -0.11727 -0.07522 -0.09315 0.14778 -0.01681 -0.1691 0.09571 0.03414 -0.06126 -0.06685 0.10507 -0.07188 0.14215 -0.12809 -0.04115 -0.03489 -0.00904 0.08567 0.13284 -0.17046 0.15958 -0.02503 0.03237 0.08521 -0.12475 -0.06842 -0.16888 0.0441 0.17127 0.01235 0.16351 -0.10158 -0.12367 0.12854 -0.08646 0.00497 0.16867 -0.00641 0.08233 -0.03584 0.04977 -0.14751 0.12062 -0.08994 0.03504 -0.10825 0.06176 -0.01428 -0.12228 0.02752 -0.02247 0.02217 0.10833 0.10665 -0.136 0.04723 -0.02297 -0.05739 0.13542 0.0852 -0.08745 -0.06211 -0.09454 -0.07155 0.01668 -0.05799 -0.01144 -0.09368 -0.15598 -0.16492 -0.16996 -0.03458 -0.13698 0.01888 0.06505 -0.15615 0.06264 -0.13073 -0.08522 0.10592 -0.04185 -0.17185 -0.04165 0.0663 0.08849 -0.10024 0.08931 -0.03608 -0.1333 -0.03605 -0.09089 -0.0233 -0.03888 -0.10765 0.0938 0.08843 0.02358 -0.12536 0.11116 -0.14824 -0.15859 0.03331 -0.11049 -0.09202 0.12768 -0.13044 -0.10735 -0.08741 -0.09639 0.03616 0.16464 -0.06263 -0.14624 0.03801 -0.03784 -0.05044 0.01819 0.05394 0.02276 -0.00218 0.00888
l	0.14791 -0.05907 -0.1465 -0.09245 0.16531 0.03786 -0.06161 0.03231 -0.06299 -0.083 0.09037 -0.06384 0.06084 0.02732 0.07302 -0.02378 -0.06461 -0.14225 -0.05861 0.12982 -0.11296 -0.16071 0.12071 0.11908 0.15655 0.13843 0.1454 0.1485 -0.12409 -0.0235 0.06002 -0.16915 -0.07114 -0.11896 -0.03601 0.11173 0.10291 -0.00325 -0.01351 -0.02562 0.00747 0.05264 0.06269 -0.1568 0.17146 -0.17022 -0.0599 -0.14372 -0.06936 -0.00674 0.05045 0.08269 0.09457 -0.08354 0.08792 -0.08829 -0.11193 -0.06797 -0.03059 0.08392 -0.12645 -0.05639 0.1012 -0.08754 0.09425 -0.04883 0.13424 0.1094 0.16914 -0.00568 -0.11962 0.11748 0.06944 -0.1661 -0.12978 0.14215 0.16309 -0.15745 -0.10585 0.09795 -0.13381 0.04093 0.06858 -0.15578 0.13463 0.02038 -0.08579 0.03474 0.04981 -0.1545 0.0189 -0.00059 0.13028 -0.17203 -0.04684 0.1696 -0.07853 -0.14055 0.01645 -0.06367 -0.02503 0.03237 0.08521 -0.12475 -0.06842 -0.16888 0.0441 0.17127 0.01235 0.16351 -0.10158 -0.12367 0.12854 -0.08646 0.00497 0.16867 -0.00641 0.08233 -0.03584 0.04977 -0.14751 0.12062 -0.08994 0.03504 -0.10825 0.06176 -0.01428 -0.12228 0.02752 -0.02247 0.02217 0.10833 0.10665 -0.136 0.04723 -0.02297 -0.05739 0.13542 0.0852 -0.08745 -0.06211 -0.09454 -0.07155 0.01668 -0.05799 -0.01144 -0.09368 -0.15598 -0.16492 -0.16996 -0.03458 -0.13698 0.01888 0.06505 -0.15615 0.06264 -0.13073 -0.08522 0.10592 -0.04185 -0.17185 -0.04165 0.0663 0.08849 -0.10024 0.08931 -0.03608 -0.1333 -0.03605 -0.09089 -0.0233 -0.03888 -0.10765 0.0938 0.08843 0.02358 -0.12536 0.11116 -0.14824 -0.15859 0.03331 -0.11049 -0.09202 0.12768 -0.13044 -0.10735 -0.08741 -0.09639 0.03616 0.16464 -0.06263 -0.14624 0.03801 -0.03784 -0.05044 0.01819 0.05394 0.02276 -0.00218 0.00888
ǎ	-0.1671 0.09573 -0.15036 -0.11689 0.16201 -0.15789 -0.09199 0.07964 -0.15488 0.02694 -0.15662 0.16135 -0.16751 0.07159 -0.07943 0.14733 -0.07515 0.15397 0.16396 -0.09473 -0.12347 0.05557 -0.12786 0.03568 0.10838 -0.12112 -0.17001 -0.0092 0.09071 0.14714 0.03681 -0.01084 0.06782 0.04016 0.00687 -0.11828 0.06057 -0.15505 0.04768 0.14218 -0.13155 0.03206 0.04158 -0.08972 0.04395 -0.05267 -0.00668 0.01636 -0.05825 -0.04723 0.13894 0.04052 0.06994 -0.08717 -0.09423 0.15157 0.14124 0.15052 -0.01487 0.04323 -0.00418 0.04433 0.07067 -0.01707 -0.14942 -0.1463 -0.15127 -0.14457 0.12704 -0.1689 -0.01981 0.08243 0.15721 -0.01982 0.01792 -0.01417 0.14339 -0.0242 0.03043 0.1353 0.16791 0.05614 -0.02035 -0.01396 -0.1544 -0.02325 0.04259 -0.0793 -0.12986 0.09618 0.13806 -0.11787 -0.12428 0.00372 -0.02948 0.04004 -0.02255 0.00174 -0.13945 -0.10936 -0.02503 0.03237 0.08521 -0.12475 -0.06842 -0.16888 0.0441 0.17127 0.01235 0.16351 -0.10158 -0.12367 0.12854 -0.08646 0.00497 0.16867 -0.00641 0.08233 -0.03584 0.04977 -0.14751 0.12062 -0.08994 0.03504 -0.10825 0.06176 -0.01428 -0.12228 0.02752 -0.02247 0.02217 0.10833 0.10665 -0.136 0.04723 -0.02297 -0.05739 0.13542 0.0852 -0.08745 -0.06211 -0.09454 -0.07155 0.01668 -0.05799 -0.01144 -0.09368 -0.15598 -0.16492 -0.16996 -0.03458 -0.13698 0.01888 0.06505 -0.15615 0.06264 -0.13073 -0.08522 0.10592 -0.04185 -0.17185 -0.04165 0.0663 0.08849 -0.10024 0.08931 -0.03608 -0.1333 -0.03605 -0.09089 -0.0233 -0.03888 -0.10765 0.0938 0.08843 0.02358 -0.12536 0.11116 -0.14824 -0.15859 0.03331 -0.11049 -0.09202 0.12768 -0.13044 -0.10735 -0.08741 -0.09639 0.03616 0.16464 -0.06263 -0.14624 0.03801 -0.03784 -0.05044 0.01819 0.05394 0.02276 -0.00218 0.00888
d	-0.04464 0.13181 -0.10717 0.00182 -0.05303 0.08516 0.03196 -0.08874 -0.08448 -0.00658 0.08672 -0.09749 -0.01934 0.13206 -0.15378 0.07212 -0.15743 -0.07741 0.08337 0.0614 0.11938 0.03669 0.08501 -0.12924 -0.13154 -0.00977 -0.03796 0.0227 -0.00578 -0.09755 -0.1614 0.11664 0.0836 -0.01618 0.16113 -0.11266 -0.07723 -0.1215 0.04455 0.13841 -0.15957 -0.10629 -0.12984 -0.02886 -0.08789 0.13538 -0.03707 0.01141 -0.15056 -0.01399 0.04511 0.04107 0.02671 -0.16859 0.05037 -0.09241 0.15201 -0.0363 -0.10037 0.13775 0.15705 -0.03067 -0.08879 -0.17191 -0.04619 0.05031 -0.17043 0.05842 0.03863 -0.01713 -0.11791 -0.02488 0.13209 -0.03989 -0.07491 -0.08155 0.16918 0.0112 -0.16695 -0.12948 0.04916 0.07609 -0.15992 0.14823 -0.00763 -0.1466 0.14695 0.06988 0.16892 -0.07783 -0.12386 -0.12269 -0.0678 0.15092 -0.11879 -0.06611 -0.09943 0.06208 -0.05572 0.09891 -0.02503 0.03237 0.08521 -0.12475 -0.06842 -0.16888 0.0441 0.17127 0.01235 0.16351 -0.10158 -0.12367 0.12854 -0.08646 0.00497 0.16867 -0.00641 0.08233 -0.03584 0.04977 -0.14751 0.12062 -0.08994 0.03504 -0.10825 0.06176 -0.01428 -0.12228 0.02752 -0.02247 0.02217 0.10833 0.10665 -0.136 0.04723 -0.02297 -0.05739 0.13542 0.0852 -0.08745 -0.06211 -0.09454 -0.07155 0.01668 -0.05799 -0.01144 -0.09368 -0.15598 -0.16492 -0.16996 -0.03458 -0.13698 0.01888 0.06505 -0.15615 0.06264 -0.13073 -0.08522 0.10592 -0.04185 -0.17185 -0.04165 0.0663 0.08849 -0.10024 0.08931 -0.03608 -0.1333 -0.03605 -0.09089 -0.0233 -0.03888 -0.10765 0.0938 0.08843 0.02358 -0.12536 0.11116 -0.14824 -0.15859 0.03331 -0.11049 -0.09202 0.12768 -0.13044 -0.10735 -0.08741 -0.09639 0.03616 0.16464 -0.06263 -0.14624 0.03801 -0.03784 -0.05044 0.01819 0.05394 0.02276 -0.00218 0.00888
s	-0.02332 0.01314 0.15712 -0.11392 0.05934 0.01903 -0.0772 0.08841 0.09671 -0.04322 0.08896 0.09806 -0.16451 -0.07325 0.15056 0.13525 0.09458 0.02456 -0.15145 -0.12317 -0.01883 -0.00662 0.05423 0.164 0.11433 -0.13825 0.05317 0.00063 0.04443 0.06392 0.05357 0.09789 0.16088 -0.00315 -0.12173 -0.14971 -0.04984 0.16201 0.0082 -0.04094 0.09779 -0.09025 0.09809 -0.15799 -0.0302 0.02394 -0.10536 -0.16239 0.09627 -0.12685 -0.13718 0.05136 -0.06951 -0.08949 0.10684 -0.07048 0.03051 -0.10284 -0.07964 0.14303 -0.07697 -0.07061 0.02389 -0.10123 -0.04857 -0.15208 -0.1358 0.12278 -0.06938 -0.11234 0.00128 0.01707 0.10602 0.16745 -0.1094 -0.07629 -0.04889 -0.0403 0.16221 -0.00814 -0.14689 -0.01245 0.08893 -0.11576 -0.00288 -0.0638 0.0215 -0.136 -8e-05 -0.10915 0.11161 -0.10924 0.02382 -0.08552 -0.15849 -0.01367 -0.1478 -0.15818 -0.01325 0.04711 -0.02503 0.03237 0.08521 -0.12475 -0.06842 -0.16888 0.0441 0.17127 0.01235 0.16351 -0.10158 -0.12367 0.12854 -0.08646 0.00497 0.16867 -0.00641 0.08233 -0.03584 0.04977 -0.14751 0.12062 -0.08994 0.03504 -0.10825 0.06176 -0.01428 -0.12228 0.02752 -0.02247 0.02217 0.10833 0.10665 -0.136 0.04723 -0.02297 -0.05739 0.13542 0.0852 -0.08745 -0.06211 -0.09454 -0.07155 0.01668 -0.05799 -0.01144 -0.09368 -0.15598 -0.16492 -0.16996 -0.03458 -0.13698 0.01888 0.06505 -0.15615 0.06264 -0.13073 -0.08522 0.10592 -0.04185 -0.17185 -0.04165 0.0663 0.08849 -0.10024 0.08931 -0.03608 -0.1333 -0.03605 -0.09089 -0.0233 -0.03888 -0.10765 0.0938 0.08843 0.02358 -0.12536 0.11116 -0.14824 -0.15859 0.03331 -0.11049 -0.09202 0.12768 -0.13044 -0.10735 -0.08741 -0.09639 0.03616 0.16464 -0.06263 -0.14624 0.03801 -0.03784 -0.05044 0.01819 0.05394 0.02276 -0.00218 0.00888
p	0.11453 -0.16341 0.15005 0.02449 -0.16038 0.0736 -0.15873 0.06819 0.12734 -0.10839 -0.03672 0.0271 0.06061 0.0008 -0.13886 -0.12072 -0.13663 -0.16562 -0.15621 -0.05803 0.00757 -0.13325 -0.17298 0.15425 -0.13043 0.09239 -0.01094 0.08647 0.03537 -0.03268 -0.03989 -0.07722 -0.08579 0.04725 0.09842 0.05116 0.0833 0.1629 0.09384 0.12042 0.12629 -0.07243 -0.15627 -0.00556 0.13126 -0.07267 0.09961 -0.0376 0.05601 0.02602 0.13016 -0.0948 0.08317 0.1096 -0.04346 0.14322 0.11789 -0.03035 -0.03012 -0.0332 -0.02601 0.11463 0.16866 -0.07914 0.16736 0.10094 0.12312 0.06537 -0.00024 -0.14878 -0.09205 -0.07218 0.09917 0.00029 -0.05493 0.13443 0.11064 -0.11111 -0.04324 -0.14705 0.02004 -0.02581 0.14085 -0.08213 0.11751 0.06652 -0.01236 0.04803 -0.13747 -0.14064 0.03325 -0.16767 0.01339 -0.02895 -0.04076 -0.0482 0.09481 0.08248 0.11435 0.08873 -0.02503 0.03237 0.08521 -0.12475 -0.06842 -0.16888 0.0441 0.17127 0.01235 0.16351 -0.10158 -0.12367 0.12854 -0.08646 0.00497 0.16867 -0.00641 0.08233 -0.03584 0.04977 -0.14751 0.12062 -0.08994 0.03504 -0.10825 0.06176 -0.01428 -0.12228 0.02752 -0.02247 0.02217 0.10833 0.10665 -0.136 0.04723 -0.02297 -0.05739 0.13542 0.0852 -0.08745 -0.06211 -0.09454 -0.07155 0.01668 -0.05799 -0.01144 -0.09368 -0.15598 -0.16492 -0.16996 -0.03458 -0.13698 0.01888 0.06505 -0.15615 0.06264 -0.13073 -0.08522 0.10592 -0.04185 -0.17185 -0.04165 0.0663 0.08849 -0.10024 0.08931 -0.03608 -0.1333 -0.03605 -0.09089 -0.0233 -0.03888 -0.10765 0.0938 0.08843 0.02358 -0.12536 0.11116 -0.14824 -0.15859 0.03331 -0.11049 -0.09202 0.12768 -0.13044 -0.10735 -0.08741 -0.09639 0.03616 0.16464 -0.06263 -0.14624 0.03801 -0.03784 -0.05044 0.01819 0.05394 0.02276 -0.00218 0.00888
